596 50
198 0.0104071 -0.2144296 0.3652969 -0.12653479 0.16790275 -0.100165114 0.4026771 0.19024351 0.12504157 0.35199097 0.2937751 0.0019023264 -0.10339397 -0.033415213 0.02008107 0.28787655 -0.16194303 -0.121921256 0.044057455 -0.15700378 0.015497627 0.026319893 -0.16603233 0.34443542 0.17931065 0.14836174 0.009692869 -0.34900847 -0.35160983 -0.34775904 0.23397276 -0.28279033 0.025648663 -0.14826833 0.043133304 -0.06767516 -0.30723765 -0.16210744 0.14075656 0.041531406 0.11782919 0.008914293 0.07618492 -0.2788478 0.1667225 -0.08523283 -0.2232857 0.1485043 0.1919816 0.2533067
344 -0.073283546 0.2896959 0.14656258 0.0466326 0.18438782 -0.2459049 0.18014848 0.23265533 0.12153388 0.14187182 0.46894717 0.2348797 0.07778987 0.14927255 0.22155902 -0.15024415 -0.26638424 -0.36614224 -0.13508983 0.119387254 0.13107586 -0.020302506 -0.18832134 -0.07312497 -0.009934558 -0.3263359 -0.10062022 -0.12937042 -0.019757165 -0.1335949 0.053212952 -0.32563573 -0.020110233 0.29864007 -0.0006348267 -0.31314963 0.19015716 -0.11547166 -0.32914326 -0.2027708 -0.07619659 -0.015125205 -0.38122165 0.022807095 0.0013854938 -0.32462543 -0.22043963 0.02555853 0.21338885 -0.029789176
345 -0.12784633 -0.16588083 -0.016164351 0.12791692 0.20317297 0.16250753 0.13778779 -0.24261387 0.19010337 0.04826809 0.17084609 -0.16616331 -0.11884159 0.30700582 0.266987 -0.107289135 0.22749193 -0.23701945 -0.35384324 -0.038252443 -0.007119724 0.08342286 0.41307288 -0.12826249 0.28080857 0.29714653 -0.10472323 -0.22434881 0.3176313 -0.084349126 0.26865143 0.059333764 0.16042276 0.054255474 0.41104892 -0.14564222 -0.30126366 -0.23547933 -0.13365826 -0.116433695 0.21878517 -0.17912152 0.05696347 -0.07565373 0.13101853 -0.38412648 -0.055068187 0.0061910925 -0.05291111 -0.10350456
346 -0.25882494 -0.1641395 0.08522628 0.17599115 0.28253603 -0.19957584 0.028341029 0.113607734 -0.16079907 0.2814894 -0.12810698 0.17744164 -0.24509364 0.07989524 -0.33608764 -0.059691455 0.1909788 -0.32484898 0.017253026 0.3539159 -0.022814063 0.13362183 0.28160474 -0.14434634 0.11151893 -0.10479619 0.17344789 0.3152021 -0.18397564 0.13824417 -0.02272464 -0.35275605 -0.22904503 -0.18746577 0.08139896 -0.24477139 -0.026743392 0.11082218 -0.075480044 -0.13088708 -0.06155679 0.29273584 0.40231138 -0.22832026 -0.10638539 0.030868946 0.1028691 0.010344846 0.061261732 -0.40189457
347 -0.35182458 0.10450463 0.04350615 -0.13715342 0.100915484 0.11181111 0.33571097 0.19474396 0.17903657 -0.08179889 -0.19541311 -0.046971418 -0.26796407 0.23566216 0.20655058 0.33026883 -0.2352204 -0.35527316 0.018883832 -0.03856999 0.12314398 -0.26394212 0.19623905 0.07000659 0.037806787 0.1584882 -0.053844005 0.34785306 0.1829625 0.016691374 -0.18042015 0.21567267 0.17135857 -0.018773625 0.030732187 0.13171966 0.16656551 -0.23421915 0.22858624 -0.3326972 0.19732255 0.012841425 -0.16891329 -0.29782438 -0.24904181 -0.2572401 0.2414545 -0.27221093 -0.047100946 -0.15957436
340 0.08503836 -0.091387734 0.09345396 -0.029859448 0.251016 -0.064501606 -0.1249074 -0.0991599 -0.05691777 -0.006991633 -0.26702017 0.16197695 0.3467336 -0.3199191 0.09913011 -0.2622544 -0.06309773 0.36711016 -0.046492875 -0.15064546 -0.15035374 0.30782798 0.42759427 -0.104067504 0.074483626 -0.15729155 -0.32666308 -0.12625973 -0.14232382 0.001010787 0.26295018 -0.31324774 0.043952618 0.068974294 -0.063240044 -0.0785537 -0.11978206 0.15131693 0.20146663 -0.1791275 0.21328531 -0.06926281 -0.22259155 0.3206675 0.34883836 -0.42111677 0.013012121 0.009347922 0.18717608 -0.03638724
341 -0.016284753 0.027481256 -0.28177762 0.055487018 -0.2801096 -0.044842627 -0.22578573 -0.40998012 -0.12186769 -0.08221532 -0.098368734 -0.35711017 0.10797691 0.17095411 0.121232904 -0.17139721 -0.38822135 -0.18671411 0.2979587 0.06911096 0.29316965 -0.039873186 -0.078820914 -0.017221149 -0.0034291993 0.2412324 -0.12339468 -0.33721614 0.22362782 -0.34481186 -0.21439475 -0.035512354 0.3051747 -0.33293596 0.19205555 0.2005564 0.23703007 0.15007028 0.036966033 0.035926208 0.20027561 -0.17742054 0.060032386 0.15489942 0.16981898 -0.02264703 -0.018585116 0.0144399945 0.22000434 0.23831506
342 0.17467618 0.019377638 0.21220481 -0.021980181 0.022412274 -0.30728927 -0.2289121 0.21359739 -0.40457237 0.14795668 -0.18334012 0.11914273 0.12441142 -0.224185 -0.20640172 0.11988828 0.29736638 0.33009738 0.10112372 -0.15044515 0.18380958 -0.07192207 0.2706364 0.15996009 -0.0807077 -0.055629514 -0.42833662 0.056964993 -0.33968288 0.03255316 0.29729286 -0.07714779 0.07520617 0.2629402 -0.21550986 0.24715562 -0.009642537 0.12052151 0.29230875 -0.16470565 -0.034219775 -0.080903225 0.21285585 -0.08430676 0.24122772 -0.3760239 -0.101825416 -0.043241587 0.08470121 -0.10375668
343 -0.22574557 -0.31748044 0.20987916 0.03701476 0.2139957 -0.03188962 -0.4396068 0.28540355 0.053680513 0.10005669 0.10352604 -0.047959667 -0.07425681 0.19091015 0.16758439 -0.25576982 -0.23562841 -0.15318865 0.1673833 0.07864789 0.055777594 -0.2822986 -0.32383013 -0.005440573 0.13799171 -0.14702986 0.25828686 0.25480285 -0.07188801 0.3468054 -0.039678153 -0.34400412 -0.053583514 0.18589638 -0.10903183 0.2250738 -0.09662984 -0.16150932 0.30212736 -0.023250235 -0.33765206 -0.12334218 -0.17601064 -0.04120527 -0.09311667 0.41838115 0.047522582 0.0784166 -0.13078275 0.055195365
348 0.056642804 -0.51055 -0.045266014 0.18043077 -0.31534857 0.0096371155 0.16420577 0.13730347 -0.0525954 0.14780769 0.14968272 -0.23924406 -0.06930333 -0.0810513 0.036597162 0.10254353 0.14350021 0.18480162 0.20116948 -0.21266428 0.18630143 -0.3077886 -0.023148939 0.001374054 -0.39783266 -0.32904536 0.20862047 -0.2365695 -0.020252893 -0.286911 0.10722848 0.038388707 0.10373735 -0.12962288 0.1606057 0.2346398 -0.330562 -0.2329459 -0.1713328 -0.113404125 -0.14707573 -0.09568839 -0.3889098 0.23673956 -0.11589997 -0.034897603 0.024569659 0.191954 0.25373653 0.16676591
349 -0.11232206 -0.10891827 -0.17322186 0.07255087 -0.14661357 -0.015869956 0.4255984 -0.17849134 -0.031131342 -0.34664482 -0.03773936 0.03750722 0.47178897 0.07237037 0.02407109 0.04197145 -0.03279516 -0.09750672 0.008423115 -0.31832808 0.26086256 -0.017029297 0.29161993 -0.27918717 0.08983696 0.2913496 0.43064892 0.2343268 0.07731724 0.23004867 0.02590632 0.13879594 -0.21559438 0.004468331 -0.035303835 -0.11558834 -0.007547685 0.102901734 -0.2912426 0.11535643 0.12640889 -0.012024184 -0.31034935 -0.2984895 -0.03709654 0.3058778 0.037550237 0.0582347 -0.081197836 -0.34374517
595 -0.11303752 0.0647883 0.042939994 -0.3334796 -0.1573211 0.09061697 -0.07573062 -0.04359124 -0.18495633 -0.18439436 0.11715843 -0.22886129 0.22572368 -0.3364915 0.17439881 -0.17282324 0.2562732 0.28463024 0.21128573 0.19050044 -0.056044005 0.25373504 0.25679794 -0.17062017 0.28354958 0.08171506 0.16806225 -0.22332677 -0.40675658 -0.090882584 0.008952743 -0.08710332 -0.017786257 -0.12774321 0.09252957 -0.17318875 -0.087001264 -0.30562812 0.29719317 0.27009317 -0.1788941 0.3212507 0.08978061 0.41189188 0.094678484 -0.04978648 -0.17123581 -0.011211667 -0.06413434 0.24178188
298 -0.052404016 -0.4482426 0.3384563 -0.03685071 -0.2320434 0.37191924 -0.15490463 -0.06053658 -0.07942254 -0.3413457 0.14905393 0.13687167 0.046274792 -0.06212232 0.07617899 -0.115428425 0.13197564 0.21131244 -0.09099753 -0.14626469 0.31532276 -0.19748485 -0.18741821 -0.079473436 0.008686532 -0.38866848 0.18417044 -0.0736555 0.08146993 -0.101940095 0.11098264 -0.0025624686 -0.30403048 0.13133477 -0.008137119 0.11070817 -0.35690862 -0.18366648 -0.039888095 -0.14232075 -0.01818843 -0.06074076 -0.4094685 0.17676876 -0.068340555 0.22396186 -0.4430813 0.063579485 -0.13092457 0.0022386564
299 -0.31041193 -0.06634751 0.066186674 -0.34305814 0.12964383 0.14406903 0.16014707 -0.36688563 0.09892785 0.055487663 -0.15779759 -0.30570346 0.16426876 -0.09395477 -0.27899566 -0.29403907 -0.118491486 -0.12447484 0.07946078 -0.11815257 -0.00067372876 -0.31816134 -0.2777824 -0.006333395 0.14067397 0.18946093 0.17022201 0.05317766 0.3383918 0.118197575 0.37260717 0.075527005 -0.0031806377 0.42124736 0.13023442 -0.058882326 -0.14986378 0.2308125 0.113539115 0.11325988 0.25910574 -0.2517306 0.03178095 0.22475865 -0.21225797 -0.24374843 -0.0872401 0.038735725 0.1250143 -0.22068931
296 0.35217768 -0.2840035 -0.1652793 -0.091440275 -0.17899282 -0.26329803 -0.10186523 -0.06527278 0.28624752 0.37826404 -0.045778133 0.13088502 -0.0658759 0.07028951 -0.16935807 0.25638276 0.3309138 0.23263195 0.03385451 0.113811426 0.079961285 0.1617718 0.119963475 0.16255808 -0.21116261 0.25843075 -0.22895443 0.010872666 -0.24889503 0.10161634 -0.26291615 -0.42778248 0.13708654 0.092438735 0.10350553 0.33842662 -0.092552595 -0.23223919 0.38858464 -0.17534868 0.1935706 0.0109901 -0.003260067 0.08802997 -0.06982931 -0.16114172 -0.20929421 -0.13323788 0.05097069 0.13820474
297 -0.2992292 -0.09609417 -0.22269347 -0.071278974 -0.070244 -0.0093280785 -0.026313625 -0.37494707 0.3296785 0.14483733 0.06758389 -0.16282159 0.07075861 0.17649995 -0.17402847 0.1450554 -0.059096467 0.022872072 -0.1157842 -0.36370438 0.2983696 -0.27321252 -0.1278189 -0.26145828 -0.23228347 0.12443602 -0.022535766 -0.021738496 -0.42851916 0.0025784655 -0.014533934 -0.30959618 -0.34823686 0.019872613 -0.030325497 -0.24290425 0.13667467 -0.2807943 -0.19105774 -0.1050303 -0.035662144 -0.08883991 0.18827267 0.40377364 0.19749652 0.2018108 0.17719251 -0.09340577 0.11127209 -0.19316587
294 -0.13980477 0.031799167 0.2843581 -0.04633927 -0.016897153 -0.1939163 0.18668988 -0.087288626 0.28634652 0.020029027 -0.20421055 -0.12537432 -0.17876315 0.18819964 -0.044443198 -0.32609186 0.28572068 0.267294 0.2283001 -0.28314468 -0.17433047 -0.21756724 0.20143044 0.301404 0.077801675 -0.08569904 0.15340902 0.35146502 0.06421037 -0.23839901 0.112551644 -0.014333176 -0.21527968 -0.35219988 0.115150355 -0.023968603 0.064859465 0.016134512 -0.32632697 -0.023169313 0.3814116 -0.4338376 0.10949146 0.04940885 0.17597094 0.095148675 -0.054451182 0.1795917 -0.14767349 -0.17573194
295 -0.17281212 -0.277139 -0.12625647 -0.13780685 0.19662483 0.10141526 0.14683963 0.015287728 0.36008835 0.3205013 -0.079421155 -0.1707728 -0.10363721 -0.29108262 0.352076 0.023050942 -0.03908903 -0.103721455 0.0013597602 0.27372625 -0.05495198 0.07143557 -0.29130197 0.046863202 -0.34271324 -0.017043583 0.30660188 -0.18782486 0.072981894 0.11190199 0.20167682 0.0885112 -0.1744936 -0.3496462 0.16004422 0.19622676 -0.13104504 0.070488706 -0.07323974 -0.2452081 0.39424974 -0.2666495 0.13696477 0.22004753 -0.06943099 -0.15424508 -0.115976416 -0.33978 0.1640223 -0.14658341
292 0.15325409 -0.02911857 0.10994811 -0.08057838 0.31015694 -0.11847807 -0.13549365 0.021665378 0.42938492 0.16386235 -0.02245746 -0.19854149 -0.05654792 0.0310668 0.41416582 0.09091468 -0.0667787 -0.20484056 0.30817273 -0.096012555 0.16396883 0.20791008 0.19476259 0.18659036 -0.3153502 -0.36897817 -0.055726778 -0.30484638 -0.092571415 0.32785952 -0.41250607 -0.10627753 -0.11294887 -0.0151407765 -0.45354605 -0.15711777 0.12500663 0.027621325 -0.2943468 -0.19212636 -0.11493614 0.09350074 0.024658307 -0.18031882 -0.03366025 0.064886145 0.07485054 -0.09602829 -0.08132938 -0.071586914
293 0.054718267 -0.038301013 -0.098464 0.22823566 0.068467155 0.20343669 0.22967869 0.20479292 -0.016775068 0.16003269 0.4320339 0.106140725 -0.106908955 -0.11099463 0.13900962 0.15784205 -0.27395564 -0.20962235 -0.07859288 -0.3626029 0.21521012 -0.27978367 -0.34010696 -0.06416109 -0.0123604275 -0.040792618 0.07614409 0.24674162 0.30521023 0.21519195 -0.038231175 0.3760846 0.1208266 0.11677925 -0.24725583 0.17046899 0.14139755 0.12556152 0.045285825 -0.04828578 0.0025817088 -0.3379873 -0.07048462 0.12132473 0.31021386 0.18780275 -0.29005358 0.18120228 -0.31512812 0.094963335
290 0.05155146 -0.048953857 0.43427503 -0.123613596 -0.27815938 0.058204472 0.04181989 0.024788106 0.0890084 0.081442215 -0.051728852 0.1127273 -0.112581074 0.27214974 0.07246264 0.011302905 0.19155712 0.3606321 -0.06101187 -0.28574812 0.048887804 -0.3028759 0.17513192 -0.15731028 -0.42921337 0.0032171984 0.15784785 0.33838692 -0.18093452 0.03570247 -0.0034626941 0.003699576 -0.2813351 -0.32145154 -0.07230483 0.21574773 0.13286297 0.19538787 0.2280495 0.12687854 0.15544584 0.051339816 0.05022411 -0.3220462 -0.027998913 0.12655476 -0.22329178 0.23664531 0.31875512 -0.33322713
291 0.14658122 0.07401404 -0.11263291 0.31598184 0.20793688 0.18358874 0.20690982 -0.26581216 0.32230687 -0.27052447 0.2696233 -0.02876619 -0.055878457 -0.043980893 -0.029137319 0.44017008 -0.044357523 -0.39001885 -0.1606782 -0.06961925 0.014992244 -0.112693325 0.14357272 -0.005099824 0.03923882 -0.09235134 0.14557289 0.33498526 -0.35540757 0.11028156 0.14848006 0.2815847 -0.1162651 0.082778044 -0.0236321 -0.23437378 -0.21449398 -0.07954084 0.007977112 -0.19831029 -0.33183673 0.15903847 0.06815586 0.054723065 -0.088074535 0.29977858 -0.43940526 -0.082468025 0.09597295 0.030091075
591 -0.15090126 0.21309127 0.08793012 -0.13789544 -0.14265412 -0.039662473 -0.11615345 0.28311172 -0.020092294 0.25964096 -0.31372896 0.35890788 -0.1562198 -0.010790492 0.009809259 0.18104851 -0.09109072 -0.35041603 0.35175353 -0.13773586 0.09422003 -0.13337822 0.24849243 -0.04300986 0.27017984 0.3740211 0.21134408 -0.024392026 -0.091739714 0.4156386 0.093126476 0.22190693 -0.061958916 0.05463899 -0.08304084 -0.15647914 -0.033249944 -0.40900108 -0.018878506 -0.25427493 0.13222486 -0.2994273 0.13768266 -0.06376592 0.07999226 0.30795553 0.17427988 0.15279798 0.13545056 0.02625237
590 -0.31128258 -0.06758176 0.051110324 0.42112556 -0.10037234 0.29681736 0.30606008 -0.17957805 -0.120697916 0.22672488 -0.2981014 -0.024498308 0.11410325 0.0805701 0.29846588 -0.19574577 -0.18264051 0.27026874 -0.21275096 -0.02556362 0.18135272 0.051280167 0.007434602 0.020105045 0.061945878 -0.08454234 -0.24097253 0.1583843 -0.34902853 -0.0094703855 -0.11297892 0.37852165 0.24413705 -0.2527823 0.14816046 -0.00044432867 -0.34219182 0.24774075 -0.19288026 -0.009160025 -0.07447647 -0.32748613 0.10509474 -0.121472284 -0.006828768 0.12592793 0.19338182 -0.17777763 0.07481768 -0.20356014
593 0.1903121 0.24301288 -0.1677056 -0.29394186 -0.3212734 0.11308222 -0.13654408 -0.08417358 -0.30858618 0.082201585 -0.059003025 0.16395988 -0.12660597 -0.1296951 -0.0053063706 0.11717569 -0.22231618 0.02985825 -0.35745996 0.1727885 -0.2731168 0.09725511 -0.36949798 0.20233844 -0.0063307276 -0.043681253 -0.10655864 -0.15394163 0.3068938 0.23188204 0.34338793 -0.3064776 -0.19885597 0.026474224 0.18268804 0.25562364 -0.122679785 -0.40642038 0.04425715 0.09436656 -0.016011445 -0.102382354 0.10696959 -0.18038219 0.26106894 0.17897321 0.177793 0.16587187 0.24319345 0.0036833365
592 -0.17513674 -0.27609357 -0.13556756 -0.26836488 0.024530113 0.22763321 0.16185011 0.38594508 0.08284956 0.30289638 -0.10258912 0.16341369 -0.2816647 0.19846496 -0.022494672 0.04225731 0.14540376 -0.07851929 -0.04972092 -0.07467382 -0.17879868 -0.13984491 0.4198715 -0.2204161 0.0807641 -0.13761243 -0.06708809 0.07388997 -0.2906071 -0.09478069 0.27176133 0.3782546 0.024549508 0.32714185 0.024547283 0.11162299 0.022900818 0.04419909 -0.009469665 -0.27823648 -0.16963969 0.18220903 0.0043219137 -0.30039778 -0.3539122 -0.24644855 0.11377101 0.15701465 0.21751267 -0.19217284
199 0.2086203 -0.25498566 0.16341732 -0.40083602 -0.18869059 -0.20249325 -0.20449962 -0.2480808 0.20389947 0.09279035 -0.20219108 -0.0097551765 -0.35284126 -0.16415235 -0.018654542 -0.21694952 0.21351942 -0.3306068 0.15080446 -0.15308256 -0.014120245 0.05361761 -0.08198458 0.10440854 0.11103741 0.2281991 0.05211371 -0.0378751 -0.18547437 0.35992697 -0.16184944 0.10281187 0.07044186 -0.008511439 0.04774678 0.1609221 0.08468669 0.1898175 0.025277942 0.37397224 0.2749186 0.3277222 0.33614415 -0.06905793 0.15198228 -0.1982786 -0.24215494 0.29844892 0.09734777 -0.0762228
594 -0.088086866 -0.13355102 -0.057866383 0.3647542 0.23917335 -0.031161744 0.13980886 -0.2806348 0.015420105 -0.060546573 0.056273386 0.426277 0.33732778 0.09323 0.02042072 -0.05603592 0.14437938 0.015426768 0.16284584 -0.17302641 0.08704987 0.4102407 0.16924892 -0.19325316 -0.2174964 0.034001257 0.028326103 0.46045184 -0.035156824 0.33202258 -0.30733246 -0.08809252 -0.2033803 0.16312388 0.23394544 0.25950006 -0.19761334 0.12483017 0.16648719 0.20754942 -0.16918324 -0.03160051 -0.37095097 -0.21917589 -0.103271924 0.03138568 -0.024227047 0.009168952 -0.112665385 -0.12878706
597 -0.3796402 0.2883233 0.019791387 -0.08334609 0.37872958 -0.30928445 0.03009679 -0.11686552 0.15776542 -0.007333255 -0.32542905 -0.2194386 -0.023021268 -0.0044514583 -0.057399586 -0.11853456 0.056238703 -0.08199303 0.31343442 -0.0040161833 -0.3410607 0.21616523 0.16056027 0.098474786 0.09045821 0.0050460524 -0.19119564 0.039430514 -0.24134319 -0.49935776 0.3555267 0.24704912 -0.11987053 0.21582828 0.111924835 0.06497013 0.22392593 0.26003677 0.096564904 0.2472117 0.18826874 0.1974887 0.0031537907 0.033852026 -0.21314847 -0.1841721 -0.067862995 0.022726526 0.11435544 0.16665521
596 0.24323483 -0.14828423 0.24957061 0.24847211 0.11501148 -0.15185092 -0.18719667 0.44175562 -0.029915137 -0.18838389 -0.04409761 -0.42432556 -0.1465435 0.20100902 0.08683935 -0.20236048 -0.18801689 -0.07218433 0.27637583 0.093689196 0.059144076 -0.2341385 -0.082757525 -0.07430905 0.056439724 0.30153012 0.062068332 0.2355066 0.17931353 0.05806677 0.16515559 -0.24814351 0.06796902 0.21214749 0.10088262 -0.12019312 -0.33546874 0.07101431 0.37398854 0.104843035 0.14296392 -0.23439826 0.105004735 0.1748305 0.2850959 -0.10508633 0.33948734 -0.14658344 0.09104234 -0.16844152
195 -0.15054862 -0.14956702 -0.086850375 0.06904438 -0.5789946 -0.2364794 -0.06372458 -0.011172364 -0.04451721 -0.119971335 0.16245261 0.005045091 0.047081348 -0.15726395 -0.14615323 -0.3385063 -0.1167804 -0.45718065 -0.16998811 -0.03796083 0.119790286 0.012801381 0.0019256134 -0.03556186 -0.26991484 0.13698608 0.14478245 -0.21850939 -0.23325282 -0.05576884 -0.024800807 0.17912713 -0.4285197 -0.15943839 0.07369367 -0.012539279 0.23472837 0.16330405 0.21021493 0.11378346 -0.019683821 0.0931676 0.2531307 -0.35425484 -0.09875986 0.056493066 0.40725082 0.27726537 0.10467677 -0.059132483
598 -0.32001355 -0.0976171 -0.14968687 -0.035267994 0.23050003 -0.055892546 -0.2491029 -0.17539275 -0.07310121 0.023054266 -0.19022022 -0.10076276 0.1688911 0.32457972 -0.18773295 -0.013018553 0.10447399 -0.0784849 0.050454933 0.46168852 0.36217913 -0.30441925 -0.12853573 0.108084835 -0.09495473 -0.11017031 -0.0065019815 0.10885271 0.16785921 0.08026997 0.3018095 0.36550364 0.02114868 -0.24230705 -0.19925807 -0.010725862 0.20451537 0.0013162496 0.020312736 -0.38049233 0.2537328 -0.22255702 -0.33830905 0.1500005 0.14119753 0.0048293807 -0.27316958 0.20064631 0.11255736 0.17972286
197 -0.017033083 0.07218945 0.2328831 -0.09729511 -0.18048787 -0.3397203 -0.13085493 -0.23735693 -0.048360255 0.108229056 -0.392606 -0.048968207 -0.21781059 0.21327402 0.07112583 -0.25836512 0.15865265 -0.19053319 -0.00014277926 -0.019816084 -0.2559115 0.06822682 -0.10879847 -0.3043421 0.3708761 0.16885333 0.25532532 -0.057605326 -0.19064483 0.05380677 0.28731766 -0.07257433 0.2656346 -0.005267817 0.16397633 0.19953208 0.14258635 0.18071444 0.092816606 -0.36531976 0.30906636 -0.0073997374 0.19871728 0.02946072 0.15320303 -0.3665872 -0.23504664 -0.18553533 -0.23290922 -0.076547235
196 -0.15381044 0.13882521 -0.24540065 -0.14730462 -0.17228433 0.08391578 -0.16217755 -0.08821526 0.029298525 0.09907403 -0.08359901 0.053388175 0.025539787 0.3185908 0.078504354 0.2077859 0.12158754 0.24814337 0.37246823 -0.32324633 0.22593698 0.33757803 0.13013105 0.039060775 0.35957417 -0.28152147 -0.3800061 0.1561772 0.17741294 0.17842627 -0.10302701 -0.058046184 -0.31669343 -0.020781212 -0.009748645 -0.046134107 0.17378977 0.16660377 0.4322909 0.03819091 -0.17704369 0.19738977 0.23985833 0.34357432 0.049439237 0.20831062 -0.10694556 0.12083201 0.0041986206 -0.08738071
191 -0.3158309 -0.17294751 0.26896477 0.13044657 0.20339663 -0.20638824 0.33332822 -0.010343103 -0.0445394 0.047095418 -0.10778017 0.14110282 -0.29585212 0.24236566 -0.004004366 0.2834025 -0.086069055 -0.14385343 -0.02916879 -0.2359309 0.3182112 0.1185421 -0.21751712 0.09940076 0.25758305 0.032448113 -0.017221503 0.48580977 -0.12171423 0.27632728 0.08188145 0.14028083 0.30380046 0.21972151 0.06290241 0.17112988 0.42381462 0.031215701 0.166654 -0.037255548 0.26617238 -0.19000039 0.10111512 0.046155553 0.2654573 0.20984322 0.078339465 -0.011535317 -0.13970579 -0.043859646
190 0.19242516 0.51238984 -0.30384308 0.26289666 -0.1020612 -0.02759837 0.09962933 0.13045515 0.029658908 -0.35860902 0.025353255 0.29094455 -0.24959572 0.11253484 0.10986132 0.19389977 0.008457069 -0.060197823 0.031165669 0.14284313 0.13277906 0.07912404 0.14906603 0.120647065 -0.27519566 -0.008973766 0.008924796 0.06089458 0.11229129 -0.05492463 -0.10798795 -0.2729922 0.014196191 0.15351021 0.11245964 -0.33525646 0.15705591 0.30719572 -0.28264722 0.045331392 0.33440468 0.080694355 0.14098917 -0.21827886 -0.10988071 0.43907294 0.31345353 -0.0146734025 0.21068625 0.1046457
193 0.18258616 -0.15854935 -0.07379949 -0.1778021 -0.37843552 -0.35959175 0.38074446 0.008617417 0.1281884 -0.20130949 -0.13652171 0.21344203 0.23223625 0.017344767 0.087976165 0.41184133 0.023895329 -0.0022584435 0.060334895 -0.07580615 -0.1229872 0.071636654 0.03500237 0.12976003 0.2930523 0.3310256 0.11345097 -0.002697664 0.07459995 -0.44209975 0.07722584 -0.14729312 -0.1444786 0.34453937 -0.090681605 0.15648346 -0.22865246 -0.24830413 0.033605084 0.12850434 0.14950977 -0.19083714 0.22326446 0.25773454 0.22309622 -0.063912965 0.2407526 -0.04970555 0.18269913 0.14927086
192 -0.029380886 -0.14180301 0.3979787 0.031036781 -0.00547428 -0.15546888 -0.19486523 0.366132 -0.0004777568 0.027977657 -0.11448728 -0.30381718 0.35766917 -0.24165364 -0.02721808 0.31779495 -0.1622638 -0.2316655 0.07351098 -0.051957738 -0.014908794 -0.21309087 -0.14590955 -0.111246794 0.24859984 0.15319136 -0.19983825 0.17633128 0.2239006 -0.2547656 -0.0050201993 0.017673232 0.09630794 0.14441407 -0.3852931 -0.2552522 -0.15432623 -0.22772712 0.01657358 -0.08472481 0.26188958 0.34375498 -0.05925849 -0.26830438 0.014074154 0.019783339 0.31543553 0.07279847 0.021467647 -0.30848604
271 -0.11931382 -0.22712478 -0.1600915 -0.323151 -0.32870975 -0.45087096 0.15920974 0.07350356 -0.10537877 0.24563664 0.38959888 -0.10927616 -0.020645129 0.0988283 0.12528545 0.1605669 -0.04795252 0.17673239 0.088520505 -0.06269352 -0.087674774 0.17375293 -0.013478102 -0.230096 -0.19721173 0.28290528 0.22047433 0.21901162 -0.2781063 0.33034885 0.3037118 -0.006374751 -0.3344027 0.09387165 -0.10402259 -0.034173127 -0.03787408 -0.06433596 -0.010106475 0.10977166 -0.07277448 -0.2984834 0.14418225 -0.16914292 -0.1920009 -0.052705567 -0.3726446 0.21297328 -0.1409774 0.08221112
272 -0.09324743 -0.11250095 0.01585351 -0.043603294 -0.39689684 -0.12542771 0.49549842 -0.21838656 0.22416386 -0.17798626 -0.013186827 0.1392609 -0.16114421 -0.13008581 -0.25969228 0.019214734 0.051532503 0.043630533 0.13427347 -0.31306538 0.0928787 -0.08233613 0.15128723 0.15790552 0.33764452 0.19208607 0.09250685 -0.25976673 -0.17447557 0.46636456 -0.2736287 0.10404952 -0.23926197 -0.03195709 -0.3811008 0.09223777 -0.03762438 -0.10321358 -0.36664507 -0.018760387 -0.12967327 -0.013086021 0.20249237 0.116063714 -0.15432072 -0.012171985 0.19287546 -0.18605462 -0.14476365 0.07981509
273 -0.011819983 0.2795269 0.0851161 -0.112760656 0.3541577 -0.021610385 0.22010589 0.2921504 -0.026275242 -0.24354297 -0.059018794 0.12752786 0.05485331 -0.12638578 0.18209349 0.29230475 0.030483931 -0.10877529 -0.118540555 -0.27659133 -0.42658412 0.25422615 0.03298718 -0.03330736 -0.26948312 0.18994597 -0.06450045 -0.06317418 -0.16638008 0.15202704 0.026026905 0.04147815 -0.105823226 -0.35980162 -0.3721759 -0.052530818 -0.071199425 0.24417551 -0.026090547 0.4461014 -0.003982485 0.37594453 0.06254052 -0.22373262 0.16997752 0.09554781 -0.06076374 -0.3009868 0.1630794 -0.045263644
274 0.09057822 0.10022687 0.29765722 0.03128625 -0.37201414 -0.15679839 -0.0360849 0.0048653316 0.010152244 0.26968792 -0.14127116 0.031463046 -0.3205478 0.38989982 0.012425476 0.3130416 -0.14821191 0.28986034 -0.07867255 0.15692122 0.020488292 -0.06943424 0.17798236 -0.26248685 0.19632621 -0.07005615 -0.32541212 0.15593915 -0.14784661 -0.080995195 0.4122092 0.015143409 -0.4357884 0.18953824 0.01511712 -0.103209615 0.14425759 -0.046541136 0.26568264 -0.063518666 0.058586832 0.02204726 0.214237 -0.02971588 -0.29506904 0.23346415 0.28184363 0.04314459 0.17232428 -0.16952582
275 0.015193695 -0.13043952 0.15702927 0.013542001 -0.03856316 0.026068438 -0.18270378 0.06552668 0.14963724 0.28382802 -0.23176503 -0.09807393 0.33486873 -0.19694613 -0.09538994 0.028135851 -0.17587063 0.096625395 0.28429362 -0.31013736 -0.3612572 -0.3004386 -0.27591923 -0.08914389 0.26239306 0.039942216 0.087417915 0.037334297 0.19854346 0.16324449 0.20071252 -0.358816 -0.29564318 0.013210545 0.15012053 -0.21682683 -0.04081389 -0.011720153 -0.2048762 0.015327053 -0.066750176 0.12888367 0.36088535 0.0004759816 -0.33104694 -0.06513345 -0.38492158 0.26567397 0.11184102 -0.2381787
276 0.010360757 0.14389905 -0.049369957 -0.09995461 0.004380133 -0.13395365 -0.043155104 -0.25302303 -0.100873135 0.1238128 -0.08771214 -0.22818828 0.26299453 -0.17463763 -0.32282344 0.34219703 -0.3099448 -0.2240769 0.37564793 0.26269397 0.011574542 0.1248788 0.2273535 -0.12602691 0.19227125 -0.08250952 0.1774372 -0.3304806 0.03538656 0.03351949 0.00022774517 -0.30201986 0.0124606835 0.42410362 0.01145597 -0.17172736 0.0977277 -0.14337242 -0.1508841 0.3241644 -0.0068103685 0.11320805 -0.24841811 0.011873934 0.3781842 0.2083091 0.0026373533 0.24800707 -0.2584891 0.042910725
277 0.02499128 0.038808957 0.61691445 0.00482115 0.12004315 0.3003067 0.049160186 -0.06324601 -0.06743669 -0.21100524 -0.1975821 -0.1371943 0.019021748 0.24296886 0.3363745 0.050926544 0.10052308 -0.12116325 0.14068262 0.18308803 0.0015619393 -0.18277322 0.09961617 -0.30393064 -0.10187553 0.008542618 -0.03282633 -0.018594615 0.051222287 -0.17398518 -0.16455065 -0.10928756 -0.006571434 -0.21373145 -0.17690021 -0.07390332 0.018603323 0.23971714 0.22498828 0.19951051 0.12518561 -0.37122467 0.23096439 -0.2560237 0.22738545 0.17205131 -0.00068574754 -0.3485087 -0.3893809 0.26290736
278 -0.23762073 -0.279902 -0.16260995 -0.07349503 0.25678477 0.14571472 0.3287215 0.24417125 -0.037507866 0.008389654 0.32998174 0.36734483 -0.118869096 0.22337706 -0.020388344 -0.16152722 -0.077855624 -0.1740776 -0.28055102 0.058561694 0.16744594 0.18374184 0.042967226 -0.1998557 -0.14341281 0.08929155 0.021511365 -0.3517154 -0.31737292 0.19213597 0.080270685 0.19101724 -0.228659 0.30413935 -0.06877749 0.13134132 -0.06152669 0.20996507 -0.3101792 -0.14012656 0.119816914 0.058904976 -0.42679358 -0.16764416 -0.056531604 0.14161696 -0.17781577 -0.010898724 0.08900221 0.25653633
279 0.29816723 0.20434892 -0.25505686 0.2719578 0.33587748 -0.0059701377 0.03555321 -0.14755066 -0.028680805 0.17822342 -0.039779264 0.14179358 -0.023021046 -0.3002053 -0.25841075 -0.062486086 -0.02424666 -0.24652155 0.2463324 0.17548802 -0.26913723 -0.07946851 -0.013882976 0.38148406 0.039000504 -0.11028354 0.02720217 -0.25770733 -0.14705989 -0.4562731 -0.26913822 0.20155567 0.1756295 -0.10700915 -0.20347682 0.08138714 -0.11924381 -0.13978207 0.33010912 -0.08278377 -0.20237821 -0.08092631 -0.05979049 -0.097407706 0.23509438 0.018996501 0.1513684 -0.06543878 -0.029237946 -0.44006482
524 0.15024368 -0.22605245 0.05060665 0.1930843 0.21955314 0.04617873 -0.15859744 -0.31657788 -0.11633807 -0.04116152 -0.41106376 0.14956783 -0.1883832 0.059952646 0.253565 0.09101194 0.22564672 0.13701493 0.20909408 0.0069399173 0.06656252 0.3479994 0.3581173 0.1192988 -0.105202235 -0.26097494 -0.10886776 0.28094903 0.0552546 -0.31819218 0.0056762374 -0.0093311425 0.37702623 0.24106544 0.19309537 -0.10886564 -0.19010828 -0.23004016 0.08453086 0.16438581 0.20180485 -0.18304192 0.36361238 0.10733741 -0.08105426 0.0056874366 -0.019814827 0.12879358 -0.3099929 -0.16253985
525 -0.04906478 0.026955 -0.3578027 0.16324279 0.07364266 0.030656537 -0.15157616 -0.0655419 0.4284856 0.22116338 -0.12238447 0.090871625 0.1392293 0.32124466 -0.36787227 -0.29721507 0.16159832 -0.06690608 0.097663045 -0.2527226 -0.05376887 -0.02197314 0.101997465 -0.09291789 -0.28311506 -0.073480204 -0.065618314 0.20156893 -0.29890975 -0.16417503 -0.36862022 -0.12956928 0.36552715 0.20084754 0.15298305 -0.26680276 -0.017341131 -0.14197779 0.056345597 0.122578785 0.05154535 0.19838083 -0.12768055 0.16577624 -0.2516789 0.15658458 0.06094109 0.28852448 0.33247498 -0.04839574
526 -0.17872237 -0.2134255 -0.17073931 0.15159406 0.2520024 -0.24557288 0.11402154 -0.04924402 -0.02398714 -0.18551642 -0.1264321 0.34152126 0.2898307 0.09834782 -0.059104316 0.18659998 0.18952091 -0.42288435 -0.056527633 0.26968822 0.038965534 -0.12709981 0.34570286 0.046821807 0.038543843 0.36998603 -0.1884945 0.09501341 0.10240505 -0.018008193 0.4165547 0.24258092 -0.04256474 -0.031526692 -0.25109097 0.27415407 0.20039147 0.104765885 -0.18330286 0.21844971 0.028735535 -0.11113864 0.039582185 0.17505832 -0.28043696 -0.12982894 0.17345321 0.09036098 -0.091097996 0.33833778
527 0.18484004 -0.047119204 0.31440786 0.3959218 -0.18237403 0.011199225 -0.08114035 -0.06364917 0.058546722 -0.092035495 -0.13338353 -0.007303618 -0.24150246 -0.31068552 -0.37762767 0.04841694 -0.039659332 0.17869318 0.13470621 0.2598977 0.1485411 0.12923516 0.14205275 0.08876569 -0.38526225 -0.1513556 0.05493938 0.14821424 -0.1998182 0.056820992 -0.029862693 0.39521486 0.06251081 -0.020509064 0.21989776 -0.11191392 -0.41709352 0.19964808 -0.25603035 0.3037589 0.22689703 -0.0038289027 0.1869611 0.15870747 0.13723402 0.08901423 0.13410331 0.26800218 0.2806167 0.0897619
520 -0.2462708 -0.086092964 0.3127376 -0.16916011 0.11401091 0.05746011 -0.0045290287 0.17610335 -0.19117942 -0.006380563 0.07787904 -0.051829994 0.035686348 -0.30464658 0.26298434 0.039461702 -0.20628446 0.21025752 0.4333327 -0.37980264 -0.22270839 0.060235176 -0.2725919 0.0021235521 0.04142447 0.07300223 0.19535655 0.030291874 0.4476802 0.028223734 0.05521175 0.26045844 -0.08374539 0.21882576 -0.1441355 -0.13470139 -0.24494806 -0.24905796 0.38475856 -0.21468647 0.34749183 0.07561394 0.09128565 -0.12443521 0.112981185 0.18712744 -0.21021484 -0.09474752 0.06336189 0.13513935
521 -0.12184269 0.12313923 0.0073188497 0.26799798 0.37564704 0.043175086 -0.061163317 -0.036742818 0.12516955 0.23986551 -0.2834731 -0.011469867 -0.091010936 -0.100135356 -0.20450464 0.03459781 0.28170288 0.3783973 -0.010070689 -0.0034510233 0.36209407 0.24271101 -0.12898086 -0.14297494 0.292019 -0.32871485 -0.057731114 -0.20142746 0.186106 -0.1735479 0.06694274 0.18101528 0.06480819 0.46107557 0.0026362443 0.38811857 0.25475225 0.2538545 0.02807909 0.021837035 0.07912923 0.33795723 0.1185163 -0.057222866 0.13524178 -0.13114996 0.063589774 0.071670584 0.064844646 -0.2476403
522 -0.09735971 0.17140299 -0.37314627 -0.18471389 0.1949804 -0.06627217 -0.25199255 -0.17605262 -0.27151123 0.18143533 0.030405005 0.05857367 0.05549061 -0.1259963 0.30855852 0.35222358 0.15518253 -0.32583147 -0.3079219 -0.10333513 0.0134389335 -0.04008362 -0.24926841 0.0015525791 0.04469453 0.18700959 0.29994392 -0.27931404 0.16610508 -0.14542338 0.24419326 0.33064526 -0.28249696 0.29298377 -0.17578459 -0.0134269865 0.04912896 0.083093196 0.004993056 -0.104684375 0.031076243 -0.02010464 0.4076531 0.02156807 0.13209873 -0.02698949 -0.2588062 0.20817581 0.23556724 -0.10158027
528 -0.3199364 0.03527253 -0.06251804 -0.32446402 0.09438679 0.22235174 0.16715842 -0.35931396 0.31800517 -0.21123941 -0.050963838 0.2599532 -0.27856153 -0.04039895 0.15295269 0.11188675 -0.17283523 0.15395902 -0.03204941 0.026104866 -0.14485687 -0.1931067 0.08613771 0.25742754 0.23130713 0.38655624 0.025690883 0.10783477 -0.15380019 0.05489119 0.10101926 0.1898077 0.37351793 -0.00892322 -0.3245206 0.017771276 0.38196117 0.14436089 -0.23696484 0.124696754 -0.045648567 0.19439113 0.03854741 -0.044670634 -0.3063045 0.21660468 0.24466182 -0.10304595 -0.038068123 -0.16032955
529 -0.41531348 0.15710983 -0.14838918 0.03091575 -0.02985209 0.15099669 0.20962146 0.21096942 -0.0472573 0.13427624 -0.17668782 0.019423291 0.13500628 -0.13825502 0.18284817 0.043954685 0.50269246 0.20638569 -0.17853215 -0.1677496 -0.21323271 -0.19917831 -0.18517382 0.01388742 0.2611877 0.4027817 0.12754452 -0.050149824 0.030038532 -0.18103756 0.06525154 -0.15329812 0.19847067 0.2932055 -0.20736746 0.25720605 -0.30962262 0.222745 0.1624523 0.048135597 0.23516157 -0.0036084622 0.19288418 0.26147556 -0.16441832 -0.11726504 -0.25196454 0.026700228 0.054106247 -0.28292206
449 0.42920017 -0.12929764 0.009114552 -0.13109215 0.30495283 0.0128254965 0.07223974 0.093296245 0.1288449 0.3270911 0.013735686 0.07129019 0.32167637 -0.09136843 0.28618094 0.18888877 0.2130479 -0.058378533 -0.13462171 0.028719913 -0.28973794 -0.334511 0.013497784 -0.059595022 0.22165263 -0.047240682 -0.08498416 -0.13948095 0.00784072 0.12757416 -0.0773183 0.0042318753 -0.18975821 0.0029438597 0.011578544 -0.22710529 -0.019549422 -0.37211457 -0.3492807 -0.1601775 0.013452778 -0.42370486 0.11003393 -0.08017958 0.45421582 0.16308899 0.0025357632 -0.12217504 0.35838386 -0.00033267075
448 -0.34794852 -0.03758171 -0.118871994 -0.17166686 -0.29501638 -0.28010103 -0.108693175 -0.2543391 -0.020799821 0.19424823 0.08833204 -0.061431453 -0.28154263 0.21272026 0.035858665 -0.24797308 -0.20321964 -0.157558 -0.047788173 -0.07511837 -0.17318255 -0.21082874 -0.3694276 0.15146661 0.21675418 -0.06831741 -0.46159866 -0.20417833 0.053883 0.25950047 0.08893071 0.075217396 0.087463476 -0.13939478 -0.28456208 0.036628794 -0.16942883 0.086031094 0.25230974 -0.0771145 -0.2834932 -0.3344584 0.03573146 0.43137398 -0.13601778 -0.03782454 -0.09684423 -0.14909689 -0.07441458 -0.07056309
443 -0.08706612 -0.077122875 -0.06328821 0.04687801 0.25481188 0.14832668 0.4353687 0.15165834 0.18813327 -0.40789813 0.013527112 0.026649961 0.1599974 0.23521654 -0.17157124 -0.2558829 0.33245775 -0.24797238 -0.106322 -0.08770051 -0.09944575 -0.2157178 -0.024789123 -0.16357456 0.1657609 -0.20496993 0.20071007 -0.38167614 0.032748435 -0.14890446 0.25948474 -0.0903842 -0.22421373 -0.010802635 -0.04487606 -0.33466542 -0.26861432 0.007993793 0.33862025 0.10673677 0.27878785 0.25561705 0.11283417 0.03417298 -0.06099364 -0.13442361 0.07261319 0.18553928 0.2954999 0.06951638
442 -0.01082007 -0.12475206 -0.20036219 -0.027218306 -0.0722334 -0.10120599 -0.17712893 -0.38545117 0.3943649 0.042879216 -0.003964349 0.017300053 0.31853813 0.24560471 0.19790353 0.093994886 -0.06543075 -0.114984706 0.23675351 -0.380272 -0.004140805 -0.31812048 -0.2173204 -0.014957913 -0.11716877 0.17781311 0.07421771 -0.31783208 0.12692922 -0.15901724 -0.14161776 0.34686738 0.13295622 0.004441055 0.25361273 0.0035424505 -0.11783433 -0.3222209 0.28249112 0.12323015 -0.16529058 -0.3307455 -0.14887021 -0.14949937 -0.095581785 -0.028935837 0.28105146 0.029902011 -0.31932634 0.11093767
441 -0.033538803 -0.08721776 0.31850445 -0.2297309 0.3262143 0.3225421 -0.16426578 -0.26954773 0.061641887 -0.2724726 0.13391906 0.11265115 -0.055924255 0.0027561951 0.027163189 0.3289874 -0.057079304 0.18514413 0.26423377 0.048936285 0.008231103 0.06781153 -0.31182557 -0.16671894 -0.25834098 -0.30100456 -0.008606012 0.1373579 -0.2746216 -0.061708905 -0.056791373 0.2623441 -0.3043276 0.26492965 -0.11231307 -0.105321065 0.22522774 0.17221756 0.058476157 -0.078539684 0.13619411 -0.35493428 -0.14580902 -0.24795131 0.23659222 0.10411889 0.20901589 0.18114772 -0.272738 -0.13313186
440 0.33515215 -0.03991972 -0.046512436 0.34782475 -0.054109268 0.013143044 -0.027911117 0.21101794 0.084756665 0.089763075 -0.23584086 -0.0546008 0.3205612 -0.30709425 0.11446026 -0.27554524 0.012559085 -0.21944156 -0.0009876821 0.26387092 0.32671186 -0.23271042 -0.25112003 -0.031178564 -0.108261265 0.3617675 -0.34733102 -0.047779147 -0.078076005 -0.035695594 -0.17001052 0.08690576 0.292778 0.10614787 0.34704125 0.2548945 0.16915843 -0.26066646 -0.024718395 -0.28535897 -0.0048070718 0.1990917 -0.08649296 0.0026191985 0.21990286 0.335255 0.11350245 0.028082922 0.010371576 0.14034976
447 -0.080912285 -0.017097386 0.33205324 0.06172388 0.19372196 0.31762552 0.22542389 0.14013168 0.013843498 0.28046095 -0.013096958 0.3457648 0.016400369 0.09648308 0.12571542 0.18473975 -0.08230648 0.22473873 0.16357373 0.13721852 -0.021354748 0.33179924 -0.04692588 -0.2627217 0.35707167 -0.15103184 0.098864004 0.17593001 -0.0848602 0.14422339 -0.030236125 0.21557613 -0.3849509 0.32400376 -0.032854676 0.13658886 0.17674793 -0.127942 -0.051569168 -0.07978868 -0.07164611 -0.13808155 -0.28747582 -0.3016703 -0.28776118 0.005843224 0.40300456 0.08619645 -0.0048784437 0.28457823
446 0.21064745 0.25932306 -0.032080747 0.12629107 0.017630313 -0.22740571 0.2669479 0.1371329 0.21086827 0.12043711 0.16973749 -0.012562808 0.13309826 -0.04246292 -0.21873556 -0.36502102 -0.066074684 0.06476511 0.12506273 -0.4904646 0.30992857 0.07056106 -0.23240288 -0.0419573 0.13857852 -0.105577484 -0.14503728 0.010821025 -0.12935019 -0.082551286 0.0042592594 0.06773811 0.38406917 -0.032394793 -0.1255667 0.13847826 -0.26929754 0.113691114 -0.39028296 0.0062983935 -0.37043312 -0.20068684 0.048040524 -0.27340853 0.20382704 -0.035009746 -0.4302466 0.054915864 -0.15406422 0.09512064
445 -0.04730597 0.07055817 0.12581545 -0.37313765 -0.23891753 0.03962652 -0.02925032 0.04924618 -0.14754537 0.29362035 -0.21314062 0.2842034 0.11098097 0.35602608 -0.31946734 0.07626884 -0.053974368 0.10340182 -0.19973944 -0.032966428 0.022745656 -0.44366655 0.16126102 0.09606886 -0.08648496 -0.12794162 -0.08158215 -0.02501959 0.068453334 0.0061306665 0.22435749 -0.25774473 -0.113350295 0.3574705 -0.069662936 -0.18106487 0.2503471 -0.24889807 -0.15974481 -0.42399636 -0.032195352 0.06503313 0.10300859 -0.090221085 0.44466868 0.10196363 -0.10381033 -0.13653857 -0.010684707 -0.29153776
444 0.00389327 -0.36016157 0.15821539 0.03677397 0.26513067 0.19598727 -0.19065863 -0.36917618 0.06030823 0.14139675 -0.16383901 -0.25279617 0.10236311 -0.12844469 -0.17437927 0.039029412 0.10298803 -0.32500368 -0.3835554 -0.074809164 -0.25387394 -0.124572694 -0.021113493 0.051639058 -0.19293042 -0.054471385 0.27851585 -0.3218749 0.04714068 -0.22640835 -0.20879574 0.2951715 -0.097710416 0.17323011 -0.14886887 -0.28115338 0.009038007 -0.20466316 0.1300499 -0.18538858 0.37597257 -0.19750619 -0.006883493 -0.13622612 0.17594577 -0.035534054 -0.13501042 0.022440786 -0.119338974 -0.36534375
108 0.36381537 -0.27029112 0.027774824 0.1058968 -0.16118485 0.13146834 -0.12876195 -0.34080032 -0.090658285 -0.13051368 -0.13847786 -0.16516517 -0.112274796 0.12420145 -0.28248712 -0.07263524 -0.14390732 0.085070625 -0.19387639 0.21842566 0.052693848 0.4303499 -0.315193 0.122956924 0.07813282 -0.12871861 -0.11379437 -0.12600583 0.46178383 0.37237203 0.025372604 0.17778857 0.12273637 0.18713816 0.21970336 -0.0940084 -0.04826936 -0.07036809 0.2859943 -0.0070541645 -0.28344876 0.096462205 -0.023627216 -0.39186165 -0.01002922 -0.017761094 0.110242136 0.15084493 -0.15182416 0.26831892
109 -0.20954277 0.015832681 0.22678617 0.07644961 -0.21881694 0.004651547 -0.24159318 -0.014332317 -0.20985936 0.2634436 0.4081825 0.14039844 0.12366065 0.17719808 -0.21243736 -0.023554366 0.18488708 0.13707343 -0.1477466 -0.101925075 0.29295126 -0.3902202 -0.08454722 0.053574257 -0.2581568 0.012615278 0.18738846 0.0069837524 -0.17053232 -0.2827648 -0.04430329 -0.17496623 -0.2670549 0.2679641 0.0019811906 -0.2934936 0.18190013 0.2710024 -0.1965864 -0.1191325 0.15215698 -0.17529537 -0.4049369 0.3157594 -0.16322757 -0.23339032 0.097375765 -0.15166113 -0.015006615 -0.055220332
102 0.36014163 0.21749252 0.08612786 -0.12894034 -0.13873303 -0.026429104 0.23243879 0.05036278 -0.026870392 -0.18127987 0.09217788 0.23439398 -0.27938652 -0.20785326 -0.22651216 -0.0016159306 0.45289755 -0.02105867 0.4125455 0.092340685 0.2074294 -0.09903985 -0.0020876438 -0.12481763 0.0122383805 -0.0010734913 0.028088456 0.34334892 0.032268506 -0.2703593 0.027750945 0.18549699 -0.11440497 0.0608271 -0.17036909 -0.006284454 -0.23962449 -0.0016153286 -0.25070375 0.13095109 -0.009939515 0.4440794 0.26615337 0.15615696 0.11943976 0.030975323 0.019561812 -0.18014802 -0.38233522 0.31931266
103 -0.15622477 -0.112608835 -0.0017730749 0.097911045 -0.04528657 -0.4105444 0.2447974 0.24210745 0.27528062 -0.2859039 -0.31498978 0.08624254 -0.20556252 0.31641304 -0.16189069 0.22270454 -0.15228036 -0.053007867 -0.015489189 0.0064132004 -0.3184565 -0.01677227 -0.12763983 -0.17321652 0.086925365 0.31820062 0.05946711 0.16672933 -0.048002154 -0.20021911 -0.3012231 -0.058321364 0.16459075 0.100160785 0.045102544 0.1043349 -0.23850425 -0.023623466 -0.0337288 -0.23162746 0.11145438 -0.15250055 -0.20035987 -0.27305654 0.32976848 -0.2391515 -0.21896106 0.29943305 0.3294917 -0.07822487
100 -0.21669637 -0.117405996 0.31713298 -0.06801686 0.2250753 0.15333264 -0.026402209 0.065965235 -0.14754519 0.27752838 -0.15327205 -0.21670246 0.3344048 0.2813999 -0.13275604 -0.23813438 -0.040479742 -0.18164021 0.33838245 -0.14439625 -0.09912269 0.01730939 -0.32923612 0.13658673 -0.11441249 0.33041945 0.115657635 -0.05421145 0.063415915 -0.42104733 0.14847203 -0.21063912 -0.16443673 -0.2721009 0.0094955005 -0.2507913 0.08267034 0.03489399 -0.050263233 0.12812822 0.11999936 0.070995875 -0.42753452 0.1393371 -0.23386864 -0.2887496 0.026712867 0.025886139 -0.18297198 -0.20287453
101 0.076783955 -0.19156441 0.019387538 -0.4336902 -0.12598385 -0.111546 0.37896436 -0.13124621 -0.09403927 -0.073579684 -0.0131168105 -0.15709975 0.16938244 -0.22520112 0.20372754 -0.23453413 -0.02531509 0.0566717 0.11064197 -0.15046309 0.42738515 0.06837021 -0.2517602 0.23229833 -0.14612223 0.25519806 0.20780157 0.26514295 -0.31798464 0.3499896 0.22825904 -0.21768841 -0.14020331 -0.19816877 -0.12154708 0.12709647 -0.19160044 0.060878765 0.021100208 -0.018880872 0.066623695 0.3442542 -0.090027474 -0.13195662 -0.2745765 0.14934815 -0.0008145518 0.022725062 -0.28924775 -0.19202837
106 -0.012816771 0.061427176 0.06049678 -0.20033169 0.056667488 -0.23288724 -0.07692511 0.20420991 -0.033322833 -0.21124013 0.19073977 0.19124693 0.118883364 -0.31378913 0.028069368 -0.29466552 0.16696106 0.12647383 -0.058761835 -0.38746175 0.16485815 0.20542626 0.41810152 0.2854476 0.07198637 0.40612465 0.07838512 -0.1172747 -0.19350596 -0.09724073 -0.41255844 -0.01729602 -0.25640097 -0.20647909 0.0032229146 0.1575679 0.12904583 0.12524605 -0.04526269 0.013561799 -0.034350574 -0.118362896 0.1610754 -0.004515943 0.24422494 -0.009838512 -0.06490868 0.28712156 0.3517243 0.3445521
107 -0.07799792 0.07445833 0.16878848 0.20276472 -0.077069655 -0.18783793 0.39012855 -0.01025118 0.40764663 -0.15118779 0.009129203 0.17771271 -0.09891025 0.1590535 0.28496486 0.23146312 0.045441125 -0.26982778 0.06341013 -0.024300126 -0.003846347 -0.31522495 -0.16865067 -0.3128866 0.17168275 -0.014851145 0.0043011988 0.29392254 -0.328563 0.19092986 -0.43178067 -0.17968194 -0.06388198 0.24631692 0.3294325 -0.22633117 -0.15170929 -0.045830667 -0.1787584 -0.057294875 0.19150428 0.15618083 -0.039651442 -0.12271176 -0.14892866 0.10566428 0.29409268 -0.090461954 0.22622512 -0.092149526
104 0.023362916 -0.0053715734 0.08149574 -0.07467278 -0.10797887 -0.15707256 0.24638109 -0.1456879 -0.33667058 -0.2744927 -0.41726795 -0.008131372 0.026340038 4.084757e-05 0.19103333 -0.022877252 -0.13363628 0.3080198 0.14285477 -0.16111675 0.17281571 -0.18448891 0.18029664 -0.20577708 0.41293037 -0.14370628 0.3766766 0.12061035 0.3794854 -0.19641902 0.042583022 -0.04943981 -0.22196 -0.10539121 -0.27450773 -0.011742507 0.11485499 0.34807613 0.1821637 -0.2197063 0.09212645 0.1520596 0.024225017 -0.23162162 0.101110734 0.03951078 0.25533482 -0.070100926 0.3406057 -0.025464064
105 -0.24868838 0.2798105 -0.040251456 -0.13382755 -0.19805084 -0.33713758 -0.18100734 -0.08917363 -0.1680367 -0.09965957 0.19388697 0.19124705 0.14891455 0.23964134 -0.054121185 0.062030394 0.058466207 0.3814003 0.10567868 0.045646425 -0.2471967 -0.26860544 -0.026758147 -0.34379 0.18361254 -0.20450176 0.28940403 0.13168824 0.29930475 -0.020288814 -0.40556002 0.15912727 -0.31704834 -0.16903795 -0.16366656 0.18264888 -0.118087165 -0.19278127 -0.014523525 0.1775439 -0.08821672 0.17764728 -0.006167558 -0.13288847 -0.0062824003 -0.13817632 -0.15604149 0.23225905 0.20969282 0.32675636
38 -0.064568825 0.15729982 -0.1870426 -0.38960922 0.22597472 0.24906322 0.085686795 0.027860228 0.2752101 -0.014197373 -0.23829447 0.2516671 -0.019509083 -0.06466104 0.12559876 0.37949136 0.004152246 -0.006859275 0.19595243 -0.04127849 0.10303254 -0.4324996 0.004520912 -0.19179454 0.16744004 0.050821252 -0.041344337 -0.16885465 0.3244205 0.13521834 -0.01972792 0.3478194 0.26437718 0.14791392 0.19694889 -0.18038756 0.37585735 -0.20100552 -0.02008733 -0.053060174 0.15026309 -0.019895913 0.06140204 -0.33498994 -0.06794813 0.41250572 -0.044799984 -0.13093714 -0.106801 -0.1732145
33 -0.27535394 0.13409454 0.07904026 0.006874827 -0.05012521 0.34886083 -0.099856585 -0.40033317 -0.15848835 0.11516015 0.36729816 -0.13330342 0.0026168602 -0.08378079 -0.062053386 0.18264855 -0.106643654 0.28826508 0.13961795 0.0008595794 -0.17553572 -0.34094992 -0.050584495 -0.25065583 0.20915137 -0.3209019 -0.00056981307 -0.20683996 0.049827643 -0.19133759 -0.04995566 -0.041115306 -0.13714775 -0.25089383 0.24198428 -0.035322655 0.046771236 -0.13011421 -0.12226462 -0.2602927 0.28414258 -0.06086873 0.31553358 -0.059725422 0.39384058 0.09486185 -0.09213598 0.2017975 0.16459279 0.37362906
32 -0.18949153 0.03179761 -0.1880849 0.0037582961 0.059815448 0.013411092 0.42660028 -0.18264651 0.044584442 0.13891421 0.11339097 -0.25262278 0.010233171 -0.08069562 0.07668625 0.32239708 -0.11331503 0.15260714 -0.30969056 -0.39189455 0.20354475 0.3376433 0.22288619 0.058804486 -0.00030622844 0.31635487 0.1884023 -0.2509481 0.2655963 0.12719522 0.18702844 0.25039858 -0.022569707 -0.066083334 -0.2372955 0.03622146 -0.08449007 -0.14360571 0.34623563 0.122144915 -0.14908257 -0.063580535 0.0940109 -0.018334903 -0.27813825 0.02263837 -0.3133444 0.33676836 -0.21269415 -0.14778621
31 -0.035907622 0.09824713 0.08899503 -0.3554981 0.052849825 0.12148784 -0.2641992 0.019224428 0.25338835 -0.3284982 -0.4114357 0.084486775 0.30500734 0.35925984 -0.20043115 0.1327471 -0.22750802 0.037492927 0.113825195 -0.061330132 -0.1484643 -0.029906832 -0.03555274 -0.11750182 0.17527202 -0.18138927 -0.3299751 0.11942809 0.030580092 0.121976145 0.21687432 -0.07554387 0.11125756 -0.10650293 0.16948181 -0.01871609 -0.3245772 -0.089973085 -0.20482905 -0.14960733 0.14611569 0.33649227 0.20595679 -0.3063079 0.12697093 0.20339759 0.41922447 0.09607734 0.12818883 0.12285816
30 -0.27212736 0.015364925 -0.072863884 0.055838246 -0.11921421 -0.3436797 -0.21378964 -0.36748517 0.08606467 0.021946229 -0.25091216 -0.18274225 -0.31103712 -0.15649168 -0.28280938 0.32786164 -0.057391293 -0.0714083 -0.15564539 -0.03378457 -0.12945485 0.16348964 -0.24739344 -0.18325993 0.13863993 0.112687185 0.12854649 -0.0106577575 0.30191994 0.088772975 -0.24193425 0.20531385 0.065156356 0.022945434 -0.34555623 0.13802935 0.21057764 0.2776455 0.27377543 -0.36953694 -0.25469235 -0.053361386 -0.15395983 -0.098144986 0.106326 0.27983975 -0.09573824 0.17726336 -0.055252 -0.24588592
37 -0.37044895 -0.17814499 -0.14482905 0.17782956 0.17386799 -0.058264475 -0.34983552 0.23912914 0.18803771 -0.017379118 -0.44675916 0.06724007 0.10436763 -0.2206421 -0.057406545 0.29884505 0.14575744 0.01070143 -0.18292025 -0.012924072 -0.012067044 0.10121805 0.27313223 -0.18130311 0.020899251 0.34284604 0.09165371 0.24894094 -0.34226847 0.23387858 0.21928413 0.04608634 -0.053869575 0.15589531 -0.21551113 -0.09406291 -0.2650803 -0.0679631 -0.23490308 0.19096121 0.097533874 -0.34129187 -0.07039297 -0.11146527 -0.14844643 -0.055123802 0.1018656 0.3136127 0.24664766 -0.054639827
36 0.007356936 0.11860772 -0.014321589 -0.12611416 -0.32651618 0.37427753 0.34558842 0.26919675 0.18579635 0.08793088 0.21472214 0.14430323 0.24907866 0.08974151 -0.099655375 0.17702354 -0.12231248 -0.35925162 -0.19739935 0.010360091 -0.04037912 -0.21167158 0.17381546 -0.15950395 -0.15951645 -0.015257901 -0.07355429 -0.4325275 -0.10702668 0.48728496 -0.14066368 -0.022906985 0.00013458032 -0.22581345 0.2080484 -0.2171861 -0.28043163 -0.06866909 -0.08355917 0.04688989 -0.005191761 -0.06147056 -0.18953413 0.044984076 0.37233678 -0.23203813 -0.13062972 -0.026014155 0.22400801 -0.043950975
35 0.008118856 0.03323619 -0.12824497 0.17591111 0.08706277 -0.05213131 0.26794732 0.04558524 0.14757346 -0.020529522 0.08706825 0.24765535 0.362869 0.29965627 0.14041024 0.06278576 -0.33668363 -0.21525422 0.20860462 0.34496588 -0.13465632 0.028711542 0.0023395047 -0.43322662 0.04661841 0.19908419 0.2122388 0.12114292 -0.17356446 0.31974986 0.013792958 -0.096071534 -0.091975644 -0.29601306 -0.5009784 -0.012820833 0.12992287 0.09982104 0.034166165 0.054835238 0.0031103224 0.105540074 -0.04656877 0.2396885 -0.11838575 0.19006343 0.047012582 0.31583753 0.34864882 -0.19023222
34 0.15635751 0.21337229 0.35807627 -0.044571325 -0.16886596 0.18988205 -0.012499306 0.14115715 -0.015826754 0.0070561124 -0.15007271 -0.014034902 0.11886951 -0.35454983 0.11445202 -0.022904834 -0.14999166 -0.007477904 0.3093053 0.08664233 0.12146827 -0.40589452 -0.36485457 0.0372367 -0.31455997 -0.1171472 -0.08314274 0.055619087 0.09984886 -0.02319068 0.044791307 -0.040611435 0.16376679 0.36370623 0.22696772 -0.17160514 -0.25480258 0.16866373 -0.34648773 0.13815095 -0.16567162 -0.01490758 -0.33489192 0.20191038 0.23045485 -0.26933578 -0.14470191 0.07299889 0.2223017 -0.32803193
438 -0.34474865 0.021698806 0.09787955 -0.25525913 0.012988081 0.23755114 0.017101659 0.24161798 0.20289424 0.02160877 0.15913656 0.112010054 0.22187564 0.28658968 -0.18356964 -0.04616302 -0.021070039 -0.18368582 -0.15420558 -0.0037148576 -0.23919035 -0.22686945 -0.20415853 0.4565833 0.16482002 0.13456726 0.202649 0.17456731 0.09177583 0.2716163 0.037026282 0.0023299684 0.19003335 0.32314226 -0.13899092 -0.14792174 -0.25650653 -0.2447118 -0.09806408 -0.23467539 -0.17072992 0.28376365 -0.16890706 0.31595472 -0.016327092 -0.15833476 -0.2652305 0.3276274 0.11482061 -0.020990333
439 0.28468308 0.055946376 0.20924647 0.06947177 0.087720476 -0.10070116 0.24595349 -0.0035955096 0.3069267 -0.23943418 -0.371195 -0.13665432 0.0014042925 -0.09045332 -0.3409767 0.065261334 -0.16002348 0.3304561 -0.021042215 0.18758647 0.054160897 0.010509498 -0.3407341 0.0013739291 0.25017393 -0.057969145 0.024556503 -0.09298244 0.07672268 -0.15364048 0.09356987 0.49847975 0.15167093 0.08613535 -0.005015504 0.035442993 0.3243689 -0.097683884 -0.24423523 -0.072743565 -0.07857461 -0.27266482 0.16374622 -0.11587085 0.39371204 -0.38710994 -0.03687087 -0.23934495 0.03805026 0.0595101
436 0.09227651 0.2454001 0.1372288 0.3652124 0.23657674 0.1455218 -0.050186343 0.33331215 0.17846888 0.33225977 0.059720784 0.18522245 0.16572341 0.29659095 0.1010541 0.035315305 -0.11746938 -0.16772197 -0.03814269 -0.041503474 0.27768883 -0.14106496 0.22525506 0.2325958 0.1852615 0.35754144 -0.11115577 -0.38484883 0.047033757 0.027713567 -0.18140136 0.050827477 -0.15137604 -0.31252056 0.035457466 -0.43239993 0.02371453 0.19611368 0.054993637 0.14965688 0.039660227 -0.15203233 0.15128805 0.09936465 0.109165005 0.060155913 0.33298415 -0.24596724 0.13880198 -0.1906475
437 0.00074165524 -0.17278755 -0.05440692 -0.23210275 -0.17649579 -0.16663335 -0.35314804 -0.34558162 -0.04356358 -0.1658474 -0.053538408 -0.33893695 -0.11333417 -0.3174634 -0.16423994 0.055124998 -0.057850245 0.09184864 -0.029688135 -0.06079999 0.23900156 -0.3444842 -0.18929905 -0.010205257 0.30228353 -0.10917361 0.1327 0.1122424 0.19658116 -0.38660073 0.03203461 0.2584187 -0.09202223 0.121576175 -0.37829757 0.3367986 0.13976444 -0.024943657 -0.07635603 0.024318516 0.19245857 -0.106482685 0.36366004 -0.2708276 -0.1894131 0.09593243 0.19249396 -0.04520811 -0.19934681 -0.13304593
434 -0.12951466 -0.113557994 0.1456967 0.10952065 -0.25938535 -0.3330737 -0.1846683 0.08496456 0.02527129 0.3228423 -0.101228684 0.049245153 0.06320354 0.20040062 -0.12033437 0.33804092 0.022760421 0.24152637 -0.25994667 -0.21691686 -0.22392623 0.3772968 -0.062077545 0.09489907 -0.21974838 0.2266108 -0.24100725 -0.16612871 -0.19363037 -0.3012867 0.2785549 0.0723881 -0.080511406 0.26311433 -0.062065467 -0.3544401 0.13311115 0.22216304 0.25043076 -0.22992364 -0.067311175 0.2013624 -0.18739341 0.18268956 -0.09485573 0.19813575 0.044451952 0.30642056 0.076765895 -0.020767165
435 -0.011382678 -0.30796015 -0.30428952 -0.03412612 -0.22476439 -0.32092378 -0.04762993 0.059118763 -0.027696392 -0.21956381 0.17480683 0.06533202 0.038376935 -0.002875857 -0.38721868 -0.27016062 -0.3504038 0.1471278 0.13152839 -0.0803005 -0.0303678 0.13795404 -0.30436188 0.2502196 0.020387014 0.24671343 -0.085513406 -0.040989753 0.3792464 -0.16206181 0.024438215 0.10511062 -0.07842957 0.22644022 -0.13562632 0.052666254 0.26882353 0.05613209 -0.23721062 0.31963283 0.33777404 0.037440173 0.17491432 0.27359748 -0.15800695 0.40280008 -0.15356651 -0.006823439 -0.05636505 0.031509478
432 0.30008945 0.14544636 -0.0556098 0.1895718 -0.08109068 -0.11117361 -0.24287447 -0.058287043 0.17738219 -0.07462153 0.007196809 0.14023876 0.057764273 0.29869935 0.12277577 -0.3594044 0.3047552 0.029873746 0.18619858 -0.17301993 -0.11966967 0.25614694 -0.15054625 0.46106082 0.036591437 0.0035345608 0.27709797 -0.17464325 -0.10312566 0.14679833 -0.29068872 -0.11648227 -0.27468646 -0.13737835 0.28474665 0.17771749 0.14165068 -0.021562561 0.16968675 0.014473014 0.31534114 -0.1618778 -0.107097715 0.11151553 0.3327656 -0.13631514 -0.22374102 -0.0007677745 -0.090334475 -0.41090488
433 -0.041841794 -0.06354129 -0.0006812978 0.26566792 -0.0030460428 0.19750439 -0.14656046 -0.27131248 0.25501627 -0.11976025 0.09423923 0.06256243 -0.28975862 -0.06516237 0.23445873 0.45556062 -0.1546912 -0.19330572 0.43504086 0.15310502 0.23609966 -0.07932496 0.06560279 -0.062152598 0.04939815 -0.22629161 0.1696023 0.32700768 -0.12739655 0.15123023 -0.07181292 0.0920619 0.027745087 0.15360278 -0.15471281 -0.0039881896 -0.0069559305 0.01781493 0.35524464 0.005217186 0.37198552 0.20723729 -0.0037090292 -0.2934903 -0.06698512 0.37002048 0.31185833 0.12376882 -0.17411356 0.18354821
430 -0.0028901573 0.07589181 0.049202994 -0.050895814 0.23876774 -0.30226526 -0.103443295 0.023010246 -0.32971817 0.32545835 -0.18812627 0.2809471 -0.062083624 -0.21478637 -0.25126404 -0.19917671 -0.25816828 -0.08130292 0.14730354 0.3368164 0.1787002 0.23921742 -0.053841606 0.2175787 -0.007824089 0.32511237 -0.0058695353 0.20792155 0.16970158 -0.049950633 0.07278844 -0.27088946 0.0710157 -0.09831119 0.10398066 -0.049943313 0.3309047 0.017002318 0.38642782 -0.27687114 -0.08705097 -0.14586647 0.37469214 -0.2632315 -0.11203107 0.09463212 -0.049978383 0.2946372 -0.0017237081 0.1670911
431 0.45222634 0.20282178 -0.12599249 -0.01720384 -0.11089402 -0.20290159 0.26047516 -0.0429609 -0.15501766 -0.12919445 -0.1719509 -0.1575543 -0.31531242 0.13319437 0.11182374 0.07458668 0.25939736 0.17849071 0.026152948 -0.07512476 0.23572637 0.00928842 -0.38333625 0.2688577 0.06576142 -0.05526586 0.05990741 -0.25033498 -0.16073006 -0.05547919 -0.23605347 0.19222648 -0.4369537 0.34609324 0.17166395 0.26000512 -0.03524453 0.17964579 -0.0454226 -0.17917486 0.02030964 -0.070693016 -0.023748338 0.3104834 0.33389595 -0.18967067 -0.06481278 0.17972231 -0.21747291 -0.0034885379
339 0.1983377 0.05830586 -0.34293795 0.09128614 0.047130503 0.048762396 0.24250466 -0.07447829 0.2249697 0.1331592 0.20709978 0.029999822 0.06834257 0.009076135 0.23425528 -0.17051661 0.25835544 0.36810195 -0.086203374 0.42427763 -0.013747633 0.13139147 -0.25420848 -0.12697402 0.27137542 0.31142005 -0.13506587 0.016126178 0.11108014 -0.25004578 -0.026940688 -0.02624072 0.09278814 0.4888041 0.46916786 0.07559072 -0.03021193 0.1528959 0.27595103 0.19297118 -0.046779733 -0.17625844 -0.03375403 0.070549764 -0.3322921 0.06068941 0.03128671 0.124912985 -0.11716466 -0.11579137
338 0.1559218 -0.11593971 -0.1952456 -0.089038625 0.36340868 0.2978237 0.1212469 -0.0458324 0.2036943 0.17028879 0.0683765 -0.106206685 0.20521872 0.1344154 0.12635432 -0.17685948 0.27106994 -0.33622956 0.4184471 -0.21820858 -0.026216567 -0.2043048 -0.03904657 0.1490827 0.09664013 0.14423546 -0.0043328516 0.16506116 -0.14445858 -0.24749307 0.17049645 0.15309666 -0.2750418 -0.10664174 0.1762782 0.038801644 -0.3128904 0.083313555 -0.111623585 -0.13048747 -0.13194785 -0.029628996 0.36967993 -0.31770778 0.20840417 0.26898587 0.30285218 -0.30748928 -0.07348656 -0.0055205952
335 0.23269263 0.14890382 -0.1897266 -0.30584854 0.074199915 0.17905568 0.1285626 -0.047867723 0.16114092 -0.1554853 0.09356044 0.3166001 -0.027335461 0.22875813 -0.19697735 -0.3169788 -0.106652126 -0.06299354 0.2616956 -0.03464544 -0.18135527 -0.28969064 0.008111632 0.4082693 0.1329807 -0.3514569 0.042990573 0.34174827 0.17421201 -0.26075572 -0.3261847 -0.03422949 -0.20458587 -0.0887171 -0.1069889 0.06139757 0.009430296 0.21316986 0.21662512 -0.49064648 -0.10101759 -0.05467757 0.07738474 0.1302249 0.13176401 -0.019730331 -0.30029348 0.06975915 -0.060144 -0.035234373
334 -0.18756053 -0.08122522 0.12503152 0.15033588 0.17697033 -0.22751944 -0.011581809 0.06496256 0.115900055 -0.21050547 0.035400487 -0.052585922 -0.29894024 0.27387848 0.044241056 0.32509616 0.13319056 0.13549599 -0.31574306 0.034048 -0.25290087 0.33705905 0.42249 -0.07583376 0.000773279 -0.105146304 -0.0061011193 0.08976014 0.14184178 -0.35041428 -0.24694121 0.33855283 -0.31269482 0.039206613 0.17216468 -0.09334436 -0.12612097 -0.23272493 -0.017996691 -0.049082693 -0.12049973 0.23423038 0.16684094 -0.2149183 0.04255764 -0.094583996 0.47072288 0.09709542 0.16209903 -0.20105366
337 0.20347834 -0.27365813 -0.14889154 0.4148254 0.045557935 -0.18764202 0.16269019 0.22038803 -0.23263419 -0.073182106 -0.05889566 0.21413302 -0.21863906 -0.1841864 0.00724748 0.03087892 0.05017021 -0.2700797 -0.13481537 -0.077526055 0.2574367 0.20491576 -0.34170872 0.20009185 -0.14454763 -0.041167453 -0.15369768 0.22592352 -0.07379167 -0.10892656 0.18791395 0.40515456 -0.2147241 -0.101877384 0.13427432 0.04928316 0.043263197 0.26003745 0.09370404 0.10600857 -0.09705844 0.06729418 -0.2512205 -0.18612806 0.37903124 -0.08676006 0.17321663 -0.30688196 0.1924068 -0.34105468
336 0.2715891 0.12686424 0.20128375 -0.13289334 0.05045016 -0.4727041 0.30940926 0.012259387 0.20454822 -0.2901654 -0.29995573 0.145562 -0.0008932117 -0.20867775 0.0053557637 -0.09658271 0.0076813167 0.013142181 -0.37753028 -0.11564266 0.007915126 -0.18775791 -0.13053964 -0.14145443 -0.10718551 0.41149706 0.27799943 0.06861656 -0.0275077 -0.36589664 -0.0025542707 0.20505534 -0.13263237 0.0952365 0.32292742 -0.08311191 0.023879724 0.07001495 0.01226422 0.4879612 0.0729223 -0.12894298 -0.18637732 -0.1562091 0.15986882 0.19116512 0.054361284 -0.12191674 -0.038575053 0.16708207
331 -0.15537642 0.10582818 0.12065005 0.29364944 -0.17265801 0.29169565 -0.19910288 -0.08170775 -0.112059735 0.34271905 0.11522284 0.29221922 -0.289874 -0.03717468 0.063068464 0.18503685 0.18301 -0.22081865 0.13633533 -0.070461474 -0.2951224 0.2335022 -0.3087456 0.043524787 -0.0755319 0.052698158 -0.08789869 -0.07837929 0.40370986 -0.0993372 0.07937265 0.37964818 0.42481247 0.1270858 0.17046404 0.02830344 0.15616372 0.27866098 0.038123306 0.03336432 0.060694672 -0.067401335 0.15303513 -0.096301414 -0.45554313 0.11387196 0.086605996 0.1169734 0.10465485 0.18827447
330 -0.12764995 0.16630657 0.08475422 -0.13413464 0.14696336 0.15781352 0.07619842 0.044808555 -0.08267733 0.028472235 -0.1723021 -0.2513488 -0.1751095 0.055265345 -0.27195317 0.054704282 -0.3210935 -0.011665867 0.3963989 -0.1163074 -0.16452576 0.22844309 0.45201832 0.07927639 0.31877702 -0.058869384 0.27399057 -0.024591392 -0.08822936 -0.08727748 0.1681347 -0.009687873 0.2987787 -0.0837488 -0.19619334 0.1817611 0.053211723 0.17479776 -0.29071343 -0.021664513 0.011079925 0.17565936 -0.35946313 -0.08472067 0.48011506 -0.3305412 0.08754965 0.1950355 0.1171584 0.15602812
333 0.28963208 0.2508219 0.31721458 -0.040751364 0.024868382 0.05417061 -0.0018641105 0.31782603 0.17940602 0.12158112 -0.076055035 0.044904914 -0.12931241 0.1586911 -0.26281503 -0.25834978 -0.03960039 -0.24429035 -0.15859273 0.19729176 -0.1020847 0.21935031 -0.10648172 0.38581076 0.26421568 0.44589218 -0.4034113 0.1793556 0.09697958 0.21177177 0.30143118 -0.33380067 0.06625746 0.06362149 0.34800428 -0.043988653 -0.06854582 -0.018833352 0.111095525 -0.12020123 0.1257486 -0.09394564 0.023559982 0.08203981 0.07595559 0.089103065 0.23971626 0.06742628 0.07144672 -0.27141142
332 0.118268155 0.23912859 0.115433075 0.15814987 -0.12954266 -0.05466196 0.20892514 0.027415724 -0.16281803 -0.01788673 0.34855875 -0.07381318 -0.12818903 -0.18127055 0.18067022 -0.23651177 -0.15449934 0.38211095 -0.14916833 -0.12221101 -0.41018265 -0.3618709 0.1604301 0.04751735 -0.020480478 -0.19259778 -0.14565182 -0.115912475 -0.18430407 -0.20313658 0.09331265 -0.2763077 -0.15254535 0.101836264 -0.0073708943 -0.16960566 -0.0024795807 -0.121700086 -0.07713157 -0.095144264 -0.25556844 -0.16527809 0.4608125 0.18928896 0.3479685 0.24877279 0.32076105 0.12371565 0.12323242 0.13612668
0 0.13345225 0.3126461 0.21997982 0.10766717 0.07702736 -0.14532204 -0.013772739 -0.3589522 0.17380622 0.2737611 0.1823899 0.04977557 0.06018826 -0.15963987 0.30383855 0.14061219 0.043625683 0.19967979 -0.1875367 0.13421665 0.013575907 0.4213319 0.1242471 0.3071126 0.06210595 0.2199415 0.22079639 -0.013482174 -0.23656192 -0.25596547 -0.21838157 0.1520046 0.14959277 0.2797708 0.10159732 -0.18493131 0.13859387 0.14224657 0.05981075 0.20724453 -0.17899781 0.003730136 0.35647413 0.024734747 0.09986255 0.4523263 -0.10095429 -0.028069993 -0.2025931 0.23008873
6 0.4073782 -0.28539437 -0.05721002 -0.003805689 0.083179705 -0.04943477 -0.035424493 -0.18160395 0.23601915 -0.026248643 -0.10225286 -0.27886352 -0.1396051 -0.16836606 -0.22002524 -0.27258766 -0.24488647 0.11708694 -0.053358834 0.24299301 0.09242544 0.05463542 -0.38805604 0.17801318 -0.2473186 -0.30419233 0.058151253 0.27773806 0.002417367 0.1680615 -0.09861997 -0.24534754 -0.2252051 0.19021977 0.2965587 0.023582874 0.021346265 0.3197596 -0.24810776 -0.099829055 -0.09856683 -0.10457045 0.24959165 -0.13551533 -0.033240438 0.25146636 0.2015348 0.33508566 -0.2222429 0.1058494
99 0.184824 0.18798462 0.15456513 -0.15233885 -0.2339735 0.14032027 -0.041040868 -0.37337595 0.2110294 0.09615798 0.06529736 -0.20394036 0.21544634 0.068992525 0.19862874 0.36260688 -0.068877734 0.12770718 0.36176392 0.15205815 0.1727203 -0.27888837 -0.14351411 0.20542617 -0.025928056 -0.10913615 0.11095671 0.32429963 0.014313616 -0.08904369 -0.108565874 0.114891805 -0.17308703 -0.1283884 -0.20241554 -0.06738458 0.02513328 0.34771645 0.37993258 0.3485263 0.037909243 0.26305234 0.2075365 -0.20328377 0.1934944 0.05244138 0.07780293 -0.07255288 -0.21624042 -0.32384762
98 0.24577658 0.26272538 -0.09253903 0.11175475 0.082322195 -0.010174083 0.10690391 0.23685403 0.027110593 -0.13911292 0.117619075 -0.23486252 -0.10149689 -0.4845245 -0.098605484 -0.5081078 0.0909261 0.06736008 0.11442332 0.26618668 -0.15773994 0.11662108 0.0040251995 0.05600439 -0.18621442 0.020777483 -0.28049198 -0.1799578 -0.0011079959 0.33509248 0.24023409 0.19463155 -0.3012974 -0.24491058 0.19092137 0.27160722 -0.234314 0.20562132 0.20543124 -0.14116885 0.04727514 -0.1344257 0.08137405 0.12886348 -0.08784475 0.16724034 0.28051466 0.26852247 0.044955544 0.16821568
91 -0.03880201 -0.124031715 0.27634344 0.08455952 -0.2829129 0.14839447 -0.06628999 -0.18900588 0.075761035 0.30535245 -0.35738397 0.42775625 0.052238733 -0.19811639 0.06930997 0.14874648 -0.35828894 -0.3069397 0.057942484 -0.0779488 -0.100069515 -0.079394884 -0.081756674 0.15287471 0.020990767 0.06970705 -0.20067352 -0.20375752 -0.25979134 -0.09031358 0.05707048 0.19190094 -0.4485477 0.08993551 -0.09387231 0.10122715 0.2422862 0.15928055 0.017899653 -0.018207913 0.07646839 -0.27398384 0.28236198 0.024180245 -0.3865826 -0.24495742 0.011943431 0.1227749 0.26477253 0.16898784
90 -0.039754566 0.30438125 -0.115265794 -0.03203741 -0.34021288 -0.31390065 0.3260577 0.03372426 0.021487352 0.21024701 -0.3386444 0.27256855 -0.12210416 0.11021317 -0.13435961 -0.31756192 -0.18649642 0.12792298 -0.21023785 0.008374532 -0.17217007 0.079937845 0.0061892625 -0.22229739 -0.09609184 0.06432015 -0.31193152 -0.17426501 0.22031514 0.200807 -0.30352592 0.116903625 -0.0047419546 -0.3332937 0.0045655896 -0.24218856 0.13200678 -0.26182342 -0.06911824 -0.028189654 0.16960934 -0.17871334 0.29476467 -0.11063317 0.03401591 0.32800075 0.061975524 -0.17723556 -0.24522848 -0.21963708
93 -0.108925834 -0.11569489 -0.06334642 0.015794355 -0.092110015 -0.34640434 0.14966407 -0.18984254 0.2735302 -0.09135815 0.42390543 -0.08275812 -0.29735747 -0.085269935 0.013233978 -0.061810907 0.34005383 0.18743534 0.0800336 -0.24739726 0.36207908 -0.04617303 -0.16602704 -0.15882294 -0.09883166 -0.10475675 0.3992299 0.19129294 0.097075775 0.19253299 0.06500549 -0.03211874 0.08391526 -0.31710568 -0.27660778 0.18186136 0.05051026 -0.33496615 0.20731457 0.36931565 -0.1317355 -0.09121353 0.23644286 0.13901712 0.10300964 -0.13811816 -0.11398602 0.22925183 -0.07813738 -0.16655579
92 0.283394 0.23046504 0.054659896 -0.21118203 0.113767795 -0.13331866 0.09302483 0.03364593 0.099187605 0.14083388 -0.182432 -0.27386868 0.27048162 -0.348116 -0.39369026 0.38270542 -0.03295767 -0.19059493 0.111386344 -0.12477629 0.17366065 -0.0705997 0.038911644 0.14616081 -0.14601016 0.028653275 0.039280873 -0.17850219 0.36574778 -0.19597338 0.101471335 -0.042258184 -0.29289976 0.20468824 -0.12873286 0.098314114 -0.31248337 0.046035662 -0.13889165 0.020595647 0.26708025 -0.23464468 0.2516801 0.29752287 0.2734942 0.06891777 -0.18932642 0.1427199 0.01969797 -0.3061131
95 -0.12688448 0.22723676 0.14370498 -0.20986941 -0.31289884 0.17908311 -0.11047873 0.07763262 0.23320942 0.35412478 0.041839536 0.26807064 -0.049562294 -0.028267704 0.14397565 -0.20270605 0.3477228 -0.11766758 0.059352923 -0.2569984 0.10014822 0.16095057 0.18715648 -0.33730766 0.10869374 0.012211608 -0.17277151 0.58824354 -0.21190186 -0.21761501 -0.19961041 0.086650066 -0.21868442 0.032829564 0.15784028 -0.16311961 -0.17695019 -0.098920725 0.091151826 -0.2679194 -0.27682984 0.076285176 0.0979658 -0.08325361 -0.11846434 0.07969913 0.20894329 0.108106524 -0.18269923 0.23379292
94 -0.02028723 0.16223375 0.030626858 -0.09699566 -0.10502666 -0.27002677 0.08206035 -0.22656465 -0.2602937 -0.24993876 -0.05027421 0.007291469 0.21888235 -0.042558506 -0.09748023 0.19719937 0.18930805 0.060186144 0.3130514 -0.15832925 0.5590978 -0.0316744 0.15076198 0.09247236 0.28739396 0.2918861 0.013478729 -0.1760511 -0.30513394 -0.14848955 0.18153717 -0.061362058 0.13936277 0.03779009 0.17528659 0.13973536 0.07206854 0.054747187 0.08705535 -0.2429384 0.07684178 -0.20525725 -0.35687125 -0.23643528 0.099253796 -0.3408016 -0.40859276 0.14062263 0.20364246 0.01937878
97 -0.13538446 0.042857293 0.12732807 -0.062569216 -0.202092 -0.029936332 -0.10699953 0.16351968 -0.05473508 -0.038422007 -0.26942912 -0.1864665 -0.0537019 0.16727674 -0.13146634 0.29565537 -0.0007823383 0.34409347 -0.28594851 0.27391303 0.38941464 0.30306083 0.18941961 0.089971356 0.2640588 0.14021434 -0.42124307 -0.22294971 0.3824297 -0.09101288 0.027579462 -0.04368196 -0.18569939 0.21567442 -0.10721516 0.2344818 -0.07890356 -0.07647113 -0.108385034 -0.13394247 0.085290685 -0.34798253 0.021976085 -0.21110724 -0.14214782 0.16274136 0.121299714 -0.10241383 0.28548503 0.28272748
96 -0.009203913 -0.13328192 0.14682978 -0.025930801 0.12070232 -0.07479795 -0.23093507 -0.06398719 -0.07801073 0.024691617 -0.05406375 0.31474838 -0.03788026 -0.09088895 -0.05055944 0.10287232 0.3853917 0.0027413962 0.22901317 -0.4257522 -0.48696846 0.17634624 0.18568005 0.25211716 -0.047840506 -0.021782506 -0.34161913 -0.064281404 -0.008144026 -0.09895992 0.27345422 -0.06388119 0.037162513 0.08029891 -0.21474938 0.37613437 -0.25705877 0.1597367 0.13372794 0.018748662 -0.4014153 0.013855772 0.18951607 0.06939453 0.46261084 0.23603567 0.0711713 -0.030035913 0.013234589 -0.082444124
153 0.12992649 -0.050779115 0.22758757 -0.36293802 0.22927633 -0.27252573 0.11804014 0.040135816 -0.03802376 -0.20787525 -0.30622724 -0.065009266 0.18778057 0.14556259 0.0029185333 -0.32263714 -0.11436673 -0.12512004 -0.36407667 -0.2571696 -0.20668457 -0.021514326 -0.10672245 -0.24397863 -0.09953019 0.04958627 0.41677314 0.23912403 0.18703066 -0.019815573 -0.30146903 -0.3672224 -0.19488892 0.15192512 -0.16223332 -0.032783378 0.02990391 -0.08444903 -0.08764515 -0.033679955 0.06478536 -0.45241022 -0.07794444 -0.16213018 -0.27091703 0.096060716 0.06579332 0.192048 0.1757982 -0.06541519
559 -0.17894061 -0.2867603 -0.09437645 0.35672617 -0.16759232 -0.32239872 0.07491535 -0.14908971 -0.06580945 -0.1318605 -0.090712085 0.11532797 0.018164234 -0.17446733 -0.2932999 0.09400921 0.18592808 -0.42288437 -0.023803206 0.059053417 0.34518644 -0.19748965 0.107506014 -0.17470677 -0.056136224 0.12417223 -0.13410527 0.2928625 0.08777844 0.17729451 0.33411 -0.40590677 -0.041488916 0.17456006 0.050281394 0.35235947 0.08077476 0.10985078 -0.18704373 0.17073737 -0.092208005 -0.09021776 -0.30514243 0.18611114 -0.030947765 0.32381615 -0.027541444 -0.20463079 0.12402515 -0.12439408
558 -0.15143704 -0.33146244 0.24901658 0.12719275 -0.06621372 0.029696075 0.051467378 0.19135046 0.053360194 0.3234433 -0.30608374 -0.020545818 -0.03146749 -0.08779113 -0.07046896 0.3041995 -0.3801493 0.12269161 0.032470837 -0.19453672 -0.016907427 -0.14730875 -0.009152284 -0.2852447 -0.36716422 -0.3589697 -0.007905587 0.073068015 0.25833926 -0.34494734 -0.37338448 0.35758397 -0.20592341 -0.22235306 0.09574336 -0.34498122 -0.013505432 0.08868436 -0.06137012 0.061311334 -0.031041464 -0.035792034 0.18451454 0.006443467 -0.07913104 -0.31492388 0.09574273 0.10660982 0.09187894 0.079923026
555 0.06852065 0.2452242 -0.34018713 0.020699387 -0.012866073 0.22021529 -0.07610188 0.27097988 0.05340531 0.109346315 -0.02862154 -0.16298641 -0.15832096 -0.052396826 0.27278152 -0.37021178 0.059344962 -0.05382539 0.044217918 0.07099062 0.46292505 -0.34103706 -0.2025977 -0.10769192 0.11401364 -0.099596255 -0.07747533 0.07918902 -0.070322126 0.24252985 0.40534905 0.2967809 0.18823552 0.10702992 -0.12400987 -0.22093418 -0.1346885 0.043354418 -0.010006247 0.08835443 0.24395965 -0.40747637 -0.1014551 -0.047616504 -0.09630606 0.30359906 0.18785584 0.2103604 0.29035956 0.13870043
554 -0.00016775986 0.043186665 -0.05428399 0.025009181 -0.25262308 0.114128865 -0.13751122 -0.39727706 0.2689501 -0.27165803 -0.01112597 0.12425199 -0.29401645 -0.103358686 -0.12026016 -0.05074328 0.40037975 -0.25610283 -0.16448174 -0.03551848 -0.19215399 0.27731028 0.03593111 0.28285062 -0.12566435 0.14074878 0.13886172 -0.05646846 0.1552264 -0.042840317 -0.027260529 -0.08458905 0.37256473 0.049608152 0.3091658 0.020653732 -0.13195647 0.16825248 -0.22418204 0.014490155 0.017019184 -0.33322483 0.2857383 0.14558609 0.2957218 0.14917257 -0.067964636 0.31984696 0.39647922 -0.04933716
557 0.15952352 -0.13087156 -0.4139307 0.0999093 -0.363467 -0.13329907 -0.114928655 -0.13915777 0.16664186 0.06405991 -0.41586256 0.15401661 -0.05462361 -0.10143662 0.111737065 0.14051954 0.32796255 0.18381888 0.07189282 0.26436353 0.04249619 -0.13274536 0.20611401 0.07490941 0.18890968 -0.24989991 -0.007816673 -0.06625874 -0.2884835 0.020541942 -0.1423762 0.25558338 -0.15403569 0.1685027 -0.34398302 0.23140039 0.08438249 -0.024428474 0.12625577 -0.3191696 -0.074223764 0.14523022 0.10133395 -0.066401295 0.25567064 -0.2597516 0.34447163 0.15722461 0.22673678 -0.21315628
556 0.1859076 -0.4140812 0.30289203 -0.22779782 0.096813984 0.22603975 0.024173515 0.18584645 -0.17211579 0.20336305 0.06281868 0.18758382 0.1486151 -0.1274608 0.0013967891 0.11401811 0.04349462 0.08349809 -0.18144491 -0.028105674 0.3634765 -0.08275507 0.00205936 -0.43386626 0.15335236 -0.13093539 0.22570923 -0.17302161 -0.10466324 0.05092858 0.35368198 -0.018643528 0.15660995 -0.25405425 -0.08820197 -0.14506492 -0.25999254 0.26848015 0.4255484 -0.22473143 0.09212269 -0.05028606 -0.17977066 0.08573915 0.030482199 0.27711728 0.26714218 -0.11601374 0.021860706 -0.24517737
551 -0.049293045 -0.23512115 -0.036158834 -0.0003000487 -5.119e-05 0.016119072 0.22162071 -0.4701172 0.19821988 0.18008728 -0.33115593 0.16530608 -0.24534999 0.22717337 0.101786144 0.20666826 0.24253932 0.15953921 0.37565038 -0.09054023 -0.07381773 -0.106508 -0.04502328 -0.20955907 0.02610427 -0.32969686 -0.20667283 0.19944479 -0.38665485 -0.26118812 0.22663946 0.20770402 -0.25748146 0.16555707 -0.027381465 -0.018375099 0.012566772 0.07124553 0.25638407 -0.34042367 -0.05472183 -0.044241484 -0.28451282 0.18045352 0.09314426 0.2395099 -0.06181936 0.032393422 0.031229768 -0.15678746
550 0.034743816 -0.119318455 -0.0766232 0.17821518 0.040042568 -0.03943353 -0.024531351 0.17214799 0.03934036 0.0008024291 0.022038067 -0.2987569 -0.32011056 -0.28863358 -0.08717635 -0.08202103 -0.2302831 -0.28085408 -0.3916214 -0.23537263 0.16244578 0.2953587 0.27682117 -0.28094357 0.110772684 0.1616657 0.11321901 0.24148591 0.3263196 -0.10384598 -0.14770967 -0.13569763 0.33933806 0.010293424 0.34469825 -0.08860274 -0.17499842 -0.1395108 -0.21761042 -0.08514844 0.32035595 -0.25746632 0.10125764 -0.24167685 -0.11585941 0.04778603 0.10599752 0.20851566 0.30095148 -0.006584815
553 0.2234446 -0.10837326 0.028430147 -0.14205478 0.08205216 -0.14482124 0.20728959 0.11072182 -0.13469839 0.08028509 -0.32780996 0.2751641 0.023927499 -0.30362713 0.070768654 -0.012397143 0.19003806 0.05957534 0.3474686 0.16438493 -0.2847841 -0.22941831 -0.3576449 0.25396863 -0.12309718 0.06879556 -0.32226726 0.048825216 -0.29917833 0.11077602 0.21618444 -0.19092171 -0.09021222 -0.34750462 0.011526561 -0.09067787 -0.23378752 0.030860553 -0.24194832 0.24699457 0.02128492 -0.079999745 0.23055987 0.32125008 -0.09073644 0.25555018 0.16302009 -0.21277155 0.28393543 0.049354903
552 0.034661878 0.10727772 0.37588137 -0.096763015 0.43643057 0.06677252 -0.29514566 -0.3206073 -0.08038698 -0.039229393 -0.064198 0.14552112 -0.1078731 0.23958229 -0.14209533 -0.1842103 -0.30128133 0.25833797 -0.12644288 0.18433012 -0.033200115 -0.21750377 -0.012012294 0.18325923 -0.07574724 0.07106811 0.32475626 -0.24771371 -0.0567247 0.29998562 -0.35742158 -0.03193333 -0.18220262 0.24133094 0.22158548 0.022591101 -0.18201102 -0.26435408 -0.38428923 0.15540202 -0.010584606 0.0049305987 -0.25311446 0.084952354 -0.003101612 -0.053969506 0.20768405 -0.011862174 0.2345499 0.1327562
238 0.054164317 -0.31231084 0.13029557 -0.16952148 -0.19893351 0.4800602 -0.038119838 -0.15320788 -0.006928934 0.025722804 0.3091636 0.18544127 0.07759287 -0.07499254 -0.3131117 0.05381051 0.09317304 -0.17456494 -0.039422724 0.17422654 -0.123662025 -0.107657865 0.03291814 0.44645065 0.13133453 0.060044512 -0.09601076 -0.28127554 0.047209688 -0.093990244 -0.006692885 -0.2859274 0.03115172 0.1176347 0.16294692 -0.25539666 -0.10904218 0.2561878 -0.20192765 -0.06620566 -0.056109138 0.12418954 0.32854375 0.33654484 0.25174007 -0.16161968 -0.27827826 0.4153039 0.08065138 -0.015529132
239 0.15236627 0.015110395 0.41854435 -0.12995178 -0.08754437 0.09852202 0.0761053 0.065420836 -0.22281627 -0.23779058 0.107742324 -0.17324229 0.25533295 -0.30675256 0.05224733 -0.0055862125 -0.09627405 -0.26756018 -0.4335819 -0.26614538 0.114305705 0.16110592 0.050008494 -0.19418734 0.16812682 -0.024980623 -0.24115326 0.27840066 0.12473102 -0.48503035 0.13486391 -0.2321621 0.14713284 -0.011459647 -0.056669317 -0.0703351 0.06507784 -0.24531846 -0.1718877 0.017972337 -0.23491499 0.15910138 -0.06574813 0.005636904 0.14147985 -0.31581244 -0.35848987 0.14185376 -0.21920596 0.12367764
234 0.17447515 0.13177197 -0.17045741 -0.059734512 0.37065288 -0.35985482 -0.060706306 0.09620923 -0.090659164 0.10843974 0.055680696 0.02467685 -0.07352012 0.29324463 0.3992031 0.23503795 -0.101709485 -0.18447036 0.25911415 -0.24454275 -0.09103318 -0.13948573 -0.13267146 -0.1404979 0.2714018 -0.033911962 0.28953367 0.29197708 0.28939107 -0.13257119 0.0077715744 0.04606114 0.2580251 -0.099865 -0.32554525 0.08160494 0.013396306 0.32965666 0.25326133 -0.1668553 0.25462416 -0.23626234 -0.1509539 0.29859954 0.20472214 0.17487918 0.10087429 0.04363855 -0.0025301485 -0.13805446
235 0.28275883 -0.23369205 0.05190333 -0.35245633 0.025266236 -0.0747066 0.028935432 -0.2262518 -0.0054380354 0.09534844 -0.1368811 -0.117583096 -0.27066675 -0.26055583 -0.12915514 -0.24135233 0.3767307 -0.20750986 0.001587328 -0.124770015 0.028355297 0.01876797 0.33611742 0.24937378 -0.21361084 0.18325368 -0.021992285 -0.08137119 0.24894159 -0.10268414 0.16836403 -0.0049277623 -0.46079487 0.14844841 -0.21739261 0.29402125 -0.11992316 0.044714157 0.009922766 -0.12121042 0.17506747 0.23796555 0.36947176 0.013796611 -0.28985068 0.08650156 -0.06908455 0.14433369 -0.16424201 0.30187076
236 0.34370837 -0.06880453 0.43238586 -0.12966798 0.077080876 -0.100091286 -0.11075633 0.121345 0.015551957 0.21949686 0.1592301 0.2055912 -0.044582624 -0.10182609 0.22672784 0.18072084 0.29087824 -0.12941647 0.20521772 -0.028398532 -0.29106092 -0.041038476 -0.15536098 0.2774899 -0.29347152 -0.09343805 -0.21740767 0.39889514 0.30251318 0.44734123 -0.09336528 0.26385042 0.007937195 -0.29433718 0.04292115 -0.12539525 0.147442 0.03358551 0.20624797 -0.012459589 -0.16777374 0.14309123 0.12536708 0.19052517 0.057892546 -0.08860213 -0.09927102 -0.06723246 -0.3249524 0.11527592
237 -0.051205456 0.20496158 -0.043010753 -0.34217423 0.18353723 -0.03156528 0.3274206 0.004283668 0.26649874 -0.18877664 -0.0431206 0.20158067 0.020145735 0.09713476 -0.3447135 0.036616214 -0.09151094 0.19104479 -0.058732007 0.089234896 -0.09612079 0.109572336 0.37389803 -0.36205986 0.25875118 0.27835605 -0.1649243 0.39990833 -0.0070117875 0.058270656 -0.16610229 0.41546217 0.35024253 0.057809565 -0.29174092 -0.072380245 -0.039279237 -0.034316663 -0.17041627 -0.18797384 0.11245912 -0.039853927 0.27066788 0.08944988 0.17230113 -0.00013086724 0.17736326 -0.15950677 0.24780418 -0.06924914
230 0.44575435 -0.32778007 0.065134704 0.13545887 -0.15080194 -0.14951119 -0.11554349 0.006365904 -0.12505627 0.043635063 0.10636266 0.05812302 0.38211834 -0.23238754 0.1438268 0.03020874 -0.29293016 0.231121 -0.0030842684 0.17504811 0.14992934 -0.017129313 -0.3194657 0.16527757 0.1921221 -0.45963177 -0.2643008 -0.23853132 -0.07348117 0.32435486 0.009995937 0.11557235 0.16110523 -0.0087346 -0.06922436 0.0971288 0.010034099 -0.115084946 -0.011795211 -0.277993 0.29221427 0.036809962 -0.19322391 -0.35357997 0.12719268 -0.02390706 -0.2763019 -0.05058193 0.20042796 0.1482632
231 -0.36797744 0.2534215 0.13391933 -0.13408546 0.35826185 -0.20504417 0.008363602 -0.012563503 -0.22030391 -0.011030311 0.40541118 -0.059525944 -0.34011373 -0.11083694 0.06489529 -0.18119736 0.08461148 0.18419273 0.005497611 -0.12017184 -0.287618 -0.1368946 -0.07827468 0.06477118 0.21196052 0.1126185 0.003232272 0.07735362 -0.009800565 -0.16843054 -0.015537903 0.33624616 0.15096064 0.111680344 -0.07996843 0.4106486 0.05223784 -0.048318606 0.08914441 -0.01962081 0.15146075 0.40185302 -0.24478255 0.086959034 0.068720736 -0.17992412 -0.13431296 -0.24911387 0.4492202 -0.2120683
232 0.08197072 0.20203029 0.052636944 -0.34617877 -0.04587159 -0.02634996 0.31186154 -0.121107735 0.12087251 -0.09074551 -0.14906505 0.14101845 0.23266393 0.08251999 -0.120087355 0.30828893 -0.086225726 0.012134962 0.36547163 -0.10028346 0.00013754636 -0.31512704 -0.28034377 0.17387538 -0.3470383 -0.24513668 0.18064603 0.05725348 0.11807822 0.3340782 -0.014820591 0.12753169 -0.12604868 -0.06682828 0.11780711 -0.097220026 0.16586544 -0.16905406 0.17191657 -0.32308882 0.46343738 -0.05779051 0.058835667 -0.3417059 0.30742443 -0.2297421 -0.08584634 -0.027897784 -0.0995521 -0.1567076
233 0.01800207 0.07509856 0.14539924 -0.45617792 -0.3981746 0.019079955 -0.14921111 -0.20867257 0.140374 -0.16380885 0.02014954 0.038453292 0.05332952 0.116943724 -0.25747663 0.20884974 -0.1176978 0.11508349 0.029587809 -0.30733314 -0.25356135 -0.12849957 0.16861576 -0.23964149 -0.27592677 0.117061496 -0.4184472 -0.31153527 -0.03499631 0.24974933 -0.2572479 -0.13523196 0.30574948 0.07025033 0.18298438 0.08204946 0.23146655 0.016272938 -0.12855653 -0.3872845 -0.14083487 -0.065607764 -0.0030087328 0.1353503 -0.12559007 -0.24454384 -0.18853948 -0.01206071 0.0014635267 0.23098293
1 -0.075132094 -0.16342844 0.29952782 -0.46314672 0.0025102382 -0.09879449 0.37573385 -0.15380096 0.18466748 -0.16814473 -0.31321236 0.21230872 -0.04855283 0.27388245 -0.0048864223 0.0032687308 0.16604622 -0.2167104 0.30473202 -0.12272045 -0.0374291 0.03734905 0.13628706 0.04512965 0.00291446 -0.003936998 0.012316833 0.11638828 -0.21444999 -0.07479365 0.021111142 0.17327315 -0.041466724 0.3534775 0.05059443 0.00026701548 -0.04000831 -0.10876995 0.40547022 -0.19390157 0.40996823 -0.20315129 0.11336957 0.10314969 -0.01685724 0.30094522 0.10583504 0.41135392 0.20483485 -0.11624761
155 0.19619443 0.08048818 0.09262429 0.15902044 -0.19592802 -0.12399887 -0.074876964 0.25961477 -0.10979688 0.14496528 -0.34632465 0.20369554 -0.118073545 -0.22316298 -0.078324415 0.36393306 -0.1205598 0.34934363 0.11731724 0.31620514 0.043322824 -0.2824008 0.14820005 -0.20294148 -0.049644712 0.21074884 -0.06463673 -0.088681735 -0.24299532 0.020693006 -0.29060823 -0.17720935 -0.16663429 -0.040117316 0.31882983 -0.0145552065 -0.33355337 0.4131236 -0.41528124 -0.18098605 0.018423034 -0.016698377 0.08611305 -0.21484932 -0.098896496 0.17195149 0.07011233 0.10912234 0.17000884 0.10275712
146 0.24133569 0.13797216 -0.00085226994 -0.20763232 0.21153726 0.011932269 0.28519988 0.15483503 -0.28716952 -0.060430728 -0.014053388 0.030440105 0.34333396 0.32041696 -0.048111476 0.0664019 -0.21709776 -0.017736329 0.33918685 -0.28823534 0.15254013 -0.24444094 -0.12294443 0.02604471 0.26553223 -0.2647492 -0.40733418 -0.058150753 0.30443683 0.3979753 -0.073676616 0.1239011 -0.039650172 -0.08460883 0.07712891 -0.49072126 -0.043711737 -0.13091514 0.0057042227 -0.0074248733 0.030286893 0.046538547 0.10153655 -0.28349903 0.0142953545 -0.050680906 -0.030486297 0.01617901 0.06447442 0.33503664
147 0.19844589 -0.10935708 0.04030776 0.34261677 -0.053432073 0.21258636 -0.1754234 -0.06914992 -0.23424858 -0.31282613 0.15498595 -0.12031779 0.037903536 0.056378257 -0.22385123 -0.025162183 0.14121462 -0.001678811 -0.27128595 0.085473605 0.50442886 -0.27408028 0.02568413 0.23798881 0.108379714 0.010896389 0.039419908 0.3861547 -0.06271117 -0.22638862 -0.15405469 0.11599364 0.2640387 0.07603554 -0.14111766 0.24337704 -0.09406217 -0.38924268 -0.11293458 0.022336962 -0.06189741 -0.05672006 -0.2578421 -0.19957891 -0.03413992 0.5392303 0.037122037 -0.1465006 0.011281213 -0.017876102
144 -0.2517151 0.17821342 -0.18816248 0.09907983 -0.026883865 -0.07181557 0.08865909 -0.28167847 -0.29943818 0.058323216 0.40819493 0.11407228 -0.07728466 -0.1775123 0.12723361 -0.25314116 0.2922372 0.18808995 -0.021030497 -0.116564825 -0.022064224 0.3219185 0.09497515 -0.08476104 0.34783342 0.053147726 -0.04475091 0.3282637 -0.23235637 -0.13240568 0.07257347 -0.30817908 0.049369194 0.32585928 -0.3512594 -0.0012038936 -0.022698225 0.02217596 0.21837634 0.14674349 0.088902235 -0.047206033 -0.08695154 0.15224075 0.28231052 -0.039133564 0.33787975 0.19116461 0.3224304 -0.19144197
145 -0.053222883 -0.18604913 -0.14048913 -0.13118857 0.06580641 0.37951565 0.15024446 0.24677217 0.069305934 0.16316235 0.47899887 -0.09754626 0.21180503 0.10058425 -0.26318884 -0.022948066 -0.03779227 0.30598563 -0.181917 -0.041143496 0.2900749 0.09551669 -0.15965234 0.042148184 0.2196466 0.17910193 -0.10781159 0.18605052 0.35172755 0.1464055 -0.05633294 0.10194399 -0.3617188 0.4204604 -0.16864209 0.12904824 -0.119088106 -0.009707607 -0.36280003 -0.15554038 0.06478135 0.14072347 -0.09540347 0.03727846 0.19993006 0.057293344 0.026675988 -0.19157293 0.17139792 -0.30922887
142 -0.00949849 0.1650798 -0.15499799 -0.34781483 -0.42207792 -0.07098737 -0.4362651 0.045622185 0.17598067 0.046818607 -0.17187393 -0.20940849 0.16784036 0.1669091 -0.27069023 0.020951519 0.06906879 -0.09816933 -0.17060277 0.043281935 0.20695578 -0.21636665 -0.057984896 -0.11480626 -0.25336134 0.059744984 0.11637628 -0.10167745 -0.22303903 -0.29317287 0.28553617 0.06118895 -0.21016486 -0.005437952 -0.10709789 0.13986951 -0.0071979715 0.19813132 0.005601099 -0.117944226 0.058580972 -0.29076335 0.37913162 0.1866837 -0.121939026 0.3701631 0.30975297 0.064874046 -0.320605 -0.041172978
143 -0.10643312 -0.2670141 0.23978034 0.24061054 -0.1336583 0.08077248 -0.093649134 0.19368885 -0.37287933 0.21567608 -0.2586334 -0.00041927322 -0.1900904 0.114764206 -0.120753616 0.20010519 0.27365452 -0.17586078 0.31445402 0.07485341 0.06627539 0.01963994 0.055648405 0.37725118 -0.12019264 -0.16674644 0.0021914984 0.044050604 -0.36024424 -0.03629476 -0.30951014 0.0016821678 -0.17431568 -0.116051026 0.2794619 -0.27265456 -0.19636501 -0.06892179 -0.03106832 0.19491528 0.3438008 -0.20615757 -0.028103108 -0.024571177 0.30059794 0.055878907 -0.22896859 -0.16227527 -0.25882998 -0.25193277
140 0.3260715 -0.10475727 -0.27798632 0.1909915 0.07389863 0.066638045 -0.15737985 -0.14061034 0.034473795 0.15152696 -0.13846853 -0.31328112 0.10925637 0.11500189 -0.06579049 -0.23649472 -0.21537559 -0.27620253 -0.20907909 -0.33652836 -0.15395726 -0.2393313 -0.33829978 -0.0914083 0.06477283 0.14805749 0.1729234 -0.010783814 0.19554454 -0.25024176 0.1583938 -0.20157263 -0.3498104 0.04683823 0.35250437 -0.25726464 0.22848034 -0.13987783 -0.1283247 -0.19223873 0.17454807 -0.0628429 -0.0355842 0.02229406 0.019266568 0.30777752 -0.20970473 0.07750674 -0.23321277 0.32501456
141 -0.3456464 -0.14634027 0.16224003 0.31120586 0.033586964 0.15174522 0.12817927 -0.019672805 0.066398464 -0.31273845 0.24169415 -0.16955087 -0.084210694 0.24265452 0.09974783 0.081391744 0.14071219 0.3857947 -0.014543415 -0.0069371504 -0.12842652 0.31076905 -0.0031766738 -0.28516018 -0.24444124 0.06334584 -0.21078871 0.1729177 -0.26755095 -0.06719059 -0.16142376 -0.3663142 0.4047214 0.19845986 -0.054768622 -0.17021501 -0.13394988 -0.15945116 -0.04235858 -0.13326563 0.1152779 -0.10715938 -0.06793105 0.20709367 0.22456832 0.44422016 -0.09316511 0.20425934 0.09451974 -0.08866042
148 0.379187 -0.13222326 0.31879663 0.23796861 -0.35919017 -0.3220261 0.022499427 0.16055253 0.23861516 0.015995786 -0.07723031 -0.13898426 -0.15276647 0.048040196 -0.24169277 0.19443588 0.20750326 0.14402409 0.055197325 0.015417265 -0.13507417 -0.054612666 -0.3346568 -0.100561455 -0.081924506 0.3205715 0.22081925 0.03724002 0.071539156 0.20315674 0.10499029 0.09804641 -0.34759608 0.20451389 0.29981902 -0.1462789 0.20874442 0.18335259 0.0761444 -0.29364723 -0.042730816 -0.1670092 -0.44712168 -0.078943394 0.098988265 -0.21703103 0.033687867 0.18501738 0.0003166696 0.09363231
149 -0.2201978 0.26074216 -0.20124605 -0.2788167 0.19228335 -0.06277851 -0.24454261 -0.25157657 0.17784683 -0.26323512 0.033816017 -0.04523161 -0.092905916 0.019841442 0.15387183 -0.010131011 -0.3889008 -0.21797787 0.17680985 0.2083154 0.21642862 0.10464551 0.24076523 -0.16582245 -0.21838829 -0.07388239 0.052820552 0.04221715 0.0556969 0.16178319 0.14737919 -0.13759115 -0.04338771 -0.17063425 0.12326109 -0.13222183 -0.24721567 0.084632166 -0.2554487 -0.04459625 -0.26834413 0.11158853 -0.2872525 -0.29266882 -0.32260713 0.1353381 -0.3877177 -0.13153742 -0.08236934 0.41401997
194 -0.33862793 0.29921967 0.08306592 0.022482319 -0.100814424 -0.0043128747 -0.14648263 0.15612257 0.2314772 -0.13754337 0.041711785 -0.03198956 0.22376744 -0.037143447 -0.31984365 -0.012965656 -0.28227675 -0.00074311736 0.18883026 -0.20993717 0.26754588 -0.33007804 0.32641426 0.23673987 0.025718134 0.13744095 -0.34639132 0.17278366 -0.28328887 -0.03438088 0.04875724 0.22895442 0.15475757 0.09451838 0.015249339 -0.24492101 -0.19347532 0.24493055 0.17601348 -0.15454276 0.30998632 -0.20707263 -0.09415165 0.27130103 -0.12081836 0.27193826 0.02519926 0.23294753 0.06306985 -0.2842219
133 -0.04649592 -0.17820694 -0.1858131 -0.21630125 0.045952603 -0.25637087 -0.03691434 -0.033608336 0.32650292 -0.025546832 0.11210909 0.22513364 0.030867735 -0.2282487 0.17454535 0.16206038 -0.00013410165 -0.27982676 0.08175284 0.037060197 0.07809907 0.40193123 0.38097525 -0.02490859 0.3665743 -0.3099805 -0.3149633 -0.04400536 -0.09674774 -0.048552647 0.047579363 -0.104610935 0.030497968 -0.33656472 -0.021722907 -0.03706112 -0.21765728 0.22741441 -0.075215735 -0.17434645 -0.1899102 -0.1692241 0.005847115 -0.31727737 -0.10846423 0.44646686 0.053572904 0.30306977 -0.18847224 -0.14110029
132 0.23518482 -0.28712794 0.45560032 -0.0019998688 0.13727067 0.07877668 0.031308293 -0.14583547 -0.24301738 -0.14036182 -0.04940869 0.042743243 0.009500055 -0.33693016 -0.020650916 -0.18591991 0.22374535 0.13486502 -0.4022157 0.20975448 -0.010767759 0.095253766 0.09496251 0.20859444 -0.19999287 0.16900738 -0.25128737 -0.33182138 0.08076106 -0.048670895 -0.24097453 0.18339643 0.15848702 -0.22460365 -0.083127335 -0.12401198 0.1287567 -0.102718666 -0.327183 0.3407172 -0.38751164 -0.25353742 0.14368062 -0.21190211 0.09204291 0.080825575 -0.041996375 -0.19490187 0.08576214 0.085837215
131 -0.09545317 0.0056712483 0.27871627 -0.21801516 -0.068239726 -0.16786325 0.16073446 0.4405747 0.1650398 -0.012309426 -0.20075496 0.090487145 -0.24247539 -0.11040509 0.053914174 0.111446515 0.3751343 0.116303064 0.030753078 -0.17254311 0.15119274 -0.17815252 -0.35116428 0.24180469 -0.17124157 0.094649665 0.09587452 -0.018250452 0.08452736 0.17548344 -0.25422534 0.10897075 0.10390974 0.05518804 -0.2787092 -0.18764716 0.23986855 0.15295829 -0.13911991 -0.42577526 -0.026698947 -0.28329778 -0.21222708 -0.24626023 0.3500482 -0.057334676 0.20734859 -0.12856545 -0.28721908 -0.06537068
130 -0.27092296 0.067601584 0.2907368 0.04395141 -0.15309602 -0.028630642 -0.042414345 -0.08119931 -0.31392014 -0.09116969 -0.065977044 0.25218356 0.10461684 -0.24701963 -0.043939795 0.2748843 -0.17392714 0.18228747 -0.20091735 0.27713302 0.06876677 0.30933622 -0.29625264 -0.17078659 -0.28400138 -0.2084096 -0.1350685 0.31627655 -0.24220715 0.2942549 -0.1956038 -0.19830874 -0.08381745 0.22452764 -0.24734451 -0.35337502 0.29169977 0.24284308 0.0054800985 -0.06322804 -0.24884859 -0.14366116 0.040030017 0.06397966 0.105314165 -0.16661529 0.19596569 -0.22548096 -0.06399841 0.058492694
498 -0.091802284 0.30145907 -0.3124975 -0.18710588 0.20625168 0.3505774 -0.21080528 0.14545059 -0.046779517 0.0063113365 -0.09316531 0.36949047 0.02925379 -0.17061658 -0.15638147 0.2832052 -0.062812954 -0.046199456 0.05440311 -0.26211143 -0.16120376 -0.23387739 0.07308342 0.056863423 0.29653552 -0.03602541 0.2543992 0.11669021 0.056476407 0.18710124 -0.33923104 0.121813685 -0.0816894 -0.22391135 -0.035879012 -0.22020422 0.19096087 -0.03151754 0.33935827 -0.12617804 0.32898667 0.28547367 -0.11373539 -0.112696365 -0.31815445 -0.24786338 -0.008703926 -0.23885703 -0.063930735 -0.19464046
499 -0.19060294 -0.10654887 -0.14055228 -0.12114595 -0.118962176 0.009950582 -0.16413336 0.063347474 -0.022843279 -0.08174386 -0.02379396 0.5351394 -0.34812224 0.18364328 -0.2030991 -0.1512821 0.16457067 0.0032212797 -0.034497686 0.48404202 -0.0067123924 0.040160894 0.16664241 0.23016395 0.1204383 0.18294688 -0.37859946 -0.10352934 -0.06926491 0.2131461 -0.11146469 0.0070252656 0.09843883 0.057839714 0.0676763 0.19061369 0.24749194 -0.1421872 0.07280692 0.061159596 -0.4191016 -0.32944906 0.022333056 -0.13017829 0.42106706 -0.14917193 0.3196864 0.012431231 0.04050148 -0.011823236
135 0.072925866 -0.17379345 -0.10215024 0.3984317 0.3669131 -0.071511514 -0.232985 -0.27195087 0.19340691 -0.16207999 0.09072724 -0.17896676 -0.06381316 -0.052652873 0.15307039 -0.053766437 0.09099828 -0.12253629 0.09459876 -0.0607008 -0.3318844 0.3678681 -0.066056825 -0.052521564 0.31888664 0.08659285 -0.09616307 -0.10398521 0.39816773 -0.15061113 0.02565443 -0.026696257 0.0076485253 0.07503507 -0.09159068 0.1696707 0.09303097 0.1664945 0.09806923 -0.40441367 -0.2867742 0.07451675 0.1795633 0.17374976 -0.26472571 0.3156935 0.13398327 -0.37240788 -0.016344717 0.24610546
134 -0.12204814 -0.4315686 -0.3327989 -0.27739093 0.22799724 -0.19533291 0.14307894 0.16534135 -0.16954176 -0.029480882 -0.14102526 0.028108489 -0.03344956 -0.095776014 -0.051806122 0.18710808 -0.13729137 0.060676817 -0.38272652 -0.054094113 -0.2522739 -0.045210876 0.3445856 0.13324769 -0.028484171 -0.23373437 -0.16772252 0.08530837 0.33202443 -0.13164248 -0.08174663 0.0077465666 0.09362884 0.21767046 0.06883322 -0.24685901 -0.004011757 -0.3397463 -0.052423794 -0.35284296 0.27609742 0.039355792 0.012187839 0.3046598 -0.18874857 0.2409157 0.2504667 -0.23363358 0.13575864 0.10475331
494 -0.40041497 -0.2296336 -0.31755 0.11248773 0.13733593 -0.06810844 -0.2407539 -0.02390633 -0.27204356 -0.008776725 0.23856165 0.08710938 0.17445982 -0.03615292 0.07851423 -0.21411484 -0.16097873 -0.019726353 0.09330149 0.15288188 0.30116183 -0.23222482 0.010079624 -0.14940502 0.379001 0.17219219 -0.03712871 -0.32837188 -0.026637843 0.042153977 -0.106743805 -0.07200422 0.060709324 0.052176647 0.28058785 0.01106836 0.46782598 -0.18841456 -0.11701787 0.15730391 0.085785694 0.18301715 -0.26435727 0.049400553 0.1497965 0.39786786 -0.1600357 -0.24493906 -0.2902111 0.016501257
495 -0.044797037 0.27480203 0.10382678 -0.059284065 0.18357693 -0.39271092 -0.06329205 -0.26719615 -0.23465034 -0.022162363 0.32976708 0.14385773 0.32693413 0.08305919 0.12401051 0.1040294 -0.061276454 0.17237613 0.2766555 0.21147905 0.19604565 0.23763895 -0.22670946 -0.101601735 -0.09233232 -0.16700068 0.16739953 -0.27429384 -0.37271002 0.15987496 0.21446432 -0.096499585 0.0020300425 -0.17330474 0.19278105 -0.03621373 0.14112738 -0.21904853 -0.00211346 -0.030407831 -0.029859759 0.081924506 -0.37971815 -0.36829937 -0.27496555 0.006733124 0.20846795 0.09991696 0.17708233 -0.25267133
139 0.18332955 0.09829356 0.038479783 0.11260062 -0.17181547 -0.060212344 -0.30540234 0.018478869 0.0091032665 -0.00031662473 -0.24085978 0.066028796 0.089680016 -0.125244 0.112812154 -0.08252043 -0.18357019 0.4612426 0.14977503 -0.21530378 0.024647158 0.110043585 0.17137212 -0.3899857 0.44797826 0.102104045 -0.10395363 -0.12031203 -0.11926361 0.3730901 -0.3291453 0.19510978 -0.051557865 0.15901329 0.23480552 0.11692096 -0.029973157 0.018505707 -0.29823768 0.026140423 0.18205953 -0.08602689 0.47914454 -0.1164681 0.052822072 -0.22722006 0.14969228 0.017739462 0.33869508 -0.03612297
497 0.2141532 0.07514189 0.25334087 0.026326435 -0.010208501 -0.14833154 0.12358187 -0.090212926 -0.28082263 0.2538077 0.15432586 -0.12678376 -0.26762417 0.3379335 0.109672494 -0.20822115 -0.021722663 0.25945595 -0.21859735 -0.15392199 -0.11558784 -0.09972589 0.2179854 0.34611574 -0.28954846 -0.06377224 0.07219895 0.13081168 0.0671635 0.16112685 -0.025337426 -0.16553475 -0.033928532 -0.04668202 0.39706573 -0.25374335 0.18465632 0.042686477 0.37348056 0.08190652 -0.09662971 -0.23758604 -0.29032448 0.41060138 -0.21881163 -0.106809594 0.17882346 -0.30285227 -0.05826656 -0.050528068
490 -0.20827197 0.15438755 0.2982295 -0.11990187 0.03739208 -0.27648562 0.03156198 0.2027948 -0.10077625 -0.28199896 0.1624203 -0.098107435 -0.15275794 -0.38296264 0.032707572 -0.2202603 0.20852537 0.041251328 0.04618594 -0.18822235 -0.124337204 0.17624147 -0.31498596 -0.01300527 0.36822543 0.22380424 -0.014434119 0.2000935 0.30495256 -0.17744169 0.09892216 -0.12070163 -0.27397615 0.1697187 -0.18762076 -0.1575165 -0.07348148 -0.44777754 -0.14831717 0.1449711 0.22561988 0.07657161 0.21034667 0.123523355 0.20307899 0.21183534 0.056210604 0.14497273 0.06565846 -0.34228107
491 -0.0018677773 0.0023621111 0.10355522 0.060297467 -0.31401807 0.09000736 -0.019061666 0.24918391 0.19044872 0.05036291 -0.26258725 -0.106511645 0.27191564 -0.031592533 -0.5161024 -0.045679938 -0.40696624 0.16853999 -0.19134466 0.09375538 -0.26511618 0.09493336 0.07224537 -0.1719832 0.021252897 -0.24395393 0.17895989 -0.04000218 0.2196526 -0.0555826 0.04770778 0.17110011 0.31192368 -0.006417256 -0.077681884 0.24683808 -0.016594691 -0.48008594 -0.08780339 -0.1642877 0.15379779 0.30861226 0.3221282 0.1420272 -0.2966836 0.07637328 -0.12783037 -0.024921738 -0.12982474 -0.15397687
492 -0.04351233 -0.048634846 0.35009158 -0.30068547 0.0447168 -0.24417885 -0.25972322 0.17668286 0.05784302 -0.01800361 -0.22517672 -0.16217582 0.132523 0.12626785 0.2889878 0.29571047 0.11099574 0.07238454 0.034568653 0.3529725 -0.03637388 0.090426505 0.025553128 -0.32033634 -0.28498596 -0.04835188 -0.016325912 -0.19300841 -0.029405992 0.37738204 0.0082452595 -0.044625536 -0.052601077 0.1919182 -0.011517706 0.24383037 0.12725174 -0.3329011 -0.0072321603 -0.1793005 0.14463256 0.12949564 -0.027210915 0.3760796 0.18740383 0.3855111 0.11592234 0.21937941 -0.085462846 0.35203293
493 0.16472894 0.35834232 -0.13968118 -0.11801552 0.13500793 0.15812291 -0.40708897 -0.110435 0.060476113 -0.34820446 -0.3049312 0.16724883 0.109027006 0.17991227 -0.288812 -0.118317954 -0.086379595 0.009514084 -0.17472364 -0.12781961 0.2705105 0.24868523 -0.09908337 0.037018903 -0.041439094 -0.1469995 0.35879675 -0.13411602 0.20707917 0.12974569 0.16000322 0.18642145 -0.17028394 0.0029464778 -0.19733655 0.35937616 0.015086376 0.13542013 -0.029723385 0.3526865 -0.013068069 -0.21124697 -0.037061397 -0.050560717 -0.017878572 0.060660522 -0.20633133 0.4802606 -0.103718005 -0.18427686
24 0.3876979 -0.3040784 -0.15867655 -0.19388473 0.063419744 0.124596424 -0.04698371 -0.030570745 -0.09476046 0.24536406 0.18271998 0.06220173 0.2957993 -0.2682099 0.27575207 -0.06954283 0.015768023 0.16094835 -0.04619221 0.16304111 0.11317765 0.4928039 -0.06609552 0.06673634 0.07526272 -0.4646123 -0.15158549 -5.9558763e-05 -0.028003473 0.00065956597 0.1866166 0.17496613 0.16104357 0.26108202 -0.016081085 0.13729502 0.31652457 0.13110638 -0.33308265 0.17774786 -0.20808406 -0.051912554 -0.059398063 0.043870132 0.11573457 -0.27655357 0.08129011 -0.36354128 -0.0074492265 -0.20411374
25 0.013544089 0.24712136 0.09170485 0.18941839 -0.19953555 0.10446231 -0.016208587 -0.12097097 0.2854371 -0.13377757 -0.06890446 -0.013615067 -0.37047455 -0.4521794 -0.0667156 0.072705545 -0.20992462 -0.14195698 0.28240103 0.3064295 -0.06965151 0.12375063 0.3333275 0.05918812 0.02075396 0.12693009 -0.049155626 0.30788806 -0.31750977 0.09380601 -0.16424702 0.07102183 -0.37578893 -0.12576059 -0.005245002 0.14318472 0.1652728 0.14799522 -0.1689248 0.19770296 0.10628249 0.114407584 -0.021160172 -0.15078147 0.27582836 0.116826706 0.18673891 0.16460344 0.4322693 -0.25401136
26 -0.12272486 -0.16108988 -0.0715381 0.25746742 -0.09416833 0.2766393 0.3406021 -0.022048794 0.11007808 0.3761518 -0.04889546 0.009028023 -0.041604545 0.31142196 0.22464348 0.03149271 -0.25006998 0.13779335 -0.2233983 -0.14593045 -0.13779238 -0.05958297 0.27553073 0.008738527 0.35802644 0.08485103 0.011024043 0.3080882 -0.18850216 -0.08148901 -0.06488513 -0.30543703 0.29465595 0.13947907 0.18980949 0.1865458 -0.3505321 -0.16328834 0.054217912 0.1083015 0.14779395 -0.08733446 0.34224203 -0.09453967 -0.1926079 -0.08138653 -0.1154919 0.013595197 -0.29508254 0.34193674
27 -0.083639905 0.3179848 -0.081409074 -0.22191483 0.14902863 -0.0072520454 0.2317628 -0.008565914 -0.00047984548 -0.31337297 -0.1619297 0.18009765 -0.11943206 0.029637339 0.08709346 0.2733911 -0.085995145 -0.44007573 0.13894106 -0.14111726 -0.27687886 0.092063814 0.08133082 0.3310191 0.25304326 0.1615418 0.18909575 0.18421796 -0.008059009 0.022376686 0.0055175163 0.28690025 -0.14679043 -0.08593392 0.044511043 -0.031095378 -0.37314144 0.15346223 -0.12791921 -0.31947145 0.37924144 -0.29195708 0.0023692402 -0.31696013 0.21514829 -0.14888208 0.20765811 -0.10148222 0.23769028 -0.017547294
