809 50
199 0.010513656 -0.26491776 0.35832965 -0.115599506 0.1438952 -0.10580614 0.40480572 0.19496979 0.060658887 0.38187978 0.29202986 -0.0870162 -0.018330194 -0.03740219 -0.03440968 0.22505099 -0.20499836 -0.10982699 0.04062045 -0.13704728 0.043729637 -0.05797027 -0.24371448 0.33069047 0.09842348 0.105322875 -0.057437364 -0.4052809 -0.2850613 -0.35919657 0.26589954 -0.34534475 0.06981115 -0.14911075 0.036371086 -0.116924666 -0.2348049 -0.18375748 0.15171573 0.046070535 0.050146725 0.025197573 0.08248642 -0.26042894 0.0990955 -0.096259326 -0.2364238 0.10262701 0.13380978 0.28942963
344 -0.113292724 0.13373938 0.053437293 -0.35963845 -0.18765812 -0.014611139 -0.006321873 0.12988499 -0.15848246 0.26096076 -0.24182107 0.24420853 0.11446046 0.40570918 -0.26978526 0.109621964 -0.09525313 0.08597042 -0.20501022 -0.016614487 0.0031918888 -0.45801634 0.18205072 0.088912174 -0.036099136 -0.14872453 -0.014860987 0.04831127 0.13303801 0.020526119 0.22343129 -0.20717528 -0.11640891 0.2896323 -0.10328105 -0.17933488 0.30794305 -0.3244555 -0.14929351 -0.4464613 -0.039701354 0.047856115 0.085886985 -0.12968853 0.36831063 0.090844676 -0.07940897 -0.17707828 -0.027521709 -0.30330303
0 -0.09268897 0.36427143 0.1111732 0.009648345 0.23244542 -0.18570834 0.2126512 0.25790143 0.08212239 0.04927434 0.42947185 0.23881522 0.0741596 0.13348006 0.2719564 -0.1258827 -0.282467 -0.36283728 -0.10476922 0.11102298 0.06084756 -0.007780221 -0.20394786 -0.04611033 0.0033518516 -0.2774145 -0.11284974 -0.119643696 0.019380806 -0.12833156 0.049638387 -0.3249486 0.0420462 0.25271797 0.010168722 -0.30955875 0.20336159 -0.17856416 -0.32048076 -0.20952892 -0.15314838 -0.019855432 -0.34573868 0.029516516 0.010819464 -0.3323388 -0.28070587 0.058715425 0.22931652 0.0049915523
346 -0.3552267 0.14397815 0.035100568 -0.17774673 0.09792752 0.10378464 0.29845956 0.20706274 0.17038868 -0.10666525 -0.19878568 0.0042470894 -0.28051215 0.24052376 0.24886814 0.30159307 -0.22266766 -0.33996853 -0.037758205 -0.0029322945 0.11127473 -0.28693238 0.18452407 0.03144452 0.04716264 0.16841286 -0.03255074 0.34023786 0.20439689 0.025961943 -0.17314887 0.22100168 0.19273598 -0.012400082 0.009844967 0.13830464 0.14508931 -0.24079156 0.23382302 -0.3110911 0.20343684 0.03591448 -0.1904355 -0.29086122 -0.22734714 -0.27958435 0.24844272 -0.26578453 -0.040959094 -0.13818005
347 0.05925812 -0.025442675 0.0862132 -0.09628542 0.22995953 -0.065556005 -0.17350297 -0.026161639 -0.1025566 -0.014209938 -0.17399135 0.11275132 0.42286742 -0.3011752 0.07619444 -0.27203953 -0.07460388 0.41534552 -0.04696217 -0.06589297 -0.20595625 0.26940292 0.40574047 -0.12625335 0.0891332 -0.13454933 -0.37409312 -0.12569618 -0.13519949 0.007644361 0.31565624 -0.3055575 0.11576727 0.074799255 -0.08206325 -0.12595566 -0.06549845 0.07861907 0.26208487 -0.13640028 0.1482756 -0.09732192 -0.2561894 0.3304284 0.3064575 -0.37952915 0.0061217574 8.0372454e-05 0.17548494 -0.019618014
341 -0.022510663 0.004102119 -0.29523864 0.06901726 -0.27783725 -0.026146192 -0.2887794 -0.33318204 -0.14428023 -0.045284234 -0.023805043 -0.4106786 0.1696283 0.16504927 0.10499177 -0.1926104 -0.3269097 -0.15451126 0.2566489 0.14683345 0.29736552 -0.11887281 -0.12698565 -0.034624897 -0.03137946 0.1982207 -0.14175045 -0.37111205 0.28457618 -0.30284896 -0.19062671 -0.06030948 0.36776483 -0.31379032 0.13519017 0.1430711 0.3022865 0.100678846 0.03487375 0.09092489 0.12759851 -0.1484118 0.009711544 0.21545742 0.13259132 -0.0031170014 -0.06576206 0.01582586 0.21515343 0.23124959
342 0.13477306 0.092535526 0.19114998 -0.03043498 0.019601645 -0.2787028 -0.314212 0.26943612 -0.43230844 0.13207914 -0.12950899 0.019496115 0.1773748 -0.24372302 -0.16770472 0.07977423 0.33131287 0.26491258 0.029112881 -0.05949424 0.19676666 -0.1439865 0.1993353 0.20076819 -0.12553507 -0.02117313 -0.39578912 0.057960175 -0.2914556 0.044552192 0.33977017 -0.12968041 0.10738596 0.26717928 -0.2895144 0.23878776 0.050485983 0.095158 0.3076557 -0.19415884 -0.09173244 -0.09577113 0.14243849 -0.057827678 0.1975486 -0.35751003 -0.17854916 -0.060726494 0.0847321 -0.042864803
343 -0.14417157 -0.26689824 0.26856193 0.067454614 0.24963214 -0.008164054 -0.5047231 0.3457606 0.057999935 0.094827995 0.11683936 -0.048736934 -0.109004684 0.10225808 0.10437003 -0.25118315 -0.21913895 -0.10984466 0.19973177 0.118684575 0.03340191 -0.20526384 -0.30696428 -0.030836537 0.13200149 -0.18975697 0.20091616 0.20232345 -0.048259895 0.3126276 -0.032102004 -0.38873816 -0.024664659 0.15024039 -0.12838115 0.18760385 -0.040479247 -0.14221407 0.28876942 0.024026452 -0.40614945 -0.076171525 -0.18391615 -0.04479477 -0.10929056 0.42874587 -0.0075083035 0.03830305 -0.19691475 0.08446204
810 0.022124931 -0.47278804 -0.09435944 0.1885468 -0.33814842 0.017564856 0.13003924 0.17936212 -0.12229338 0.054194033 0.19248672 -0.2663806 -0.055427033 0.005744865 0.052531894 0.118631326 0.11576249 0.17580193 0.22411564 -0.17347395 0.15887606 -0.25647396 -0.103453025 0.08796768 -0.43343326 -0.30534595 0.1958819 -0.23885585 -0.0034969065 -0.32215577 0.14180256 0.08376297 0.12983719 -0.09111157 0.13098201 0.20310412 -0.30226335 -0.2765125 -0.13764098 -0.12518048 -0.16611123 -0.13797626 -0.3518721 0.27846777 -0.1432906 0.010806421 0.023678225 0.22966868 0.2331205 0.13463235
811 -0.12192319 -0.022393528 -0.15419623 0.020254698 -0.21004912 -0.07530879 0.4795213 -0.1479697 -0.04565624 -0.37260738 -0.016216781 0.014796946 0.46983913 0.0982372 0.07360186 -0.027944177 -0.027329499 -0.12030096 -0.041631717 -0.20263955 0.27369344 -0.021730818 0.30165133 -0.23744273 0.007093737 0.23264958 0.3793344 0.18916059 0.07841413 0.17597133 0.028496623 0.13531223 -0.17231314 -0.014629028 -0.012792836 -0.12446806 0.07975225 0.057527285 -0.3122745 0.21071568 0.15196264 -0.012691008 -0.3805596 -0.31024724 -0.008667144 0.35727885 -0.016897025 0.03931172 -0.1376549 -0.3161927
812 -0.12557802 -0.48001847 0.26543307 -0.09481847 -0.2510564 0.4354158 -0.06277295 -0.057123166 -0.068265215 -0.42521495 0.0714232 0.10082158 0.0306183 -0.10867782 0.043631908 -0.0925064 0.01655554 0.13350834 -0.039637595 -0.1454555 0.20915526 -0.25130972 -0.20430265 0.005030311 0.033308238 -0.31104177 0.18050046 -0.081009746 0.16875379 -0.014905464 0.17957464 -0.017953007 -0.2402299 0.12776029 0.008169974 0.09260007 -0.36945456 -0.17039557 -0.020670798 -0.102277376 -0.029046163 -0.09929441 -0.41520038 0.19861938 -0.07637007 0.18035154 -0.4995445 0.022556333 -0.17817949 0.032282658
813 -0.3154486 -0.15430164 0.099286 -0.27272108 0.044469785 0.20979892 0.06290513 -0.31919372 0.038273185 0.07196473 -0.06961139 -0.30856302 0.15687832 -0.16816756 -0.2257943 -0.32270822 -0.08737498 -0.019091945 -0.008672906 -0.11507638 0.08370331 -0.3896338 -0.3524131 -0.07522867 0.12612061 0.17877425 0.14222334 0.017619817 0.37769485 0.14112513 0.38192594 0.042487357 0.02830025 0.41947794 0.13412564 -0.07929341 -0.11757011 0.2160276 0.09602282 0.15300786 0.21650511 -0.2107361 -0.003730457 0.2456602 -0.24807256 -0.2628151 -0.12659338 0.020856522 0.08412663 -0.19313237
814 0.34632635 -0.24518515 -0.23772602 -0.13198842 -0.18300688 -0.2837011 -0.068664 -0.039194148 0.29977682 0.34670204 -0.018848779 0.1123187 -0.022281138 0.09721111 -0.15432356 0.30259052 0.31682017 0.22422816 0.049024504 0.12858492 0.025379792 0.13469802 0.0837199 0.19943526 -0.20555915 0.28513587 -0.16073503 0.042655244 -0.26859164 0.10359205 -0.27662504 -0.3978954 0.2022998 0.049605265 0.10377934 0.3408552 -0.039062448 -0.26456922 0.39045778 -0.109189175 0.11870406 0.015974246 -0.009288151 0.08863351 -0.11754827 -0.13916287 -0.28860277 -0.12703736 0.038602483 0.10341478
349 -0.3638475 -0.058608904 -0.2327454 -0.10507883 -0.009018871 -0.035257433 -0.030021865 -0.33560368 0.26891622 0.09793181 0.11708842 -0.1885651 0.1370163 0.17826939 -0.16840571 0.15565367 -0.077294454 0.06970755 -0.10328971 -0.35662112 0.2967516 -0.3243988 -0.16193697 -0.19440058 -0.20929715 0.16005524 -0.046191964 -0.044897016 -0.36841676 -0.0016910415 -0.0015208626 -0.30990312 -0.29629698 0.006313999 -0.07550053 -0.3056297 0.20093276 -0.29320025 -0.17654487 -0.12065932 -0.059575867 -0.09107032 0.2279463 0.41369018 0.19942701 0.21826851 0.10104491 -0.09408196 0.08134867 -0.1772415
816 -0.09245314 0.080443025 0.33530554 -0.094973676 -0.018186804 -0.19762206 0.1873742 -0.08834638 0.3374493 0.018120345 -0.15703733 -0.07790688 -0.13172205 0.19128029 0.0037915097 -0.28160843 0.24031964 0.31798136 0.23069738 -0.33260238 -0.12730174 -0.218274 0.15395021 0.3032685 0.028495759 -0.085699044 0.15340905 0.35146505 0.06421038 -0.23839904 0.11255166 -0.014333178 -0.21527971 -0.35219994 0.11515037 -0.023968607 0.06485947 0.016134514 -0.32632703 -0.023169314 0.38141164 -0.43383765 0.109491475 0.049408857 0.17597096 0.09514869 -0.05445119 0.17959173 -0.1476735 -0.17573196
817 -0.15368605 -0.23081787 -0.1997593 -0.072639115 0.13442981 0.020116827 0.13780656 0.024288312 0.35727057 0.32129818 -0.08907831 -0.13829733 -0.17181125 -0.22790432 0.39113134 0.03967413 -0.0740231 -0.1540903 -0.06659818 0.27700216 -0.05722801 0.066052526 -0.25956118 0.044966303 -0.39811182 0.019980082 0.26033843 -0.19471732 0.114732146 0.15696278 0.18917038 0.050851274 -0.21301724 -0.37406084 0.20070215 0.20916364 -0.079974346 0.07667773 -0.08528183 -0.19890603 0.34898958 -0.2492656 0.13998455 0.25625688 -0.05509524 -0.18539537 -0.123846084 -0.38022724 0.109431095 -0.10399109
719 0.13411555 -0.0074107847 0.093261965 -0.09082043 0.3191658 -0.14440905 -0.21788415 0.09241844 0.4044439 0.15914282 0.044455346 -0.24981491 0.04373162 0.046895348 0.4239689 0.09238769 -0.052916978 -0.124103114 0.2043165 -0.022698943 0.2368727 0.16666664 0.114180624 0.17072923 -0.3925051 -0.3925906 -0.049662665 -0.36994177 -0.027234549 0.26542968 -0.33780152 -0.12383011 -0.032858413 -0.041141137 -0.47006112 -0.19374649 0.20643881 -0.04572353 -0.27898142 -0.16919316 -0.1993101 0.0917276 0.017640647 -0.11477283 -0.06327684 0.07595601 -0.0045000482 -0.09628949 -0.1103607 -0.0247328
718 0.0926543 -0.052950922 -0.026985586 0.22799222 -0.030778049 0.20191613 0.19842447 0.20892322 -0.0611617 0.16870841 0.50617784 0.033323806 -0.009702563 -0.18559122 0.06845791 0.1781442 -0.2458782 -0.10827757 -0.064591184 -0.36218292 0.18866734 -0.32832843 -0.2881989 -0.11518581 -0.058518283 -0.08152242 0.051753033 0.20495276 0.35807374 0.19812034 -0.01006404 0.34235954 0.16063742 0.08207475 -0.24995291 0.17605545 0.18300112 0.09194979 0.008367133 -0.0031541532 -0.04857883 -0.29938796 -0.1187375 0.13708547 0.27340695 0.1511105 -0.29314768 0.19654065 -0.37561974 0.08791808
717 0.08958576 -0.006838835 0.40772572 -0.15417297 -0.24991621 0.067271 0.039134406 0.07791177 0.060717408 0.06168566 -0.049090616 0.035140123 -0.057965007 0.26622602 0.085469425 0.035809763 0.18204178 0.4038934 -0.08332544 -0.2036828 -0.01536819 -0.36881292 0.15950628 -0.16352776 -0.4474718 0.07465925 0.118575536 0.3007647 -0.14306372 0.021987407 0.0026832009 -0.007402859 -0.25005537 -0.3460632 -0.12756772 0.14603731 0.2046547 0.1924089 0.27429646 0.14488266 0.07432098 0.06062614 0.07415642 -0.29110792 -0.098365076 0.16263245 -0.2748946 0.28027347 0.3008601 -0.3060515
716 0.11542828 0.055012997 -0.120917894 0.32166955 0.16369165 0.20913932 0.16837111 -0.3092651 0.29890132 -0.23519328 0.27375877 -0.13671951 -0.025350489 -0.07659512 -0.089240365 0.46830907 -0.12110344 -0.3579794 -0.083117284 -0.049712043 -0.023356467 -0.14965127 0.07755631 -0.027947742 0.13044783 -0.12858707 0.096747264 0.35123134 -0.30983636 0.082901895 0.15951386 0.22524717 -0.091130495 0.036390513 0.0161235 -0.26780367 -0.16605675 -0.14358345 -0.015358461 -0.14203358 -0.3933053 0.22106186 0.08203019 0.06292941 -0.0800109 0.2758562 -0.4560019 -0.11556908 0.054092005 0.022727659
715 -0.15720214 0.19216475 0.09874652 -0.123581685 -0.17020477 -0.04319182 -0.17353675 0.37191862 -0.052671354 0.30008966 -0.29835767 0.31246874 -0.09156795 -0.0077853943 0.014684559 0.14800331 -0.092026666 -0.31459984 0.38412553 -0.07583938 0.106083535 -0.19901831 0.21929954 -0.045660038 0.20549935 0.37571093 0.19954044 -0.07733888 -0.06832415 0.41373867 0.1144736 0.18594195 -0.018766537 0.012548543 -0.09895417 -0.24078807 0.04375646 -0.473676 -0.026182791 -0.17966977 0.0775585 -0.30652156 0.07126702 0.0048313695 0.041496255 0.3437644 0.08998305 0.14494096 0.06934211 0.05571458
714 -0.278852 -0.09607965 0.057123173 0.43407112 -0.08953732 0.2720949 0.33731464 -0.10885976 -0.14175755 0.23752172 -0.35600242 -0.032726962 0.13031478 0.0867275 0.34908697 -0.123020455 -0.22265795 0.18542728 -0.1548827 -0.021622108 0.15608297 0.07078435 0.015596484 0.036483377 0.091992594 -0.1369931 -0.24338824 0.13786918 -0.36117598 0.02618432 -0.052998442 0.33069298 0.19519122 -0.2977702 0.18657483 0.07237325 -0.40537328 0.19062121 -0.17742838 -0.012410559 -0.055529833 -0.32066408 0.18136576 -0.11018979 -0.066990666 0.10302745 0.12607494 -0.19177976 0.03193581 -0.20206958
713 0.12517549 0.30147052 -0.20037013 -0.3179698 -0.2911298 0.15838805 -0.12666582 0.0010554205 -0.26627392 0.13701217 0.018728819 0.17091392 -0.04719744 -0.09048603 0.049195524 0.14694574 -0.19249526 0.04928867 -0.4237511 0.17828149 -0.25506273 0.038984314 -0.34756294 0.17479767 -0.062257465 -0.050167236 -0.098199174 -0.15268041 0.3022194 0.18849202 0.41335154 -0.29767805 -0.1735618 -0.019470729 0.15015365 0.22516796 -0.05982083 -0.43669885 0.03549474 0.17197554 -0.012982146 -0.12199015 0.078993626 -0.11331666 0.20985767 0.23040456 0.12848955 0.14614849 0.28188416 0.027147332
712 -0.2066761 -0.2585053 -0.15195529 -0.27657428 -0.001250452 0.20796311 0.15049523 0.39018974 0.012588986 0.31014508 -0.02800259 0.10147924 -0.2532931 0.17880084 -0.04513695 -0.01356517 0.20214742 -0.035748493 -0.12195501 -0.015542416 -0.18221492 -0.18713951 0.4026488 -0.27596706 0.056451097 -0.14600281 -0.07580268 0.05232044 -0.30550423 -0.08393093 0.3304284 0.378029 0.09039065 0.32843557 0.04436203 0.05216171 0.09186712 0.02554349 0.03628267 -0.22298731 -0.22005215 0.19339879 0.056304906 -0.22919469 -0.4018968 -0.19874077 0.06243601 0.15570126 0.20537114 -0.15494712
711 0.17046171 -0.190448 0.17447615 -0.3986829 -0.17626841 -0.248232 -0.27446836 -0.17510107 0.21902929 0.04707684 -0.15108727 -0.03081205 -0.34128237 -0.17284717 0.061533168 -0.20837857 0.19123064 -0.33304942 0.15638737 -0.0936238 -0.09875137 0.06484296 -0.16648267 0.13688359 0.19481088 0.22186406 0.036693066 -0.088428736 -0.19640721 0.38587666 -0.15233684 0.10491899 0.132955 -0.015604493 0.047215503 0.09925169 0.13971233 0.18338172 0.026474036 0.40317422 0.20675488 0.29666752 0.32513693 -0.04769302 0.14264049 -0.19032411 -0.25773436 0.29013014 0.12433174 -0.11018789
618 -0.1313573 -0.10242555 -0.066945024 0.36990806 0.29206643 -0.048082873 0.12172631 -0.30097872 0.031518538 -0.060334567 0.095838875 0.36060745 0.40232 0.093900554 0.012714507 -0.07289822 0.19305116 0.0238353 0.12323938 -0.10933471 0.056795653 0.37277347 0.095565215 -0.15887439 -0.2763529 0.018576147 -0.0059259795 0.4739322 0.018457577 0.3503542 -0.28806472 -0.06604083 -0.11972485 0.17615464 0.18913712 0.2678731 -0.105662555 0.09533002 0.17007236 0.25716782 -0.2510963 -0.046488196 -0.3998944 -0.16264427 -0.08051868 0.053564157 -0.03546088 0.02371697 -0.17369205 -0.05874068
619 -0.4063579 0.2904424 0.055467233 -0.046078302 0.3963666 -0.32778597 -0.006308672 -0.12933804 0.15539178 -0.0012703316 -0.2910809 -0.28045318 0.0049798777 0.031243805 -0.038625665 -0.13241492 0.08274496 -0.024750203 0.3148727 -0.021104233 -0.27999613 0.15332863 0.1686093 0.11417592 0.07758355 -0.047261644 -0.24243976 0.02599532 -0.17293893 -0.5106828 0.32666615 0.2093203 -0.14520243 0.18985862 0.13153666 0.015362378 0.24009067 0.18658055 0.122527026 0.28367648 0.17157604 0.18662375 0.030551547 0.1313618 -0.2884354 -0.1807736 -0.09958763 -0.0022237261 0.09491991 0.13119215
298 0.15976845 -0.0794034 0.21666844 0.260268 0.17967455 -0.098590426 -0.25207418 0.4528673 -0.016892374 -0.21651506 -0.06585633 -0.41639608 -0.12196265 0.21983375 0.10937866 -0.18905002 -0.1758635 -0.11038552 0.26968035 0.11267467 0.07764055 -0.21212208 -0.14079069 -0.016984709 0.085958295 0.3221009 0.020567304 0.22208554 0.23373063 0.04449597 0.20191379 -0.2681464 0.1383455 0.20977624 0.096835464 -0.108711585 -0.3293538 -0.00826656 0.37835497 0.16649738 0.06638916 -0.26911956 0.100575216 0.19149043 0.24427935 -0.15427294 0.26357347 -0.1280805 0.038034517 -0.1380429
299 -0.21375115 -0.14600828 -0.064497635 0.060752653 -0.5544144 -0.24764803 -0.093867555 0.0099691115 -0.071804225 0.007356236 0.1995853 -0.010138714 0.022891205 -0.1358789 -0.10834756 -0.2763114 -0.09888785 -0.42917964 -0.23124045 -0.027483545 0.1388508 0.057268456 -0.044840585 -0.04868497 -0.346645 0.08319329 0.101685554 -0.27492926 -0.26936787 -0.081306905 -0.055420436 0.15995918 -0.3891569 -0.19368127 0.041235022 0.004071932 0.24478564 0.18023068 0.16936785 0.17388912 -0.059874464 0.13245228 0.2308216 -0.36152494 -0.09849266 0.038318794 0.36808467 0.28585333 0.13033237 -0.082853675
296 -0.37741408 -0.09850077 -0.1423976 -0.04964764 0.24319547 -0.070652336 -0.29434076 -0.19366191 -0.119659804 -0.017878251 -0.16175155 -0.051705204 0.21795873 0.35102582 -0.17497638 -0.027388446 0.10551544 -0.11859471 0.054038968 0.39089698 0.2904187 -0.29156643 -0.03213286 0.17208964 -0.101733625 -0.13126865 -0.009488831 0.050598647 0.20393047 0.071963884 0.31543514 0.32676736 0.1005285 -0.24868457 -0.2737702 0.017818063 0.20489298 -0.050616473 0.056026056 -0.36580527 0.20415536 -0.22207013 -0.27400428 0.21578597 0.18147384 0.03458031 -0.2730489 0.1686369 0.07746522 0.20640333
297 -0.005262623 0.015305378 0.2057021 -0.07220778 -0.21565342 -0.32442546 -0.13485862 -0.22444889 -0.042485464 0.12219598 -0.39378974 -0.079580806 -0.15616976 0.20712155 0.009922729 -0.2907598 0.14751469 -0.20356065 -0.032701273 0.056470852 -0.26044032 0.053777684 -0.15148799 -0.3458645 0.3479541 0.16369216 0.17719355 -0.13182864 -0.11702854 0.11190838 0.29856065 -0.15150805 0.33422208 -0.058784187 0.18258235 0.14208652 0.18126857 0.117753424 0.09937977 -0.36193135 0.25256732 0.0052605183 0.19943723 0.08729214 0.0836833 -0.35441646 -0.25920552 -0.24143307 -0.2452318 -0.01983434
294 -0.23599276 0.23970966 -0.27986243 -0.16746882 -0.12524916 0.095002145 -0.14202105 -0.007866887 -0.0013158525 0.042549185 -0.07335231 -8.3231505e-05 0.015388687 0.3217117 0.1212136 0.22061913 0.15744807 0.23967367 0.28555048 -0.3212325 0.16409607 0.2955145 0.09586344 0.07080224 0.4072074 -0.21388479 -0.34809425 0.110897444 0.23944283 0.1327336 -0.10030007 -0.08150609 -0.32566652 -0.045056384 -0.0460461 -0.06280888 0.18740988 0.16475679 0.4401256 0.09478513 -0.22569847 0.20335129 0.1952904 0.34419054 0.040034797 0.24801122 -0.14792073 0.12050025 -0.013369493 -0.037762426
295 -0.35987842 -0.10896863 0.2737307 0.08850727 0.21760395 -0.19437502 0.34645995 0.028083384 -0.06495855 0.029188376 -0.05131578 0.117732115 -0.25053993 0.30130544 0.043923747 0.26629478 -0.04197665 -0.10204273 -0.07198489 -0.20059751 0.29645932 0.10005451 -0.2879248 0.09502124 0.2729602 0.030785268 -0.0582108 0.44392714 -0.11256062 0.27431706 0.1440255 0.13385566 0.36076772 0.182875 0.038448587 0.13718623 0.48881438 0.021632774 0.22303173 -0.02236697 0.18005829 -0.1739258 0.08903254 0.086430356 0.19339442 0.25067192 0.025379434 -0.002758305 -0.13943762 0.00808556
292 0.19984624 0.48312306 -0.38830358 0.25841242 -0.13813508 0.013727931 0.047607653 0.11922976 0.027417194 -0.34610158 0.12420602 0.2415403 -0.20110454 0.086824454 0.18044384 0.12466585 0.04773553 -0.02550496 -1.3191151e-05 0.16527501 0.1486389 0.049541987 0.0883717 0.15995482 -0.3078424 -0.020034222 0.009031053 0.047242187 0.16261582 -0.11194066 -0.049064722 -0.2871339 0.08471837 0.12599263 0.11726016 -0.39195946 0.22475532 0.23323052 -0.27861875 0.09859564 0.24680884 0.09082146 0.104237646 -0.17666583 -0.16868626 0.4516125 0.29375604 0.018738195 0.19458354 0.15035981
293 0.20531212 -0.1747868 -0.09699444 -0.14910175 -0.44101164 -0.37910226 0.35013935 0.061620355 0.09743374 -0.16068661 -0.058934797 0.1586169 0.2784193 0.027181234 0.08209519 0.45354912 -0.0045124227 0.08568152 0.019702556 0.020699272 -0.05310202 0.032493472 -0.050179906 0.12204657 0.21664904 0.3249212 0.10520407 -0.069727525 0.13540874 -0.44254184 0.14915808 -0.18191372 -0.10617486 0.34876645 -0.14792135 0.14819501 -0.14007504 -0.3175281 0.05942838 0.14693734 0.115404986 -0.18468644 0.16879055 0.32596678 0.17290536 -0.028206587 0.1490172 -0.0339921 0.15933299 0.15825056
290 0.0041899034 -0.21547413 0.41494274 0.07549343 -0.056805402 -0.121233195 -0.2225762 0.35145503 0.02959152 0.06902288 -0.14853452 -0.29304418 0.32625598 -0.23476985 0.038751647 0.3214962 -0.14433639 -0.1464469 0.12740423 0.025327785 -0.02464348 -0.24650888 -0.13528492 -0.14900506 0.2089526 0.07224817 -0.22094299 0.10320103 0.27176696 -0.3031385 -0.027019292 0.0039942535 0.09949683 0.076609574 -0.42546707 -0.24707586 -0.090781346 -0.2318044 0.020760342 -0.07483123 0.19996062 0.33722687 -0.11526748 -0.3527452 -0.08044719 0.032319557 0.30451795 0.03196558 -0.036673583 -0.22122133
291 -0.11828795 -0.21823558 -0.16622855 -0.2782179 -0.39478257 -0.39669827 0.09601959 0.124692604 -0.05337788 0.30064094 0.3905724 -0.15185146 -0.022813303 0.058388017 0.099519275 0.19519907 -0.051141407 0.17764442 0.03583916 -0.011717121 -0.06711012 0.14142108 -0.003923696 -0.29335773 -0.16853571 0.30912456 0.21235347 0.24460079 -0.21386269 0.32636562 0.30805138 0.0046830955 -0.35795027 0.06872423 -0.09299339 0.006558148 -0.04461578 -0.053191565 0.0041909567 0.11347505 -0.12761109 -0.29839665 0.16350678 -0.16151828 -0.15848666 -0.008283119 -0.37349528 0.15587436 -0.16479594 0.13713218
591 -0.13072439 -0.13413137 -0.04859478 -0.057865582 -0.4352131 -0.14457297 0.48908162 -0.14543489 0.21486716 -0.16863939 0.055783287 0.077563584 -0.13872495 -0.1365031 -0.27714935 -0.00040015252 0.061709426 0.086740874 0.11957057 -0.2754158 0.12400448 -0.1482797 0.0859562 0.14611241 0.3500531 0.18731049 0.06150169 -0.29163796 -0.13884416 0.41549367 -0.23312047 0.096146196 -0.17370126 -0.015417357 -0.42664188 0.086395815 0.041188315 -0.1641312 -0.33462793 0.044721123 -0.21794946 -0.023150606 0.22646882 0.17977928 -0.2216522 0.023042819 0.10741595 -0.16063875 -0.17032923 0.10201284
590 -0.054169532 0.29777253 0.05800535 -0.09946074 0.39125907 -0.0212042 0.16034444 0.3478874 -0.052437603 -0.2351441 0.0035486037 0.08931813 0.1126202 -0.13483721 0.17784782 0.2665991 0.08459179 -0.109600395 -0.13934661 -0.27795765 -0.40657696 0.1963658 -0.016292725 -0.040722497 -0.2713572 0.16881897 -0.073548384 -0.085054696 -0.09391075 0.12630552 0.07207928 0.046250813 -0.012792097 -0.39146632 -0.39529437 -0.11127756 0.0033422878 0.15381688 -0.018170835 0.50067747 -0.05874274 0.3744976 0.07308801 -0.13037914 0.1496368 0.09299034 -0.13106057 -0.30467474 0.14904104 0.026939543
593 0.081678726 0.15712005 0.2973424 0.09635426 -0.38109475 -0.098569915 -0.07134988 0.028002292 0.030425303 0.26819095 -0.10174831 -0.00017503076 -0.32880318 0.32179484 0.017751122 0.3371617 -0.14277521 0.24251838 -0.14579718 0.14917229 0.026996607 -0.09444934 0.20041265 -0.26644474 0.24029797 -0.10217973 -0.32603234 0.17627469 -0.12648468 -0.048754495 0.44744948 0.023837818 -0.4324407 0.15503345 0.033881854 -0.114179894 0.11966942 -0.009933794 0.24176511 -0.03161305 0.019837787 0.056254752 0.17671531 -0.04917179 -0.32547686 0.19722849 0.31412172 0.004961889 0.13734792 -0.18531105
592 0.028140126 -0.067685746 0.112820596 0.07161865 -0.11377348 0.03653446 -0.13001163 0.1364261 0.07444425 0.24372627 -0.25286734 -0.10260898 0.27706167 -0.16323046 -0.0487137 0.09147281 -0.19121242 0.048244577 0.3134782 -0.32146284 -0.43076512 -0.34061128 -0.27382028 -0.062424455 0.22905557 0.071842544 0.053698912 -0.02966065 0.18800691 0.14573441 0.20051388 -0.34514743 -0.22127242 0.030269863 0.14726073 -0.2870999 0.05453191 0.021903424 -0.26980263 -0.029404916 -0.06498842 0.1564865 0.2968276 -0.023865186 -0.35315895 -0.071707755 -0.45856798 0.17736778 0.08821506 -0.21743836
595 0.014308422 0.08580135 -0.0013974848 -0.0588896 -0.008649939 -0.03344571 -0.09035192 -0.23581015 -0.15831232 0.16283244 -0.011582903 -0.24059519 0.31501162 -0.19545989 -0.3505569 0.32994467 -0.34492302 -0.14987911 0.2840884 0.32782742 -0.011126053 0.103923984 0.20494671 -0.19932336 0.1514677 -0.10886483 0.14455867 -0.31456158 0.09208775 0.067916974 0.08729043 -0.30744392 0.095349096 0.3450125 -0.0043753935 -0.21483174 0.14857732 -0.23143564 -0.14578123 0.3530652 -0.095552616 0.18198632 -0.1815008 0.03224335 0.2798727 0.20292275 -0.050792694 0.25018647 -0.31015232 -0.010986037
198 0.002781443 0.039685186 0.51066935 0.07972929 0.10417587 0.20074227 0.068936445 -0.08966748 -0.05942257 -0.32042915 -0.24365495 -0.04636712 0.11408315 0.30838138 0.34183043 -0.038720492 0.011896196 -0.14097306 0.14824928 0.07707318 0.10491116 -0.17801954 0.16923015 -0.3921184 0.011131232 0.03238224 -0.013935254 0.007936771 0.067725115 -0.12501073 -0.16444926 -0.126606 -0.0051245177 -0.26220948 -0.22063826 -0.11109686 -0.027010549 0.22094898 0.20137167 0.24965474 0.0915841 -0.32246995 0.18226309 -0.2982617 0.21140715 0.13332544 -0.035803773 -0.38575798 -0.3704209 0.262396
597 -0.24351963 -0.27909425 -0.14046893 -0.06291365 0.22758366 0.14237542 0.3186807 0.26494434 -0.097453326 -0.025467511 0.3454724 0.30388543 -0.11209743 0.21094339 -0.008201865 -0.1480576 -0.044421047 -0.18783084 -0.3108714 0.13024682 0.17885198 0.2284002 0.04486911 -0.1987806 -0.13364881 0.061778825 -0.0091046635 -0.3967954 -0.38263705 0.10703497 0.1662671 0.18401682 -0.16591345 0.26832262 -0.12660378 0.06312037 0.00021151426 0.2219864 -0.23270392 -0.13793418 0.05417382 0.025922334 -0.41962773 -0.16471985 -0.06566181 0.19324112 -0.22563477 0.0063543953 0.09711141 0.26158172
195 0.2740903 0.19358227 -0.286817 0.25325772 0.4193968 -0.012076167 -0.0060932417 -0.16902438 -0.068423964 0.18227041 0.025736606 0.12852727 0.034159433 -0.23363996 -0.2094621 -0.07496403 0.013694884 -0.26028585 0.20027591 0.21722972 -0.27081722 -0.058910232 -0.06670102 0.36985245 0.052238934 -0.116471365 -0.02149812 -0.30177295 -0.098396674 -0.4726354 -0.2129092 0.25197273 0.24416874 -0.08687347 -0.23646934 0.05651056 -0.031571597 -0.14536376 0.35421374 -0.03254757 -0.27973175 -0.059726737 -0.008597454 -0.070666105 0.1885232 -0.0039786636 0.09371226 -0.03293642 -0.03190642 -0.38047546
598 0.090609714 -0.16917339 -5.5704335e-05 0.17388463 0.20304884 0.08441322 -0.17581977 -0.26281086 -0.13348036 -0.053318825 -0.39876217 0.16729605 -0.17776316 0.06908666 0.311267 0.16253692 0.18480611 0.14857249 0.19841908 0.0019068181 0.037173804 0.3684285 0.39372167 0.16632617 -0.04309489 -0.29604715 -0.093564816 0.28964978 0.053480808 -0.26779708 0.06736178 -0.014451204 0.37500644 0.2608405 0.19363825 -0.1258201 -0.15837926 -0.22745913 0.11269841 0.16479555 0.19386828 -0.16345106 0.2998526 0.14503412 -0.14313494 0.007378539 -0.054852787 0.088230796 -0.3744837 -0.12201299
196 -0.15629049 0.039090935 -0.46049175 0.1818658 0.07915041 0.030730212 -0.08339411 -0.0024381122 0.370437 0.2100263 -0.049339537 0.023947725 0.13905445 0.40916902 -0.3194434 -0.21638475 0.11695747 -0.07894371 0.06050109 -0.24834304 0.018434994 0.014183962 0.13617314 -0.103854746 -0.28225434 -0.03897274 -0.059439506 0.1409258 -0.22959904 -0.1985209 -0.36523697 -0.17386359 0.3789422 0.19899146 0.09763979 -0.2860283 -0.004877272 -0.1763958 0.092765 0.11980759 0.05559789 0.20530228 -0.1310828 0.14311084 -0.33111405 0.193352 -0.00035373156 0.23337351 0.3259645 0.0073990026
191 -0.17022774 -0.1890758 -0.25183228 0.11710959 0.3248685 -0.1702936 0.08051209 -0.012976987 -0.11210773 -0.21691413 -0.07535886 0.27316916 0.25506353 0.03868708 0.03424164 0.1183526 0.25702357 -0.38463175 -0.16005743 0.35942873 -0.035322186 -0.10584643 0.32163766 -0.029252049 0.098624304 0.30709907 -0.1783392 0.033189323 0.14046577 -0.027015183 0.38746482 0.21276279 -0.030564347 -0.08381429 -0.27247393 0.27337635 0.28371844 0.029957434 -0.18806396 0.2543844 -0.05034221 -0.102531224 0.06025916 0.18667227 -0.30028075 -0.13006587 0.103576474 0.07859433 -0.14107999 0.3508537
190 0.13167997 0.0072799195 0.28802824 0.357926 -0.19631287 0.05987795 -0.08538471 -0.060840268 0.10260806 -0.07977203 -0.11308379 -0.00420437 -0.19802801 -0.3189228 -0.44327658 0.08262079 -0.09302153 0.17116232 0.094934426 0.3000591 0.13156751 0.133224 0.07684588 0.09935473 -0.39578044 -0.15743294 0.007200032 0.075927086 -0.13087565 0.05144967 -0.10258187 0.43482462 0.0937727 -0.013387287 0.24464577 -0.16501056 -0.33733252 0.17294782 -0.3268778 0.32851997 0.22535577 0.004915538 0.1277374 0.23387238 0.11899877 0.041340277 0.1201322 0.2522113 0.26850936 0.08754457
193 -0.22960508 -0.08449506 0.26484114 -0.17319115 0.079410136 0.051730435 -0.032195155 0.23437095 -0.2027128 0.008387211 0.15177266 -0.10279599 0.09446272 -0.308999 0.276583 -0.020255355 -0.21945092 0.24254255 0.36227626 -0.35101584 -0.21684623 0.0031083047 -0.33212185 -0.008615085 0.011318028 0.07837215 0.14308962 -0.039748203 0.46736446 0.014182338 0.07993779 0.23662102 0.009996658 0.16364509 -0.16629682 -0.2098339 -0.14852385 -0.3468755 0.41733623 -0.12882958 0.26563713 0.07888437 0.06410311 -0.045357425 0.027177354 0.20502107 -0.31531152 -0.074628636 0.0077498895 0.16823956
192 -0.06389671 0.17480388 0.008015451 0.28587484 0.3465787 -0.029563995 -0.102457374 -0.038097445 0.08877185 0.17635421 -0.33104435 -0.016981605 -0.038081545 -0.122557916 -0.1721864 -0.016290221 0.24623136 0.40252516 -0.013227786 -0.027564084 0.31725538 0.27022415 -0.105583295 -0.17180099 0.34272686 -0.36727178 -0.10529405 -0.22752185 0.16469748 -0.13264976 0.022843752 0.14604966 0.04231222 0.451075 0.010074809 0.39796078 0.2407892 0.24039598 -0.011104158 0.037651893 0.07157201 0.35172218 0.124428526 -0.05560592 0.14902832 -0.121773645 0.029080654 0.03424303 0.04104678 -0.25786427
270 -0.10926299 0.17018741 -0.38133702 -0.17939873 0.16488428 -0.056995284 -0.2652388 -0.12881485 -0.27725136 0.17922123 0.07362882 0.0063683596 0.119092934 -0.11136994 0.32064983 0.29311478 0.15951228 -0.2998431 -0.34186065 -0.035231333 0.019681182 -0.105902866 -0.2986767 0.0057533802 -0.0065404316 0.23311684 0.2743609 -0.32221088 0.21277516 -0.14048597 0.2961446 0.29164654 -0.20814577 0.28277314 -0.19329286 -0.056364585 0.13996802 0.02453576 0.017158348 -0.049210794 -0.016504036 -0.0034597837 0.36216417 0.090471394 0.060562965 -0.009768195 -0.3544957 0.19859377 0.17232873 -0.062135532
271 -0.32159242 0.046156917 -0.04426144 -0.36884668 -0.37993965 0.18671052 0.20842724 0.057441402 -0.03258907 -0.023802582 0.08700925 0.03605005 0.36505815 0.3275313 0.04200875 0.019591637 0.118834235 0.21037854 -0.077708825 -0.05382354 0.04111471 0.015308938 -0.093600504 0.37875807 -0.23628992 0.037693594 0.2009542 0.20567773 0.30396464 -0.1794117 0.37654227 0.16865873 0.15226845 0.041469313 0.0575258 0.46306053 -0.1450659 -0.14660017 -0.0019411433 -0.21948469 -0.123461194 0.001225616 -0.11278447 -0.114305966 0.20459607 -0.090333864 0.16802026 0.34830368 -0.08393633 -0.20021485
272 -0.3468789 -0.001961858 -0.025496677 -0.2903244 0.063495286 0.2553751 0.107467115 -0.36052027 0.3205727 -0.24130943 0.027295388 0.16139494 -0.2660615 -0.101405956 0.2107523 0.085996464 -0.19170283 0.12814435 -0.028413696 0.1125337 -0.18194185 -0.29337388 0.056118738 0.22263336 0.15734716 0.3647235 0.044196952 0.11295882 -0.08773637 0.06921613 0.10516387 0.21267381 0.40526032 -0.030256616 -0.2703765 -0.0019692823 0.45911762 0.11447229 -0.1873848 0.14708084 -0.12384598 0.18039733 0.036528114 -0.0053230044 -0.3113345 0.20994923 0.1547674 -0.057807382 -0.04993027 -0.2110663
273 -0.42154607 0.13509291 -0.21281828 -0.013032219 0.013243534 0.16135482 0.17586102 0.21315646 -0.08358097 0.055189032 -0.1046635 -0.056960315 0.11488395 -0.13175683 0.20704903 0.11836586 0.54086703 0.14044712 -0.1820218 -0.17396985 -0.21658489 -0.15211833 -0.18145262 0.106723055 0.23306954 0.4037298 0.1504055 -0.056745682 0.054388396 -0.21591675 0.107221305 -0.16559733 0.23380814 0.25506207 -0.19732277 0.23093207 -0.24760465 0.23178828 0.16477305 0.09194568 0.1861338 0.007729123 0.17115392 0.31580076 -0.15507849 -0.116507865 -0.30502194 0.051157158 0.053281456 -0.24533504
274 0.4159731 -0.14573748 0.007351111 -0.11057476 0.2766662 0.06019612 0.047507755 0.1328549 0.0805844 0.34260997 0.08424248 -0.01815458 0.36447352 -0.11067955 0.2760552 0.102446645 0.17449754 0.00083794765 -0.19325209 0.10725438 -0.27195865 -0.37899217 -0.04251235 -0.07726824 0.16000722 -0.059790775 -0.13968736 -0.20309095 0.11396651 0.114943705 -0.024064828 -0.032222826 -0.09820008 -0.012482679 -0.06840186 -0.25774252 0.10340893 -0.46925384 -0.3312975 -0.11143072 -0.104563534 -0.410108 0.09926001 0.008314876 0.36252773 0.20535566 -0.097981215 -0.10574152 0.2918917 0.07244877
275 -0.33707654 0.03640437 -0.097032726 -0.17117845 -0.30879578 -0.264559 -0.07720336 -0.171595 -0.09184313 0.18164276 0.1420836 -0.1220215 -0.256765 0.18737537 0.077764854 -0.29848146 -0.15249577 -0.12806574 -0.09012967 -0.08635207 -0.18863681 -0.17440334 -0.4232377 0.20848559 0.1704991 -0.060229674 -0.39570448 -0.189399 0.04478478 0.17865123 0.09676168 0.11288813 0.14556666 -0.13378748 -0.32376006 -0.011529157 -0.10695974 0.035004657 0.2806607 -0.035001166 -0.3207263 -0.36610392 0.08973155 0.46763092 -0.15003829 -0.021329824 -0.11936952 -0.086826384 -0.036922485 -0.037962362
276 -0.07351805 -0.122509934 -0.066546045 0.1030571 0.18877134 0.21209386 0.39697865 0.1157629 0.13977005 -0.44906843 -0.0042011184 -0.0060485606 0.09924635 0.29599702 -0.20209512 -0.2993359 0.28193673 -0.18279982 -0.17878987 -0.023625987 -0.09202929 -0.17398499 -0.06193955 -0.15766987 0.22561069 -0.19719571 0.19942011 -0.37634817 -0.012843676 -0.1315978 0.24060513 -0.12555861 -0.2507981 -0.018356297 -0.08035735 -0.32213476 -0.23342451 0.00087917957 0.3662341 0.101155445 0.255605 0.2969374 0.12313052 0.01021805 -0.08718409 -0.12144412 0.103745885 0.1884244 0.25645974 0.11444224
277 0.007052793 -0.13550115 -0.14718738 0.017523706 0.008463559 -0.16244769 -0.15385376 -0.4146049 0.33621466 0.060769267 0.029857354 -0.013482967 0.30542305 0.2363818 0.27139696 0.07871862 -0.015477567 -0.11870204 0.21038401 -0.37232453 -0.007562494 -0.34243187 -0.2439688 0.0027150733 -0.12926152 0.19654551 0.06663987 -0.3723214 0.12236603 -0.038304392 -0.07013531 0.24866024 0.21919549 -0.07225767 0.13243712 -0.00026265872 -0.008449862 -0.4163552 0.2844219 0.20830698 -0.1923216 -0.34126487 -0.119720705 -0.050392423 -0.19238016 0.04108042 0.17748235 0.021965511 -0.32943368 0.13064235
278 -0.046469122 -0.12126117 0.32620066 -0.21714118 0.28111517 0.31804055 -0.21958032 -0.25307098 0.08781776 -0.21832512 0.21465519 0.055902634 -0.022944145 -0.047541957 -0.015758462 0.32092926 -0.07816013 0.22682527 0.18836087 0.07237673 0.060360417 0.0034853774 -0.32801792 -0.2106681 -0.2694872 -0.3457442 -0.06159471 0.077865474 -0.220917 -0.09735416 -0.040779985 0.2577541 -0.25117528 0.3011495 -0.1850891 -0.13867036 0.28870648 0.12130461 0.045877356 -0.0021222767 0.055778608 -0.37902626 -0.16853361 -0.22358468 0.23563813 0.1075762 0.12449584 0.14614402 -0.30915514 -0.10991244
279 0.27383533 -0.112747096 -0.1460314 0.33709103 0.02307436 -0.094152205 0.048895285 0.17452101 0.029911304 0.005107499 -0.23159935 0.021565959 0.26677167 -0.20686683 0.016570607 -0.24765003 0.1324105 -0.32583755 -0.091294855 0.3040955 0.3832509 -0.2456392 -0.2567775 -0.05651363 -0.06042573 0.34171352 -0.3893032 -0.017252848 -0.070324264 -0.046642445 -0.16283844 0.093287565 0.31397158 0.07950206 0.34497947 0.26212835 0.13762955 -0.2632421 -0.044015262 -0.2737452 -0.0020283125 0.19994394 -0.10354921 0.021028742 0.21791008 0.3112585 0.13426255 -0.0010711382 0.0095719565 0.13293658
569 -0.049207494 -0.07402891 0.33946174 0.111655444 0.163569 0.3377394 0.18412094 0.15171216 -0.009859139 0.2993689 0.058860537 0.31396857 0.033577 0.055873383 0.11617008 0.14077647 -0.10729161 0.27907148 0.11494172 0.19504413 -0.0027851032 0.32262662 -0.047146942 -0.29547998 0.32103223 -0.121359065 0.081185 0.16241871 -0.05987922 0.16374284 -0.016961792 0.21508671 -0.3403366 0.33554062 -0.100644335 0.117035985 0.25375813 -0.21056701 -0.048783917 -0.0144280605 -0.14150754 -0.14465132 -0.29507467 -0.23030524 -0.35842985 0.021615086 0.3260592 0.10445553 -0.0150102815 0.29041874
524 0.04075401 -0.3200408 0.20029888 0.083226055 0.25037506 0.25875536 -0.14686453 -0.3411453 0.062162567 0.11376515 -0.21560839 -0.19761154 0.054174308 -0.094847545 -0.2442396 0.12436581 0.054660894 -0.34189737 -0.33712465 -0.07380002 -0.36680296 -0.06723669 -0.036613822 0.04307264 -0.103142776 -0.085114315 0.2444097 -0.3597352 0.042099304 -0.21371643 -0.24731104 0.28936273 -0.10528536 0.14627153 -0.18639615 -0.25082836 -0.015119408 -0.21264607 0.13025533 -0.1511085 0.3422288 -0.16130108 -0.039171916 -0.17287885 0.16165397 -0.068929225 -0.14522162 0.011227017 -0.089193955 -0.40158343
525 0.26580334 -0.3050348 0.07682152 0.18176694 -0.15611474 0.20180449 -0.1180309 -0.30148607 -0.07994169 -0.11484643 -0.08811349 -0.19476837 -0.07722439 0.16722551 -0.30161488 -0.11674082 -0.08174193 0.10411419 -0.13235429 0.21308658 0.05272895 0.44861513 -0.35308003 0.09514585 0.07371231 -0.22880232 -0.055853005 -0.09780736 0.42021754 0.3243036 0.0341819 0.17862098 0.20912161 0.14174993 0.18340994 -0.09003831 -0.05135455 -0.026754092 0.30076906 0.080496706 -0.360736 0.068171374 0.019476362 -0.36488405 0.044095505 -0.034388456 0.014978891 0.17318748 -0.13356498 0.30787334
526 -0.11414331 0.049535573 0.2132187 0.01635037 -0.27019322 0.027566198 -0.2434798 -0.01883894 -0.22372912 0.19125482 0.43713558 0.1372838 0.043328084 0.11673058 -0.29611665 -0.007870807 0.24549581 0.11731198 -0.07844161 -0.047344588 0.35926086 -0.3680286 -0.030206066 0.050447844 -0.23488876 0.03835631 0.14035013 -0.035837602 -0.15315343 -0.26614514 -0.07240901 -0.201599 -0.27772596 0.28172842 0.0057418672 -0.2762392 0.22580953 0.2682711 -0.24245144 -0.08591732 0.15494908 -0.15458252 -0.38199902 0.31135505 -0.14548299 -0.23984693 0.12048017 -0.16468908 -0.049411867 -0.04316136
527 0.36939818 0.22566466 0.07106214 -0.12103529 -0.19270572 0.0465134 0.20510535 0.08609793 -0.0044527208 -0.20903692 0.098479815 0.23270641 -0.21842489 -0.17282629 -0.22342095 0.07032902 0.44621545 -0.07196267 0.3785849 0.14746918 0.25491598 -0.1289166 -0.013065572 -0.10386113 -0.04704191 0.012546194 0.017207904 0.34591615 0.06393563 -0.27458948 0.02624721 0.1357931 -0.1265332 0.030358465 -0.13259225 -0.09650523 -0.1796088 0.034559328 -0.27896494 0.14311664 -0.027759273 0.37698781 0.24706015 0.1521212 0.07976093 0.062933326 0.010691527 -0.15849687 -0.4685824 0.35141364
520 -0.116895676 -0.1405496 -0.010530202 0.1595443 -0.10347678 -0.37381577 0.26259694 0.27685034 0.27430245 -0.22779152 -0.31122488 0.011018183 -0.15966676 0.3058586 -0.22811517 0.21224311 -0.15664901 -0.044360764 -0.06980244 0.0035041266 -0.30478922 -0.09606885 -0.17617211 -0.18502764 0.07705886 0.37236214 -0.0066844653 0.097628385 0.026950087 -0.19880836 -0.32473728 -0.13392617 0.24665746 0.054763824 0.0027543122 0.09887663 -0.1755165 -0.07148545 -0.03031964 -0.17011692 0.10823653 -0.16294047 -0.21251693 -0.24658722 0.31069326 -0.2450812 -0.23749931 0.31906757 0.29933527 -0.009506059
521 -0.22118211 -0.025380887 0.25945288 -0.1334195 0.21841158 0.18948668 0.011559026 0.1442209 -0.19215994 0.21513122 -0.1672447 -0.2340186 0.39301926 0.2611977 -0.14127451 -0.16768472 -0.05349422 -0.22610062 0.3037186 -0.09894034 -0.1262957 -0.011969111 -0.32443652 0.13964069 -0.16491927 0.2916114 0.099223904 -0.08169823 0.07091671 -0.47537407 0.18574114 -0.1935767 -0.106481455 -0.2937849 -0.0339207 -0.32532 0.15299192 0.032073595 -0.023552345 0.12699789 0.045886856 0.06377922 -0.38282982 0.13621508 -0.22497563 -0.23350613 -0.050418556 0.014264178 -0.19394323 -0.18145578
523 0.021498796 -0.16366278 0.01864472 -0.44836688 -0.18150435 -0.082214154 0.37328482 -0.07011986 -0.10705569 -0.13408409 -0.024358587 -0.18863413 0.21277018 -0.21994522 0.18377899 -0.18484288 -0.065632656 0.040098518 0.13555989 -0.14643304 0.3755732 0.07364778 -0.23031297 0.27812508 -0.1938936 0.25169277 0.17161207 0.29420146 -0.29587603 0.2903869 0.26040888 -0.17609559 -0.10765817 -0.25438276 -0.18331175 0.06749505 -0.19804154 0.0926808 0.032416668 0.005975045 0.052132297 0.34383467 -0.025938552 -0.1060771 -0.28189984 0.16755554 -0.054930475 0.024100143 -0.35021046 -0.14123213
528 -0.04077074 0.13205329 0.022183344 -0.19744328 0.08979859 -0.22882473 -0.05669234 0.24692166 -0.062595725 -0.20876221 0.18143481 0.15617192 0.15629667 -0.2871346 0.051649645 -0.26893196 0.19880152 0.14051282 -0.122368865 -0.40091214 0.12113025 0.1960618 0.4121033 0.26757252 0.025144823 0.45045155 0.09799191 -0.0887143 -0.18786384 -0.093863286 -0.38293982 0.017555462 -0.24634528 -0.2135361 -0.017930215 0.11441883 0.17208685 0.06843462 -0.017254494 0.024504166 -0.06804632 -0.1749584 0.16580962 0.01902944 0.18699782 0.039436474 -0.102741115 0.27320457 0.34045675 0.36462042
529 -0.14936718 0.12567016 0.115507625 0.19924343 -0.04061852 -0.23493959 0.42913198 0.07257511 0.3262616 -0.22636844 0.07952081 0.17760696 -0.0189853 0.22386608 0.250892 0.26378414 0.017647471 -0.21376763 -0.0012889999 0.04881154 -0.07850224 -0.3034605 -0.24045926 -0.26325268 0.10129256 -0.01650687 -0.0035836168 0.32509565 -0.34525344 0.15238215 -0.39782146 -0.16623104 -0.03286267 0.2651906 0.32438162 -0.27283576 -0.114996076 -0.089633316 -0.14096457 -0.05871892 0.17986219 0.12039752 -0.008171366 -0.09015995 -0.1842512 0.14684758 0.2654028 -0.0892722 0.26273608 -0.109881215
449 0.06377727 -0.08765186 0.051084116 -0.01647158 -0.12208739 -0.085207835 0.24375556 -0.06824753 -0.36236498 -0.24967687 -0.4361542 -0.1092515 0.008956391 0.005245795 0.22600736 -0.05811912 -0.14941551 0.29157728 0.15924576 -0.12219488 0.18671675 -0.19623198 0.16772379 -0.2505382 0.36992764 -0.19733939 0.35753155 0.14025635 0.42741942 -0.22794549 0.033670053 -0.0050015645 -0.15890032 -0.076590054 -0.29582527 -0.04231707 0.104428366 0.31920773 0.17462285 -0.21417716 0.082025625 0.126486 0.0136127565 -0.21965557 0.011172919 0.06769859 0.2610793 -0.115269564 0.33257818 -0.015564329
448 0.07094908 -0.04199938 -0.04126202 -0.088394046 0.034188073 0.3955777 -0.30187353 -0.13691299 0.0688642 0.27924144 -0.09544984 -0.32730377 -0.12564549 -0.028164772 0.24377868 -0.20874535 0.0143370675 -0.20940895 0.40639755 -0.07978142 0.2253168 -0.18674357 0.1939785 -0.135487 0.2010391 -0.24419802 0.22562961 0.23306967 -0.18860714 0.13667455 -0.05707474 -0.40911055 -0.11616797 0.02473739 0.14680862 -0.031364616 0.26003876 0.07440747 0.14777401 0.16648246 -0.4523296 0.21150674 0.21964794 -0.04228622 0.17429204 -0.0881925 0.180443 -0.20329367 0.18363382 0.07593741
345 -0.20928715 -0.0951191 0.10735867 0.13935846 0.28980967 -0.2244395 -0.022037517 0.16781688 -0.20917872 0.28884092 -0.09672809 0.19772701 -0.25993612 0.08058059 -0.29933068 -0.034997758 0.15842988 -0.31599402 0.025875226 0.3890479 -0.008705226 0.08756069 0.306119 -0.060015734 0.17504145 -0.13816583 0.17346567 0.280259 -0.15614834 0.11142681 -0.0551549 -0.31895894 -0.23829187 -0.22524485 0.05529255 -0.27241117 -0.039364487 0.11406603 -0.09349036 -0.12524454 -0.086004026 0.32881898 0.40461087 -0.26643422 -0.1231291 -0.006958545 0.09263262 -0.0066510793 0.024682267 -0.36368883
443 -0.055350773 0.2753588 -0.26837602 -0.41587868 0.16314329 0.21884605 0.14793104 0.063306324 0.21150963 -0.020467954 -0.22736472 0.25192022 0.019458745 -0.07863571 0.2419885 0.30664536 0.08550471 -0.08929393 0.14090362 -0.016951822 0.04636332 -0.4408637 -0.04328781 -0.09144394 0.118720606 0.039624836 -0.042789407 -0.13357514 0.2944779 0.048378736 0.042405345 0.28549296 0.3262639 0.1324306 0.1748438 -0.22050005 0.43132302 -0.18522015 -0.0025606349 -0.052773926 0.11862779 -0.018807624 0.10966615 -0.30050743 -0.067772724 0.4393446 -0.11428418 -0.11090009 -0.09194924 -0.17858118
442 -0.3509165 0.1807686 -0.020691225 -0.07088718 0.01776713 0.3466605 -0.04131338 -0.3668623 -0.20702991 0.014228745 0.34569854 -0.1328549 0.060575757 0.013268396 -0.006072376 0.2170188 -0.1416653 0.2116095 0.16256672 -0.020340323 -0.17459597 -0.36540037 -0.024618646 -0.19842862 0.23467337 -0.31047186 0.035113264 -0.25342453 0.055190526 -0.18382367 0.015237814 -0.005946566 -0.10167155 -0.25775027 0.21553956 -0.087409146 0.07603482 -0.19196755 -0.059198357 -0.24882266 0.24493317 -0.08346357 0.28028098 -0.07662347 0.38971606 0.09653179 -0.13912192 0.20199123 0.20866285 0.381898
441 -0.27678123 0.09955587 -0.230833 -0.038213614 0.026845748 -0.010342026 0.4296226 -0.16463819 -0.025905065 0.124195285 0.15092602 -0.24603203 -0.007793288 -0.0096721705 0.13691682 0.36771673 -0.09862295 0.1271094 -0.33713108 -0.31631377 0.09404565 0.3268734 0.11595837 0.14018875 -0.0657309 0.30151096 0.20510992 -0.2679325 0.21744113 0.08033575 0.15235245 0.25665477 0.011063317 -0.080445595 -0.18797119 0.005268188 -0.027331179 -0.18761508 0.38158014 0.17572701 -0.221754 -0.13150279 0.10627324 0.0024097157 -0.2859953 0.005869403 -0.33462337 0.27823895 -0.20765132 -0.07698718
440 -0.07429728 0.102388 0.063809484 -0.3717849 0.02859793 0.17465636 -0.2774849 0.09451066 0.24874742 -0.32581154 -0.3722933 0.025009088 0.33177844 0.35698187 -0.20261745 0.11036831 -0.22139706 0.045621913 0.071430095 -0.016556403 -0.1344429 -0.098946005 -0.040593736 -0.12059825 0.16097401 -0.14853296 -0.39553806 0.062459372 0.080665894 0.13181528 0.2550611 -0.090675995 0.15879758 -0.11310096 0.10205749 -0.0890265 -0.2425983 -0.09034797 -0.17270026 -0.1552461 0.11465796 0.3219824 0.24798517 -0.30469358 0.09950613 0.23712571 0.40683317 0.05056497 0.047624033 0.18844156
447 -0.21005987 -0.04503782 -0.08055042 -0.006026997 -0.05826288 -0.3149787 -0.21413735 -0.30500555 0.086901605 -0.03978918 -0.18885885 -0.12076785 -0.24841605 -0.15636039 -0.34363937 0.38887316 -0.05670487 -0.07202328 -0.1550654 -0.095798254 -0.19201206 0.22486885 -0.30922374 -0.2456994 0.076991424 0.11268718 0.12854649 -0.010657758 0.30191994 0.08877298 -0.24193425 0.20531386 0.065156356 0.022945436 -0.3455562 0.13802935 0.21057762 0.2776455 0.27377543 -0.3695369 -0.25469235 -0.053361386 -0.15395981 -0.098144986 0.106326 0.27983975 -0.09573824 0.17726338 -0.055251997 -0.24588592
446 -0.34239322 -0.16524196 -0.13111801 0.13632114 0.19505581 -0.12723842 -0.3956608 0.26100698 0.094383016 -0.026720952 -0.38511458 -0.00086618436 0.120183565 -0.26476786 -0.06205346 0.29982024 0.15580268 0.09836657 -0.22008936 0.087693326 -0.041575946 0.083332755 0.28403997 -0.15598382 -0.028115902 0.38664714 0.042458363 0.2098738 -0.38166147 0.24509445 0.2568934 0.024664791 0.020358317 0.13773324 -0.20944616 -0.14928682 -0.18645705 -0.118741654 -0.18775308 0.2410083 0.039409902 -0.33415097 -0.035181627 -0.03086867 -0.17540385 -0.03931159 0.03201266 0.30274263 0.25297654 -0.013641639
445 0.0056341463 0.1808351 -0.08199846 -0.15934363 -0.31111082 0.34755778 0.31163496 0.25424963 0.13063774 0.03783515 0.25317007 0.107863374 0.2528196 0.111554354 -0.09681449 0.20296317 -0.13756965 -0.38326678 -0.23170093 0.002577353 -0.07805749 -0.20165661 0.15950075 -0.13866816 -0.15398729 -0.041194282 -0.022863723 -0.44971946 -0.054000933 0.4557629 -0.08201967 -0.032804407 -0.0005533819 -0.27131444 0.1792216 -0.29262114 -0.23728439 -0.07849955 -0.09225272 0.119873874 -0.081490025 -0.10931787 -0.17270058 0.052285783 0.31622976 -0.24957871 -0.17472161 -0.03100734 0.23380071 -0.02818812
444 -0.056800682 0.08065014 -0.081820644 0.1452694 0.16458358 -0.1044897 0.28173313 0.05882202 0.05586803 -0.03382295 0.12169206 0.2200059 0.37308127 0.33376762 0.2017101 0.092949085 -0.30461138 -0.23106146 0.2264516 0.32514033 -0.18875389 0.022193363 -0.04746872 -0.35615653 0.07643926 0.18809675 0.22379562 0.07889477 -0.11536597 0.3230253 0.050895546 -0.107407875 -0.025957806 -0.2814404 -0.4624099 -0.021268286 0.22697836 0.11615119 0.052353755 0.0034360487 -0.100692876 0.1372313 -0.014084716 0.31187427 -0.20735303 0.1907384 0.02240536 0.29015014 0.326789 -0.13159162
108 0.08256089 0.22533858 0.35360673 -0.12808338 -0.2172409 0.17230038 0.078924246 0.140576 -0.03889873 -0.034325358 -0.088367015 -0.005854593 0.14079174 -0.3319337 0.12723534 0.083181456 -0.16221647 0.09007595 0.2868137 0.02433316 0.09205034 -0.45503038 -0.31324476 0.0028925145 -0.32172686 -0.17868178 -0.037616257 0.05908976 0.15650922 0.02734576 0.06921069 -0.01794181 0.16323493 0.37218806 0.1601617 -0.1708251 -0.22004955 0.13846757 -0.32654876 0.11874533 -0.25109407 -0.002713029 -0.37985587 0.21236807 0.13979177 -0.27293706 -0.15049633 0.11165035 0.21987253 -0.3074697
109 -0.41041595 0.053507145 0.10787341 -0.22963865 0.019193826 0.30982956 -0.06474409 0.3148959 0.1770454 0.01669223 0.169113 0.09305504 0.21697687 0.30323616 -0.16530702 -0.05248854 -0.05659758 -0.15331689 -0.20059091 -0.063144684 -0.14645138 -0.23231824 -0.18416835 0.3703583 0.09581253 0.101854004 0.18715222 0.14637579 0.12133533 0.28972694 0.018526347 -0.03536661 0.21890219 0.2871922 -0.13330656 -0.17632589 -0.24763317 -0.2670832 -0.09840897 -0.193221 -0.19154099 0.28067243 -0.17035055 0.34383455 -0.052635394 -0.17004834 -0.29195094 0.29163814 0.0962637 0.005867269
102 0.26389194 0.0016276115 0.2041361 0.11100682 0.057599604 -0.086545125 0.22800165 0.057574227 0.2946159 -0.22090386 -0.28935102 -0.18526176 0.06692798 -0.05301291 -0.36781573 0.036138393 -0.19213526 0.38023987 -0.051701244 0.19072329 0.07923015 -0.08204901 -0.35915613 -0.017118486 0.22335525 -0.033906013 -0.041576967 -0.11049794 0.1615865 -0.17739601 0.101466216 0.40475988 0.21920556 0.08706851 -0.025704863 -0.03640488 0.39649707 -0.12052883 -0.26535192 -0.06880862 -0.17388184 -0.26634932 0.18375613 -0.05190519 0.29926002 -0.35781047 -0.06109179 -0.253873 -0.06230792 0.14634511
103 0.08627814 0.28158265 0.11539342 0.29301468 0.28372142 0.09051503 -0.09920869 0.40101704 0.2024969 0.27245513 0.118335314 0.2025055 0.16628693 0.27728638 0.076616615 0.03948463 -0.05368016 -0.21411444 -0.008513651 0.027033627 0.2067455 -0.18116033 0.22123012 0.28243598 0.13683562 0.3464452 -0.083247624 -0.38521716 0.058716152 -0.002972081 -0.13514663 0.079680175 -0.11040989 -0.3218914 -1.2262169e-05 -0.4706791 0.064130604 0.15004635 0.097643875 0.14526626 -0.0028154778 -0.19195311 0.17618424 0.13975431 0.07490882 0.10050352 0.28999716 -0.21472102 0.15670748 -0.20994706
101 -0.05812501 -0.10484612 -0.10542326 -0.24585885 -0.1620518 -0.1427529 -0.39071435 -0.3227873 -0.09548364 -0.19573663 -0.013380009 -0.32455218 -0.066903844 -0.28881934 -0.17693518 0.05926113 -0.08365202 0.08165463 -0.08351128 0.01850768 0.23343964 -0.30873045 -0.23352893 -0.07746825 0.3218669 -0.14196055 0.11633671 0.12308122 0.19297875 -0.4016513 -0.007507776 0.2759126 -0.05613861 0.082650475 -0.37709814 0.29802465 0.17111006 -0.012646041 -0.11108596 0.058325138 0.15332915 -0.12681633 0.32154664 -0.30804938 -0.15539032 0.051808737 0.21183355 -0.08519602 -0.22205923 -0.15517469
106 -0.1478882 -0.10952244 0.10295263 0.10280906 -0.24288926 -0.32874632 -0.19669811 0.14077513 -0.015846273 0.30358034 -0.07492627 -0.008468183 0.06662187 0.21445021 -0.094266444 0.31069866 -0.014786037 0.26403543 -0.29965594 -0.1636321 -0.25171128 0.36404812 -0.08281819 0.123282224 -0.24696836 0.20537837 -0.16008227 -0.18247797 -0.16134815 -0.32832348 0.3404093 0.030397974 -0.09572034 0.23728664 -0.12100949 -0.38346073 0.14114825 0.21205676 0.2581233 -0.22675364 -0.10877193 0.18395329 -0.12989517 0.19055545 -0.15339406 0.16391875 0.013021204 0.2651962 0.13326049 -0.025773933
107 -0.064353146 -0.27025238 -0.2920439 -0.09907382 -0.22692263 -0.33790576 -0.08566564 -0.011349826 -0.10014933 -0.26483074 0.10525918 0.10162275 0.03002315 0.03201443 -0.31566474 -0.19772017 -0.39689842 0.07898928 0.08664403 -0.07189659 -0.040804494 0.20661756 -0.2904246 0.31436718 0.09147015 0.2635085 -0.108649895 -0.02911544 0.34551328 -0.14500242 -0.0042707846 0.111570194 -0.10559042 0.20398656 -0.16079551 0.0958323 0.27658594 0.071249925 -0.27828386 0.3217288 0.311836 0.01967423 0.14634663 0.25854772 -0.17792387 0.39597115 -0.1808334 -0.0250678 -0.08338493 -0.009371785
104 0.31185713 0.15698057 -0.031790696 0.26804277 -0.052496154 -0.16818948 -0.23816106 -0.0075158584 0.1996091 0.0026971747 0.01215629 0.15077586 0.1368624 0.2419591 0.061661426 -0.43117377 0.29932123 0.021797232 0.17311244 -0.17447232 -0.08711896 0.24880674 -0.13250825 0.38633963 0.0302519 -0.020838862 0.25708976 -0.1867161 -0.071804225 0.12642632 -0.30133912 -0.15161397 -0.25825965 -0.14956431 0.25974092 0.20824084 0.18388192 -0.044000093 0.16051999 0.04318466 0.2889463 -0.13021864 -0.14099711 0.1238155 0.3263118 -0.13944586 -0.26265115 0.008349305 -0.13437267 -0.3894939
105 -0.0433458 -0.07165286 -0.03527923 0.2695252 -0.04034824 0.19570945 -0.19038975 -0.23068449 0.21589601 -0.10658992 0.15505111 0.01394363 -0.22263989 -0.06370924 0.23965964 0.45654678 -0.1833117 -0.18413937 0.43390518 0.22140242 0.23693027 -0.1424775 0.0036947173 -0.0742214 0.03516508 -0.22692727 0.19471091 0.31888092 -0.070098564 0.12750326 -0.059846025 0.07234729 0.081911504 0.13590519 -0.19704226 -0.06329452 0.06720436 -0.0431828 0.38065234 0.06171792 0.29944098 0.21181402 -0.008619688 -0.26017284 -0.13034572 0.38956347 0.2525699 0.13174671 -0.22389857 0.23129794
39 -0.02765075 0.035072107 0.017160103 -0.07683796 0.26812255 -0.31618056 -0.120185204 0.023714975 -0.35580945 0.27026558 -0.092213854 0.28767687 -0.05989775 -0.15817317 -0.28036898 -0.23541182 -0.25972503 -0.029665377 0.1182839 0.3621309 0.13131335 0.25337029 -0.016800899 0.23666833 0.014212147 0.30870828 0.009887901 0.1783017 0.19443378 -0.060386226 0.10884148 -0.2597315 0.050013833 -0.12484546 0.07398903 -0.09103577 0.37278306 -0.008212825 0.40733814 -0.2178076 -0.09967983 -0.22847295 0.30489329 -0.22596852 -0.09659656 0.18180817 -0.13448444 0.27750948 -0.050086163 0.1471546
38 0.4285513 0.19903801 -0.115988486 -0.054263286 -0.11643542 -0.17590868 0.28155348 -0.035345428 -0.15879737 -0.13430806 -0.09908785 -0.18738967 -0.28559402 0.17854689 0.11720229 0.040536363 0.30639863 0.22613321 0.0019025013 -0.046526637 0.20325147 -0.05318269 -0.40290856 0.25332895 -0.021467973 -0.09723019 0.028985916 -0.25509667 -0.15842861 -0.100377925 -0.23033142 0.21775052 -0.38678837 0.31402454 0.118989184 0.22703408 0.06815974 0.16173239 -0.027668016 -0.180986 -0.06969542 -0.07876149 0.0060499148 0.41531405 0.27927306 -0.1864343 -0.13080665 0.1919464 -0.2413664 0.04688858
33 0.20221281 0.13392432 -0.30552754 0.05720054 0.09415421 0.0089973025 0.20507318 -0.000832859 0.17940484 0.124668874 0.26243412 0.010883518 0.10945552 -0.005716032 0.28763795 -0.21789062 0.27263713 0.30191866 -0.09516401 0.41313452 0.0446469 0.11496197 -0.30176082 -0.10814806 0.2672497 0.28926674 -0.17675784 -0.035835028 0.1712765 -0.2787068 -0.054080978 0.00048350933 0.06280437 0.43069357 0.5185569 0.042673413 0.0155474655 0.1753654 0.22487114 0.17584753 -0.058562312 -0.13568172 -0.08057327 0.01945011 -0.34628174 0.008812378 -0.016940696 0.07345557 -0.17555079 -0.1265406
32 0.17003138 -0.17101282 -0.1819879 -0.013948087 0.29833058 0.3492412 0.12004846 0.00071360444 0.20159058 0.21362352 0.15767753 -0.1624413 0.2507484 0.13684793 0.1321572 -0.24824172 0.24112327 -0.2447823 0.37196112 -0.20895028 -0.012543209 -0.22446983 -0.12558065 0.13575602 0.010679811 0.16808379 -0.007815333 0.15469484 -0.1169989 -0.24428594 0.20339099 0.06991021 -0.30749595 -0.09365193 0.11782668 -0.03873354 -0.32000497 0.065219 -0.10433729 -0.07430995 -0.23013447 -0.031724367 0.37377596 -0.32192943 0.13576269 0.30682006 0.25686902 -0.32219827 -0.08123525 0.009245755
31 0.22652772 0.15426968 -0.24197324 -0.2870926 0.09976612 0.1944382 0.13404682 0.007969643 0.14671744 -0.19961719 0.16064984 0.2338738 0.050824035 0.19667141 -0.13955502 -0.3064075 -0.11285795 -0.028951194 0.2562201 0.03758577 -0.19758849 -0.33335137 -0.028496344 0.42533135 0.09539127 -0.40103656 0.023837393 0.30049765 0.23848885 -0.27175063 -0.28740072 -0.03828687 -0.14582802 -0.06369985 -0.18392548 0.05424753 0.06151279 0.17555654 0.2522524 -0.41142604 -0.18650186 -0.09161568 0.09495649 0.1667609 0.07513501 0.011054843 -0.32167906 0.08646183 -0.08434138 0.008625002
30 -0.23406574 -0.12793896 0.1743785 0.19726306 0.19978002 -0.19187914 -0.046972632 0.14215484 0.13320857 -0.21849036 0.09944457 -0.08099707 -0.27361003 0.25974873 -0.009464674 0.31352717 0.14696866 0.22603779 -0.31310827 -0.050971027 -0.22755668 0.2968554 0.35180548 -0.015278648 0.022222508 -0.08195623 -0.08194185 -0.011936763 0.23677711 -0.30513436 -0.25059888 0.26185524 -0.2413436 0.044060305 0.141912 -0.15527186 -0.093388215 -0.28891018 0.011366579 -0.061248977 -0.2177825 0.29611033 0.22106394 -0.23500122 0.018117249 -0.07349644 0.4678491 0.091020584 0.14592722 -0.10946533
37 0.14916329 -0.18456471 -0.19554631 0.38499182 0.08627303 -0.1287425 0.13624512 0.25181478 -0.3237846 -0.12999305 -0.05294203 0.26038796 -0.13083388 -0.19131133 -0.012072195 -0.004713428 0.1088982 -0.27591416 -0.1815985 -0.07265352 0.30184296 0.17718644 -0.34895748 0.14802735 -0.112166464 -0.02494218 -0.18211092 0.20279405 -0.06273812 -0.14540286 0.15400927 0.38350344 -0.19116694 -0.15895982 0.13774617 0.07402489 0.034991544 0.25079098 0.053966545 0.123616874 -0.15481165 0.10780649 -0.27568263 -0.23262922 0.36679924 -0.1411711 0.14254163 -0.30149055 0.20053825 -0.29837555
36 0.23156245 0.18199931 0.123626396 -0.15529743 0.030945461 -0.4499507 0.3719138 -0.012183962 0.17760172 -0.35580936 -0.21131219 0.16159247 -0.039987262 -0.17052051 0.014762838 -0.03130457 -0.022850346 -0.027966198 -0.4202225 -0.12202514 -0.08033433 -0.21076068 -0.10118484 -0.09171063 -0.094269656 0.38694364 0.32457122 0.04599505 0.071064405 -0.30322346 0.034265436 0.1179995 -0.12923548 0.107040055 0.30231974 -0.15433271 0.0059512965 0.054797772 0.025876032 0.47701067 0.071596086 -0.15462254 -0.18962824 -0.22880037 0.09252015 0.17084406 0.011747925 -0.21532363 -0.12593947 0.19658224
35 -0.13440624 0.096727185 0.12669903 0.27559632 -0.16329719 0.3003283 -0.20511556 -0.032745082 -0.18355232 0.3376519 0.12380503 0.2792107 -0.3216875 0.025535524 0.00961043 0.181733 0.112897955 -0.21209319 0.15537606 -0.08534952 -0.31888485 0.26911715 -0.2542413 0.078946985 -0.09047532 0.10041539 -0.13671474 -0.03579075 0.36971664 -0.027579896 0.12026549 0.33866122 0.4708731 0.114806205 0.11513819 -0.01723094 0.17823964 0.3167486 0.06596554 0.08187436 0.0049779485 -0.11051709 0.13004915 -0.02905877 -0.4339241 0.16278183 0.0510882 0.05259089 0.13889246 0.20561655
34 -0.21599741 0.2329891 0.08536131 -0.05449096 0.07091971 0.22352274 0.012209507 0.022624323 -0.025746962 0.0661156 -0.17653367 -0.22999032 -0.19533573 0.09894275 -0.2375178 0.11083518 -0.29731557 -0.0030299232 0.4087969 -0.13401677 -0.2095534 0.21003285 0.44444576 0.05993942 0.2545217 -0.07215951 0.22087698 -0.06733862 -0.021859659 -0.109152175 0.21466908 -0.030913595 0.35564834 -0.029645786 -0.24223007 0.21758674 0.12611295 0.16122347 -0.2666491 0.008020893 -0.061392196 0.13773604 -0.34782627 -0.10321489 0.38534898 -0.3744688 0.13742645 0.19240358 0.070469804 0.17783476
641 0.24017335 0.29088622 0.2831529 -0.02393801 -0.036704924 0.06071721 -0.028354906 0.37992 0.12178377 0.12150831 -0.031579267 0.0132498415 -0.09408631 0.15357108 -0.2529359 -0.2996458 -0.049940683 -0.20385191 -0.15080859 0.26730695 -0.10130309 0.15091501 -0.07839488 0.41213134 0.25005183 0.53703666 -0.4018129 0.17883745 0.091488004 0.12736323 0.28523076 -0.3516323 0.0914358 0.032158453 0.30411446 -0.097800314 0.01591926 -0.048484128 0.11706821 -0.07523191 0.063761406 -0.110986605 -0.018511835 0.15113719 0.06299155 0.10985862 0.15181172 0.07851842 0.053976033 -0.25964746
640 0.11687117 0.32973024 0.099956855 0.07894628 -0.04016563 -0.094612524 0.1676529 0.1190079 -0.15946622 -0.07295657 0.3331543 -0.007069263 -0.10572137 -0.14062673 0.26960745 -0.2357833 -0.100814804 0.39837003 -0.22883184 -0.09563185 -0.41723663 -0.29253343 0.1295742 0.022856137 -0.01362622 -0.16227035 -0.16094655 -0.14187576 -0.15451156 -0.18273972 0.114210546 -0.31624222 -0.11814732 0.07735689 -0.04761372 -0.19342448 -0.02813786 -0.14965159 -0.11914127 -0.05148143 -0.30475867 -0.14098155 0.46932906 0.15564527 0.316227 0.20635006 0.33826128 0.11298383 0.081240736 0.15506372
642 0.11707175 0.26244977 0.23199548 0.16267458 0.03318324 -0.15984175 -0.035753496 -0.29296705 0.17422146 0.28147447 0.24772836 -0.01809604 0.13396704 -0.16199285 0.27438456 0.10144375 0.037103962 0.26969638 -0.20951957 0.19400196 0.021028845 0.38524118 0.13658269 0.30871966 0.062149853 0.22204995 0.20113479 -0.046623606 -0.15039243 -0.2729467 -0.18000104 0.07088516 0.2295675 0.24854152 0.09391903 -0.2237358 0.1601754 0.065123476 0.042765886 0.2233334 -0.266122 0.02302682 0.36547738 0.07064869 0.040698275 0.37543502 -0.13650645 -0.06555893 -0.2846168 0.24920419
645 0.368547 -0.28650102 -0.115519404 -0.06736013 0.12205443 -0.032683507 -0.008916503 -0.17846304 0.16610554 -0.0885254 -0.098491326 -0.27761862 -0.069334 -0.11156555 -0.25979283 -0.30632836 -0.27559066 0.10214822 -0.09053532 0.24739328 0.09345516 0.052765936 -0.39885044 0.19688478 -0.22445974 -0.28604773 0.082350716 0.28548852 0.02547582 0.15229294 -0.06721488 -0.23330466 -0.19913588 0.20557411 0.29085857 -0.0068535153 0.049493212 0.28864875 -0.21817212 -0.08979632 -0.11586244 -0.1364007 0.2790164 -0.10566326 -0.058526162 0.28254005 0.17233601 0.36618832 -0.23710625 0.12164359
644 0.22174719 0.20000993 0.16897337 -0.14772445 -0.2597682 0.15316199 -0.08187821 -0.3716033 0.16646461 0.08917898 0.112127855 -0.24749054 0.23424996 0.02039618 0.15479049 0.36652362 -0.060787793 0.093325995 0.3003321 0.1660421 0.12658226 -0.30295458 -0.13152075 0.20730077 -0.058242477 -0.107327014 0.09064226 0.2615615 0.09281433 -0.12020467 -0.087419726 0.10198645 -0.16673902 -0.11782446 -0.2725501 -0.09824962 0.09800522 0.2882859 0.3950674 0.39721462 -0.031296715 0.29267898 0.22472882 -0.14842542 0.11612671 0.07173184 0.016393775 -0.08178147 -0.27485356 -0.27972302
647 0.15668975 0.36239186 -0.15822814 0.1322654 0.12939163 -0.049155615 0.08309934 0.30578774 0.024871245 -0.1193865 0.13576564 -0.29136902 -0.07227716 -0.41283828 -0.0858652 -0.47541457 0.028216155 0.08070789 0.14643349 0.22665024 -0.19659287 0.040757377 -0.04960436 0.07522778 -0.16191348 0.012601013 -0.2410063 -0.14851482 0.01287206 0.3658611 0.29697827 0.17511226 -0.32839552 -0.20819215 0.18233903 0.28408378 -0.24750674 0.2004381 0.2184708 -0.16010594 0.01574037 -0.12873298 0.03461546 0.16587009 -0.09480548 0.109883204 0.24847956 0.26106477 -0.012288583 0.17390072
646 -0.06405637 -0.14803949 0.28656167 0.093022406 -0.25773942 0.14605191 -0.13230045 -0.20943551 0.06837585 0.3419439 -0.31194943 0.40397358 0.12276883 -0.2197876 0.11115933 0.11607517 -0.33410123 -0.28449622 -0.0017079728 -0.02446046 -0.07058366 -0.13677968 -0.1676523 0.13028853 -0.028813723 0.10265771 -0.2389326 -0.18828051 -0.20703082 -0.1282158 0.13048857 0.16110355 -0.37857398 0.1193788 -0.16113691 0.046783462 0.32132652 0.11683883 0.014307729 0.017646031 -0.0008403808 -0.26723784 0.26842102 0.08528267 -0.42824465 -0.22200243 -0.025462845 0.13817404 0.2114576 0.20886806
436 -0.051505323 0.25347507 -0.06591903 -0.027779324 -0.35151544 -0.37013173 0.31375885 0.00890528 0.035891905 0.28043842 -0.24910967 0.21031426 -0.1329216 0.13765089 -0.055859674 -0.40674666 -0.22340958 0.09657021 -0.14377306 0.075684264 -0.16215566 0.07268399 -0.019826448 -0.14877301 -0.19430643 0.06695188 -0.25828826 -0.21381176 0.26170525 0.18701245 -0.24175856 0.11557378 -0.012143886 -0.32853496 0.020488583 -0.30292344 0.18385404 -0.3384835 -0.054414865 0.041994866 0.15608884 -0.17398052 0.26922923 -0.05457471 -0.026612798 0.29464263 0.046032056 -0.1248355 -0.26364014 -0.22278015
437 -0.118477196 -0.07216912 -0.15462099 -0.02608347 -0.011122494 -0.31343782 0.1898527 -0.23966843 0.21979113 -0.1401518 0.37129125 -0.096076906 -0.34672865 -0.08422174 -0.036262166 -0.011354856 0.34877142 0.16371216 0.11693751 -0.23999375 0.34206554 0.008577305 -0.24417277 -0.13135 -0.082752585 -0.13956001 0.3580894 0.15845656 0.124438025 0.20519215 0.09272423 -0.035000745 0.091005415 -0.29638967 -0.28937593 0.15753569 0.05788568 -0.3703316 0.15649351 0.32611194 -0.20649837 -0.1059462 0.23165135 0.20790598 0.14741787 -0.09095144 -0.16332169 0.24944298 -0.079101115 -0.08856801
434 0.30728132 0.3001493 0.092971124 -0.17595994 0.113080725 -0.10233452 0.0605092 0.04713432 0.058087785 0.18989873 -0.14469066 -0.29302213 0.20930147 -0.39489993 -0.34822655 0.35967156 0.004855916 -0.18940116 0.09159136 -0.12328081 0.17774504 -0.08012938 0.08303416 0.16566062 -0.13525318 0.01700859 0.0217419 -0.20306613 0.39175284 -0.19568864 0.057853363 -0.07066208 -0.30809546 0.16222195 -0.15342443 0.13753982 -0.31632525 0.07845956 -0.18044746 0.027537407 0.22013168 -0.19279674 0.2434812 0.25975224 0.23260313 0.0862365 -0.21924062 0.15933318 -0.03113529 -0.3260654
435 -0.14848979 0.30870232 0.09904079 -0.28018326 -0.2733929 0.16435553 -0.07051031 0.15605077 0.25068456 0.27203545 0.048505183 0.23610768 0.027483605 -0.03110218 0.20667098 -0.24438117 0.34092602 -0.103376314 0.007981176 -0.248866 0.09362063 0.110938564 0.2012347 -0.30882695 0.1352845 0.040450886 -0.14356302 0.5436651 -0.2062787 -0.20481545 -0.19735603 0.06965668 -0.23810749 0.014109336 0.08651814 -0.20835395 -0.18359192 -0.18335664 0.08352279 -0.26401627 -0.34595165 0.06421724 0.06936316 -0.07604312 -0.12183768 0.074472286 0.12385471 0.09740557 -0.24894895 0.24594396
432 -0.09632785 0.27351034 0.00084356655 -0.16738498 -0.022582363 -0.27693108 0.0033876488 -0.16383766 -0.28149688 -0.2749181 -0.038520277 0.074723914 0.22806893 -0.11292171 -0.013975017 0.20550622 0.24346635 0.13218938 0.2272328 -0.09712519 0.49744663 -0.020101171 0.14688054 0.041787434 0.3252101 0.3063235 -0.00771428 -0.19704783 -0.27544484 -0.13590842 0.16109203 -0.09235906 0.17359312 0.0023997705 0.14769371 0.16003801 0.10252458 0.06545623 0.05186491 -0.23490058 0.039745767 -0.20489761 -0.34826556 -0.27801985 0.072438106 -0.3778267 -0.38217813 0.14564155 0.16455525 0.061070994
433 -0.16784981 0.07256282 0.14567316 -0.084728144 -0.13700567 -0.041034807 -0.038203303 0.16158591 -0.07148993 0.002086532 -0.17924401 -0.23301516 -0.06344431 0.089399755 -0.09427351 0.33280557 0.010934533 0.24619737 -0.28354627 0.29167095 0.42471084 0.26029998 0.18880059 0.17779265 0.35403264 0.14656144 -0.41019484 -0.260245 0.42605725 -0.07371003 -0.007460922 -0.025298791 -0.15473545 0.19699948 -0.082756236 0.21493146 -0.0996388 -0.095517784 -0.14747773 -0.13250658 0.05598823 -0.3162614 0.008549176 -0.18520758 -0.10919807 0.12349442 0.11851732 -0.12998152 0.28066015 0.32604584
430 -0.03799452 -0.21513683 0.09665982 -0.002314594 0.1384872 -0.06503188 -0.31603065 -0.061793406 -0.14880508 0.10154809 -0.08225911 0.2362584 -0.003651627 -0.08622371 -0.080380246 0.076432616 0.4606041 0.0134410905 0.24719425 -0.36457497 -0.42403477 0.10092941 0.1545879 0.25138053 -0.13264097 -0.03525988 -0.39223072 -0.10790596 0.027860546 -0.072270475 0.23997766 -0.11354926 0.08538451 0.06470538 -0.23488589 0.34463498 -0.21752813 0.13686131 0.09412206 0.07107433 -0.458453 0.064013496 0.15605663 0.0790261 0.43854183 0.21569568 0.02918838 -0.058844622 -0.038240608 -0.04367775
431 0.1493702 -0.06540611 0.21478485 -0.35530627 0.22088273 -0.26663616 0.079161525 0.07992059 -0.085911304 -0.18568985 -0.23785585 -0.11843391 0.24590887 0.1482459 -0.03104123 -0.33708408 -0.120459795 -0.0997363 -0.3642918 -0.19812027 -0.2004978 -0.07406717 -0.17375039 -0.25268874 -0.15117128 0.055046853 0.39807218 0.23785761 0.22561324 -0.058591068 -0.2783399 -0.36768365 -0.13391426 0.13167158 -0.15725057 -0.07657992 0.09368431 -0.14608026 -0.08619245 0.019940868 0.026683176 -0.4508761 -0.09744244 -0.12883705 -0.3293171 0.09867068 0.020407561 0.17805952 0.16794349 -0.05020292
339 -0.2576814 -0.19283889 -0.15278968 0.3488704 -0.21750689 -0.33922115 0.053913355 -0.13829789 -0.11706063 -0.1335331 -0.12076731 0.061667696 0.10339237 -0.15966457 -0.22622205 0.16977616 0.15816899 -0.45367378 -0.014016289 0.056484465 0.308212 -0.19207948 0.09832381 -0.13530055 -0.08217585 0.10318685 -0.13866574 0.27743372 0.090569444 0.13500598 0.3238435 -0.33901772 0.02562135 0.19839935 0.05194351 0.34236273 0.15782627 0.021674171 -0.16606858 0.2034457 -0.15441567 -0.116314836 -0.32236746 0.23021428 -0.07908885 0.33910307 -0.096344806 -0.2189941 0.09195376 -0.10679913
338 -0.15951045 -0.3312331 0.23742743 0.19873877 -0.026625302 0.02988819 0.060253773 0.12448412 0.031992484 0.3007178 -0.23819876 0.0019504114 -0.03227853 -0.08826835 -0.016155554 0.27338645 -0.36647722 0.1887795 0.025334736 -0.24668303 -0.014589821 -0.19148512 -0.03120185 -0.35832217 -0.34427667 -0.3921945 -0.042612378 0.03968654 0.27079237 -0.31189635 -0.38248354 0.36101884 -0.17613542 -0.22078826 0.120178394 -0.32718587 -0.055962108 0.05531664 -0.094209656 0.09040102 -0.08057446 -0.032910515 0.19721168 -0.017062325 -0.074330136 -0.29788876 0.1060972 0.086663544 0.06958939 0.0801315
335 0.011713226 0.27376878 -0.316974 -0.02212725 -0.05593608 0.14506632 -0.08499559 0.320089 0.059085473 0.1065429 0.042315807 -0.14703283 -0.15873083 -0.03144779 0.2557055 -0.42570916 0.094042376 -0.05438119 0.008423987 0.14926782 0.4234353 -0.33389014 -0.19616726 -0.09431472 0.082081884 -0.06142426 -0.0884601 0.0739503 -0.08638868 0.22397827 0.43881062 0.25347248 0.27237457 0.09420075 -0.17084967 -0.2267566 -0.083897226 0.0042300858 0.039959967 0.13235301 0.13996738 -0.3990351 -0.096527025 0.01954974 -0.15499651 0.31161928 0.13311026 0.21681623 0.31210315 0.08291083
334 -0.027604988 0.058870442 -0.097312376 0.029977556 -0.27187857 0.15640098 -0.19753127 -0.3334688 0.21649745 -0.32264316 -0.007821222 0.1643341 -0.23135196 -0.1504621 -0.089349374 0.00062083465 0.36327565 -0.32339394 -0.1783249 -0.018671287 -0.21666948 0.25126016 0.0056900033 0.26582628 -0.15857846 0.1284413 0.18348226 -0.09809493 0.21199161 -0.0121871475 -0.050883345 -0.16139849 0.44100058 0.036323663 0.32620594 -0.016106382 -0.072048016 0.14474706 -0.21471348 0.01697781 -0.03228493 -0.31697878 0.2854102 0.13502197 0.24871707 0.13564454 -0.13298723 0.26143026 0.35064787 -0.03210662
337 0.16625036 -0.10096011 -0.42032546 0.08680304 -0.3917892 -0.1998786 -0.1499678 -0.1351764 0.18622197 0.067310676 -0.3718648 0.08869564 0.025225174 -0.10236455 0.17050882 0.10271468 0.30351746 0.22261871 0.010322263 0.26479352 -0.004122545 -0.18456462 0.1678266 0.05044299 0.1759346 -0.23679034 -0.041161988 -0.099903546 -0.31471196 -0.03292576 -0.09868074 0.24236217 -0.114079885 0.14451858 -0.37138212 0.2716391 0.1512296 -0.08550606 0.13977027 -0.28260005 -0.14311819 0.14499813 0.122031815 -0.060145643 0.1953144 -0.24156009 0.28695506 0.17612866 0.24158914 -0.24538235
336 0.14898922 -0.40633726 0.22880742 -0.22219327 0.05154405 0.2122796 -0.0067216433 0.2392496 -0.18592267 0.2327319 0.09544169 0.104841664 0.2144485 -0.106156304 -0.041879952 0.094234325 0.044106256 0.12919503 -0.23362707 -0.012639509 0.3456251 -0.11499459 -0.07305401 -0.44103467 0.15275395 -0.12927078 0.22347115 -0.1992112 -0.075874254 0.024592128 0.40537277 -0.028417764 0.20600936 -0.2614589 -0.11788775 -0.19632638 -0.1908933 0.23908003 0.44283238 -0.18371068 0.03689663 -0.049625773 -0.17391008 0.14357111 -0.01630409 0.2801907 0.1983587 -0.10548408 -0.012854515 -0.22668016
331 -0.05380268 -0.21344894 -0.043025475 -0.016205506 -0.014340635 0.09972037 0.17958763 -0.4678806 0.10771512 0.09342542 -0.40808398 0.16970062 -0.2596498 0.22634225 0.015245706 0.2309759 0.18588258 0.2157451 0.30066502 -0.035351135 -0.15763164 -0.2040674 -0.11579732 -0.21702771 0.021805855 -0.3738369 -0.2511656 0.15859725 -0.3953991 -0.3029432 0.19712387 0.1910574 -0.23203082 0.16971861 0.005710676 -0.049910966 0.044137742 0.06845244 0.21785624 -0.3086664 -0.057414215 -0.0009232101 -0.2915302 0.19027242 0.07502647 0.20359093 -0.10791436 -0.0094069475 -0.010134694 -0.17490268
330 -0.011482171 -0.15753238 -0.06045667 0.18871206 0.09393069 -0.011589352 0.00031399511 0.22806995 -0.0225414 0.0061533344 0.024571141 -0.34829623 -0.27164498 -0.2846015 -0.09415595 -0.03288219 -0.28669098 -0.20873019 -0.34526733 -0.24654564 0.21648274 0.28653213 0.2969457 -0.20920521 0.14474916 0.14565533 0.14448504 0.25070345 0.3386046 -0.13517888 -0.11070552 -0.13377485 0.30809262 0.04390403 0.30940944 -0.124103114 -0.15059829 -0.14064032 -0.1764295 -0.111657575 0.31594357 -0.29025844 0.10719269 -0.20542064 -0.15194838 0.07586807 0.06626114 0.2347907 0.33338517 -0.025970517
333 0.19336295 -0.059584122 -0.013206637 -0.1414735 0.103958234 -0.10245542 0.18531893 0.15371628 -0.19374463 0.07148449 -0.2704665 0.19911961 0.052889004 -0.29352656 0.11718598 -0.017590377 0.14521554 0.039758157 0.31375724 0.1701511 -0.3364852 -0.2947008 -0.40214947 0.2609831 -0.14553261 0.06316389 -0.34415522 0.023097638 -0.25002033 0.093461394 0.2436471 -0.20329972 -0.026179058 -0.350265 -0.035933882 -0.13938119 -0.15894872 -0.02351992 -0.22438936 0.26266873 -0.04361769 -0.08158184 0.20492573 0.36257008 -0.1419028 0.27177814 0.08678217 -0.2291459 0.25889543 0.11298754
332 0.005191103 0.1115183 0.38038957 -0.110664904 0.3847187 0.06762882 -0.29060483 -0.3557695 -0.12629503 -0.04151447 -0.083555795 0.11681375 -0.11203394 0.22298005 -0.1541872 -0.1602063 -0.26905698 0.2883843 -0.09944744 0.21356529 -0.0919218 -0.25880888 -0.037435085 0.15544528 -0.07016287 0.0478965 0.41203198 -0.19066827 -0.15268092 0.21072534 -0.27413282 -0.045422576 -0.22098486 0.22114325 0.23730601 -0.0025570374 -0.18099856 -0.26822367 -0.35095754 0.10086112 -0.06226832 -0.05337217 -0.30027765 0.119571626 0.0027145012 -0.04478733 0.19651578 0.0023045563 0.27165562 0.17006125
744 -0.30268103 -0.020050636 -0.21032943 -0.106921345 -0.13469373 -0.07278031 -0.17395699 0.10975629 -0.039591894 -0.054572698 0.053006362 0.4762028 -0.29239136 0.20479463 -0.15119384 -0.08926037 0.1429652 -0.030115932 -0.09484865 0.518878 -0.010413152 0.012434274 0.16945378 0.23191148 0.10882307 0.16375631 -0.39505115 -0.13679303 -0.035047535 0.19270015 -0.07368352 -0.0016261215 0.16899176 0.09222205 0.026831757 0.2093295 0.2907067 -0.21569169 0.108871445 0.10223338 -0.41576853 -0.32979184 0.026464257 -0.08429343 0.37259457 -0.11862042 0.27460518 0.0034233797 0.01737976 -0.04026828
558 0.15095784 0.08415024 0.3230626 -0.17157517 -0.04254729 0.103204384 0.043054443 0.05406484 -0.25712273 -0.24943657 0.16736491 -0.12664573 0.25886145 -0.28249374 0.11613413 -0.09916012 -0.08195094 -0.23039293 -0.48848587 -0.21966037 0.14023106 0.20254579 0.016982367 -0.21521482 0.15036876 -0.07662408 -0.19449979 0.22720006 0.12171406 -0.4305206 0.15393943 -0.26516095 0.14717968 -0.038750965 -0.019643085 -0.049775593 0.10385163 -0.1942234 -0.19688965 0.07223387 -0.2925235 0.17311732 -0.087616466 0.046145387 0.095975704 -0.30266118 -0.38980815 0.116335265 -0.2683171 0.1683794
854 0.098991886 0.19171931 -0.22649896 0.005132391 0.3062884 -0.41122198 -0.09444944 0.08729582 -0.023902148 0.12859888 0.10601971 0.015890406 -0.018829279 0.32313135 0.4163962 0.16082017 -0.15902993 -0.15841709 0.21415362 -0.18016279 -0.059228376 -0.16822 -0.20539047 -0.055085752 0.29035702 -0.043651864 0.27451333 0.2653759 0.30680028 -0.18005551 0.020958742 0.114619575 0.33270034 -0.035006154 -0.2559209 0.07628344 0.056000236 0.3137407 0.22349311 -0.11410319 0.20125468 -0.2296888 -0.15848377 0.2997662 0.18115209 0.26736096 0.030709403 0.008912697 -0.07631765 -0.21222502
855 0.35190734 -0.20681825 0.04693379 -0.36311495 0.024247142 -0.0022583134 0.025674302 -0.21923473 -0.022510009 0.07693739 -0.067978814 -0.12468716 -0.20754874 -0.26294824 -0.09330808 -0.23465887 0.31645402 -0.2229645 -0.014018402 -0.06488591 0.091181196 -0.014193442 0.3610092 0.30265123 -0.25045717 0.19732018 0.027906658 -0.059944823 0.31055203 -0.06570962 0.15913357 -0.057741527 -0.43491507 0.09792931 -0.22722112 0.33513534 -0.08757225 0.0024272876 0.006363226 -0.090809524 0.15384522 0.23651814 0.34887812 -0.032964163 -0.3079595 0.05071279 -0.02381509 0.11410089 -0.19799253 0.30986547
856 0.28319678 -0.056007195 0.361306 -0.16163675 0.1384153 -0.04787483 -0.13314176 0.19458559 -0.006937858 0.16022559 0.1726916 0.13335742 -0.032212112 -0.050836995 0.2265246 0.14844677 0.27851972 -0.1589029 0.23054068 0.040020797 -0.36153236 -0.10833917 -0.21591361 0.34108582 -0.26396796 -0.04231756 -0.24326509 0.36976737 0.28654078 0.38077527 -0.013091826 0.25431663 0.08456661 -0.28858742 0.00060144183 -0.18107194 0.22748978 0.0009001455 0.21525812 -0.007563735 -0.22369651 0.07682837 0.10753001 0.18659446 0.06444214 -0.080482185 -0.1761321 -0.07304209 -0.345902 0.14153941
857 -0.04872744 0.14186518 -0.0129993595 -0.28841412 0.12215852 0.017574864 0.32154155 0.028236091 0.33534917 -0.1454638 -0.020383574 0.13760184 0.049466968 0.09683491 -0.42117378 -0.021942157 -0.053259432 0.22562173 -0.1177865 0.12171183 -0.08006394 0.06769698 0.33428985 -0.42214993 0.22065005 0.24794243 -0.1166516 0.43362936 0.010399132 0.098654814 -0.115320124 0.42258447 0.3482241 0.077499814 -0.28510594 -0.10639547 0.0004291374 -0.060378928 -0.121789664 -0.18010738 0.07406243 -0.083202675 0.2544295 0.113169424 0.15231737 0.039581314 0.19909501 -0.16614713 0.27121177 -0.094128035
850 0.4016985 -0.3070476 0.04148149 0.07089756 -0.103572786 -0.095378816 -0.09998963 0.060689453 -0.18587327 0.03507737 0.1776367 0.012719547 0.45024863 -0.19342756 0.19708999 0.018881373 -0.23976015 0.27183917 -0.056573387 0.15981558 0.16205564 -0.042487644 -0.3612368 0.1333447 0.14425386 -0.43269652 -0.23671217 -0.280417 -0.037707675 0.25189352 0.07386661 0.09851269 0.18932992 -0.061444946 -0.1387978 0.08443941 0.073843166 -0.15766032 -0.01951384 -0.30296028 0.24898201 -0.022249637 -0.18108502 -0.35813338 0.0881184 -0.007712599 -0.31092274 -0.049696717 0.20140514 0.19624749
852 -0.4109444 0.303528 0.08109391 -0.12885007 0.3493467 -0.19768256 -0.009987806 -0.01984683 -0.25975132 -0.0769273 0.3703301 -0.055007197 -0.28420684 -0.06979077 0.10651981 -0.10978028 0.041556645 0.1197963 -0.024574596 -0.12038452 -0.353679 -0.1513853 -0.07673857 0.119497806 0.17958601 0.12424461 0.05240346 0.014462939 -0.009582619 -0.17917156 -0.01880899 0.33068272 0.23151891 0.08051309 -0.063329175 0.36614835 0.1247689 -0.07037757 0.13433798 -0.014437187 0.1178259 0.34459716 -0.2533231 0.08800101 0.01683504 -0.18448977 -0.17659453 -0.22331072 0.49276072 -0.20010364
819 -0.11598631 0.14386398 -0.013340561 -0.25510985 -0.3418329 0.064034626 0.113517016 0.26445165 0.20365629 0.13465732 0.17191014 -0.42862916 0.17330949 0.3444919 0.20856336 0.12216306 -0.09470365 -0.008166124 0.20701276 -0.21768662 0.028671792 -0.19489725 -0.15219845 0.1352661 0.19302073 -0.21865362 0.13470651 -0.03310963 0.0088579375 -0.34631687 -0.033081934 -0.10046982 -0.3366304 -0.30694515 0.046615764 0.21630336 0.07370336 -0.11524258 0.25893587 -0.32056737 0.34070963 -0.19952476 -0.21190643 0.17675899 0.024319027 0.25370857 0.16186441 -0.10388305 0.06441692 0.13632362
858 -0.019138496 0.10694237 0.1415823 -0.459294 -0.32978985 0.0269197 -0.11942493 -0.13932776 0.15377726 -0.1892 0.05018081 -0.026192753 0.10645127 0.07211182 -0.2652242 0.21873361 -0.13528456 0.10823438 0.08682559 -0.3300604 -0.30767876 -0.17668231 0.22354656 -0.19542027 -0.23692046 0.16716382 -0.38912323 -0.3288891 -0.00808147 0.18386215 -0.19473696 -0.13331638 0.3308844 0.0961614 0.17801394 0.066060975 0.23156998 0.009160063 -0.13334857 -0.330426 -0.22951518 -0.067750596 -0.061399423 0.17143735 -0.10169114 -0.23732503 -0.2342153 -0.031756267 0.011567314 0.27268547
859 -0.083818115 -0.14189808 0.254625 -0.47313264 0.020560676 -0.12572344 0.3582286 -0.13537528 0.14081691 -0.24109763 -0.25201124 0.18471693 -0.034380708 0.36434844 -0.049612943 -0.060534 0.2233969 -0.20056233 0.2734121 -0.1278336 -0.05830768 0.018027317 0.12815283 0.060497917 -0.024242884 0.03315 0.02657443 0.104526326 -0.22420372 -0.094269 0.08506941 0.13127264 0.04858969 0.33109045 0.0012804714 -0.005603998 -0.013089879 -0.093597695 0.44890139 -0.16329777 0.3444257 -0.19017671 0.1679344 0.19318102 -0.05240149 0.38209373 -0.0010484195 0.3680917 0.18552464 -0.12469898
555 0.17970611 0.15010782 0.060085934 0.12765934 -0.20350766 -0.13539684 -0.036725216 0.3337688 -0.16246788 0.12042237 -0.29701254 0.17423706 -0.09318617 -0.18461864 -0.09574615 0.43215063 -0.116359904 0.2834731 0.08299305 0.3476874 -0.015642866 -0.31131458 0.0907496 -0.13720173 -0.09334912 0.24797267 -0.030247271 -0.061949134 -0.21376479 0.021717511 -0.31401804 -0.15114859 -0.16183059 -0.04792197 0.3188193 -0.089939535 -0.31648812 0.33216578 -0.4613809 -0.13725522 -0.049417384 0.0013081791 0.075601645 -0.21901874 -0.1567073 0.2151543 0.06478601 0.12736526 0.11428043 0.15890135
6 0.21893527 0.08986786 -0.0009787749 -0.13262412 0.17706065 0.025394766 0.24738468 0.12641177 -0.33186033 -0.08965695 0.04019038 0.045898892 0.3369934 0.40699744 -0.09494905 0.12260365 -0.2359331 -0.05474912 0.3190423 -0.22771098 0.11968603 -0.3011058 -0.17435876 0.02933223 0.20862299 -0.27494356 -0.43402708 -0.046865433 0.31962422 0.33585852 -0.083932206 0.15741274 -0.029919192 -0.0492413 0.15045774 -0.46650642 0.051128928 -0.22500566 0.03851205 -0.050214354 0.017898038 0.08803243 0.12144889 -0.24078417 -0.04348571 0.009063776 -0.02916313 -0.04805244 -0.022894654 0.31584892
99 0.13776329 -0.100374006 0.059858996 0.42392552 -0.069277406 0.24443714 -0.15375511 -0.0487899 -0.24676843 -0.3800982 0.09569786 -0.109682165 0.12810622 0.054196198 -0.22998539 -0.025321882 0.094964646 -0.048281696 -0.19467813 0.14648387 0.40443245 -0.20162126 0.07833242 0.3000461 0.1629513 -0.01074216 0.023315106 0.3342409 -0.01715616 -0.18569544 -0.12885916 0.14583729 0.26802686 0.10798314 -0.18020265 0.30195883 -0.15687212 -0.34750193 -0.17775944 0.015047961 -0.034461398 -0.017468713 -0.2660283 -0.26727098 -0.02220283 0.51288265 -0.0015927835 -0.15063053 -0.022263577 -0.014301957
98 -0.3054146 0.21342148 -0.2678709 0.09551103 -0.023256658 -0.097252764 0.08826916 -0.2552895 -0.32715034 0.063755065 0.36554292 0.053480744 -0.028170671 -0.17320307 0.14336929 -0.25517383 0.2139662 0.18241361 -0.044237357 -0.067886695 -0.07077543 0.32513523 0.060924288 -0.060122684 0.36003777 0.08208266 -0.044297174 0.32263446 -0.1635211 -0.08478727 0.11217489 -0.37048706 0.1014504 0.26098347 -0.36297026 -0.051605448 0.039091136 0.030256612 0.22684453 0.13101779 0.027704787 -0.09021562 -0.11330303 0.1571734 0.22989088 -0.009954738 0.3996338 0.12682238 0.303976 -0.22795543
90 -0.05012692 -0.14615043 -0.21939863 -0.10565972 0.0011852225 0.34676912 0.07820691 0.33302408 0.062917955 0.16738711 0.43903628 -0.15372545 0.26901174 0.120087795 -0.25018883 0.04655458 -0.06330818 0.30751905 -0.1866536 0.009378568 0.26924554 0.120803304 -0.18779992 0.0061746067 0.15410185 0.21816508 -0.18528737 0.2925166 0.38188767 0.09234154 0.005432798 0.087173864 -0.3317168 0.37942073 -0.17974727 0.048249107 -0.09394158 -0.039685853 -0.31039885 -0.11452134 -0.038325604 0.11192658 -0.12877788 0.044470415 0.1694092 0.09694624 -0.09944338 -0.18801324 0.08600437 -0.37245974
93 -0.059874795 0.15479797 -0.22361636 -0.29467735 -0.36863387 -0.015545491 -0.46025684 -0.00127654 0.0828939 0.017707897 -0.17560957 -0.21603501 0.160251 0.139826 -0.3226146 -0.024379922 0.10921863 -0.07055079 -0.15108764 0.026697116 0.1998154 -0.19716282 -0.039410986 -0.14319225 -0.3342742 0.035670783 0.102635875 -0.13198422 -0.15536632 -0.2817595 0.29161346 0.07223682 -0.20847069 -0.02400916 -0.11603309 0.14624213 0.0051144776 0.12642525 0.0152208395 -0.081910916 0.0060055656 -0.3295507 0.39270896 0.20099366 -0.11406628 0.3900875 0.3187772 0.049559243 -0.30878887 -0.085374445
95 -0.14340225 -0.24166864 0.22644193 0.28509387 -0.14938994 0.15204811 -0.15956621 0.24680191 -0.4116015 0.27010044 -0.26331738 -0.0139802955 -0.11927376 0.10899564 -0.07548205 0.1482635 0.2695964 -0.10279849 0.23688187 0.17221561 0.06655184 -0.045119245 0.04196583 0.31836584 -0.11125558 -0.16874303 -0.03879894 -0.015722292 -0.35811132 -0.0044700364 -0.32370377 -0.001715765 -0.12077243 -0.16350506 0.2549653 -0.27253115 -0.17197041 -0.084678896 -0.06924211 0.23438346 0.312486 -0.21174921 -0.015152924 0.005460024 0.31296197 0.05385999 -0.2559912 -0.18214434 -0.26324415 -0.21920581
94 0.35721946 -0.122663006 -0.27018696 0.140758 0.14465363 0.14729857 -0.13421252 -0.16178034 0.034441847 0.17625573 -0.05855521 -0.29261848 0.07235569 0.18835486 -0.076905295 -0.1792816 -0.19698389 -0.22694877 -0.30013356 -0.3464105 -0.11719522 -0.15266222 -0.36632028 -0.06370377 0.04441835 0.1301272 0.14208023 0.010107865 0.21318148 -0.23384163 0.18248083 -0.23670924 -0.31959152 0.006563732 0.32166916 -0.2891334 0.22877853 -0.117894344 -0.1711234 -0.1489486 0.13006906 -0.02283927 -0.02960846 0.031174317 0.056118067 0.27425274 -0.22133282 0.076195486 -0.2809854 0.36737147
97 -0.30963475 -0.18483776 0.13348152 0.32448256 0.0565995 0.11131283 0.17305423 -0.07677577 0.047325563 -0.3220914 0.19538955 -0.21138972 -0.04623662 0.3053899 0.1502434 0.117030315 0.13878135 0.30426204 0.0056017432 0.014924234 -0.18066546 0.30440512 -0.054430936 -0.21689141 -0.2958151 0.08808955 -0.2207307 0.12886962 -0.1939035 -0.1291639 -0.11245392 -0.38362396 0.41937795 0.20257242 -0.08758825 -0.18079025 -0.15440704 -0.21389654 -0.097186744 -0.15150034 0.092602365 -0.107811 -0.061251424 0.20040815 0.17705588 0.46779847 -0.09905629 0.16438432 0.04812812 -0.010303112
96 0.34348273 -0.105178446 0.35085472 0.22075522 -0.3045104 -0.340374 -0.019882755 0.19926448 0.23660408 -0.008125859 -0.068413675 -0.14628024 -0.12110599 0.03453752 -0.2289888 0.24103542 0.18407004 0.11632732 0.06888188 0.046487015 -0.17700122 -0.06691905 -0.36954522 -0.09883203 -0.07392232 0.34726384 0.18942821 0.0004958256 0.112637304 0.19386072 0.19588195 0.11959036 -0.29409114 0.1888248 0.25178176 -0.14574875 0.223084 0.18500124 0.08308448 -0.32261008 -0.09436753 -0.16338833 -0.42488444 -0.06594289 0.09246671 -0.21194929 -0.04795979 0.19207898 -0.0033932223 0.16023603
348 -0.24611457 0.25532863 -0.16847356 -0.33150634 0.15375884 -0.071063116 -0.21559222 -0.18403715 0.14536111 -0.33567247 0.013003306 -0.06092929 -0.06317249 -0.009850085 0.12186811 0.043654595 -0.40838602 -0.19864614 0.18117145 0.22076279 0.15878049 0.04665025 0.21276605 -0.14935458 -0.29260677 -0.0008689971 0.08445725 0.03197611 0.053332422 0.10509558 0.11548555 -0.15912932 0.02476983 -0.20273869 0.14317201 -0.11731046 -0.24301903 0.09171175 -0.27554497 -0.044608973 -0.34373653 0.09038304 -0.30604833 -0.26519996 -0.30991244 0.1468081 -0.3539319 -0.21206273 -0.061925743 0.36870357
815 -0.03578535 -0.17011125 -0.23891494 -0.20350812 0.018655162 -0.26469037 -0.06217061 -0.022725318 0.29816073 -0.01612372 0.18331033 0.15497121 0.04078162 -0.22674817 0.23555562 0.14758319 -0.00924775 -0.21976785 0.040399007 0.084684916 0.08233489 0.37981844 0.43360385 -0.038037635 0.34883234 -0.25517616 -0.2714488 -0.07595226 -0.053213835 -0.031016763 0.04096725 -0.11594373 0.086228974 -0.3898081 -0.039924756 -0.043912746 -0.14636688 0.16938582 -0.08454121 -0.13177958 -0.254852 -0.18017517 0.0013274786 -0.25640675 -0.16565703 0.5005324 -0.009614098 0.30131754 -0.22384264 -0.1298342
740 0.1834452 -0.33227625 0.46174332 -0.062743805 0.0981752 0.03349125 -0.023084821 -0.112725526 -0.2326403 -0.15276411 0.009438351 -0.036362424 0.09329141 -0.36211574 -0.04060709 -0.1388831 0.1624557 0.08643807 -0.44194418 0.29207653 0.06435963 0.06366186 0.0948739 0.1439642 -0.1508309 0.16909243 -0.23862576 -0.31149122 0.07820404 -0.06889506 -0.25414318 0.17863663 0.18942466 -0.23973714 -0.092801005 -0.11074354 0.15871914 -0.08661339 -0.33855847 0.32608244 -0.38199633 -0.2574054 0.11487936 -0.1980179 0.08250708 0.10927987 -0.056165013 -0.21381342 0.053860884 0.084210336
741 -0.08488725 0.0036866127 0.2460404 -0.17410052 -0.036632236 -0.13823369 0.109900184 0.4793286 0.12203952 -0.022755453 -0.12177264 0.035377335 -0.22157013 -0.15871547 0.026803114 0.10012443 0.38963446 0.14192235 -0.02329297 -0.15231298 0.15511507 -0.25213394 -0.37649852 0.21342435 -0.2291249 0.089066714 0.078233495 -0.04640632 0.13128394 0.14348587 -0.19365981 0.09683891 0.12286658 0.030590424 -0.3057466 -0.23696116 0.26021305 0.11662896 -0.12838688 -0.42642933 -0.10330557 -0.29591405 -0.22152776 -0.22415432 0.31070653 -0.046311498 0.15343173 -0.14422469 -0.3280922 -0.07455869
742 -0.28308037 0.09975787 0.26738116 0.022848276 -0.17696406 -0.018669743 -0.030226344 -0.06136108 -0.32804164 -0.0925387 -0.047201578 0.20390646 0.121761866 -0.29845515 0.009836268 0.29040894 -0.22497141 0.20376408 -0.1955669 0.27188864 0.04066858 0.27075323 -0.2601053 -0.15793474 -0.28526852 -0.15904665 -0.12851872 0.33146983 -0.22709215 0.28377438 -0.19419472 -0.15491098 -0.03816505 0.24321868 -0.2485002 -0.32093698 0.3453928 0.18832457 0.0020866427 -0.059211165 -0.32403192 -0.19436957 0.031513438 0.054442327 0.112269975 -0.1383898 0.13269521 -0.2406046 -0.119837746 0.05020317
743 -0.0996939 0.29812473 -0.34806934 -0.17116635 0.2136649 0.38408658 -0.28576007 0.21932441 -0.06505938 0.008708075 -0.04313006 0.3285148 0.09128903 -0.17516902 -0.15935412 0.21775194 -0.031932976 0.015277635 0.011702161 -0.19728865 -0.14944503 -0.27171335 0.027452704 -0.0025239475 0.25424805 -0.069352396 0.26118463 0.1451595 0.07896053 0.20524935 -0.30466446 0.08932116 -0.097578794 -0.20464374 -0.07058856 -0.2421387 0.2250593 -0.071665786 0.3769903 -0.119688995 0.29221436 0.28222677 -0.12754732 -0.07866673 -0.3445988 -0.20770715 -0.04796827 -0.20215842 -0.04274715 -0.18736683
559 0.06410704 -0.27311993 0.1987748 -0.12344695 -0.22693667 0.4714603 -0.071802296 -0.18611893 -0.05115516 0.0055442397 0.2922146 0.15849109 0.04247867 -0.09030551 -0.315666 0.04711023 0.0962095 -0.16062233 -0.049282223 0.18210407 -0.108249664 -0.09522812 0.007169426 0.4580447 0.16341579 0.034253307 -0.0690946 -0.30350646 0.06273479 -0.102453895 0.0702725 -0.25151506 0.083150946 0.102316864 0.08946721 -0.31961036 -0.11792119 0.2687755 -0.09770939 -0.04829245 -0.05531352 0.026458662 0.3796692 0.32537043 0.215367 -0.13276155 -0.35719565 0.3693402 0.10919232 0.0060230284
745 0.015560431 -0.08055563 -0.11558522 0.36629522 0.3543937 0.0027386295 -0.3031489 -0.26672685 0.09862796 -0.19445273 0.16135469 -0.18108708 -0.06232129 -0.08411678 0.09577133 0.020995812 0.08093739 -0.21487601 0.063109845 -0.047220744 -0.38560402 0.36241102 -0.17348257 -0.03913266 0.24404293 0.11523619 -0.10417248 -0.04474006 0.39473414 -0.19640918 0.08038534 -0.0018232609 0.017220713 0.006383713 -0.13262555 0.08992889 0.17212652 0.16466716 0.090601355 -0.34902152 -0.29189163 0.06280306 0.14257847 0.23842958 -0.30155998 0.30606613 0.11163545 -0.37797135 0.016595617 0.23171401
746 -0.0835958 -0.36494115 -0.28754374 -0.3185307 0.27034044 -0.27012843 0.08745148 0.21492602 -0.2515645 0.020979347 -0.13083518 -0.04836563 -0.105349414 -0.11425486 0.024061443 0.20602423 -0.102334894 0.047984935 -0.37346774 -0.065317556 -0.20291263 -0.093829736 0.335423 0.07968926 -0.008753355 -0.1956141 -0.183255 0.08710573 0.38777906 -0.15647088 -0.067721866 -0.016734635 0.06800459 0.18926242 0.076679185 -0.23176137 -0.036790114 -0.34850314 -0.060415342 -0.31441656 0.26188454 0.04899921 -0.0006415142 0.29905766 -0.23261905 0.23087871 0.2278028 -0.259734 0.1292423 0.10767174
747 -0.39166138 -0.17859763 -0.3005951 0.102485 0.16721739 -0.045214217 -0.23820251 0.0081231585 -0.34303647 -0.028652648 0.29286906 0.07557867 0.17007396 0.0049996623 0.14882633 -0.19831975 -0.2056341 -0.07236028 0.079795234 0.17143925 0.23668575 -0.2903018 0.024351815 -0.0712447 0.3120538 0.14985946 -0.05822837 -0.33960685 -0.008309695 0.036459647 -0.06742973 -0.05250273 0.094433755 0.026027845 0.20871688 -0.023808632 0.48794582 -0.24387196 -0.115142286 0.14766952 0.030063843 0.13932657 -0.22853774 0.054991335 0.16924593 0.41352588 -0.16429526 -0.2677799 -0.29871315 0.024858057
748 -0.04972623 0.36032513 0.10304813 -0.057685185 0.09226396 -0.38984478 0.02633421 -0.1758415 -0.23216018 -0.020781556 0.4120165 0.14085151 0.36220336 -0.006299261 0.1452725 0.1013373 -0.14920759 0.1707371 0.22141394 0.20836107 0.19640467 0.14546606 -0.13811961 -0.012536217 -0.179689 -0.16700067 0.16739953 -0.27429384 -0.37271002 0.15987496 0.2144643 -0.096499585 0.0020300425 -0.17330474 0.19278106 -0.03621373 0.14112736 -0.21904853 -0.00211346 -0.030407831 -0.029859759 0.0819245 -0.37971815 -0.36829934 -0.27496555 0.006733124 0.20846792 0.099916965 0.17708233 -0.2526713
554 0.1269807 0.18319453 0.015424294 0.11869333 -0.1323506 -0.00515332 -0.3897591 0.07332963 0.011633046 -0.01638252 -0.16308887 0.025573017 0.08617835 -0.0761703 0.18004335 -0.13238399 -0.18668938 0.450687 0.095570005 -0.14502825 0.054403704 0.13873543 0.1874208 -0.37839934 0.44908023 0.06882321 -0.116468474 -0.14060044 -0.056416698 0.35637748 -0.34543428 0.21526565 -0.06450634 0.14643402 0.23400101 0.20024052 0.04422293 0.030383158 -0.2823546 0.014376534 0.140462 -0.06484008 0.4763208 -0.17401302 0.117118455 -0.22741489 0.09522263 0.0061793234 0.32036155 -0.06741428
557 0.21062933 0.07572504 0.181881 0.024009224 0.049293134 -0.13603052 0.16598032 -0.12335535 -0.29174396 0.2373054 0.16751109 -0.063417405 -0.2633905 0.2894081 0.08403863 -0.27907714 -0.04920562 0.30394912 -0.20650883 -0.21755375 -0.13341422 -0.12254045 0.25103778 0.31707543 -0.24454282 -0.08115315 0.085699014 0.10113525 0.10832675 0.12785716 -0.02612318 -0.16488014 0.0021613091 -0.057247132 0.40443432 -0.24661466 0.19751804 0.04212259 0.34175575 0.08878193 -0.13066918 -0.21065046 -0.28344247 0.4047883 -0.2385617 -0.14212178 0.21175925 -0.30903727 -0.026142947 -0.054550167
556 -0.20770313 0.23441635 0.25010976 -0.12624851 0.029042408 -0.24506485 0.042813737 0.19859801 -0.071981944 -0.34498876 0.16182287 -0.076010704 -0.16746072 -0.3702467 0.04025671 -0.21751069 0.20597331 0.035820194 0.001152543 -0.1710871 -0.20679991 0.17828064 -0.28190902 0.010582488 0.35200143 0.26178357 0.04103071 0.21730033 0.34651697 -0.18137759 0.109615676 -0.16953337 -0.31836754 0.15118177 -0.20140159 -0.18266727 -0.037366364 -0.42102167 -0.1999182 0.16876875 0.13900514 0.074774444 0.20454274 0.11166918 0.20332326 0.21466224 -0.011290307 0.10120888 0.016565893 -0.25749022
551 -0.02056396 0.058992922 -0.0006658339 0.059430324 -0.29221198 0.12651919 0.00363531 0.2623611 0.15133908 0.0015855869 -0.21216233 -0.122138605 0.27149677 0.0005314177 -0.47664192 -0.055481207 -0.4393412 0.20137179 -0.23954017 0.16028193 -0.30987415 0.06717123 0.024656773 -0.12672773 -0.04082603 -0.24199566 0.15553308 -0.06266838 0.21211307 -0.055416882 0.09337253 0.15544587 0.3367349 -0.010638525 -0.07214823 0.24016811 0.057607956 -0.4828442 -0.07345882 -0.13110165 0.07448056 0.29387414 0.2785811 0.2010275 -0.3251153 0.09343735 -0.19776645 -0.017754026 -0.14441304 -0.11092103
550 -0.034328245 0.017660825 0.31058705 -0.2902832 0.06380644 -0.21201372 -0.32159254 0.16759863 0.09576207 -0.06428549 -0.2449353 -0.1734478 0.18260449 0.16850394 0.29807526 0.23336387 0.050270543 0.07917479 -0.03381573 0.3459213 0.029284857 0.14671531 -0.045536987 -0.28218135 -0.30844638 -0.04746341 -0.039635483 -0.231924 -0.0037981076 0.38575798 0.0034266233 -0.05086694 -0.045160204 0.19431351 -0.04185235 0.20922366 0.16862388 -0.33990347 -0.027289394 -0.15817963 0.12761658 0.1515259 -0.0249749 0.3854545 0.15655439 0.39707893 0.07839354 0.18572487 -0.101205066 0.3382302
553 0.14079246 0.39587933 -0.14276393 -0.17056388 0.14335014 0.14269829 -0.4073792 -0.06668403 0.04522574 -0.38114482 -0.29307666 0.1685306 0.17512931 0.16865942 -0.2280706 -0.058565978 -0.119513005 0.0028217204 -0.18099405 -0.07611316 0.18302158 0.273831 -0.15390612 0.029615793 -0.024555763 -0.11720059 0.3532296 -0.1792666 0.21612474 0.079240724 0.2390897 0.19762106 -0.15196113 0.015173953 -0.2738573 0.3614445 0.045224015 0.13597414 -0.021529343 0.30173647 -0.05638101 -0.21845442 -0.0003489169 -0.05408803 -0.025856495 0.09911673 -0.21336524 0.44676557 -0.13056426 -0.11248762
552 0.3720073 -0.299804 -0.17163028 -0.20841034 0.10637832 0.07083564 -0.04417781 0.051551897 -0.16613361 0.21820694 0.20314752 -0.028683428 0.33384076 -0.26141453 0.26123622 -0.067161486 0.062147554 0.20171355 -0.10426684 0.19057529 0.11705043 0.42448276 -0.12067181 0.08792642 0.011137738 -0.43119904 -0.1883575 0.037508726 -0.029671036 -0.027056517 0.2126937 0.14342213 0.1684588 0.24116983 -0.011865695 0.12861997 0.38970795 0.062979385 -0.3282933 0.18954544 -0.24237955 -0.10431937 -0.053142253 0.070341066 0.073812574 -0.20044197 0.015340649 -0.39574385 -0.0008900235 -0.16467033
238 -0.0628533 0.34028715 0.029992566 0.13244154 -0.14095654 0.06008743 -0.00809892 -0.06399191 0.2678989 -0.19489037 -0.034931324 -0.0013190655 -0.3310733 -0.38277677 0.015889438 0.13704224 -0.26458558 -0.2109499 0.32975188 0.29940492 -0.14737438 0.084043235 0.30291706 0.10704908 0.056157075 0.1274146 -0.005489453 0.39230838 -0.2545424 0.12501071 -0.07426368 0.052225552 -0.42330724 -0.1612594 -0.017233867 0.13733591 0.19717947 0.111795016 -0.13261862 0.22162263 0.051879168 0.12313428 -0.026119022 -0.08919061 0.24024533 0.11600262 0.14509603 0.18299796 0.41861653 -0.26699737
239 -0.17377551 -0.15000118 -0.09812041 0.16840419 -0.09613373 0.27954426 0.32709214 -0.026079744 0.10715794 0.37996152 -0.08190411 -0.03845155 -0.03559301 0.3393453 0.14703298 0.10221714 -0.27994993 0.14247765 -0.22025737 -0.20285164 -0.100780465 -0.12930514 0.2795431 0.08383697 0.3183473 0.091461524 0.019302513 0.34308666 -0.20121679 -0.09004225 -0.06452859 -0.30484164 0.29806802 0.12449755 0.17735642 0.19458024 -0.35091892 -0.16213864 0.049482383 0.095351815 0.133404 -0.07455476 0.33941388 -0.09205834 -0.1503664 -0.09467376 -0.09968716 -0.006568703 -0.2798221 0.35545093
234 -0.11953016 0.35247284 -0.08452113 -0.19256473 0.1577291 -0.016342707 0.2102002 -0.044549495 -0.10501188 -0.38990974 -0.09328682 0.16747944 -0.11288937 0.09455227 0.097459435 0.17151166 0.0058095176 -0.4865266 0.08836822 -0.096344225 -0.21365866 0.041148525 0.13550815 0.29305658 0.28303266 0.16816883 0.16761631 0.22597684 -0.019090498 -0.0026402073 -0.030106949 0.2938373 -0.16781308 -0.109792545 0.08072651 -0.015943576 -0.36522707 0.18205495 -0.119546555 -0.34184363 0.34411684 -0.26631528 0.010870833 -0.29902315 0.20021044 -0.11263926 0.17187384 -0.14137541 0.2778796 -0.043365736
235 -0.13438009 0.19243428 -0.2843705 0.20928985 0.2668426 -0.123770654 0.1308658 -0.18681583 0.15701936 0.17468536 -0.14898455 0.07074512 -0.23111442 -0.02508603 -0.12463889 -0.037754912 -0.018986993 -0.20322946 -0.2351403 -0.25424176 -0.120128885 -0.42427793 -0.13731883 0.38974643 0.039028075 0.33047387 0.05351599 0.084036924 0.10637746 -0.14394906 -0.32676208 -0.2526981 -0.21459803 -0.11303688 -0.07441634 0.16111143 0.00058972236 -0.054593522 0.23167938 0.022951482 0.14162612 -0.35269845 -0.13293622 -0.41046035 -0.19502799 0.1934133 0.18578856 -0.18864165 -0.181266 -0.14723267
236 -0.2211525 0.14602612 0.30900362 0.22913672 0.31865355 0.30940694 -0.12296464 -0.05511045 0.07520255 0.01902651 0.075922005 -0.15777619 -0.23571245 -0.1016298 -0.121433266 -0.22195375 0.16873947 0.16062011 -0.18724059 0.23128822 -0.1737025 -0.2724546 -0.27330503 0.2771056 0.032635316 -0.19687101 -0.042644966 -0.084804624 -0.20258231 -0.1734235 -0.00439689 0.0021166108 0.16294941 0.2554963 0.36147955 -0.044538546 0.102485105 0.12929733 -0.20568238 -0.032523856 -0.20116666 -0.17341118 -0.2843979 -0.27768517 -0.13023217 0.41448206 0.10027253 -0.26185742 -0.28888264 0.081625625
237 0.11225014 5.376553e-05 -0.26705307 0.34068564 -0.1778885 -0.34020773 0.18443467 -0.27197197 -0.03205438 -0.09752918 0.16997994 -0.29435095 -0.12655444 -0.11359788 -0.19751556 -0.266426 -0.0026495804 -0.27435434 0.040661626 0.07913767 -0.05797898 0.03464733 -0.01393593 0.43212456 0.07052095 -0.112913676 -0.13100536 0.30059814 -0.13603239 0.018176958 -0.0064688725 0.18911141 -0.14755583 0.33012974 0.290564 0.022197785 0.034556992 0.18392207 0.12604772 -0.012540171 0.27353144 0.043544665 -0.21689115 0.342566 0.30344737 0.15935257 0.0741131 -0.29271948 0.070977286 -0.32178527
