29 50
24 0.052719448 -0.25634232 0.36329806 -0.07128522 0.12875485 -0.08325831 0.35738194 0.17528231 0.10489441 0.4118359 0.34642446 -0.045162838 -0.051663302 -0.064355694 0.0122905355 0.25228858 -0.21837896 -0.07806119 0.0031770258 -0.115739584 0.06664977 -0.015992863 -0.22438829 0.30834204 0.14799488 0.1293026 -0.022060195 -0.38486055 -0.31063482 -0.34609163 0.2509893 -0.32265264 0.047949202 -0.18070301 0.021069426 -0.08545281 -0.27010572 -0.1747649 0.12158348 0.08329665 0.082874365 0.043627772 0.050376248 -0.25336513 0.13880728 -0.094868675 -0.2505117 0.14068016 0.1568019 0.26921865
25 -0.045843776 0.34127045 0.10502345 0.048964072 0.23401618 -0.18696848 0.21618538 0.24520579 0.09833915 0.08749693 0.40755904 0.266163 0.04808011 0.1090486 0.24970742 -0.1192199 -0.30839452 -0.40133348 -0.10273299 0.10129949 0.080452174 0.0012135915 -0.1910878 -0.07565137 0.025993638 -0.29522076 -0.12767982 -0.10974568 0.016873622 -0.09165805 0.012576783 -0.3434457 0.012708969 0.26232055 0.02191243 -0.28011897 0.1751975 -0.14861111 -0.3585612 -0.20532452 -0.1192351 0.007254319 -0.3619423 -0.0013667081 0.03977488 -0.36113685 -0.2433718 0.035792377 0.22007318 0.0075172596
26 -0.08371309 -0.11272786 -0.044292767 0.12267894 0.24401361 0.12156809 0.11365323 -0.23209348 0.15830211 0.053633887 0.13670623 -0.18476899 -0.116074644 0.31773362 0.2887093 -0.078118965 0.21980295 -0.28674933 -0.373467 -0.041851506 -0.03504864 0.065145545 0.41089615 -0.08957642 0.28882366 0.288896 -0.08336183 -0.19712481 0.28350264 -0.09269823 0.3054706 0.047058932 0.15068059 0.011204264 0.43401247 -0.087651454 -0.27839547 -0.18303458 -0.17216651 -0.13053092 0.19874687 -0.15694557 0.034570914 -0.13654216 0.14696984 -0.4388482 -0.026866935 -0.04249167 -0.047159113 -0.08223539
27 -0.25231528 -0.13674916 0.06651267 0.17984088 0.29912737 -0.1844612 0.01242912 0.13396367 -0.17818683 0.29259828 -0.11917746 0.17815797 -0.23444508 0.07156105 -0.3236134 -0.078491576 0.16611646 -0.3416719 0.007432965 0.36606136 -0.01006025 0.12118393 0.28354475 -0.10595106 0.14207625 -0.1337766 0.17792565 0.2771175 -0.1520479 0.10719751 -0.053513817 -0.3245222 -0.23431171 -0.23049276 0.06011873 -0.27783597 -0.043528 0.115105875 -0.09817301 -0.124488495 -0.0818456 0.32885206 0.40104377 -0.2631418 -0.11870206 -0.004998949 0.09738307 -0.010311983 0.020464564 -0.36428374
20 -0.3307594 0.11725707 0.048717298 -0.14870247 0.11840768 0.13266407 0.33757222 0.17760013 0.2045152 -0.119155824 -0.1770767 -0.029101035 -0.27277055 0.22110479 0.22507963 0.3257167 -0.24971944 -0.33151475 -0.010407982 -0.027900789 0.13681264 -0.27012786 0.18480434 0.051570162 0.072990544 0.17373876 -0.027879857 0.33902487 0.20073186 0.021269178 -0.16908664 0.21704353 0.18860152 -0.015731385 0.014487317 0.13398921 0.14652029 -0.24617542 0.23015092 -0.30767497 0.20880798 0.040747177 -0.18683064 -0.29656872 -0.23282638 -0.28522453 0.24452016 -0.26199013 -0.036387976 -0.14330672
21 0.08400606 -0.049596753 0.07803215 -0.061257504 0.22804247 -0.026869023 -0.17397021 -0.06313791 -0.079483725 0.018823097 -0.21099168 0.13551119 0.38957033 -0.3163134 0.06791794 -0.2619637 -0.060129594 0.39660874 -0.030687861 -0.1015363 -0.18311718 0.28921944 0.42320746 -0.14820698 0.09294824 -0.16138767 -0.3522088 -0.0895234 -0.1555132 0.041477814 0.27876642 -0.32762077 0.07076592 0.08282462 -0.04607109 -0.0955359 -0.10246633 0.1289159 0.22316238 -0.14469709 0.18602553 -0.04854153 -0.2662974 0.2810133 0.3296218 -0.42714545 0.050259355 -0.028045285 0.16816351 -0.020570379
22 0.008800595 -0.003585098 -0.26099998 0.09813802 -0.30554458 -0.004590377 -0.2631574 -0.38019818 -0.10676867 -0.04469524 -0.07087773 -0.39308533 0.13585262 0.13583294 0.10761334 -0.20672722 -0.35918158 -0.15066774 0.24714534 0.116434865 0.3205329 -0.08202695 -0.10220298 -0.06051755 -0.029809872 0.21700883 -0.13570344 -0.3563642 0.25603965 -0.32005328 -0.21768218 -0.065951504 0.33076966 -0.34196836 0.16638064 0.18647501 0.26718333 0.1159524 0.014022646 0.06456614 0.17174558 -0.14093733 0.024840789 0.17455758 0.15979727 -0.044537563 -0.025383508 -0.014993703 0.19215706 0.2529972
23 0.19956325 0.053965993 0.1611187 0.022503154 -0.008015266 -0.26512244 -0.26025876 0.21333404 -0.39898732 0.185253 -0.18161316 0.06834241 0.13653834 -0.28635907 -0.2250904 0.12707898 0.33521065 0.28346285 0.047805615 -0.1064338 0.16345191 -0.10770593 0.23699161 0.182773 -0.11981156 -0.029590745 -0.41851974 0.02285865 -0.3094739 0.062773675 0.32984364 -0.1080483 0.08147982 0.24149568 -0.24534689 0.21970399 0.010920029 0.13563366 0.2649859 -0.18256351 -0.060667425 -0.06137904 0.17859355 -0.08464512 0.23366575 -0.41053167 -0.13439965 -0.0745786 0.088058084 -0.082138255
28 -0.17216039 -0.3044287 0.21828027 0.059875496 0.2093312 0.008708088 -0.45339042 0.34361005 0.023743901 0.15085359 0.09034893 -0.07844313 -0.06288984 0.14556867 0.13248166 -0.2900902 -0.2486096 -0.10608665 0.1469528 0.1075789 0.091267884 -0.24147451 -0.32362092 -0.057390667 0.11639207 -0.19487336 0.20575777 0.19587018 -0.051586263 0.30594358 -0.036977153 -0.39305884 -0.023545707 0.14396024 -0.12652814 0.18163493 -0.04602542 -0.14733885 0.2820884 0.018794691 -0.41032046 -0.070475616 -0.18793955 -0.050440993 -0.114653595 0.4326728 -0.0016822956 0.03255838 -0.19073819 0.07857279
29 0.020437026 -0.4970345 -0.0946135 0.22610317 -0.33609432 0.044056978 0.12901467 0.13744411 -0.08567141 0.10476895 0.16673537 -0.24187316 -0.09820043 -0.04663207 0.033957046 0.07838486 0.1024712 0.1920601 0.24325407 -0.16477919 0.21264973 -0.2581903 -0.057198606 0.051774822 -0.40834716 -0.32344645 0.21323885 -0.24052082 -0.014971802 -0.28802854 0.11221436 0.043229576 0.098713435 -0.12417719 0.1655451 0.22896838 -0.33522794 -0.22745426 -0.17615755 -0.10813064 -0.14197032 -0.100380674 -0.3933135 0.23462807 -0.12071693 -0.039877113 0.024941966 0.19374004 0.24960263 0.16119419
1 -0.09037305 -0.07987554 -0.16797459 0.057395376 -0.20570047 -0.03850778 0.4660385 -0.209107 0.013281024 -0.32360098 -0.078616925 -0.010404846 0.4066394 0.07893949 0.027342735 -0.011209029 -0.045007285 -0.12516177 -0.04546181 -0.26064554 0.3243687 0.010773062 0.33917537 -0.23490822 0.048370294 0.26562217 0.4084237 0.18852073 0.09913786 0.20814008 0.013138895 0.107635476 -0.19064134 -0.007278882 -0.009201331 -0.10690588 0.040523946 0.102887504 -0.34230697 0.17109258 0.124129795 0.034982525 -0.35467783 -0.28310844 -0.027175458 0.31345582 0.01160295 0.045803256 -0.12357818 -0.34135732
3 -0.09140483 -0.4621357 0.26943865 -0.06979692 -0.25090918 0.42883027 -0.10674004 -0.043663528 -0.023864307 -0.39724818 0.09686977 0.14041385 -0.005259124 -0.13109893 0.091869704 -0.07538255 0.0779425 0.17596892 -0.08163611 -0.1437078 0.27788383 -0.21991552 -0.17011915 -0.04545531 0.026422506 -0.35018444 0.20607069 -0.03649977 0.12057154 -0.06263542 0.13568228 0.016790295 -0.28948712 0.08021533 0.00058063556 0.11045546 -0.37030068 -0.1933445 -0.07107605 -0.09429919 -0.05648116 -0.06315874 -0.429714 0.16452344 -0.026888462 0.20801146 -0.46216545 0.049056564 -0.16152209 0.023426011
2 -0.2792914 -0.118733615 0.053171415 -0.2823496 0.09022787 0.17382757 0.10791945 -0.36413464 0.08520077 0.10648866 -0.10373205 -0.35320553 0.20071627 -0.13518892 -0.2669496 -0.33074388 -0.12088341 -0.063983254 0.028363818 -0.07185694 0.038010266 -0.3434034 -0.30577648 -0.054852717 0.09417566 0.17394064 0.14686617 0.022297546 0.37308237 0.1364196 0.38634762 0.047281154 0.023616794 0.42389008 0.1293643 -0.08293077 -0.11542968 0.22051239 0.09127844 0.15727876 0.21170057 -0.20584707 -0.008460554 0.24844822 -0.2527581 -0.2579573 -0.13125812 0.02532325 0.079360396 -0.18952736
5 0.38165265 -0.24881263 -0.21067356 -0.097354025 -0.17854473 -0.25549397 -0.067921534 -0.086031795 0.31443205 0.373025 -0.036377393 0.12653516 -0.056161284 0.06237793 -0.16123442 0.28774208 0.31721857 0.2120973 0.03775961 0.10902148 0.043225136 0.15434945 0.10481892 0.17531022 -0.1785452 0.27020687 -0.18355045 0.04011724 -0.2699545 0.13562849 -0.31089336 -0.403472 0.16639225 0.06047088 0.12358489 0.36530933 -0.083332255 -0.2170542 0.35802937 -0.120572254 0.14303587 0.06128829 -0.013364346 0.05312917 -0.08884027 -0.16667259 -0.25504592 -0.15247568 0.015256138 0.112726524
4 -0.32238898 -0.092958525 -0.23175739 -0.07317409 -0.03423456 -0.020951804 -0.04153908 -0.3640919 0.29682532 0.12810329 0.0992534 -0.15488666 0.102507174 0.14539014 -0.17601658 0.14119041 -0.07020772 0.049955986 -0.09096441 -0.39128456 0.32056 -0.3025845 -0.14155044 -0.22673273 -0.19229163 0.13835105 -0.039669957 -0.05038984 -0.3981575 0.032801703 -0.042695213 -0.32771814 -0.34756812 -0.020711286 -0.04138216 -0.2770351 0.16880946 -0.25088707 -0.22630589 -0.13122155 -0.023703318 -0.0633177 0.1997765 0.37982213 0.22534846 0.18952684 0.13984041 -0.11527067 0.07238387 -0.18660082
7 -0.1199857 0.052891783 0.3152645 -0.074864924 0.002783972 -0.21758027 0.15954101 -0.1159608 0.3170639 -0.0007056371 -0.17737597 -0.105371475 -0.15956074 0.21058853 -0.016389301 -0.30231267 0.26054072 0.2979004 0.2510584 -0.31242168 -0.1473979 -0.19809037 0.17439541 0.27557853 0.0490818 -0.085699044 0.15340903 0.35146505 0.06421038 -0.23839906 0.11255166 -0.014333178 -0.21527971 -0.35219994 0.11515038 -0.023968607 0.06485947 0.016134515 -0.32632703 -0.023169316 0.38141167 -0.43383765 0.10949147 0.049408857 0.17597096 0.09514869 -0.05445119 0.17959173 -0.14767352 -0.17573197
6 -0.19384584 -0.27064338 -0.16784255 -0.1032891 0.16487944 0.061108302 0.10599935 -0.017048104 0.31760424 0.35131535 -0.06228985 -0.17931642 -0.13038798 -0.2682159 0.35767493 -0.0012958362 -0.042746812 -0.11535927 -0.03540285 0.3152474 -0.015945954 0.03520508 -0.29537028 0.003948009 -0.35519686 0.024757974 0.25498638 -0.1893006 0.11981288 0.15148734 0.18432508 0.0559537 -0.20741732 -0.3716669 0.20544593 0.20862232 -0.08490194 0.07962096 -0.09011919 -0.20354493 0.35366964 -0.2541067 0.1345193 0.26094416 -0.050095323 -0.1893093 -0.12746125 -0.37826794 0.10399532 -0.09899252
9 0.19402571 -0.047213268 0.107732736 -0.033443056 0.2843853 -0.106594265 -0.18572469 0.05931847 0.45155847 0.19662943 0.021051675 -0.24297194 -0.0030895392 0.006107792 0.38759813 0.046183065 -0.06761746 -0.16970003 0.26044008 -0.054032266 0.21771494 0.18189916 0.14752081 0.1623927 -0.3604888 -0.39163277 -0.0805632 -0.3396331 -0.04973776 0.29521796 -0.37661386 -0.14457914 -0.06474875 -0.031671 -0.43417916 -0.16923583 0.15815534 0.003698707 -0.32016432 -0.14631405 -0.15613379 0.12929785 0.0062980363 -0.15508023 -0.02530077 0.029911885 0.030611265 -0.12283892 -0.13272463 -0.02764579
8 0.04635443 -0.090674 -0.06403483 0.26947787 0.016906964 0.15698649 0.18230087 0.1760437 -0.02551947 0.21947032 0.47331494 0.08248777 -0.046577197 -0.14438252 0.107742086 0.13444671 -0.29786193 -0.14749517 -0.114105456 -0.33040446 0.22941217 -0.29403433 -0.33137175 -0.09692339 -0.021309298 -0.081259474 0.054462284 0.21064505 0.3533624 0.20382991 -0.0047899294 0.3375831 0.15556395 0.087589666 -0.2557873 0.17100203 0.18872422 0.086795226 0.013466968 -0.008393478 -0.054018162 -0.29474646 -0.12431877 0.13191098 0.27903983 0.1566723 -0.28824046 0.20225401 -0.3739503 0.08266175
11 0.09064196 -0.029916009 0.41553414 -0.117477864 -0.25996965 0.10637274 0.031143723 0.033618044 0.07130764 0.09383767 -0.07471148 0.06888933 -0.08912018 0.25593 0.075960994 0.011986948 0.16263694 0.41610673 -0.09822386 -0.2408792 0.02290198 -0.3301888 0.19798355 -0.19556601 -0.40692353 0.04707684 0.12481493 0.30919227 -0.15876381 0.06966843 -0.046276487 -0.04757579 -0.2981658 -0.34325176 -0.08277909 0.18275262 0.15677726 0.22887453 0.23049296 0.119094335 0.10877485 0.09752745 0.0456732 -0.33528084 -0.06977203 0.13157126 -0.23320661 0.24619274 0.27997658 -0.3308881
10 0.13939603 0.06892163 -0.07085913 0.31663427 0.15819599 0.19311485 0.21571559 -0.29032868 0.33385703 -0.265877 0.26626852 -0.08927503 -0.005934235 -0.085634924 -0.057200443 0.47935134 -0.06774388 -0.34835798 -0.12585852 -0.03452184 -0.03386534 -0.11185138 0.10350631 0.020336997 0.09055107 -0.12293679 0.102717526 0.3568451 -0.30581367 0.083968095 0.16542874 0.23116586 -0.08615151 0.04209652 0.021969294 -0.27380952 -0.17202078 -0.13777168 -0.0212777 -0.13622397 -0.38765913 0.21535665 0.0791115 0.061628874 -0.08600064 0.28102583 -0.45048976 -0.12085292 0.049748648 0.01679471
13 -0.12227465 0.19458275 0.08535982 -0.094170846 -0.17804942 -0.048479702 -0.16069649 0.33753085 -0.02023437 0.30688602 -0.29261804 0.34480852 -0.12240779 -0.045541152 0.007704789 0.15489727 -0.10871509 -0.32202706 0.34655294 -0.10350603 0.120523155 -0.17648166 0.24098009 -0.07925557 0.24628337 0.3925788 0.20419264 -0.074715756 -0.05382668 0.45342126 0.11416691 0.16941574 -0.024206474 0.03448569 -0.13127805 -0.20235735 0.0024812834 -0.46358 -0.0558433 -0.21423903 0.06887845 -0.25005227 0.10424524 -0.04825754 0.049300548 0.292708 0.14559525 0.14929457 0.08479406 0.07240355
12 -0.30811724 -0.08438894 0.008807413 0.4001932 -0.08128014 0.304721 0.3405585 -0.15274568 -0.10258157 0.20500493 -0.32431605 -0.00078100717 0.1259221 0.09941364 0.34919462 -0.14631872 -0.22624494 0.21384677 -0.15219179 -0.06445898 0.15763097 0.10419645 -0.012726138 0.0044419784 0.10954273 -0.11163895 -0.24180235 0.17642476 -0.33777922 0.019043472 -0.088769384 0.33450553 0.22409834 -0.28336388 0.15986614 0.045136668 -0.37916967 0.20718108 -0.2204412 0.009248389 -0.07389102 -0.29851937 0.14787024 -0.14653148 -0.034313638 0.12149877 0.1497201 -0.22263436 0.037381172 -0.2073607
15 0.17449212 0.24907295 -0.17763866 -0.27311158 -0.32553965 0.14417784 -0.15586662 -0.04158515 -0.3150432 0.119117685 -0.0021024668 0.19409701 -0.07749565 -0.14129308 0.030536998 0.11376892 -0.20315266 0.037011754 -0.38387838 0.16069406 -0.23924768 0.07946018 -0.3859 0.16738284 -0.036095686 -0.030871864 -0.12340406 -0.1706004 0.30443996 0.23107897 0.36987883 -0.34627432 -0.21150418 0.008921856 0.16098432 0.23578961 -0.10454112 -0.39415687 0.009822417 0.14165972 -0.031830862 -0.084845535 0.11008037 -0.15613632 0.23548132 0.18688285 0.15087424 0.14547521 0.24466419 -0.016319303
14 -0.1668274 -0.29399824 -0.12845594 -0.23785171 -0.01474274 0.22843541 0.13341755 0.35281298 0.049759317 0.34188497 -0.059311397 0.12848802 -0.2916405 0.14545998 -0.078041725 0.0036744408 0.18061534 -0.038425673 -0.10585129 -0.032992925 -0.14332812 -0.14854711 0.4420701 -0.2824368 0.045603644 -0.17034872 -0.10984408 0.037208065 -0.32033902 -0.0631384 0.3033764 0.35489553 0.06127216 0.31538022 0.037920628 0.08398669 0.062234487 0.058711175 0.013263756 -0.24178833 -0.2042186 0.2289437 0.024819657 -0.26765358 -0.3786981 -0.2365777 0.096774235 0.13423768 0.18465354 -0.16743097
17 0.17352849 -0.20815815 0.13802493 -0.36266124 -0.20949836 -0.22124237 -0.23429133 -0.21512488 0.24126069 0.081627555 -0.1845637 -0.0039918325 -0.3748238 -0.16941428 0.028937124 -0.18222502 0.16466087 -0.36882132 0.18540166 -0.12630184 -0.06394856 0.057022985 -0.12609194 0.12652382 0.16453315 0.19847584 0.04740646 -0.07483073 -0.19721821 0.37519166 -0.18441154 0.082553595 0.10423917 -0.039421827 0.08389191 0.12344132 0.10268281 0.21149206 -0.012703418 0.40284932 0.23698564 0.32898048 0.2960268 -0.08812037 0.17980702 -0.22132137 -0.2225271 0.26713976 0.0900522 -0.09881484
16 -0.09074729 -0.13794675 -0.032700494 0.4007895 0.25559717 -0.03281369 0.11344704 -0.2963071 0.04197439 -0.019075612 0.056809165 0.39703137 0.3716493 0.062919125 -0.01876391 -0.051469006 0.17562436 0.043291163 0.12943655 -0.14968832 0.08813492 0.37365964 0.14218697 -0.19848695 -0.23876183 -0.011535256 -0.011772044 0.44624427 -0.009087349 0.3374958 -0.33242196 -0.09082269 -0.16517794 0.16019906 0.20631967 0.29192284 -0.14434671 0.14083146 0.1385988 0.2460766 -0.2069236 -0.0004135244 -0.3794824 -0.21138138 -0.062414717 0.008449211 -0.00039389456 0.012063287 -0.1593682 -0.07530559
19 -0.36775187 0.31362203 0.037171032 -0.06910488 0.37986737 -0.3419077 0.026344001 -0.15285452 0.18114552 0.021772223 -0.28433955 -0.26976907 0.012946299 0.0027413745 -0.036281645 -0.167089 0.07772786 -0.046713937 0.30075207 -0.03696244 -0.29723424 0.1832279 0.16323073 0.08479151 0.053529575 -0.03458149 -0.21344534 0.0135285 -0.18962371 -0.47933796 0.3223497 0.18882959 -0.13554446 0.17356913 0.14340958 0.045555137 0.265813 0.24293266 0.07986831 0.2958122 0.14901632 0.2517763 -0.0046877926 0.08219665 -0.26639393 -0.24446683 -0.06337186 0.023190405 0.075788476 0.14026603
18 0.21391328 -0.11247504 0.25167435 0.24881643 0.148858 -0.15406066 -0.2176363 0.45750037 -0.01999873 -0.1703463 -0.055164054 -0.4102227 -0.112958014 0.20475689 0.07784364 -0.19054493 -0.20738442 -0.07008147 0.29348454 0.058270685 0.08467795 -0.20984259 -0.116666496 -0.06267278 0.09893632 0.31226102 0.03869031 0.20545772 0.22904925 0.08160342 0.15424863 -0.2990703 0.106235735 0.19200638 0.08465681 -0.15337701 -0.333251 0.035183936 0.34010968 0.15157099 0.099858955 -0.24485897 0.107037015 0.15877694 0.27923998 -0.14456831 0.31112462 -0.15776849 0.061453056 -0.16032133
