893 100
344 -0.0063259397 -0.019918885 -0.2100514 0.078460366 -0.24487938 -0.0069295946 -0.22928962 -0.30296683 -0.08805749 -0.023521336 -0.02773633 -0.27593082 0.07995375 0.11704423 0.079174064 -0.19128421 -0.3095489 -0.12727156 0.22166362 0.057733446 0.24656118 -0.05356978 -0.11534063 -0.07342852 -0.009621159 0.108565286 0.022242025 0.116700865 0.046445936 -0.03317652 -0.13798182 -0.16689603 0.13833119 -0.21745585 0.07216772 -0.072954826 0.047553357 0.071798325 -0.17600271 -0.099985674 0.058052756 0.19645402 0.20350918 0.032270223 -0.06667443 0.13739365 -0.051825598 0.11964304 0.12702103 -0.08679913 0.18389507 -0.077420674 -0.3013061 0.18484348 -0.24489011 -0.17669272 -0.06595963 0.2505713 -0.2761477 0.09005416 0.1655086 0.18305558 0.083230406 0.016477862 0.027679062 0.1423425 -0.11999473 -0.009735684 0.12747356 0.10079807 -0.017989427 -0.0046792515 -0.039290816 0.10774906 0.17581871 -0.05178217 -0.24836123 0.03126681 -0.2082151 0.043743473 0.19586033 -0.053442977 0.050709955 0.18923655 -0.14883032 0.15185247 0.0056109685 0.07039593 0.20342313 -0.09650734 -0.07258875 -0.06705033 0.11161839 -0.050272502 0.1272816 -0.2531274 -0.113294415 -0.0256954 0.08754877 -0.028488122
0 -0.12508106 -0.18606085 0.17024544 0.026604043 0.123950705 0.022796191 -0.34338316 0.19996518 0.031466775 0.10267365 0.0642643 -0.060724694 -0.033720564 0.13419569 0.10666144 -0.17008655 -0.19306658 -0.046586808 0.14646116 0.102531 0.10490432 -0.14289169 -0.21752395 -0.019854762 0.12837107 -0.027189821 -0.34655163 -0.03384536 0.14722577 -0.22906144 -0.005805743 0.110863484 0.12970659 -0.06193354 0.114561014 0.12269458 -0.15340534 -0.06290881 -0.05929679 0.035772175 0.08155548 0.0683468 0.14100714 0.15114827 -0.12830842 0.14258717 -0.20483178 -0.013677768 -3.2167158e-05 -0.2790629 -0.09407833 0.1387811 0.11818308 -0.042985108 0.19439459 -0.05752348 -0.24650773 -0.03091112 0.07107537 -0.10544676 0.1519961 0.0041302517 -0.11399209 0.22126232 -0.016218126 -0.23618968 -0.075860515 -0.13232775 -0.019165013 -0.043983772 0.26905876 0.02338228 0.007365991 -0.13684605 0.03782984 -0.2559504 0.16270064 -0.16864267 -0.024323411 -0.19274363 0.053048953 0.03966496 0.049572386 -0.11723825 0.14785774 0.18034215 -0.26729715 -0.168088 -0.09806771 -0.08165333 -0.13706723 -0.039959338 -0.30999753 0.13921332 -0.11335084 -0.0458664 0.003895414 0.15373003 0.18460052 0.13992712
346 -0.03185462 -0.01970025 -0.15695998 0.08482001 -0.18606845 -0.026164005 0.30253008 -0.16244309 -0.03364505 -0.2570075 -0.022458002 -0.028656248 0.33873758 0.09357034 0.021501249 0.026998641 -0.054825123 -0.09348147 -0.052502666 -0.15187278 0.27032882 -0.019792937 0.20518865 -0.12902607 0.074869975 -0.066549934 -0.29950142 0.22214362 -0.012078451 -0.13294004 0.2703969 -0.10495583 0.0016672203 -0.044090178 -0.25653556 0.047263328 0.0953028 0.016739227 -0.10654873 0.084259674 -0.068741165 0.06439202 0.1425282 -0.02130066 -0.110043876 0.16294086 -0.15994982 -0.08791078 -0.008772761 -0.0059056 0.19300324 0.29804504 0.14285992 0.07637434 0.15736254 0.0068995566 0.07609935 -0.13744003 -0.0017926904 -0.010353857 -0.07806435 0.0262992 0.07233915 -0.24925178 0.12274951 0.088123456 0.022204034 -0.26560664 -0.21026474 -0.016418368 0.23506206 0.0049770293 0.0370572 -0.09473783 -0.24877949 -0.23971531 0.13535258 -0.028247753 0.08492391 -0.03859399 0.09123434 0.013744811 -0.19164348 0.05761596 -0.001564704 0.07811003 -0.25331002 -0.13146539 -0.044271123 -0.06592262 -0.041700564 -0.039003916 -0.29103717 0.10763287 -0.021727532 0.13668916 -0.31511727 0.029611517 -0.10535766 0.01940401
347 -0.15257227 -0.08455295 0.045327667 -0.14487006 0.057310827 0.111326024 0.040091366 -0.2187153 0.017765423 0.085005455 -0.044569936 -0.2032473 0.15123396 -0.050972525 -0.1318715 -0.23099586 -0.096579544 -0.042276677 0.038834054 -0.03199322 0.050460506 -0.22548793 -0.18815118 -0.05989876 0.068331055 0.29435632 -0.21846987 -0.14337751 -0.040276505 -0.12194824 -0.2061381 -0.0617426 -0.06543625 0.23819974 0.32790583 0.005921533 0.07447739 -0.045426365 0.0455413 -0.09704366 0.20849197 0.25526878 0.19687507 0.036639106 0.11323234 0.031255916 0.11808713 0.06350094 0.10966642 -0.16034521 0.15306914 0.12347913 0.0060742786 0.2690688 0.09000442 0.26012677 0.025149561 0.04482322 0.29631782 0.05845727 -0.02741019 -0.04907453 0.14230809 0.09100922 0.1236596 0.17564431 -0.15372217 -0.011498448 0.17829105 -0.21121696 -0.17427339 -0.07433241 0.005446227 0.06597185 -0.11697605 0.15249449 -0.10619101 0.0037097738 -0.18790364 0.08994871 -0.24208555 -0.2415376 0.12874648 0.04035751 0.08118346 0.28050834 -0.060950905 -0.18012922 0.2559039 -0.060215708 0.07095015 0.03213647 -0.0091756955 0.03051338 -0.055667043 -0.13646053 -0.19457021 -0.07048266 0.03192833 0.10490892
340 -0.22808489 -0.03527987 -0.12843113 -0.0246798 -0.04015046 0.0001984435 -0.008900671 -0.24956168 0.19335859 0.06459348 0.08169031 -0.121552795 0.0433115 0.07380779 -0.13432637 0.071089834 -0.068385325 0.049632024 -0.03350785 -0.22390917 0.18282603 -0.20832267 -0.06599428 -0.12250573 -0.13736093 -0.067905195 0.06451498 0.21727069 -0.07516955 0.02604689 -0.18914883 0.14557368 -0.10677123 0.21863416 -0.024014305 -0.1596024 -0.09888607 -0.13938484 0.18484333 -0.036207646 -0.21286762 0.22242507 0.24613893 0.17387685 -0.2146776 -0.13671517 -0.16967626 0.11475924 0.19199629 0.018953303 0.10356904 -0.032785 -0.038137022 -0.29475087 0.027666444 -0.03407337 -0.24325892 -0.25026965 -0.011401959 -0.033575106 -0.20418935 0.12696157 -0.18422689 -0.1616232 -0.094100825 -0.021089066 -0.042659625 0.14963983 0.27397296 0.16828762 0.13491009 0.10587194 -0.08074333 0.056636974 -0.1328058 -0.05833397 0.10442308 0.23923664 0.04370698 -0.16227444 0.07661212 -0.009756366 -0.14653747 -0.23973687 0.07838102 -0.016315047 0.04414881 0.010982507 -0.2221256 -0.015770983 0.25962082 -0.29530635 0.0745291 0.03363182 0.11978063 0.06476619 -0.037064057 0.12224522 -0.100519 -0.11961795
341 -0.14902386 -0.17793989 -0.09092425 -0.07087544 0.12880294 0.04862787 0.05396701 0.021305056 0.23311174 0.27812663 -0.024458831 -0.10340525 -0.08096907 -0.18332945 0.28677803 -0.016307672 -0.018065806 -0.10484823 -0.003893042 0.25870198 -0.009588911 0.0043365695 -0.19709104 -0.0014127293 -0.26139286 0.09681251 -0.05883009 0.09833636 -0.006768052 0.19394602 -0.061118316 -0.095911995 0.03874065 0.30766344 0.16567034 0.037870925 -0.16191435 0.001871243 -0.00021293566 0.25115085 0.059369016 -0.026569372 -0.0848372 0.1773746 -0.027908593 0.15115009 0.14028494 0.088871814 0.09403738 -0.2625689 0.01759201 0.17892353 -0.1341154 0.07196155 0.10390859 0.10563861 0.00042329598 -0.12637039 -0.2882728 0.11621658 0.17796224 -0.027613014 0.034171812 -0.032280125 -0.16966635 0.27377167 -0.15540507 0.08066162 0.22369261 -0.06006926 -0.14559922 -0.066205814 -0.29195952 0.09251449 -0.06358953 -0.2864077 -0.015448487 -0.2375114 -0.01980594 0.1638622 -0.28093666 -0.106628895 -0.0682539 -0.051846717 -0.26300627 -0.069703564 0.12614748 -0.025440773 -0.22006899 -0.10158324 -0.15005958 0.058102086 -0.026147608 -0.13555026 -0.044037018 0.0005120274 0.020247508 -0.041616995 -0.043869123 0.0023767084
342 0.0757165 -0.08973994 -0.01552351 0.18540983 -0.026328063 0.11247484 0.079164766 0.08282099 -0.03443049 0.12847857 0.30082983 0.051806502 -0.06188877 -0.059581056 0.08891768 0.102753475 -0.16920377 -0.09987756 -0.049704604 -0.19274923 0.17555213 -0.15522292 -0.24219064 -0.024636418 0.028258767 0.10417968 -0.011013472 0.29553047 -0.058143694 -0.18514805 0.0550007 0.027782794 0.06300935 0.020776732 0.117341116 -0.10000782 0.06938918 -0.043978237 0.22852562 0.07149779 -1.6619653e-05 0.10033397 0.3289557 -0.04635843 -0.14922848 0.036442578 -0.24886404 0.1289763 -0.14270444 -0.34672475 -0.04375891 0.06912234 0.13324665 0.22452278 0.116210006 -0.028775413 0.2343001 0.13354175 0.07281714 -0.21821162 0.11476607 0.10271105 0.056202173 0.04428902 -0.034694288 -0.024040014 -0.18775094 -0.12399741 0.13441105 0.21828628 0.09501115 -0.20216781 0.12101259 -0.26671234 0.07591664 0.04131872 0.08878171 0.1799401 -0.11468397 0.028137887 -0.010822044 -0.011808962 -0.19802423 -0.2616212 -0.07247873 0.13109402 0.10776198 0.13439712 0.14905538 0.08053514 0.039856836 0.062195763 0.020234834 -0.25230926 -0.07991397 0.06885644 -0.19657071 0.20846875 0.23310925 -0.18712853
343 0.09754492 0.033558577 -0.050850246 0.16468284 0.06445848 0.09339726 0.12578352 -0.16132097 0.22186579 -0.15075764 0.13371459 -0.021857688 -0.018691279 -0.0937968 0.00092431816 0.3446425 -0.07068226 -0.21450868 -0.038965784 -0.007687006 0.016509144 -0.10006906 0.04112603 -0.0011195602 0.036715336 -0.0647058 0.126026 0.0735932 -0.08292547 -0.1329434 -0.06209387 -0.099301994 0.26007232 -0.027055359 0.23141152 -0.24263299 0.24706173 -0.12292684 -0.022428611 0.029342344 0.15698077 -0.10016784 -0.22936393 0.30649284 -0.1070999 0.117265165 -0.14148466 0.21795028 -0.053776737 0.14786354 -0.09091363 0.06840225 0.24832755 -0.2190605 0.058613304 0.1127795 0.15925425 -0.06443108 0.02572882 0.011399636 -0.18934254 -0.117405444 -0.10151637 -0.01085874 -0.10042059 -0.2780747 0.15629515 0.057996992 0.044492353 -0.0565693 0.19503583 -0.32240248 -0.08170965 0.038244132 0.01606891 0.28071454 0.14025778 -0.048746187 -0.034003288 0.32474202 0.0766125 0.123621136 -0.018059831 0.021681534 -0.09694977 -0.1388855 0.005953159 -0.32362032 -0.035319258 -0.14733149 0.052691188 -0.18083353 0.07791393 -0.029994067 0.038265888 0.21101852 0.09895829 0.10138404 0.05591338 0.051632762
810 -0.25787106 -0.070143975 0.03595884 0.29969665 -0.034981195 0.23858751 0.21967924 -0.08059713 -0.06333009 0.17504162 -0.22511697 0.0010190256 0.09796935 0.081151895 0.24408893 -0.11952647 -0.16609548 0.1311979 -0.118583076 -0.054323565 0.12152163 0.06525389 -0.038206667 0.03434638 0.09115482 0.10438487 0.13862142 -0.12656616 -0.16047856 -0.24413055 0.07877306 -0.117254294 -0.00011866232 -0.23081964 0.090674005 0.019760415 0.11346794 -0.037769433 -0.099094905 0.032466624 0.07149338 -0.14269955 0.03280111 -0.25382024 0.10156993 -0.124995634 0.04936492 -0.28934795 0.12277479 -0.027402543 -0.071638644 -0.17040801 0.1014221 -0.25522074 0.02418155 -0.0748217 0.21147715 0.12861449 -0.19006608 0.09572236 0.03778179 -0.30390075 0.11962683 -0.13900073 -0.008112753 -0.05865266 -0.1908406 0.10110534 -0.091781504 -0.053092845 0.10084286 0.10283785 -0.16184409 0.0007322013 -0.17737786 -0.0110384775 -0.05708581 -0.13406898 0.22396503 0.1347123 0.26312238 -0.21215943 -0.16455732 0.009572552 0.13147104 0.16669081 -0.05183701 -0.28390154 0.029952256 0.105240785 -0.051917378 -0.07758303 0.0695372 -0.12936904 0.13379441 0.11617639 0.13432632 0.13474435 0.2026951 0.009152655
811 -0.12018694 -0.21655346 -0.10586691 -0.16869466 -0.03170998 0.17266178 0.06724006 0.24389791 0.01983789 0.26552543 -0.012537504 0.10800626 -0.17063172 0.1254832 -0.042685993 0.04158733 0.09273302 -0.023091929 -0.03428647 -0.028607994 -0.080246605 -0.09769611 0.3182363 -0.19797024 0.045903336 0.13924253 -0.15456472 0.11400953 -0.23660877 -0.13994971 -0.17943369 -0.20698875 -0.1273696 0.16494516 0.08578302 -0.14568754 0.03542386 -0.26151988 -0.12558916 0.057533916 -0.14063305 0.11229627 -0.23005964 0.133419 -0.057775006 -0.053791326 0.07264134 -0.105316 0.056687213 0.08241103 -0.10299221 -0.077597186 0.02362093 -0.22489817 -0.07317854 0.2229519 0.270387 0.0739033 0.247005 0.0071757752 0.08895009 0.08377371 0.03769746 -0.00010301787 -0.20959547 -0.13460103 0.16829011 0.0007079812 -0.20799711 -0.29246652 -0.18484524 0.0988263 0.07039809 0.11110798 -0.11722365 0.093197465 0.009516824 -0.078453414 -0.15576474 0.24833228 -0.09911796 0.072476275 0.043824337 -0.045397677 0.045106623 0.09800173 0.063558884 0.12480663 0.021419503 0.2644212 0.118786596 0.21408181 0.17880754 -0.07291894 0.11231542 -0.17353351 -0.15678617 0.17188962 0.07484921 -0.07613627
812 -0.028184326 -0.08903097 0.0073987986 0.3019296 0.16183172 -0.0473844 0.044867918 -0.20049621 0.02319718 -0.017323915 0.058270045 0.24694934 0.25622505 0.06025226 0.008754993 -0.070079856 0.11643651 -0.0020740652 0.1253514 -0.09556115 0.04046506 0.26558262 0.07835133 -0.15951392 -0.17588028 -0.2799986 0.2560734 0.0058798715 -0.032954033 0.26994976 -0.2280235 0.009463392 -0.092660196 0.13031319 0.033777613 -0.16833359 -0.18317713 0.033192005 -0.016669305 -0.056765486 -0.1472909 0.06377846 -0.037960444 0.19162977 -0.008942026 -0.20820846 0.15642533 0.13776007 0.051889405 0.009348938 0.019025836 -0.010638427 0.3228603 0.028464306 0.27579522 -0.2559697 -0.096315384 -0.08498357 0.14122586 0.13353238 0.1796575 -0.130196 0.11949489 0.1194727 0.20953648 -0.12112273 -0.0034471757 -0.28629985 -0.119615845 -0.025906323 -0.023196572 0.035840582 -0.029920569 -0.08884403 -0.06308608 -0.037888687 -0.13192801 -0.017795647 -0.14550239 -0.31889856 0.19435425 0.11925081 -0.11139772 0.07790064 0.06821337 0.04402801 0.20937148 0.15698913 0.049311735 0.22413145 0.06423613 0.15732995 0.02016225 0.022859301 -0.19784872 -0.17042574 -0.025066722 0.038672872 0.08063893 0.062055852
813 0.11507972 -0.11439481 0.20905185 0.20193914 0.131029 -0.13479196 -0.12611684 0.294533 0.012436155 -0.14509389 -0.0116345305 -0.25972018 -0.05290389 0.17908432 0.08187079 -0.16234209 -0.11014738 -0.016282588 0.23301964 0.0071543567 0.09122625 -0.121048026 -0.046537682 -0.07986673 0.04110613 -0.1399614 -0.032451164 0.01792745 0.048174698 -0.3587662 -0.18543576 -0.100191265 0.004757208 0.018415349 -0.0019110577 0.1264679 -0.014318214 0.054370057 -0.15420349 -0.14384195 -0.2588539 0.0018880086 -0.28505448 -0.094267756 -0.033725522 0.08867077 0.07474836 0.009183375 -0.02350932 -0.24844971 0.24513716 0.026421893 0.15546268 0.17370126 0.05961111 0.12291245 -0.2291451 0.084768586 0.14504501 0.06906373 -0.11525738 -0.2613055 0.023782773 0.26664454 0.11373951 0.080769345 -0.18599364 0.08640492 0.12532319 0.21258667 -0.11513591 0.24041124 -0.122818775 0.051126774 -0.12068199 0.052730493 0.06445147 -0.1742587 -0.17073373 -0.051534843 -0.035127196 0.101387106 -0.24665976 -0.122761205 0.026136039 0.0025809167 0.15515275 0.11423581 0.10735061 0.11021631 -0.037950296 0.08395237 0.1463019 -0.22914577 -0.06242771 0.024287643 0.23330352 0.18118273 0.0826087 -0.052515235
348 -0.18815313 -0.017796276 -0.13054977 0.034933005 0.12419738 -0.08859559 -0.20447394 -0.09823684 -0.038086575 0.002472253 -0.13213664 -0.036348425 0.15304062 0.2012189 -0.058151055 -0.014304643 0.07148261 -0.08372058 0.04247268 0.25369436 0.17576255 -0.1442669 -0.032344673 0.07388404 0.0007133329 -0.02212755 0.033195876 0.16874143 -0.044252012 -0.14641532 -0.24570747 -0.10672169 -0.14879814 -0.07316576 0.12552944 -0.30160245 -0.037069585 -0.17277637 0.16687043 0.019092795 -0.2662967 0.11066429 -0.15011923 -0.02287682 -0.00026379063 -0.20897374 0.07969245 -0.13215522 -0.2776358 0.27819574 -0.11908967 -0.01578608 0.029296868 0.1698004 0.057558473 0.17641267 0.2576725 0.0617889 -0.1763595 -0.19372724 0.025555015 0.16509518 -0.02942059 -0.013724098 -0.30656525 0.2056191 -0.1025935 -0.23512682 0.12104601 0.09447416 -0.02899695 -0.14857703 0.10120781 0.07551111 0.17179462 0.06588137 0.1754953 -0.06116724 -0.12026163 0.0205546 0.19382046 -0.04632565 0.1746295 -0.04107981 0.0767822 0.1030795 0.15328006 0.08086148 0.059483074 -0.1998643 0.15979941 0.025796365 0.12112021 0.010380456 0.055512514 -0.3074171 -0.22306556 -0.17047529 -0.16125719 -0.022839392
349 -0.1509844 0.119619474 -0.17094953 -0.058771353 -0.097668484 0.11557235 -0.122342564 -0.0091765085 0.0076917927 0.09932948 -0.08599442 0.039749376 -0.010543029 0.24967659 0.079589434 0.16055621 0.058935508 0.1600196 0.2607769 -0.24757585 0.16086401 0.19723983 0.08295283 0.028977182 0.32341862 -0.20515284 -0.1264389 0.18761069 0.118921846 0.09496958 -0.11368337 0.20406015 0.017305756 -0.050557572 0.06710071 -0.029370924 0.07587036 -0.18643592 0.18469344 0.042820137 0.1891636 -0.0758172 -0.03603557 0.0018001734 -0.15384693 0.2434625 0.049663864 -0.18505697 0.040084794 0.15346886 -0.15951763 -0.21104491 0.07389083 0.1336138 0.11688974 -0.12191151 -0.09976614 -0.27458772 -0.06568971 -0.0402129 0.0009637332 0.12727137 0.1206144 0.30584145 0.034964085 -0.16232523 0.16023414 0.10458547 0.22999157 0.062827155 0.16699204 -0.08066916 0.049028937 -0.057275523 -0.040703055 -0.022416314 -0.018966371 0.33235863 -0.1226203 0.20104963 0.06280374 0.096151575 0.26196685 0.10500553 0.077539004 0.1556929 0.31847003 0.037101317 0.15580791 -0.01069006 0.12849815 -0.09050562 0.021520885 0.032912508 0.13889122 0.1685726 0.03543664 0.0048544984 -0.085012205 0.01771067
816 0.13472235 0.32310018 -0.25070602 0.16573688 -0.0784359 -0.009754868 0.0043587866 0.09098959 0.015940934 -0.22662193 0.027790662 0.19697835 -0.13180953 0.018499257 0.11758317 0.075253606 -0.007945311 0.019783435 0.04235978 0.06536764 0.10050018 0.0808112 0.09648221 0.058121886 -0.1665772 0.18266444 -0.17201763 -0.0875001 -0.082024015 -0.3029769 -0.27803713 0.27873147 0.00031048013 0.1331743 -0.088605195 -0.08889502 0.14742619 0.23380493 -0.038346335 0.032448526 0.28820625 -0.009508323 0.06434669 -0.008655047 -0.04133227 -0.078811854 0.0041254167 0.017454583 0.04193622 0.21610245 -0.03501362 -0.013890329 0.0150991995 0.10419614 -0.057201426 -0.06550268 -0.23714125 0.038096257 0.087319784 0.106199145 -0.2664684 0.14096096 0.2025385 -0.2324786 0.054115787 0.21182612 0.093672894 0.07809193 -0.15973037 -0.10389697 0.31260595 0.24734443 -0.0097628 0.12481991 0.10070206 0.21106242 0.053825825 -0.031202288 0.0792342 -0.2867942 0.06555476 -0.12855817 -0.07405877 0.21624911 -0.08606343 0.13032265 -0.12699236 -0.19352385 0.0052398 0.11592275 0.06953012 -0.09833698 0.13174325 0.1901931 0.13967232 -0.04598237 0.13466226 -0.047211207 0.09110732 0.11800941
817 0.038485594 -0.106178604 0.25893945 0.052971177 -0.040142227 -0.06351959 -0.13161045 0.27382606 0.007699222 0.037054703 -0.1306387 -0.20588547 0.2857645 -0.19866227 -0.020138016 0.18674938 -0.07504444 -0.10959559 0.11378809 0.011009079 0.020960769 -0.14100957 -0.059597872 -0.13177255 0.17314373 -0.07943949 -0.16834868 -0.15592805 -0.21885341 -0.23336193 -0.27826983 0.050070398 0.08651184 -0.066775 0.21687965 0.30475155 -0.13274607 -0.06436162 0.012237575 0.049081896 0.15625131 -0.015029059 0.10639211 0.0031485828 -0.033412695 -0.05218389 0.08684897 -0.040171996 -0.16128421 -0.08831468 0.074045286 -0.11735669 0.08084921 0.1458634 -0.17624795 -0.03054184 0.022321517 0.067389354 0.05925944 -0.26193884 -0.13722017 -0.08732475 -0.15645622 0.01151626 -0.043342896 0.16014385 0.21765563 -0.05696662 -0.19914858 -0.024572643 0.009098412 0.21861196 0.029221382 0.0067475094 -0.17216016 0.24981149 0.14981513 0.17067887 -0.19906612 0.28423142 0.23017365 -0.022921346 -0.28114215 0.04728331 -0.06547589 0.0043405015 -0.025967954 -0.018541666 -0.023280447 0.11321696 -0.08839076 -0.20765582 0.097487345 -0.15472256 -0.12126136 -0.03487426 -0.264884 0.13633887 -0.11332119 0.07831252
719 -0.018107483 -0.07227969 0.0074286927 0.0143199535 -0.25424606 -0.08687237 0.25601423 -0.09899671 0.13282953 -0.043790754 0.03889088 0.07170258 -0.08088513 -0.08356839 -0.20860513 0.0027984919 0.051350746 0.077498704 0.090155974 -0.17752212 0.12467435 -0.0655478 0.06035697 0.06269466 0.25071248 -0.029267829 0.22744367 0.10256561 -0.058412302 0.27353695 -0.0063893422 0.16872428 0.29295215 -0.036919527 -0.14875242 -0.010402728 0.105022706 0.09812275 -0.12161027 0.16665712 0.2280535 0.038388662 -0.046941288 -0.12459355 -0.2117611 -0.26780698 0.16231485 -0.037066314 -0.03700062 -0.25589544 0.12101344 0.07166423 -0.21859486 -0.1235568 0.29044148 -0.21593767 0.023211503 -0.16432042 -0.050861098 -0.2909592 0.10180546 0.029204944 -0.10805522 -0.2031058 -0.009997472 -0.11654239 -0.025249803 0.08737112 0.11489789 -0.11196441 0.002678687 0.12883633 -0.14477582 -0.15291467 0.061023444 0.0984461 -0.018982727 -0.06647971 -0.1066806 0.08498778 0.005912938 0.053133022 -0.004971916 -0.29881358 -0.21676658 -0.024893198 -0.044969894 0.12240802 -0.032429148 0.35347047 -0.072771154 0.30692613 0.009675804 -0.12691936 0.08344958 0.03306918 -0.07915119 -0.18647528 0.113995604 0.03529624
718 0.11410703 0.12103791 0.19435775 0.023562169 -0.24499817 -0.1257558 -0.055547234 -0.029432291 0.02560952 0.20392196 -0.07625876 0.050383613 -0.20055391 0.29808614 0.05332623 0.20769349 -0.107784525 0.22112913 -0.061406992 0.16398218 0.022159822 -0.07348309 0.107069366 -0.1550011 0.18572022 0.0034920527 -0.07785461 0.1258655 0.06510701 -0.07202265 0.04130237 -0.14608298 0.09528763 0.09235371 0.16154568 -0.13924986 -0.098428704 0.18365029 -0.11757983 -0.011722679 0.02809581 -0.12879507 0.00786294 0.174014 -0.2019877 -0.29705617 -0.20735063 -0.20088856 -0.044697013 0.1566416 -0.07371993 -0.23522358 0.12717748 -0.09125531 -0.03517506 0.3228228 0.017198347 -0.31199437 0.11185248 0.024444848 -0.08237773 0.086338274 -0.007166966 0.17442705 -0.022807967 0.014312432 0.040586293 0.12749536 -0.03547613 -0.23482284 0.14229506 0.2266304 0.0035798696 0.09909285 -0.13369696 0.0267438 0.06190398 -0.007893131 0.119688146 0.122867495 0.11461549 -0.23464538 -0.18944882 -0.0053457976 0.0978588 -0.18459377 0.0038394525 0.02643854 -0.17843294 -0.018839547 -0.059767142 0.12062327 0.23613915 -0.02296432 -0.2126726 -0.082228005 -0.28572085 0.15729475 0.09217006 -0.15328656
717 -0.008914981 0.0743966 -0.010733007 -0.019042792 -0.05177591 -0.03354142 -0.105055474 -0.12919551 -0.15021974 0.17161715 0.006065735 -0.13301657 0.21941932 -0.13913608 -0.29114336 0.24315377 -0.27817142 -0.12157119 0.27914503 0.27266774 0.026748156 0.065725125 0.15274428 -0.106852755 0.14609073 0.058044616 0.0343268 0.35437512 0.061129022 0.045201067 0.11203682 0.012360301 0.01318634 -0.022462273 -0.11525953 -0.114149354 -0.062312465 0.06315748 0.17302667 0.26511982 -0.02612369 0.009490506 -0.016954252 0.114820175 0.09775427 0.0706512 -0.115306795 0.037939705 -0.21210419 -0.058808755 -0.04603251 0.12797758 -0.2645725 0.027916428 0.035397463 0.003438628 -0.27608654 0.028073175 0.24015535 -0.06763355 -0.10628335 0.08296189 -0.15894438 -0.088947415 0.23587075 -0.04515446 0.093319625 -0.17397709 0.024181208 0.2538811 0.13806386 0.019045569 0.11827685 -0.2216944 0.0022463682 -0.00029332537 0.02069481 -0.002660628 0.018862065 -0.11212198 -0.1220939 -0.068644196 -0.002623786 -0.21786077 -0.12937076 -0.05118011 -0.0439056 0.14451759 0.13722321 0.18283513 0.04072076 -0.2234239 0.10219214 -0.22262776 0.11615831 0.10456448 -0.042735916 -0.24091443 -0.23435807 0.22115232
716 -0.13072023 -0.19760343 -0.13173404 -0.013952857 0.12467714 0.07366249 0.2536714 0.1779733 -0.08360449 -0.006732246 0.26921004 0.2391007 -0.069825746 0.10628564 -0.0345702 -0.09630501 -0.033083044 -0.11710889 -0.22464153 0.086653225 0.16251189 0.17209461 0.031309634 -0.13774602 -0.08329635 0.2308985 0.11994649 -0.17284666 0.22465555 0.24938026 -0.015043325 -0.017563144 -0.14103536 -0.0037810786 0.13029106 -0.036713503 0.12851736 0.026543668 -0.14723611 -0.13566354 -0.04336775 -0.020159258 -0.14810942 0.19214903 0.10994278 -0.1877327 -0.005979619 -0.06195714 0.26530913 0.03544318 0.04294104 -0.017322142 -0.28799152 -0.2623363 0.10563568 0.08497463 0.106336266 -0.13881816 0.18155958 -0.06461627 0.057630412 -0.03191776 0.18988752 -0.19690306 -0.097971246 0.05331436 0.045207642 -0.2716872 -0.14800197 -0.01907707 0.103614874 -0.12625855 -0.005275838 0.059269156 0.18606307 -0.10654813 -0.0054558204 -0.21685544 -0.0816296 -0.31513533 -0.1837469 0.16828118 0.1620228 -0.06723634 -0.15843445 0.06850191 -0.051491026 -0.07336945 0.22613661 -0.026044054 -0.17799698 -0.020634124 -0.032181423 -0.079890214 0.15751894 -0.021233484 0.0996034 -0.03467014 -0.030615365 -0.28582734
715 0.09704508 -0.1459005 0.051869527 0.1948004 0.13364796 0.04856589 -0.15238096 -0.18435061 -0.0650266 0.0060407203 -0.25081673 0.12949194 -0.11051227 0.08951583 0.18409596 0.068921834 0.15338278 0.059105 0.17189364 0.010402613 0.06610815 0.24229202 0.27017504 0.083899155 -0.047416627 -0.10338804 0.006880611 -0.27937385 0.16535854 0.06586435 0.008885341 -0.091181 -0.017127538 0.28980517 0.1856781 -0.020519903 0.040836047 0.06527672 0.26397008 -0.2446431 -0.18137982 0.0657706 -0.042275008 0.060724385 -0.15200181 -0.020908734 -0.012288714 0.03748108 -0.09184437 -0.21600872 -0.20494543 -0.043986164 0.19574724 0.04401869 -0.2151706 -0.00022405034 -0.0550064 0.26275274 0.1403854 0.11793489 -0.0949238 -0.14485762 -0.15317553 0.07118731 0.08711725 0.15600361 -0.10722567 0.21105625 0.087075494 -0.058093205 -0.00527593 -0.009122701 0.07929945 -0.2500616 -0.08271723 -0.07846126 -0.0031995953 0.11571896 -0.21891141 -0.13813135 -0.3024135 -0.07523786 0.26883757 0.085566014 0.11518714 -0.15193394 0.01359829 -0.13508306 0.031013938 0.09407362 -0.013570228 0.14994594 -0.081287295 0.075299665 -0.2313737 0.122715 0.00073618663 0.20867996 0.23590593 0.0013918229
714 -0.07773731 -0.13448068 -0.11739421 0.0900241 0.21082833 -0.1575252 0.037548147 -0.056985512 -0.022784814 -0.11248526 -0.13223776 0.25972497 0.18075937 0.058736745 -0.06440511 0.12256031 0.1350921 -0.32895932 -0.033540055 0.15825517 0.007334715 -0.012463785 0.17550884 -0.016747909 -0.008660947 0.10186515 0.007319844 0.2224289 0.23827097 -0.101658456 0.020185277 -0.08656607 -0.045107096 0.034969307 -0.06457108 -0.044982463 -0.0071905153 -0.12133947 -0.20444025 -0.3514101 0.059132326 -0.07962057 0.14391492 0.1189339 0.23560767 0.1439511 0.120721035 0.07055453 0.021443136 -0.27801952 0.2849282 -0.109124504 0.039061192 0.14183974 -0.028821727 0.26835954 0.12513545 -0.0035639221 -0.06983716 -0.20095447 0.1874744 0.19552666 0.023683326 -0.15423852 0.19023328 -0.03391542 -0.052011468 0.030945195 0.13548917 -0.17820321 -0.0946452 0.1460933 0.043817963 -0.086853795 0.31977555 -0.1087339 0.059044454 0.055547964 -0.12153989 0.0033460048 -0.016342869 0.2981174 -0.006922238 -0.023031184 0.14471114 -0.07964807 -0.2431296 0.14739546 -0.19266838 0.19702686 0.1348669 0.010643679 0.078920744 0.12323634 0.06284892 0.019746477 0.1178898 0.15829732 0.17120486 0.0365322
713 -0.14144008 -0.08947395 0.23104045 -0.06293983 0.047710456 0.03299481 -0.05275718 0.12558231 -0.12745908 0.005581073 0.093815506 -0.06796546 0.04205258 -0.2362266 0.17427774 -0.018910188 -0.17858002 0.1692831 0.32177538 -0.26024652 -0.10896028 0.023915494 -0.21027125 -0.019152192 0.009341653 -0.054919258 0.1108283 -0.017560158 0.18486783 0.25788912 0.015095614 -0.014471267 -0.03713276 0.08356657 0.17579307 -0.1859378 -0.025963476 -0.03851056 -0.07436063 -0.16331372 0.0028326986 0.20109919 0.27730975 -0.03105552 0.022859223 0.23368338 0.17461921 -0.100291476 -0.08572324 0.19883391 -0.008438384 0.09909835 -0.045577843 0.2819876 0.016729522 -0.015106601 0.102648854 -0.0093465485 0.09422091 -0.11448008 -0.09187253 -0.11309467 -0.16090198 0.24482438 -0.13076839 0.18980208 0.071496055 -0.00030671566 -0.043398473 0.025998613 0.10020612 -0.13224916 -0.10059372 0.017389959 0.07813547 -0.3333599 -0.11054476 -0.19933082 0.11181832 -0.14697823 0.0247784 0.1544239 0.027999813 0.33051157 0.019048914 0.29155543 0.21354362 0.1517371 -0.007616632 0.0082463585 0.018784553 0.31330872 0.08459951 -0.065945685 0.075680286 -0.12593858 -0.0120079545 0.06446606 0.073772974 -0.19064218
712 -0.05701094 0.06751451 -0.24650839 -0.0718738 0.09374581 -0.024605861 -0.2334942 -0.105713144 -0.19102408 0.18512231 0.03695245 0.037568923 0.054528367 -0.081320345 0.19634488 0.22487426 0.09785353 -0.20595615 -0.2270393 -0.024120117 0.055516914 -0.06195224 -0.20935862 -0.022916185 0.040349904 -0.2218378 -0.010141357 0.014977792 -0.25849366 -0.31037307 0.09454557 0.15404518 0.081473425 -0.011581711 0.032934748 0.101051256 -0.008526722 0.23919423 0.2029754 0.06609395 -0.013641146 0.08295168 0.1946722 -0.06941116 -0.010165934 0.04919927 0.032461885 -0.05617301 0.22995372 -0.21500336 0.14559196 0.24498886 -0.24493684 0.1131365 -0.07904088 0.14808615 0.1776501 -0.20950694 0.18583882 -0.18741953 0.017291466 0.069323614 0.01899414 0.021455055 -0.061222095 -0.025708323 -0.0024499004 0.24587783 0.065719195 0.065528646 -0.02266986 -0.21265608 0.12226314 0.11223505 -0.040824257 0.0030979682 0.16048694 0.14430454 0.18080582 -0.14417402 0.23848885 0.15213114 0.11808648 -0.00483965 0.076538734 0.34366104 -0.12818186 -0.1108971 -0.0052736118 -0.12912606 -0.12319003 -0.0034939034 -0.11037634 -0.087039225 0.10582933 -0.07382532 0.11434185 0.27847996 -0.039616056 -0.10536675
711 -0.20543802 -0.0352427 0.012638799 -0.18243086 -0.0024019547 0.20478112 0.06047457 -0.27987054 0.24554823 -0.13324669 -0.03023533 0.1852386 -0.24172482 -0.024795325 0.11321155 0.09198696 -0.17266732 0.152939 0.024737252 0.100931995 -0.069640756 -0.22896656 -0.00602774 0.13377865 0.15137736 -0.26441115 0.088313386 -0.095783696 0.0034985833 -0.040088926 0.14452836 0.123280354 0.1319683 0.0059733572 0.06751837 -0.096242815 0.013334671 0.068476364 -0.0794372 0.17345023 0.097728066 0.33324444 0.14834733 -0.09572999 -0.17164165 -0.15247463 -0.12054945 -0.0964837 0.013543199 0.13350466 0.24549954 0.06452884 0.06454042 -0.08790426 0.048452213 0.018433036 0.1076389 0.2170405 -0.054190326 -0.21021357 0.05678873 0.29354247 0.06700009 -0.11807199 0.075361624 -0.06313084 0.12613441 -0.03588891 -0.016477287 -0.19156986 0.12851934 0.15578227 -0.07730495 -0.07416624 -0.13618581 0.27858552 0.13432425 -0.05183812 0.016913882 -0.1809437 0.048004143 -0.116650686 0.19421728 0.18773857 -0.12217695 0.22348723 -0.24217069 0.19218418 0.103806525 0.06400861 0.13177446 0.020545177 0.08773815 0.20911357 -0.1296735 -0.09461477 -0.22079682 0.05118092 0.048019122 -0.16874051
710 0.28245538 -0.12776937 0.009108425 -0.03225807 0.18790485 0.050131395 -0.019738581 0.062333867 0.045392245 0.25340346 0.032472834 0.027784541 0.17757362 -0.04941165 0.15294777 0.076984085 0.10861156 -0.0052154507 -0.09012892 0.07237978 -0.11811479 -0.21757302 -0.037228227 -0.07480954 0.1352796 -0.21185392 -0.011021273 -0.04637521 -0.08569936 -0.2901954 -0.2066118 -0.06859808 -0.1534057 -0.048977226 0.20916274 0.12227215 -0.08559427 -0.21362667 0.14651176 0.07023433 -0.22713675 -0.14110817 -0.09463669 -0.058371622 -0.08543271 -0.0894259 -0.13072392 -0.34056368 0.15238716 0.1093964 -0.051411938 -0.049735714 -0.14089468 0.029305443 0.09898224 -0.0709845 -0.07298256 -0.12042603 -0.036316715 -0.06070287 -0.0867749 0.035129942 -0.28797522 -0.19948225 -0.081098765 -0.041923027 -0.24650046 0.013701751 0.0018444204 0.24974477 0.10472066 -0.0007152533 -0.09558319 0.16032284 0.029584438 -0.07594457 -0.31630886 -0.1686143 0.008449674 0.16402271 0.032881014 0.11176566 0.09394767 -0.16308846 -0.2035105 0.0526071 -0.1471577 0.034929477 0.19931312 -0.039583907 -0.2795097 -0.27586862 0.012155727 0.34080857 -0.12945507 -0.0690673 -0.09673575 -0.06014834 -0.030270863 -0.012384569
606 -0.09165215 -0.10688832 -0.07822831 0.068818584 0.13502115 0.12480052 0.28963345 0.111240685 0.15490977 -0.33865863 0.007711814 0.063320175 0.080651306 0.1908892 -0.13189015 -0.20067403 0.26451528 -0.14919005 -0.064965785 -0.03360879 -0.09526922 -0.12797303 -0.04344574 -0.18869863 0.13895088 0.03781221 -0.13182291 -0.07560056 0.06347562 -0.0012234595 -0.07053293 -0.14794128 -0.24358799 0.23247574 0.063536495 -0.0064681596 -0.027309736 0.13476433 0.15423322 0.18214059 0.062018104 -0.06712114 -0.041034304 0.113734454 -0.24461767 0.0264035 -0.20881638 -0.15829672 -0.05165658 -0.1116945 -0.15153702 0.20605095 -0.30635908 -0.028556831 -0.104767755 0.18272221 -0.14056018 -0.17078553 -0.046197645 -0.112170376 -0.2428179 -0.22720449 -0.03983938 0.28587237 0.059951857 0.17629589 0.2912819 0.08979923 0.01941925 -0.039497215 -0.085955635 0.10927345 0.15395969 0.22227778 0.13429837 0.03684506 0.048557874 -0.19245304 0.09943923 -0.02317372 -0.029135892 0.16205421 0.09288273 -0.024293208 0.10264745 0.019583993 -0.013287126 -0.23033318 0.12059036 0.1395095 -0.15400402 -0.12015099 -0.08946239 -0.071055375 -0.08233557 -0.012071374 0.12061005 0.01911851 -0.17573199 0.091801725
594 0.019353934 -0.100086294 0.030602582 0.26661652 -0.01833776 0.1432612 -0.1639049 -0.2180351 0.22265162 -0.088459626 0.06375235 0.054896556 -0.16613282 -0.051131945 0.13482645 0.2869793 -0.11703755 -0.08959633 0.3375792 0.17438367 0.17825593 -0.11303528 0.04353919 -0.10117472 0.043113377 0.039930135 0.03865557 0.0455786 0.011098622 0.19471988 -0.15450744 -0.08426173 -0.032453675 -0.18287088 0.1816552 -0.050797928 0.2199487 -0.036846533 -0.13574636 -0.16490448 -0.12518272 -0.13014773 -0.052100956 0.11000352 0.20491946 0.08169786 0.22485624 -0.02837286 0.10748218 0.06198932 -0.19276853 0.12999225 0.22296241 -0.066745386 0.117922164 -0.06992225 0.04424312 0.037398625 0.09675993 -0.12813167 -0.028429233 0.024184583 -0.0019433445 0.2548145 0.03426842 0.24228317 0.18242443 -0.025810251 -0.21632338 -0.076347075 0.25963527 0.21051465 0.0772295 -0.15892932 0.15441476 0.23460588 0.003506292 0.12202551 0.1358532 -0.014179453 0.044925824 -0.20225443 0.019478444 -0.08307453 0.04806518 -0.047385752 0.23045953 0.025926936 0.2549848 -0.1664548 -0.04912722 -0.1377987 0.22796677 -0.18892983 -0.05772413 0.09527933 -0.0679444 0.18703206 -0.03901014 0.108691186
619 -0.013433201 -0.1261437 0.21100847 -0.14944802 0.23129983 0.2663475 -0.2126362 -0.23041716 0.029282682 -0.18897398 0.12120265 0.07142827 0.021720402 0.008736084 -0.026293788 0.26702738 -0.072082184 0.15873645 0.1807399 0.10427725 0.035859045 0.04516329 -0.31073344 -0.15169008 -0.2099718 0.20325781 -0.06326829 -0.04014655 0.20384672 -0.01348336 -0.022267478 0.006708274 0.15622991 0.03736103 0.021065533 -0.10725248 -0.01922854 0.19952779 -0.14007123 0.013972991 -0.17005816 0.008214567 -0.124948315 0.020355307 0.18331534 0.18929482 -0.094776236 -0.101418376 0.0055637127 -0.061510377 -0.19182064 0.01841525 0.07627147 -0.1798031 -0.090122856 -0.061732944 0.14927293 -0.2026726 0.15364888 -0.13353553 -0.09832786 0.1690562 0.08486965 0.023658575 -0.060377523 0.09107228 -0.21322408 -0.15244423 -0.17602986 0.16458698 0.08676047 0.11089511 0.11808829 -0.22948414 -0.100216754 0.23834684 -0.26905897 -0.010163339 -0.08465702 -0.050927643 -0.10997353 0.104779325 0.21293275 0.030528964 0.25664368 0.23002641 0.121818766 -0.18846035 -0.052830495 -0.21690424 -0.033354416 0.11302678 -0.058110677 -0.008772125 0.1408378 0.21395366 0.07075283 0.021363778 0.041465577 0.09624205
298 -0.029201584 -0.06602516 0.2558201 0.11749994 0.1297519 0.25846475 0.1067447 0.13682167 0.0066666994 0.23438057 0.010373293 0.2502277 0.032554645 0.06568949 0.054625284 0.100525126 -0.057935473 0.25184658 0.1003234 0.18550022 0.0024091515 0.21928081 -0.056461863 -0.25824535 0.23795909 0.12118664 0.16695744 -0.02791196 0.04593077 0.02196334 -0.12686202 0.12265065 0.1338033 0.16996852 0.061595228 0.08153608 0.020633807 0.09257013 -0.038329426 -0.08446104 -0.2011455 -0.08751162 0.0593807 0.12541772 -0.27839318 0.18485157 0.010086481 -0.20576087 0.011901757 0.0789866 -0.13903438 0.06353472 0.094612494 -0.06731168 0.13863185 -0.08922755 0.09907874 -0.26259646 0.21255676 -0.08714238 0.13649611 0.16674894 -0.10783576 -0.03610576 -0.04746439 -0.09478108 -0.06561446 -0.2884737 -0.16602644 -0.2575825 0.0009862606 0.2826449 0.06596802 -0.077638134 0.22438598 -0.078320466 -0.051177993 0.011335468 -0.0734672 -0.05239296 -0.03453691 0.042696193 0.19939412 -0.08339502 -0.12879442 0.040149804 -0.096225984 0.019110395 -0.30297804 -0.0317683 -0.27582225 -0.11035772 0.030406944 -0.16271123 0.12272546 -0.06043158 -0.26247397 0.03596582 -0.08676645 0.11089363
299 -0.0750336 0.051890936 0.027994318 -0.2739131 -0.19223353 -0.01932247 -0.025086084 0.03424225 -0.15613113 0.18584564 -0.13932678 0.14673851 0.061658055 0.23612303 -0.17844589 0.082996614 -0.1048391 0.06529409 -0.15691596 -0.006087699 -0.00955344 -0.35577464 0.14137374 0.08022921 -0.024095844 0.027234208 -0.24510778 0.12572785 0.0070598004 0.1695988 0.1733398 -0.15475832 -0.23729149 0.088075556 0.09710447 -0.074890606 -0.17163508 0.01921802 -0.12376116 -0.15100728 0.029335214 0.014730485 -0.2248219 -0.22149685 -0.024017842 -0.23019384 -0.082563266 0.0034937607 0.019408748 -0.13062105 -0.09158108 -0.035953958 0.0068277693 0.06792235 0.012548532 0.13502821 -0.15438683 -0.0881963 0.21305986 -0.0667238 -0.09726095 0.18595608 -0.18805124 -0.1270471 -0.27120343 -0.043496504 0.03929393 0.044076502 -0.08280346 0.27231964 0.048572104 -0.046101473 -0.11352583 -0.029576741 -0.17228182 -0.06495471 0.18652046 -0.27453077 0.03212795 -0.163097 -0.1887346 0.22082622 -0.08034818 0.11162664 -0.14224763 -0.19141884 -0.011538328 -0.16228016 0.09940393 -0.11531797 0.2611708 -0.12309639 -0.029893922 -0.13193193 0.12336571 -0.052603118 -0.110825405 0.008567862 -0.06806808 -0.3064671
296 0.19595636 -0.20482251 0.036375586 0.10910382 -0.053308826 0.11401691 -0.104139924 -0.22708932 -0.03683789 -0.089274466 -0.080233544 -0.10050526 -0.052487634 0.08802559 -0.16592292 -0.07741599 -0.040588245 0.0575906 -0.08589538 0.11844252 0.055331793 0.3000829 -0.22731693 0.10702203 0.088054955 -0.12977166 -0.004686168 0.160426 0.045630585 -0.17818518 -0.012730549 -0.19269581 -0.017884303 -0.17460786 0.18488088 0.29511127 0.08502997 0.025588093 0.086828716 -0.20353507 -0.04503805 0.1730293 0.1352736 -0.08916406 -0.0876876 0.26056355 -0.24068882 -0.021752136 0.07194088 -0.21880688 -0.153685 -0.09379001 -0.11116727 0.263518 0.21023428 -0.019045746 0.11204289 0.13682666 0.13325746 0.13072358 -0.022586046 -0.04959433 -0.037919123 0.17124008 0.0110326875 -0.21600251 0.09707268 -0.00075558753 -0.26889437 0.0048180385 -0.056584142 0.05072505 0.050966356 -0.06010317 0.21856591 0.018273246 0.118410304 -0.042582832 -0.07458778 -0.22806242 -0.089737386 -0.11375256 -0.18853383 0.19860433 -0.030730102 -0.18557975 0.18580787 0.19175376 -0.16217823 -0.03356032 0.09308758 -0.1481635 -0.3171202 0.21420303 -0.13997893 -0.20487991 0.054568887 -0.07758303 -0.036843922 -0.016243272
297 0.29317927 0.1282827 0.04240245 -0.04815746 -0.14755766 0.012519992 0.12880398 0.017441627 0.013405354 -0.14741568 0.058542665 0.15317261 -0.18177633 -0.12475181 -0.09774183 0.012356402 0.2649473 -0.07309465 0.2978608 0.083352864 0.15504086 -0.024518212 0.037797343 -0.1252117 -0.028680857 -0.102109745 -0.09350296 -0.016957304 0.08906271 -0.02952887 -0.30769095 0.16948773 0.22174512 0.20191544 -0.20214468 -0.17984878 0.019309634 -0.10127013 0.25791055 -0.12592869 0.10956136 -0.10349668 0.014066568 -0.018758306 0.012969364 -0.22519746 -0.015317471 -0.14345372 -0.1748489 0.020303776 0.00091434317 -0.012530264 0.19918956 0.04411036 -0.15894921 -0.010079245 0.10876011 -0.056678724 0.02751065 -0.13648006 -0.052888203 -0.1271419 0.0025369916 -0.21139865 0.10980921 -0.014509451 0.30134663 0.18367107 0.09005172 0.09194319 -0.018503195 0.07328276 -0.1273367 -0.28335288 0.27906132 0.19809502 0.019537672 0.07458934 0.024023429 -0.13918252 -0.20012446 -0.047082588 0.106357135 0.02257299 0.023309128 0.11812318 -0.11152402 -0.07721191 -0.07954119 -0.14925662 0.03256247 -0.11485708 -0.15334716 -0.1891952 0.23697446 -0.1826549 -0.21193187 0.2279083 0.2389457 -0.059534423
294 -0.13904352 -0.049635116 0.19080484 -0.03338566 0.1342592 0.17242761 -0.028693024 0.07875584 -0.16414833 0.2344684 -0.11154107 -0.14163655 0.25901538 0.22453414 -0.13496074 -0.11497138 -0.10136456 -0.13778055 0.26947582 -0.06979237 -0.020906176 0.017102545 -0.2526836 0.11498919 -0.04968167 0.07175167 -0.12518181 0.03940025 -0.26532266 -0.12881395 -0.10519059 0.19366637 -0.024639994 -0.016235907 -0.031951778 -0.042168714 -0.09982357 0.14625712 -0.11307472 0.1432686 -0.14361937 -0.07320198 0.07575481 0.11002248 -0.08737577 0.27619338 0.05963809 -0.20413463 0.13528945 -0.13408004 0.19687955 0.08701263 -0.08429762 0.018970313 -0.2983766 0.0733983 -0.1692696 -0.112147935 -0.2281686 -0.037154358 -0.15589027 0.08268363 0.026288547 -0.004603827 0.07752731 0.04829615 0.04164055 -0.29245833 0.088434264 -0.12418666 -0.16366695 0.00941526 -0.027053768 -0.14912327 -0.13293707 0.1591446 0.15927319 0.20287512 -0.26250485 0.20110498 0.16370855 -0.12516004 -0.08696196 -0.19570018 -0.078838095 0.09074178 -0.16787298 0.053984843 -0.00137144 -0.0033835464 0.010752944 0.27733377 -0.06929449 -0.11259785 -0.22039318 0.09148228 0.0084787905 0.04462331 -0.20749798 -0.085054174
295 -0.019484935 0.048685364 0.06386863 -0.09592839 0.066048235 -0.15486807 -0.06894617 0.1902174 -0.049725913 -0.112127386 0.13506982 0.13500613 0.10592875 -0.21694611 0.028763788 -0.22679631 0.12913959 0.1032865 -0.04948789 -0.27966326 0.12953232 0.15132444 0.29198337 0.19998921 0.058031376 -0.05164341 0.054465767 0.08974793 0.1900064 -0.060972948 -0.16738221 0.30263263 0.039968655 0.24945027 -0.0981697 0.041488796 0.12337133 -0.036600806 0.13857964 0.19283307 0.17691875 -0.0034940946 -0.12655656 0.040406536 0.009934215 0.0023813343 -0.1965571 -0.15972753 -0.19600525 0.058690842 0.31735808 0.09136343 -0.079794705 -0.16743469 -0.043212667 -0.33445302 -0.037808623 -0.22403902 -0.17253383 -0.021934148 0.14380726 0.1195921 0.05559424 -0.0041431314 -0.013908753 -0.024142465 -0.11635284 0.06676292 0.0071746637 0.17518929 0.017334606 -0.026299085 0.1750517 0.18985726 0.23741871 -0.022093315 0.03214728 0.18948263 -0.23605897 0.104658455 -0.305056 -0.09508971 -0.052799366 0.13198322 0.25046495 -0.12235473 -0.11237663 -0.032538168 -0.10667558 -0.035056632 0.09702481 0.111206576 -0.048110053 -0.087162904 -0.1320655 0.064440206 0.18618797 -0.025552997 0.1712383 -0.030741211
292 0.043317873 -0.053834625 0.046854313 -0.01049544 -0.097140424 -0.06762975 0.11723663 -0.04285467 -0.23567098 -0.1427702 -0.28219455 -0.026598526 0.022838462 0.0463286 0.10276522 -0.056704618 -0.123883426 0.21204638 0.14330865 -0.07012761 0.16754207 -0.15660615 0.07951153 -0.18186653 0.28064507 -0.13026421 0.21811378 0.0014934341 -0.09122804 -0.17274825 -0.21155247 -0.12841076 -0.048147455 -0.17086756 -0.070911966 0.1311126 0.15573248 0.11089646 0.2315054 -0.0032036768 0.04190998 -0.011937328 0.272455 0.05511482 0.05148109 -0.15013811 -0.22195385 -0.054934777 -0.2316928 0.12622924 -0.110844836 0.31390455 0.07513125 0.2503201 -0.12672359 -0.026150731 -0.05189497 -0.15208402 -0.092982575 -0.23266582 0.025464486 0.081134 0.23022468 0.13986132 -0.14186761 0.028236749 0.084767975 -0.028199298 -0.16670793 0.052251045 0.036785446 0.17556648 -0.0815929 0.20633161 -0.020849394 -0.18373169 0.19849764 0.05244617 0.19771221 -0.014298843 -0.2568979 0.16854604 -0.19194832 -0.13218136 -0.094457686 0.14734365 -0.11922151 -0.13317397 -0.037928667 0.14875273 -0.07227269 0.1030963 -0.034057666 -0.09065092 -0.014888787 -0.049600337 -0.1069601 0.16783354 0.13916488 0.23980361
293 0.020582525 0.11561005 -0.20049042 -0.28149718 0.17262688 0.102282085 0.03329938 0.017537123 0.11498766 0.028040253 -0.19997385 0.2292736 0.0047373297 -0.039100826 0.16151208 0.24418566 0.06990265 -0.03694835 0.09092462 -0.044943824 0.071574815 -0.2322496 -0.031454496 -0.084054366 0.083236866 -0.21099316 0.12728378 0.019976242 -0.0012707901 0.030831823 0.245776 -0.06685469 -0.27293372 -0.1386807 0.073481716 0.24362513 -0.09603677 0.02182741 -0.056991074 -0.03389405 0.12710834 -0.15262231 0.2388042 0.14747857 -0.017262138 -0.0703367 -0.24496347 0.0066039027 -0.182672 0.15578763 0.021041011 -0.018447326 -0.105709836 0.18743046 0.05535289 -0.0132959075 0.20035079 0.19640775 0.09023559 0.11667337 -0.13303149 0.2862565 -0.13875082 0.0037692552 -0.09051111 0.11088317 0.00383967 0.046901245 -0.24028488 -0.031683274 0.2989978 -0.025998008 -0.110265404 -0.07575875 -0.13466494 -0.23790607 0.046492357 -0.18225984 -0.0022604528 -0.11491727 0.0034196216 0.0053095226 -0.11469225 -0.22795062 0.13341436 -0.01225318 -0.002710338 -0.12549636 -0.059449267 -0.2079632 0.14388496 -0.008384004 0.15930155 -0.08787662 0.28227177 0.019354321 -0.09110674 0.12858301 0.15161201 0.3002718
290 -0.1377064 0.0406978 -0.17987663 0.02742162 0.032050546 -0.018862255 0.20299402 -0.15673546 0.016434884 0.06670844 0.11390706 -0.117623806 -0.05406196 -0.06256411 0.089086115 0.19499272 -0.10280139 0.031424023 -0.2139332 -0.21320307 0.06307963 0.19195034 0.06594169 0.059791725 0.018230243 -0.042800587 0.055405717 0.05692194 -0.23571149 -0.004901421 0.13591833 -0.25898346 0.08277376 0.24517438 -0.24302682 -0.28405932 0.0082284035 0.29698345 0.242981 -0.18233623 0.09097803 -0.18834312 0.08529632 0.09118575 -0.045542218 -0.088020295 -0.07422444 -0.0077239242 -0.08902606 0.15407169 0.23261242 0.17830154 -0.1476644 0.14474112 0.09210021 0.061220676 0.122870356 -0.008618206 -0.07063137 -0.16620138 0.013208143 -0.05805163 -0.11102457 0.24451567 0.07676843 -0.13760114 -0.023290602 0.05104479 -0.040093627 -0.22639506 0.006273371 -0.17743063 0.16280755 -0.19028138 -0.09528063 -0.14601554 -0.23582476 0.094358616 0.06358102 0.07807017 0.17198373 -0.030698173 0.112692565 -0.11822957 0.07227277 -0.0294112 -0.22892472 -0.04767425 -0.1440027 -0.09162934 0.049386058 0.2486763 0.14546949 -0.25708896 0.057612486 0.18103203 0.2888143 0.10170572 0.0956361 0.13385677
291 -0.16412064 -0.03935722 -0.043259133 0.0057259514 -0.044286467 -0.26873794 -0.17538697 -0.27749223 0.022749878 0.022416398 -0.15080391 -0.10643158 -0.2041257 -0.064453214 -0.21332625 0.25290143 -0.0755533 -0.046978287 -0.11971429 -0.052388005 -0.10059603 0.16820484 -0.22594738 -0.19195437 0.08519165 -0.19954517 -0.16631208 -0.06264441 0.14920628 0.13163547 -0.06491191 -0.26409134 0.1545566 0.08231431 0.048416097 -0.2542808 0.011621763 0.03160352 -0.19426413 -0.043722577 0.1588829 0.10120955 0.07878167 -0.09502665 0.037842292 -0.00618016 0.05617289 0.19019237 -0.14959115 -0.037789226 0.10272048 0.10316152 -0.02296166 0.1888374 0.03290536 -0.15111014 0.123812184 0.06293549 0.01474977 -0.23988517 0.11879838 0.1457244 0.1506125 0.19276106 -0.24323416 -0.1449167 -0.024858406 -0.10813568 -0.054599885 0.048398912 0.16424213 -0.031338673 0.09840723 -0.061882127 -0.13077031 0.26599637 0.05385588 0.15425332 -0.2951361 0.2346539 0.1438316 0.029635761 -0.029562464 0.09652548 -0.15780419 -0.056959804 -0.16980745 -0.0981929 -0.1561705 0.20198038 0.011118469 -0.21278429 -0.043275356 -0.06588326 -0.09337741 -0.08902032 0.03502348 0.2596709 0.22319709 0.0133103905
591 -0.024612019 0.09914452 -0.03465331 -0.07297699 -0.22438928 0.29099968 0.23104766 0.19759147 0.10630363 0.068990454 0.19058539 0.10149987 0.16948435 0.090487115 -0.07963029 0.16768765 -0.13682483 -0.25664905 -0.16861726 0.006031788 -0.035608113 -0.17333134 0.13463323 -0.13849999 -0.07003869 0.0016218113 0.021891486 -0.07320356 0.12991293 0.06714308 -0.07112003 0.18092269 0.05271976 0.052147057 0.013895435 0.08016567 0.16339536 0.21841812 0.19925903 0.14160326 0.045934573 -0.2160239 -0.13407809 0.173937 0.19276555 -0.10234502 0.032216042 -0.023326814 -0.2751037 0.04171023 -0.04469746 0.008348938 -0.32538682 -0.083467916 0.34531584 -0.11393254 -0.0804868 -0.045458306 -0.22716792 0.089497544 -0.15375435 -0.1719091 -0.05845434 -0.053682428 0.058693897 -0.04078552 -0.08472492 -0.17008762 0.034277998 0.26644287 -0.18403961 -0.08378502 -0.07115465 0.11851137 -0.058801346 0.085319 0.17227216 0.026726006 -0.11950395 0.22078599 -0.02440814 -0.07414659 -0.02397287 -0.25244698 -0.28035972 0.049748823 0.09742643 0.07459374 0.022486672 0.014306106 -0.069800965 0.09848763 -0.055848416 0.18102783 -0.1522852 0.08536027 0.028484186 0.20673016 0.22788776 -0.06335689
590 0.09888209 0.11499729 0.2641565 -0.041778 -0.19666249 0.18079922 0.007065008 0.06027003 0.023443474 0.0029095951 -0.07410153 -0.0035147173 0.073625125 -0.23769955 0.09265338 0.0034088518 -0.091432504 0.03542793 0.2736164 0.027239904 0.11230516 -0.29492554 -0.252427 0.0064118607 -0.18178807 -0.26484007 -0.002432555 0.0644791 -0.13899915 0.01527327 0.216029 -0.03354169 0.2243926 0.14291944 0.047434956 0.12154407 0.029267242 0.15784565 0.17232807 -0.07948742 -0.10297323 -0.02648956 -0.056653164 -0.081359014 0.001001105 -0.1464693 -0.20986554 -0.13620275 0.26591036 0.071364455 -0.1184681 -0.029550718 -0.01945789 0.07042063 0.02393891 -0.0009977351 -0.028169163 0.08965358 0.21745439 0.091254644 -0.049227465 -0.15994166 0.06311383 -0.2290035 0.08303525 -0.13720815 0.04132484 -0.2663414 0.14187868 0.10341679 -0.19949508 -0.057930525 0.027164966 0.109400906 -0.19969478 0.0638026 0.17209041 0.10959281 0.08123707 0.22026886 0.004013678 -0.01635577 0.15921178 0.19066039 -0.086037606 -0.11028239 -0.18975116 -0.21282078 -0.08500762 -0.13156249 -0.16785684 0.22097164 -0.14871097 0.257262 -0.06691512 -0.13020124 -0.23294513 0.258606 0.0958478 -0.010906625
593 0.18113424 0.039886743 0.11413278 0.051935844 0.055533763 -0.0060562277 0.10192037 0.03197056 0.17066734 -0.14633752 -0.18686761 -0.15344784 0.040082272 -0.080357455 -0.21199721 -0.0118915 -0.13438079 0.27805966 -0.004519246 0.12936229 0.044309393 -0.046235792 -0.23142277 -0.004384188 0.11662164 0.11424187 0.22342566 0.049313027 0.21312636 0.21731177 0.106433496 -0.033005368 0.2867114 0.12566647 0.23921339 0.0406255 0.18116087 0.12129935 0.21590853 0.07463477 0.07337205 -0.081932984 -0.16591318 0.021327898 0.01647463 0.20087838 -0.14832765 0.15897799 0.16458353 0.08753132 -0.053897027 -0.0041744583 -0.10147263 0.08844188 -0.098230705 0.04448643 0.32323137 0.1261769 0.04228893 -0.024436072 0.009018876 0.2589083 -0.09081775 -0.19022447 -0.018524012 -0.09436071 -0.16011605 0.09781183 -0.07099329 0.25266424 -0.29464114 -0.062229842 -0.19643113 -0.010697338 0.07240156 0.24900897 -0.07741419 -0.2680271 0.032756556 0.019301053 -0.12633657 0.03539869 -0.105425514 -0.21765424 0.024694273 -0.301144 0.016515933 0.13658293 0.0383002 0.1042282 0.027621279 -0.105882585 0.105364226 0.0692023 0.076027736 0.041895457 0.2319061 -0.17130335 0.09666833 -0.13277604
592 -0.022191538 -0.111078665 -0.029687006 -0.12082758 -0.14448836 -0.07852044 -0.27781674 -0.21246715 -0.040705055 -0.07541969 -0.038215756 -0.21895553 -0.049286623 -0.22231875 -0.1329847 0.051004726 -0.07734058 0.04671579 -0.0063560964 -0.008837852 0.19507824 -0.24066041 -0.1759753 -0.0048569627 0.26004332 -0.11424481 -0.097991824 0.11933716 0.100094154 -0.1982665 -0.22595711 -0.115059815 0.079346664 -0.0024149898 0.23457734 -0.038374 -0.0076419795 0.00805073 0.13485041 -0.054643333 0.2057673 0.029205455 0.19206998 -0.19374919 -0.13817152 -0.16186704 0.24076687 -0.04220396 0.09992583 -0.15264429 -0.08381361 0.11058148 0.07201521 0.103524566 -0.30639836 -0.037192922 0.16461447 -0.031930916 0.029269377 -0.2894477 0.25253278 0.10161947 -0.019035866 -0.041862316 0.006989 0.10198789 -0.089111455 0.20908606 -0.19172333 -0.10285921 0.07428641 0.18485405 -0.09280705 -0.19022685 -0.090081014 0.14767101 -0.1256222 -0.13387382 -0.10406498 -0.21199584 0.23120336 0.042369038 -0.06545285 0.1644895 -0.04934132 -0.25453302 0.053097483 0.15054661 0.14391053 -0.12738268 -0.100044 0.14585286 -0.14517888 0.088026546 -0.09853501 0.14404623 0.009398962 0.21905428 0.10642827 0.032892294
199 0.040419456 -0.19823596 0.24343178 -0.053893458 0.07076373 -0.06801321 0.23212968 0.10708772 0.05652253 0.30753145 0.2528384 -0.011990967 -0.03620986 -0.02246645 0.026724001 0.19915612 -0.16170272 -0.038935576 -0.0023459038 -0.053021662 0.05340544 0.013185918 -0.16760959 0.18776712 0.13307136 -0.013800274 0.26166052 0.08283727 0.04276936 0.15410228 -0.118761495 0.14480636 0.1883795 0.04700691 0.0915894 0.25371343 0.22086342 0.045839168 0.05952261 0.18673916 -0.08059382 -0.21110503 -0.25402713 -0.089656785 0.10092865 0.08215937 -0.011147928 -0.15681462 -0.046044283 -9.537773e-05 0.114321254 -0.010217203 -0.26854768 -0.25055322 -0.26994002 0.1820176 -0.23368551 0.032172482 -0.15271719 0.0112398295 -0.03505478 -0.16329065 -0.13376455 0.10455561 0.049160406 0.060587633 0.043793656 0.021768652 -0.15360832 0.12038535 -0.09643297 -0.20290475 0.067055844 0.118032075 0.17522484 -0.185953 -0.07756663 -0.048003115 -0.013380569 -0.040386047 -0.0069983765 -0.23074016 0.019965272 0.15248245 0.04561151 -0.18362267 0.12855905 -0.07448403 -0.22009192 -0.14356415 -0.104804516 -0.0046034805 -0.23987702 -0.01837218 0.0054046568 -0.26939955 -0.19224909 0.051101733 0.18379548 0.02323939
198 -0.25658265 0.060965564 0.011355722 -0.12662297 0.062119238 0.11930351 0.25986624 0.1511603 0.15915741 -0.06841619 -0.14186479 0.0009857139 -0.21964292 0.17730178 0.1450092 0.2178639 -0.16271938 -0.22442695 -0.024458125 -0.043780293 0.08109839 -0.2142427 0.15154587 0.01972125 0.07060707 0.07739029 -0.050950464 0.06922829 -0.05773939 0.13205357 -0.04056107 -0.13808098 -0.06515006 -0.028251676 0.030045845 -0.15596828 0.08493936 0.23791178 -0.22493418 0.06895235 -0.19553326 -0.02190549 0.23628002 0.0034960234 -0.083708815 -0.13821162 0.2135174 0.2535001 -0.07350704 0.08431757 0.13367985 -0.025837561 0.2700681 0.16224262 0.02060762 -0.1374391 0.17542288 0.15298663 -0.009842722 0.0078145685 0.10978106 0.11516647 -0.19113135 0.18559998 -0.2469325 0.16148056 0.028507575 -0.1511606 -0.23087478 -0.18045968 -0.2219236 0.19720456 -0.21096984 -0.032511797 -0.10968216 -0.10063378 -0.21711935 -0.058056127 -0.09083258 0.021925984 0.16550352 -0.20197585 0.046513025 0.04650348 -0.024356995 -0.054917175 -0.06588423 0.07451775 0.13185057 -0.090811595 0.11198211 -0.033081777 -0.16232844 0.17428465 0.20385157 -0.25663695 0.031220244 -0.020731732 0.09831829 -0.0087240115
597 0.28376344 0.11628054 -0.10062896 -0.00205597 -0.07175557 -0.08733176 0.13853309 -0.021885173 -0.12516259 -0.025157604 -0.09324092 -0.11773787 -0.21969163 0.11935351 0.08786841 0.009686993 0.186052 0.14788884 0.03512912 -0.022889268 0.13585208 -0.02854197 -0.22962302 0.14127785 0.027813103 0.1949066 0.059543323 -0.23624797 0.0819537 0.022187905 0.0059538996 0.16036691 0.0038633351 0.17455654 0.11927787 0.19650888 -0.0014838782 0.07422546 -0.015976042 0.23187001 -0.16238153 0.20465517 0.28009197 -0.0319486 0.28173465 0.027522523 0.057755187 -0.22199097 -0.060666345 0.21426171 -0.05812848 0.039950565 -0.19790594 -0.14315356 -0.051633384 -0.22204389 0.10581224 -0.30281898 0.20645829 0.079230785 0.2120798 0.028152307 0.11863946 -0.024571009 -0.15505415 -0.016330147 -0.05743759 -0.053513523 0.2915786 0.24242656 -0.13350992 -0.038963526 0.09014453 -0.19217004 0.022238713 0.17092678 -0.097794615 -0.033554267 0.09401975 -0.1949707 -0.04490162 0.029404426 0.03592156 0.25057468 0.35707688 0.045390543 -0.005754387 0.10154337 0.1671906 0.09240017 -0.07040066 -0.07633544 -0.08520324 -0.00019208252 -0.25919935 0.009018915 -0.019252865 0.08173207 -0.08481792 -0.048221253
596 0.113423325 -0.11316822 -0.10863459 -0.021357832 0.21419263 0.20320778 0.00927728 6.978743e-05 0.14707255 0.15806045 0.08575386 -0.09864426 0.14593114 0.088071465 0.0857669 -0.16075575 0.15864454 -0.18685608 0.26209822 -0.0964523 0.030521393 -0.1596794 -0.077214114 0.061288867 0.058032297 0.2074493 0.08274761 -0.16652492 -0.18160574 0.05092991 0.17866306 0.08559314 -0.0063646887 0.10759049 -0.09584292 0.12283312 0.20106564 0.017135529 0.13421957 -0.12515034 -0.23896928 -0.096492685 -0.0026665432 0.21937987 0.007867386 -0.101488404 -0.2696147 -0.01872092 0.3291902 0.04713531 0.09588381 -0.00018468157 0.086671755 -0.11276421 -0.16474037 0.08913242 0.05386953 -0.20648505 -0.118705705 0.0835328 0.027682493 -0.2003004 0.016508337 -0.07105983 -0.07843992 -0.13213646 -0.021724021 0.2406116 -0.21093884 0.13826394 0.2008034 0.22778243 -0.2701567 -0.10779959 -0.0018738562 -0.3077317 0.018119777 0.19145438 0.12886542 -0.18318295 -0.25147438 -0.016691392 -0.10244376 -0.09033458 -0.0761948 0.08168656 0.0019297026 0.13937405 0.17133948 -0.30837134 -0.13640141 -0.03268247 0.021570984 0.087683454 0.043409448 -0.0015330231 -0.20182006 0.073499575 -0.06080493 0.018796371
195 -0.14698951 -0.098689325 0.080871455 0.15023595 0.1048277 -0.120256394 -0.08548191 0.093426704 0.06300479 -0.07037457 0.08809458 -0.02467823 -0.15931076 0.20113955 -0.016518554 0.1977019 0.07743518 0.1616398 -0.18121305 0.04068165 -0.084522106 0.18803881 0.22790773 -0.027815256 0.056931578 0.17368904 -0.18181759 -0.07671927 0.32673877 0.06875855 -0.14533885 0.11498877 0.1926675 -0.21697773 -0.025553383 -0.039225597 0.21783471 -0.0946908 -0.13154262 0.038146585 0.0055794083 0.0214691 -0.16266748 -0.08396421 -0.060958616 0.22992012 0.13466418 -0.30055118 0.106805176 -0.1533844 -0.08308566 0.0064678304 0.010776956 0.12083794 -0.22469284 -0.23086298 0.18559203 -0.23007621 -0.02446323 0.09770727 -0.05606783 -0.06446364 -0.19166446 0.0069730645 -0.030285671 -0.12251236 0.17812838 0.08980307 -0.14106403 0.02713977 -0.059890226 0.32150656 0.054832604 0.06396946 -0.13252275 -0.046029896 -0.105239496 0.12661889 -0.06554919 -0.12696831 0.110439524 0.29975057 -0.13117427 -0.122582935 0.12367841 0.07773991 -0.0021108822 0.1556781 0.0628918 0.10360438 -0.13955791 0.100214735 -0.22464077 -0.16639398 0.23577957 -0.11034624 0.0816963 -0.18816008 0.17002456 -0.18535148
194 0.16978642 0.1356135 0.1072154 -0.123925135 0.026696682 -0.27309895 0.23661017 -0.04330464 0.16413999 -0.21160226 -0.18977126 0.12691677 -0.006056083 -0.09999924 -0.0014602568 -0.0134884175 -0.04394653 0.019893907 -0.24618898 -0.112663984 -0.0058293324 -0.1321961 -0.11051333 -0.03847691 -0.06807492 -0.056606635 0.07039017 0.09247995 0.21216589 -0.16997252 0.2216216 -0.20181477 -0.06971524 -0.09842079 0.21133745 0.14005099 0.21424273 -0.19764093 0.016059656 0.010421901 0.13400716 0.088709414 -0.16356075 0.114159346 -0.061350368 -0.23837832 0.15783766 -0.19539194 0.0126377605 -0.114813566 0.26052696 0.22275826 0.07042137 0.015395169 -0.24520409 0.011015182 0.12273655 -0.13068019 0.035935014 0.19758485 -0.095623694 0.01296844 0.081520565 -0.020357182 0.38071612 0.022386104 -0.092907086 -0.123723514 -0.12978363 0.08392572 0.09960901 0.005217288 -0.11795333 -0.05896559 0.101573616 0.0708116 -0.09640941 -0.025239158 0.26071924 -0.019448975 0.08480963 0.23881939 0.33205342 0.080959804 0.08119392 -0.01215103 0.1256922 0.22336689 0.046518017 0.057736713 0.0035103827 -0.07793519 0.09170893 -0.020491857 -0.3059975 0.11479157 0.036026716 0.037086397 0.0979451 0.14499804
197 -0.12974083 0.10644255 0.058032077 -0.024933053 0.069587134 0.11325596 -0.015346334 0.058360998 -0.009217546 0.048403118 -0.13579206 -0.14898153 -0.12184555 0.06402834 -0.14633669 0.023641905 -0.2017176 0.030086221 0.23871718 -0.040940836 -0.066140205 0.10226489 0.25907674 -0.008464183 0.18150511 0.2235894 0.19021867 0.24973199 0.03547338 -0.02940085 0.06570964 -0.013234177 0.32590047 0.11099207 0.1291957 -0.021763632 0.017913565 -0.10320397 0.108567104 -0.21998759 -0.22487585 -0.04595685 -0.15925969 -0.1068944 0.19162367 -0.018022507 0.120807745 -0.07087 0.3251547 0.1829325 -0.07705266 0.22379065 -0.034859173 -0.08001375 -0.06663403 0.10183273 -0.057861935 0.21473874 -0.06710328 -0.207812 0.1944452 0.046767864 0.0757229 -0.19098595 -0.008179797 -0.03158672 0.12793046 -0.2939196 -0.06920861 0.33645803 -0.2602322 0.11364189 0.11003541 0.025840705 0.09007246 0.30937117 -0.26809803 0.13236687 0.019643733 0.094596446 0.15989196 -0.23383549 0.0363405 -0.013556786 0.2567989 -0.014559257 -0.04012453 -0.017357634 0.058214 -0.05475981 0.0307945 -0.042695943 -0.03888077 0.07471618 0.030468374 0.071660265 0.14988758 0.062922746 0.051246896 -0.15242189
196 0.13200179 0.16180955 0.06865973 0.061079938 -0.021051342 -0.061865386 0.12224634 0.026604097 -0.084623136 0.011660557 0.21075565 0.006354216 -0.07338781 -0.08852018 0.187798 -0.14796785 -0.11452944 0.21369298 -0.11533111 -0.072935104 -0.28196698 -0.19100021 0.08488701 0.017599422 -0.05662951 0.108884655 0.22846866 0.14557147 0.08509021 0.07205947 -0.0831604 -0.07197349 -0.22814284 0.12053448 0.26394585 0.18651967 -0.026567841 0.059318036 -0.17508473 0.19351113 0.07987925 0.0022450776 0.19943772 -0.14452565 0.10046005 0.072167896 0.32988366 0.099462286 0.21727763 0.019134771 -0.120060064 -0.09222036 -0.086139664 -0.105544515 -0.17090511 0.05749301 -0.2508625 -0.06285457 0.090895034 -0.05645539 -0.10607511 0.005111496 -0.13556005 -0.072303325 -0.083159566 -0.19430272 -0.062160213 0.31349215 0.10821772 0.20905077 0.16132109 0.2840665 0.0604415 0.046907146 0.11684055 0.13492754 0.16366836 -0.06375486 -0.12951417 -0.1799171 -0.17386624 0.10469704 0.12942488 0.14932065 0.013945438 -0.11417468 0.12645806 0.055505108 0.002239122 0.14285208 -0.20120852 0.032598563 0.21220018 0.0035745164 0.08140762 0.27971652 -0.10792428 0.0049568196 -0.18996526 0.18432252
191 0.24666326 -0.22494794 -0.08539476 0.0008715584 0.08069149 0.0030620683 -0.040486105 -0.12966225 0.11483389 -0.051669005 -0.06239269 -0.1513351 -0.07303882 -0.06394928 -0.1993628 -0.2238887 -0.22433606 0.087418385 -0.025971754 0.19330764 0.11046506 0.08886076 -0.276137 0.1027906 -0.12479813 0.13924775 0.10775643 0.12655076 -0.05223135 -0.19401489 0.10431175 -0.056785885 -0.21102104 0.17023791 0.0912096 0.028911633 -0.119818345 0.17185801 0.053007532 0.16004111 0.23943847 -0.06736947 0.11786012 0.24231984 0.14052907 0.1433357 -0.16983297 -0.14040695 0.11655573 -0.04953214 -0.19775547 0.053814523 0.2013105 -0.034070734 0.11760291 -0.09753565 -0.21165048 -0.18982801 0.112935714 0.19519079 0.0054424107 -0.003709636 0.20169823 -0.18144354 -0.08962674 -0.07297293 -0.07688105 0.17737 -0.10111416 -0.0020781464 0.17464963 0.14558858 0.2165501 -0.19547921 0.09724764 -0.119814664 0.07879765 0.19937088 0.0076931785 -0.06852394 -0.09576732 0.09028219 -0.07756837 -0.096066505 -0.1376799 -0.029195052 0.03543499 0.19711399 0.2710393 0.3028602 -0.013047739 0.21468408 0.12812756 -0.12411253 0.074775614 0.040499352 0.013154212 -0.0303294 -0.1690895 -0.20659049
190 0.14315018 0.23679395 -0.10260069 0.10829689 0.05445124 -0.021901185 0.029106088 0.15040451 -0.0042538135 -0.046578374 0.12517282 -0.16491993 -0.086278185 -0.26704887 -0.053710323 -0.32412198 0.040026978 0.01224255 0.13127531 0.17376073 -0.116426416 0.09096742 0.026191944 0.051369958 -0.10823152 0.008018676 -0.15213001 0.19447011 0.10627798 -0.16529615 0.101429895 -0.07201603 -0.1578962 0.084903985 0.30533427 -0.21244816 0.26773587 0.07575793 -0.20300943 0.067546576 0.067349955 -0.28947324 -0.19290839 0.04905643 -0.023941817 -0.027395898 -0.09316861 -0.07318627 0.056177586 -0.034372423 -0.0023748763 -0.17235442 -0.101054825 -0.0010130065 0.27025685 0.17683946 0.086819455 -0.21910433 -0.17882375 0.1216635 0.24759342 -0.19040118 0.14793018 0.15989943 -0.13922575 0.052772228 -0.051170427 -0.012328427 0.11980359 -0.06931755 0.119318575 0.21143152 0.18083559 0.010730666 0.13670301 0.023773236 -0.172891 -0.14784466 -0.13057184 -0.086107604 0.08016126 0.089853674 -0.26990572 0.020159638 -0.09734217 0.04969452 0.16287564 0.07561314 -0.016469743 0.00041857772 -0.0022366978 -0.16584174 0.16799426 0.02729014 -0.27024686 -0.20426919 -0.015235295 0.108780414 0.17893125 0.17198944
193 -0.02239716 0.1848578 -0.04860423 0.017472027 -0.21607518 -0.24580649 0.15361083 0.008716684 -0.0075667235 0.18414646 -0.17108963 0.15060453 -0.11462295 0.12296376 -0.0629818 -0.24046448 -0.16803637 0.11773759 -0.090717584 0.061895024 -0.046372607 0.05296571 -0.032665737 -0.098409794 -0.06603557 -0.09310368 -0.074603885 -0.071484394 0.031699475 -0.06377226 -0.26942238 0.16060342 -0.12744275 0.17685303 -0.06888633 0.32724246 -0.037847307 -0.23682673 -0.083519906 0.02623834 -0.029310722 0.22862007 0.13719743 0.07283877 -0.17188357 0.2866257 -0.01317385 -0.17583686 -0.09617226 -0.07108958 0.034382436 -0.19020556 -0.1495235 0.15913574 0.16075912 -0.22956426 0.051041987 -0.050191723 -0.2875273 -0.012170198 -0.18163624 0.08840689 -0.23560044 -0.030424045 -0.013198562 0.11327291 -0.120162755 0.18139623 -0.04966871 0.010638576 0.26122838 0.059486948 -0.12223258 -0.23223357 -0.14986698 -0.10009185 0.26568004 0.08432829 0.054363225 0.1315682 0.030066846 0.0047447374 0.07091822 -0.24601072 -0.12867837 0.14701663 -0.01512487 -0.21390392 0.11289437 0.22846712 -0.14425406 -0.07378155 0.10932418 0.10417279 0.05905969 -0.07815793 -0.0949216 0.16982847 -0.04382076 -0.05662999
192 0.18834512 0.21623081 0.018056782 -0.12540114 0.09195564 -0.12583767 0.0749683 -0.0040041124 0.09423136 0.1468219 -0.0876206 -0.21749444 0.21501198 -0.23760726 -0.24705794 0.3193411 -0.050661754 -0.098123856 0.12470141 -0.08351335 0.11380613 -0.024854911 0.005206315 0.14031266 -0.097744316 -0.047308087 0.21195829 0.09300609 -0.14197849 -0.16460703 0.12544473 -0.073064215 0.10986786 0.15415064 0.18573931 -0.016415788 0.18850213 -0.031391185 -0.06508564 0.09476249 -0.12500237 0.18272904 -0.092017554 -0.007107681 -0.1398526 0.06554202 0.110882886 0.14498144 -0.2599468 0.12790047 0.014238631 0.018201092 -0.16999549 0.32795334 -0.16381946 0.048431564 -0.059154302 -0.25792012 0.13580304 -0.12843826 0.11514058 -0.26480964 0.06568191 -0.15106042 0.023052761 0.18428181 -0.16139854 0.2038287 0.2174499 0.1947222 0.07219232 -0.18353586 0.13338475 -0.026064709 -0.27296352 0.0023168917 -0.07095855 0.30135894 -0.12635311 -0.093973 -0.13845187 0.0179375 -0.15045615 -0.012749573 0.0679407 -0.08879491 -0.12808752 -0.07717036 0.022586953 -0.13275291 -0.17381547 0.06252915 0.025064966 -0.07001601 -0.042590115 0.015542573 0.095263004 0.031428564 -0.13256606 0.11792759
270 -0.053119365 0.12674364 0.06013776 -0.060052738 -0.034201212 -0.15047418 -0.0019448678 -0.13117562 -0.19678631 -0.14329739 -0.04051287 0.019173715 0.1872684 -0.022298934 -0.061010245 0.16643614 0.117665544 0.07695075 0.1985601 -0.08262275 0.407668 -0.06345323 0.06332575 0.046015035 0.22372426 -0.09033803 0.000113899325 0.10172665 0.008184361 -0.15224886 0.0056321356 -0.05649605 0.14543061 -0.036176912 0.034212463 -0.13854659 -0.13556963 -0.048869394 0.071239345 -0.08272963 0.24876037 0.02800843 0.23567817 -0.19374888 0.18864465 0.30772638 0.19247454 0.09537941 0.12339026 0.21047823 0.24267757 0.028903488 -0.16043647 -0.22684373 -0.10075998 0.09182027 -0.09774902 0.116064176 -0.013506452 0.07604072 0.1456051 0.081253745 0.031096987 0.07059692 -0.19721584 0.033167105 -0.169227 -0.28685886 -0.17856057 0.054909304 -0.26542625 -0.26067284 0.088745475 0.09127731 0.034686986 0.08541647 -0.26460987 -0.1768236 0.2614576 -0.053733688 -0.021946343 0.01168695 -0.11536733 0.112177335 -0.02234769 0.15105645 -0.09370331 -0.06513332 -0.090097174 -0.084881246 0.0038724986 -0.20284934 -0.02540962 -0.13929828 -0.10348461 0.090028204 0.061216734 -0.055177324 0.19407408 0.24006243
271 0.029578567 -0.07805709 0.058668096 -0.01794437 0.03174937 -0.03983914 -0.19144467 0.01510348 -0.08989741 0.023594806 0.0020603254 0.19472876 -0.0028404288 -0.052993014 0.0043569417 0.060730226 0.22737496 0.008773494 0.09876815 -0.2733046 -0.25784907 0.061878074 0.14477047 0.1001558 -0.07952257 0.15663056 -0.042783808 0.15567265 -0.221869 0.13407362 -0.23032512 0.08780913 0.021203712 -0.020025527 -0.1043006 -0.23715968 -0.10266071 0.14618483 0.12124408 -0.04733062 -0.30257577 -0.07715488 -0.048330914 -0.32923236 -0.20259 -0.156402 -0.015463385 -0.14277332 -0.23923996 -0.07663117 -0.02375609 -0.26426265 -0.07270087 0.018770844 -0.048691716 0.16168323 -0.076503 0.05752721 0.043594785 -0.15825269 0.23219535 -0.14655803 0.09220933 0.06341406 0.047885817 -0.30887944 0.043128636 0.105142035 0.053243276 0.29546443 0.14532341 0.019665461 -0.039646145 -0.025764335 -0.029427571 0.025498789 0.29494455 0.16070145 0.15971588 -0.021648033 -0.23354767 -0.2983559 -0.123775065 0.09387514 -0.12889513 -0.030270904 0.04520334 -0.082986906 -0.08867719 -0.0017615525 0.024656491 -0.31676757 -0.0809889 -0.121172085 -0.22528873 0.05018908 0.03790819 0.12410602 0.107958354 -0.025395436
272 -0.15317893 -0.17372938 -0.07507855 0.27348256 -0.12750465 -0.19540377 -0.013572515 -0.088941835 -0.07519486 -0.03734923 -0.081285246 0.06355937 0.033098903 -0.113142304 -0.1648767 0.10433118 0.09167354 -0.30110332 0.03250056 0.04581216 0.23580167 -0.12319015 0.06683925 -0.097314894 -0.0023394218 -0.061565604 -0.28283018 0.20521446 0.16090709 -0.07164846 0.03836823 0.031341374 0.1297191 0.040026233 0.2165315 -0.17251994 -0.04279243 0.007929933 -0.051722314 -0.014214308 0.20946962 -0.23808111 0.14167248 0.0031070625 -0.15540257 -0.016997878 -0.12050711 -0.0025134827 -0.24185716 -0.26354563 0.07561851 -0.071454585 0.1948079 0.032311223 0.13120742 0.1841031 -0.30246207 -0.00979397 0.13144504 0.03497097 0.3061558 0.075294316 0.026645571 -0.1220034 0.13445218 -0.10182974 -0.09244105 -0.26204443 0.15737714 -0.03775177 0.23533426 -0.052095413 -0.18268403 0.05477302 -0.08173102 -0.27624658 -0.004051079 0.015196211 0.14267308 -0.21857738 -0.2535155 0.24387488 -0.119298354 -0.17408654 0.10921803 -0.18438828 -0.053366613 0.019183975 -0.049740672 0.06309645 -0.08266295 -0.018958448 0.09919958 -0.0093300985 -0.07900422 -0.16737472 0.04606853 0.08926988 0.069828935 0.077963196
273 0.025842011 0.13382688 -0.18716474 0.03043501 -0.0051790043 0.09131472 -0.09797342 0.17667249 0.030107161 0.10116892 0.012261699 -0.065141425 -0.12295352 -0.015920376 0.12508129 -0.25409603 0.042745993 -0.006869017 0.042314555 0.08754933 0.2964602 -0.19953422 -0.13995051 -0.05293368 0.08978576 -0.03709364 0.015789645 -0.060714483 0.06857523 -0.26128414 0.098654814 -0.12126619 -0.28463385 0.1746725 -0.2030744 -0.012616935 0.08487304 -0.19925521 -0.09638453 -0.05534826 -0.04302066 0.31157142 -0.20756337 -0.15351275 -0.02148362 -0.13913913 0.21852845 0.03251042 0.22240411 -0.13080823 -0.056843165 -0.03425412 0.021724058 -0.107283324 0.17706063 0.24641816 0.13715616 0.14662078 0.065061085 -0.14986482 -0.10447226 -0.0906309 0.0075722984 0.029798113 0.06467189 0.11809029 -0.27858812 -0.12970258 -0.0004682326 -0.06705524 0.20999768 0.11903986 0.122266896 0.20655465 0.044636793 0.072681494 0.16929746 -0.049778074 0.153561 -0.042912286 -0.070555136 -0.06569381 0.2958092 -0.024557099 0.30221486 0.019377584 -0.08919551 0.0916555 -0.16636579 0.024032945 -0.051163312 -0.22419062 0.15469638 0.07199942 0.1767605 0.07912846 -0.06530018 0.24185897 0.30077213 -0.035252232
274 0.12167225 -0.094590805 -0.2683151 0.10960415 -0.3061879 -0.123766586 -0.14550622 -0.101487696 0.12866327 0.10180165 -0.26407993 0.085063554 -0.018873228 -0.083966024 0.11003136 0.08251877 0.21442707 0.19024415 0.044637155 0.21576104 0.048091143 -0.1254387 0.09736019 0.030505365 0.1747593 0.13270989 -0.2818518 0.1824017 -0.080317214 0.023592688 0.12551776 -0.0027881174 0.1324033 -0.13762634 0.1764445 0.043422557 0.083605684 0.12916404 -0.06550601 0.0064962334 0.04879657 0.013415938 0.11182969 -0.13638523 0.005825279 0.26791024 -0.060940992 -0.05573071 -0.2527628 0.070682295 -0.15857612 -0.0053963545 -0.08450434 -0.24835359 -0.0063058096 -0.119857416 0.1387103 -0.109832264 0.08018539 -0.276291 0.21500833 0.07429593 -0.061472412 0.102231905 -0.22722241 -0.0840095 0.10729889 0.06488885 -0.049021002 0.16943963 -0.18191724 0.24558999 0.0935336 0.14067742 -0.18287304 -0.12220317 0.16146758 -0.15093696 -0.07095331 0.016567448 0.2358539 -0.014482022 0.10660737 -0.20784383 -0.052922696 -0.08911435 -0.16863587 0.17185308 0.28504485 -0.12836838 0.013088432 -0.018289799 -0.15957476 0.07271249 -0.029784495 0.1731406 0.13480148 -0.06928762 0.013076803 -0.13939543
275 -0.05827753 -0.13920173 -0.026198428 0.03759596 -0.04828228 0.06195531 0.100417465 -0.23865822 0.09121449 0.07982246 -0.21578284 0.08957626 -0.14958757 0.15323958 0.018498696 0.15121189 0.15378712 0.11770702 0.22777763 -0.02420008 -0.0587315 -0.09830566 -0.057347145 -0.17801191 0.07185542 -0.00050814176 -0.12259555 -0.0149841495 0.18220164 0.056484587 -0.012820716 0.026544465 0.18836929 0.022264332 0.060104627 0.031583637 -0.25016153 -0.21762437 -0.18672206 -0.06947069 -0.049282987 -0.19636343 -0.15174364 -0.29485747 -0.2032382 0.14346063 0.26680338 0.2078972 -0.21321207 0.070042744 -0.22506408 -0.17300811 0.10532377 -0.25410306 -0.22194001 0.112136446 0.103032604 -0.13150045 0.111816786 -0.023807207 -0.002084457 0.05140928 0.060438775 0.15732348 -0.20123824 -0.024837298 0.018298388 -0.22097908 0.13051242 0.036794145 0.16081847 -0.0761674 -0.034425803 0.01400453 -0.124751106 0.1125875 0.075264715 0.16381007 0.24908088 -0.10714627 -0.12232072 -0.08557099 0.22540891 -0.0036608437 0.24599797 -0.071680516 -0.15621981 -0.11516639 -0.18070471 -0.05195721 0.20485026 -0.16095547 0.06512891 -0.19575274 -0.09815645 0.025227342 0.07464551 0.18184568 0.24984886 0.019283472
276 0.1570203 -0.039310683 0.019247223 -0.088730276 0.029797062 -0.063671425 0.12872472 0.06305769 -0.07478007 0.043842092 -0.2130798 0.17378399 0.046088435 -0.1866834 0.041029543 0.01485654 0.07431908 0.069553986 0.23286936 0.07996905 -0.16737093 -0.18374248 -0.26970184 0.17084625 -0.09751874 0.010665227 0.09435642 0.28426751 -0.07986941 0.26621506 0.06312218 -0.260317 -0.28742537 -0.0578449 -0.040913947 -0.046463158 0.07239087 -0.055004533 0.16847174 -0.14899719 -0.11339243 -0.23086004 0.20601632 -0.061974794 0.12754358 -0.08663256 -0.19310261 0.020897528 0.094008066 -0.060301173 0.029498253 -0.25386864 0.012461316 -0.19662409 0.09396836 0.14784265 -0.16508915 -0.047171064 -0.27190322 -0.0032726107 -0.08126183 -0.14487946 0.013194826 -0.19433706 0.20200576 -0.009456663 -0.030502869 0.14809245 0.23484425 -0.07719713 0.16752817 0.09296626 -0.17319652 0.18150662 0.06252204 0.054396268 0.25850865 -0.1424323 -0.07391764 0.1700542 -0.2111416 -0.048400532 -0.14640623 0.13222061 0.16852652 0.014333976 -0.15338132 -0.15347031 -0.26764405 0.071961805 -0.012189185 -0.007153939 -0.17558087 0.05105239 0.01729378 -0.061238293 0.1611319 -0.014962374 0.16131446 0.122907974
277 0.06098138 -0.20233272 0.16842332 -0.042768806 -0.1747006 0.37562066 -0.09216629 -0.12423129 0.0022497843 0.01610444 0.22445644 0.10098513 0.057996266 -0.046178367 -0.20315063 0.0072447 0.092062145 -0.1010056 0.022557927 0.15487954 -0.07641447 -0.030204765 0.005835755 0.29005045 0.111870565 0.12013061 0.044005144 0.25009662 -0.06117289 -0.04600133 0.13006304 0.08798802 0.04554226 -0.16230936 -0.113791354 0.113838956 -0.118052706 0.16636294 -0.21031153 0.08432746 -0.0800774 -0.09993427 -0.14945646 -0.31262538 -0.15131557 0.08559524 0.16607407 0.0036135758 -0.14389902 0.06027881 0.024991719 -0.05527521 -0.25869185 0.054176986 -0.06868769 -0.024135929 -0.2411001 0.053358503 0.052524112 0.074275956 -0.17308468 -0.1222066 0.2316158 -0.072460905 -0.04834428 0.0069387243 0.077521 0.20968156 0.23155595 0.16592824 -0.14753938 -0.18900128 0.21715924 0.056000546 0.012779634 -0.07677676 -0.098773934 0.1660891 0.056233663 -0.29468292 0.13272262 -0.149029 0.083199546 -0.071684726 -0.022787945 -0.03751206 0.08126031 -0.14061403 -0.12904663 0.06165213 -0.24289325 0.08947991 -0.08174683 0.0023990478 0.027837235 -0.23433986 -0.29805222 0.10269904 -0.1393654 0.15683568
278 0.09598838 0.090855695 -0.11093807 0.021115532 0.18227996 -0.24774106 -0.09739434 0.036750726 -0.06076497 0.13442153 0.08132991 0.027717141 -0.02384704 0.24031635 0.28502643 0.088883944 -0.101218395 -0.11704126 0.15106732 -0.100682735 -0.025643947 -0.07143612 -0.12256633 -0.08462494 0.20864704 0.24290474 -0.18362619 0.021729236 -0.21441746 0.06497036 -0.00908325 0.07636741 -0.13656248 -0.049738966 0.044820644 -0.0660183 -0.046636242 -0.17872223 -0.2016182 -0.074079365 -0.1995614 0.23643996 -0.19788538 -0.020454133 -0.04254557 0.04793137 0.018914592 0.2926323 0.19896884 -0.19316518 -0.033450723 0.2286362 0.18959354 0.19714683 -0.115396075 -0.007893355 0.045962323 0.20911792 -0.054211095 -0.24343728 0.10429429 0.054013412 0.271763 0.19032378 -0.111711964 0.16193774 -0.14859001 -0.18805015 0.24469702 0.13022934 0.19890246 0.029372014 -0.022432376 -0.039363068 -0.09856677 0.09209731 0.022108551 -0.0711146 0.17838109 -0.08015502 0.07704685 -0.025446242 -0.2834893 0.02999406 -0.15594362 0.24790026 -0.07213726 -0.030651243 -0.029346934 -0.039464932 0.06639078 0.15478106 0.18503666 -0.0390636 -0.2116895 0.01144069 -0.01580605 0.10447574 -0.090824224 0.19590968
279 0.2072407 -0.09119244 0.25556803 -0.11602379 0.11211657 -0.014938575 -0.08818106 0.094012834 -0.02049457 0.11298029 0.0808074 0.09335162 -0.07480472 -0.03995167 0.17068431 0.083167315 0.20432782 -0.09928693 0.14829588 -0.01732774 -0.21505216 -0.083371975 -0.17199917 0.20324147 -0.148802 0.014733693 0.095673874 -0.032352407 -0.24673542 0.080128975 0.024473257 0.22202826 0.053479463 0.242334 -0.13632569 0.020961313 0.1449351 0.0150945205 0.07879413 -0.2994325 0.025105301 -0.013342164 0.17472073 -0.09401388 0.11371386 -0.06916216 0.029283728 0.22267246 -0.31173688 0.13385224 -0.05000307 -0.17840369 0.25790003 0.19877368 0.2937423 -0.044467453 0.1748974 0.026966251 -0.22137569 0.021061867 -0.114400476 0.12935841 0.034478676 0.12848535 -0.00063862826 -0.13186294 0.080446124 0.06234804 0.109663054 0.06297279 -0.08940879 -0.09187355 -0.07562074 -0.2583518 0.09159943 0.19723505 -0.11686059 0.2833635 -0.0049683503 0.041288905 -0.11769529 0.29438448 0.24817176 0.040962193 -0.2067192 -0.05128655 -0.027832136 -0.024315797 -0.12075205 -0.13319284 0.07968529 -0.028239343 0.19178745 0.063381605 0.122087605 -9.272875e-05 0.12567449 -0.113021895 0.17558688 -0.049067944
738 -0.113200575 -0.19700989 -0.053247895 -0.15934964 0.24987385 0.121108055 -0.17836018 -0.054094423 -0.030675292 -0.21180345 0.08499504 -0.16373757 -0.005665163 -0.3765468 -0.06409435 0.057391845 0.26055905 -0.19133794 -0.05943467 0.19921677 -0.17457993 0.22003399 -0.08126489 -0.13214612 0.014754003 -0.19789329 0.11225924 -0.1520225 0.16559029 0.024275161 -0.03874264 0.118988365 -0.17783742 -0.0690041 0.046603616 -0.07327672 -0.1529812 0.08962805 -0.02058515 0.19509247 0.08212036 0.23696263 0.058396652 -0.0077328593 0.022370916 0.077643625 -0.00084587967 -0.11340338 0.09762042 0.02584821 0.18346113 0.19763854 -0.10181239 -0.1772347 -0.00040311078 0.15935394 -0.054165427 0.08666668 -0.115115926 -0.19985573 0.16164225 0.013472949 -0.114962034 -0.005018564 -0.25578594 0.08942615 -0.045468416 0.10614674 0.16413066 0.25393954 -0.06913324 0.23329312 0.029457942 -0.0044999155 0.21577902 -0.23911652 -0.01629701 -0.0028038803 -0.073821634 -0.14259966 0.07544386 -0.071479894 -0.07866737 -0.044266373 -0.082915306 0.26993906 0.12771069 0.14369786 -0.22257383 -0.073315404 0.090217456 -0.09245723 0.084103316 0.3148939 0.066676065 0.0040703914 -0.13136904 0.057210423 -0.109852836 0.19571511
524 0.26593426 -0.27463943 0.04489774 0.07453304 -0.051132996 -0.030264383 -0.09992004 0.03637981 -0.095703416 0.079408795 0.077416375 0.026520018 0.28319812 -0.17476042 0.124139234 0.028024986 -0.20242107 0.18124971 -0.024596244 0.08355437 0.15429173 -0.040067717 -0.26541516 0.071182795 0.13347137 -0.27345696 0.18525393 0.09346078 -0.08147116 0.24653132 -0.13465372 -0.017438008 -0.045679126 -0.14922193 -0.02066668 0.25377804 -0.038744565 -0.22041659 -0.10087172 0.08041227 -0.11160827 0.0052065174 0.09544406 0.023193032 -0.12713687 -0.22606434 -0.10250225 -0.06286905 0.06281571 0.12163279 -0.29674152 -0.13071091 -0.20059651 -0.059397783 0.19856948 -0.009505521 0.027788904 0.0912566 -0.060562357 -0.11436924 0.118166834 0.018231047 -0.10677987 -0.005948504 -0.23776355 0.18224885 -0.015216466 -0.17574424 -0.26429325 0.092627086 -0.020398166 -0.17654665 -0.07025975 0.115582794 0.11141645 0.049299017 0.048615612 0.0011681273 -0.04346248 -0.11610932 -0.049534958 0.23256302 0.13598172 0.018176358 -0.01536807 0.30103296 0.034021232 -0.027337013 0.06679217 0.008015227 0.051395237 0.25145268 -0.23360477 0.028222298 0.0046022376 -0.1679348 -0.10416665 -0.13741197 0.34068003 -0.1016455
525 0.048232317 0.13090222 0.016445456 -0.25167772 -0.024240898 -0.027889563 0.18995976 -0.081164055 0.08816112 -0.024145536 -0.11047872 0.1145711 0.16233511 0.029607885 -0.12753639 0.1765211 -0.10184297 0.021238163 0.21497189 -0.044421483 0.013473841 -0.26847243 -0.24136283 0.14485583 -0.29803944 0.020838888 0.073633544 0.06826514 -0.30392614 -0.2675327 0.048687283 -0.12401682 -0.11493702 0.09169016 -0.09923487 0.06590181 0.03768443 0.039396994 0.07426188 -0.15585333 0.1214989 -0.060259607 0.06692164 0.049315963 -0.2483772 -0.19763035 -0.08773627 0.11742039 -0.17669633 -0.16017053 -0.13731824 0.13403776 0.016560458 0.07049351 0.22381327 -0.0020467367 0.05585301 -0.007311779 -0.070771866 0.024811896 -0.013255189 0.10700277 -0.16990222 0.121064775 -0.19640088 0.22027272 0.036106672 0.0031150172 -0.21789704 0.12983583 -0.19185708 -0.06371253 -0.083615266 -0.108786985 -0.04997634 0.07927549 -0.25604552 -0.24165672 0.009801657 0.18389302 -0.21792692 -0.15355109 0.21590428 0.06252947 0.12561996 0.10337121 0.17148636 -0.00084585417 -0.10099151 -0.24869484 -0.16732922 -0.033235744 -0.040036287 0.10196308 -0.12684172 -0.23970643 -0.21342325 0.010310803 0.050946098 0.22887053
526 -0.009556079 -0.08769043 0.17818588 -0.32747188 0.025441399 -0.07092038 0.260964 -0.0864589 0.07164943 -0.14479156 -0.17957088 0.16634333 -0.024947558 0.23928991 -0.04676804 0.0017503715 0.09595872 -0.11744687 0.21730411 -0.13050827 0.0024084856 0.0146919815 0.05082699 0.053512655 -0.0058785775 0.17982438 0.07231455 0.053672418 0.14149998 -0.17439611 -0.06726354 -0.058835905 0.20091937 -0.12796803 0.089217566 -0.22887135 0.1157236 -0.075599976 -0.13388726 -0.08468087 0.2757684 -0.08425516 0.20049728 0.03992438 0.26233917 0.03685505 -0.23513398 0.10469919 -0.10404465 -0.02401728 -0.0029808157 0.013081953 0.058887575 -0.16476266 -0.033856317 0.052669767 0.08517132 -0.004748994 0.2673712 0.018993134 0.031168671 -0.026479425 -0.04349269 0.2908429 -0.10765558 0.27329916 -0.10281019 0.104582846 0.09734818 -0.0062887645 0.22930211 0.035460584 0.2888127 0.15050879 -0.080443375 0.14325318 -0.030912915 -0.04428512 -0.13637894 0.042879418 -0.25404122 -0.11838701 -0.13750105 -0.035185773 0.19750027 -0.032561176 -0.23716685 0.26189682 -0.33725494 -0.08962005 -0.0011450383 0.02925245 0.032133847 -0.18585804 -0.08237969 0.12009473 0.08042715 0.06672897 0.08200961 0.09893325
527 0.18793479 0.07976224 0.030756168 -0.1188743 0.15703121 -0.033767015 0.16149858 0.0760532 -0.24797173 -0.016849378 -0.008464358 0.0803187 0.2646662 0.27823013 -0.021258064 0.055211436 -0.14749704 -0.030858705 0.25117967 -0.17460375 0.11452888 -0.14752409 -0.11410041 0.02399029 0.18553506 0.15473177 -0.06693835 0.018509619 0.28374207 -0.033765387 0.12123124 -0.14595947 -0.016544046 -0.16737983 -0.20395306 0.07761446 -0.12082557 0.07472723 0.005590393 -0.14481704 0.002526234 0.05539616 0.019590858 -0.12564228 0.10500215 0.33205852 -0.17757979 0.034373466 0.16391739 0.05920463 -0.18938246 -0.29735422 -0.06458231 0.18868968 0.2556143 -0.12509342 0.09908703 -0.012276495 -0.041602027 0.052059837 -0.33231613 0.00043606164 -0.13677943 0.012949707 -0.049913514 0.025588037 0.09048455 0.054575257 -0.20147534 0.01653894 -0.0022748464 0.016484657 -0.0076147597 0.039410036 0.22351399 -0.010904888 0.026268221 0.24457774 -0.020054003 -0.123990014 -0.09760353 0.10896896 0.14821461 0.04661409 -0.09793431 0.20060799 -0.14364064 -0.24854234 -0.13390736 -0.02849202 -0.064213865 -0.018685568 -0.21477543 -0.20642205 -0.05190959 0.35911337 -0.035394646 -0.06718347 0.025374882 -0.0014932107
520 -0.1808153 0.16280353 -0.16752431 0.0884325 0.04048671 -0.035099667 0.029553862 -0.18324308 -0.18246505 0.043513734 0.2640669 0.08460787 -0.043125074 -0.13343398 0.12999813 -0.16663463 0.14795339 0.086113974 -0.013772869 -0.067736596 -0.006002858 0.23316093 0.040162798 -0.039858 0.30285633 -0.014851467 -0.113798805 -0.11653907 -0.03203733 -0.026109727 0.23438476 0.060670838 0.21038716 0.08141199 0.14620344 0.3064435 -0.103413515 0.16066016 0.072052315 -0.16268706 0.0146642625 -0.0532181 0.2756557 -0.12967315 0.0018774582 0.21871968 0.11519719 -0.11136932 0.02211872 0.12848933 0.06328905 0.005063208 0.2948282 -0.19272515 -0.10768811 0.05241196 -0.3064978 0.057722174 0.2415835 -0.30860406 -0.004083708 -0.016090492 -0.015547209 0.18330173 0.112223916 0.05161391 -0.06869528 -0.09159553 0.11438406 0.19908758 -0.023543937 0.33817497 0.10651084 0.24892077 -0.15582815 0.10723445 -0.06562249 0.14932048 0.16572176 0.055222906 -0.059588797 0.05133843 -0.21207915 0.20808068 -0.11765804 0.077305615 -0.092748635 -0.012495308 -0.14001998 -0.056749403 -0.006791052 0.056952607 -0.04648255 -0.019593513 0.051572327 0.022812577 -0.049936224 -0.102272935 0.07911728 -0.19044611
521 -0.032958135 0.06732794 -0.11545633 -0.17960697 -0.25232458 0.00053283526 -0.3618773 0.023419904 0.06507317 0.056025505 -0.12216298 -0.124315955 0.09066864 0.11277597 -0.2245981 -0.010161254 0.05711347 -0.013832124 -0.09261744 0.0154399425 0.17940181 -0.13136758 -0.022033753 -0.10788189 -0.18064845 -0.036726773 -0.22924528 0.18431324 0.23238732 -0.16897163 0.07080503 -0.09416406 0.18369408 -0.25725788 0.21230823 -0.13750094 -0.028926268 -0.10366952 0.06094714 -0.05171026 0.11727323 0.15842941 -0.06659066 0.195699 0.11037911 0.10043606 -0.02455798 -0.016810546 0.22315614 -0.13108505 0.031412635 0.07950675 -0.106604725 -0.13370763 -0.16110462 0.1308784 0.0014790584 -0.16792363 -0.04668617 -0.103421845 0.12417702 0.0022446353 0.07275672 0.015155803 -0.08155042 0.022229223 -0.2010047 0.21141899 0.118736796 -0.03528248 0.22457883 0.2315913 -0.010710017 -0.22393146 -0.04448526 -0.16001396 -0.001269292 0.014950651 -0.27201548 -0.034170963 -0.27373782 0.0004454246 -0.11309877 -0.1366 0.23374641 -0.17711282 -0.15615399 -0.08863333 -0.037441004 0.17268941 0.21813259 -0.12615646 -0.06442172 -0.011818432 0.21435076 0.03673432 -0.21008202 -0.12229133 -0.19870667 -0.15473767
522 0.1885985 -0.062483385 -0.21449077 0.14538164 0.09917907 0.043290965 -0.10389906 -0.1241499 0.08127665 0.14213356 -0.08608398 -0.22600134 0.040247437 0.12728037 -0.08361284 -0.11086785 -0.1830088 -0.16511181 -0.14083628 -0.22552118 -0.06770171 -0.109844066 -0.18502323 -0.08773759 0.015929548 -0.24138305 -0.14178888 0.14626373 0.22169839 0.029962908 0.11821133 0.0815802 -0.06620067 0.049547836 -0.23591538 0.1736785 -0.16583543 -0.024816308 0.1696799 0.08632514 0.07877962 0.13955292 0.21942893 0.04431461 -0.0061372984 -0.13334586 0.2295018 -0.008904358 -0.20957021 -0.15824936 0.104011744 0.11356589 0.0080793 0.17039771 -0.18691152 0.14585842 -0.18920363 -0.25545216 0.0052464446 0.2571128 -0.23110671 0.18286456 -0.09423392 -0.13678034 -0.11905583 0.10396527 -0.018255617 -0.023666285 0.024917888 0.044855632 0.21921247 -0.17691313 0.060903676 -0.22459394 0.29364303 0.025946341 -0.15481497 0.084015444 -0.13932736 -0.053139012 -0.092560805 -0.24589096 0.22533607 0.09896837 -0.05180501 -0.08157014 -0.09551107 -0.103402704 -0.042800244 -0.06678008 0.053381458 -0.043173615 -0.062119763 0.1438549 0.12928179 0.2744243 -0.08098612 0.110452384 0.032808244 -0.03166787
523 0.27258545 -0.11021482 0.28761154 0.22208613 -0.2890319 -0.26881975 -0.029838452 0.1551387 0.20768093 0.023648 -0.04352782 -0.08037364 -0.10010056 0.033539016 -0.19349614 0.14957981 0.12305269 0.083107226 0.07529857 0.053017423 -0.09604813 -0.015846632 -0.28159 -0.0866425 -0.054479033 -0.15166034 0.14196545 -0.10430581 -0.17148466 0.12026597 -0.027086688 -0.13698815 -0.11073039 0.12693872 -0.18087383 0.008256847 -0.04078399 -0.03384581 0.007851724 0.0879356 -0.008846348 -0.21167183 -0.09423806 0.08292928 0.12572756 0.13788223 0.07290531 0.10139735 -0.10487951 -0.1916865 0.19150427 0.13319938 -0.021632962 0.049343295 0.1282902 0.09050998 0.036462095 -0.18888666 0.10324798 0.14361492 -0.037252307 0.14238605 0.12559666 0.053601984 -0.1955402 -0.030430164 -0.058502506 -0.32299042 -0.068750836 0.06683296 -0.1577023 0.02443422 0.07829807 0.00026230043 0.08533535 -0.028149102 0.07793228 0.019898258 0.044114906 0.10220397 0.100838594 -0.058727957 -0.025993636 -0.18184103 0.13724077 -0.06532984 -0.17626119 0.0738884 -0.21496885 -0.039643425 -0.27007747 0.0591882 -0.24655618 -0.22920445 -0.2430719 0.083372414 -0.2776478 -0.10088676 -0.03654946 0.3092163
599 0.023851546 -0.11688158 -0.12627433 -0.14386109 0.025617888 -0.14135478 -0.075796 -0.02254421 0.21040195 0.0079461895 0.12769227 0.103302166 0.021361163 -0.20583975 0.17392696 0.07010845 -0.03292432 -0.1400564 0.010545088 0.067299776 0.11265182 0.3169802 0.3286342 -0.028487315 0.21783754 0.16299586 -0.2253813 0.31973934 -0.04304241 0.11240404 0.025189543 -0.009293421 -0.12663208 -0.20817342 -0.052285016 -0.033662025 -0.019493537 0.011828594 -0.24034196 -0.039022263 -0.09676356 0.15296653 0.10811069 -0.26515165 0.1466587 -0.002326222 0.01815681 0.05221595 0.10057014 -0.10427419 -0.18650903 -0.20114633 -0.042678785 -0.037140388 -0.0041214735 0.0004776903 -0.10068758 0.033226755 -0.25680107 -0.03465904 -0.008654437 -0.12201178 0.14247347 -0.08143312 -0.08736481 -0.1612134 -0.097620584 -0.020693777 -0.20014398 -0.09144423 0.31224254 0.019469932 0.18221955 -0.15964596 -0.09423744 0.124694444 -0.17597066 -0.2297041 0.0576703 -0.05080553 -0.18741374 0.13173266 0.13968812 -0.17679025 -0.06843459 -0.081666015 0.11704483 -0.06387163 -0.24966441 0.24046417 -0.28169695 -0.18981941 0.08471591 -0.14602506 0.060843498 0.08058665 -0.04141797 -0.15767322 0.03971883 0.062099535
528 -0.048125774 -0.008773684 0.16946563 -0.079278015 -0.059257086 -0.070797935 0.03941185 0.3006316 0.058069263 0.02870524 -0.096880555 0.034761112 -0.15705518 -0.06495515 0.02330767 0.042108405 0.21180704 0.087066814 0.0013325856 -0.05200566 0.14675736 -0.14174841 -0.25294307 0.13865271 -0.10219258 -0.18674886 0.06881471 0.21663488 0.06688137 -0.15069574 -0.038543683 -0.054382786 -0.044952452 -0.24523814 -0.034157775 -0.026982382 0.17689769 0.08990427 -0.19338337 0.019608505 0.2327944 -0.14559351 0.17484044 -0.13577431 0.24271663 0.07400193 0.23473907 -0.22323936 -0.11579746 -0.24334437 0.049140554 0.06977938 -0.03584553 0.06285804 0.11861627 -0.1690185 0.021489657 0.05110794 0.008775811 -0.2019007 -0.097555205 0.16244258 0.08208707 -0.07797426 -0.2827633 -0.047550675 -0.18685135 -0.18347576 -0.15651137 0.23378842 -0.046273477 0.12190175 -0.11547823 -0.21769872 -0.037675165 -0.16430263 -0.08222913 0.25481454 -0.17141181 0.22344126 -0.1745843 -0.12006581 -0.04095587 0.12923522 -0.15110679 -0.2276523 0.2138181 0.15677038 -0.027409568 -0.037141684 -0.24918702 -0.12756476 -0.026634991 0.026246224 0.06263503 -0.13390678 0.13400458 -0.16784298 -0.051282328 0.06616908
529 -0.06630139 0.21519145 -0.27000666 -0.1018289 0.14165781 0.32923508 -0.23618633 0.17247583 -0.04329809 0.057935968 -0.04372479 0.30248672 0.05959181 -0.13453616 -0.15252216 0.2098862 -0.041597914 -0.008905799 0.04579767 -0.16100165 -0.08554179 -0.24031812 0.0024153022 0.030404162 0.25446475 -0.14299884 -0.05290538 -0.0862864 -0.013769861 -0.10628519 -0.020874634 -0.10711748 0.067033164 -0.01860306 0.012926183 0.0191186 0.2766898 -0.19634238 0.104096316 -0.0717456 -0.05151581 0.066057004 0.013603669 -0.006462337 0.2840642 0.03817263 0.017411249 0.098251835 0.11283337 0.03472983 -0.020298399 0.21055739 0.078475714 0.0154688135 0.13950935 -0.26075932 0.0669627 -0.078895934 -0.1687976 -0.055280127 -0.13863488 0.16316949 -0.046759818 0.27953443 -0.11480015 0.23535503 0.19597149 -0.11212306 -0.068858065 -0.22446081 -0.16735056 0.009733319 -0.18627952 -0.06361784 -0.13594666 0.0761583 -0.2533007 -0.091225676 -0.051621854 0.12305152 -0.09272796 -0.00018596389 0.090832844 0.032840908 0.05189885 0.17978247 0.14857543 -0.12312424 0.044906292 0.060305584 -0.28470564 -0.19946928 -0.02694024 -0.079551704 0.23744763 -0.09441177 0.21679018 0.017814895 0.020548714 -0.010811522
449 0.04483401 -0.077240296 -0.055029646 0.24383192 0.18557425 0.021466969 -0.2212736 -0.21248633 0.07378199 -0.14654352 0.0655546 -0.08889138 -0.066750236 -0.03698162 0.055188667 -0.028617283 0.038032994 -0.14135815 0.066164605 -0.055768073 -0.24450845 0.21474034 -0.09187202 -0.09076104 0.20752898 -0.033739656 -0.33449307 -0.27443993 -0.19837369 0.18661627 -0.15908755 0.11426248 0.17308685 -0.120345265 0.023294311 -0.14319788 -0.034936924 -0.04549563 -0.026341196 -0.005993462 0.1812151 -0.11303331 0.017995551 -0.26529405 -0.033781145 -0.16121505 -0.01929373 0.19274935 0.045135405 -0.06128922 0.076170415 -0.045437098 -0.035123676 0.20351076 -0.10108939 -0.018731989 -0.00968629 -0.0038967473 -0.00961926 -0.09390979 0.08122901 0.09641091 0.10106334 0.0581124 -0.23245798 -0.15285923 0.082145944 0.047718734 0.16175608 -0.18567997 0.18921132 0.12171107 -0.26521993 -0.019206954 0.12915213 -0.17292126 -0.14701718 0.035003025 0.3043455 -0.115565084 -0.045059305 0.013977447 0.039185453 0.15923831 0.07178332 -0.1753525 -0.020366313 -0.29738647 -0.08229211 -0.21744463 0.16614619 0.03989894 -0.018622834 0.20398152 -0.21351415 0.16714741 0.17489783 -0.21268262 0.122672774 0.11460311
448 -0.29281408 -0.15325391 -0.23361008 0.12313196 0.14357819 -0.039687548 -0.23373835 0.0035225728 -0.27097532 0.03363444 0.20104553 0.09478951 0.1253158 0.004473531 0.080046825 -0.18213522 -0.17143635 -0.04057045 0.07758053 0.0974564 0.2475734 -0.21957219 -0.0013177622 -0.10140719 0.28641707 0.029720819 0.16613403 0.10055032 0.0322961 0.053589284 -0.23203653 0.0007224921 -0.10482026 -0.08114499 0.045609683 0.19938959 0.02751806 0.20411791 0.0022704639 0.13013603 0.064586975 -0.07645715 0.15296678 0.140798 0.08567816 0.10466014 0.08916786 -0.10468879 -0.036151163 -0.09840688 0.11944056 -0.019338697 -0.27608058 -0.041514967 0.057278942 -0.11283937 -0.08079512 0.030549508 -0.0075985203 0.15238032 0.03932056 0.32743123 -0.15940662 -0.09131754 0.09051103 0.05701361 0.11739316 -0.22811429 0.022761205 0.1447733 0.30518222 -0.10832283 -0.2413655 -0.2898235 0.017521454 -0.12080266 0.12594916 -0.16256186 -0.20732395 0.06582626 0.09912538 -0.028032802 0.010723291 -0.121323034 0.14477614 0.0069575924 0.061683834 -0.1359379 -0.013579828 -0.020927977 -0.04767608 0.05630943 -0.24595387 -0.21404754 -0.19239265 -0.008832988 0.11047858 0.09379125 0.1276576 -0.11082636
345 -0.052174047 -0.08413497 -0.058242854 0.0803445 -0.115448155 -0.16371243 -0.15361123 -0.21096706 -0.0947144 0.24867368 0.12467733 -0.07619732 -0.31180698 0.12923792 -0.04650507 -0.13274522 -0.06651934 0.007407274 0.17970565 -0.09763088 0.02614382 0.13207279 0.1486491 -0.22111793 0.0112262685 -0.058728795 0.14689435 -0.04952691 0.081125826 -0.10954791 0.2970328 -0.17839691 -0.07293749 0.043784305 -0.24590811 0.21870092 0.1092777 -0.22061324 0.07395783 -0.043601435 -0.07713523 0.054491296 -0.024116458 0.21975486 0.1288466 0.05169322 0.27169043 -0.088574834 -0.0068265283 -0.04784667 0.040960748 -0.21550164 -0.2468777 -0.18394372 0.09363704 0.18725605 -0.06325816 0.11844544 0.016507525 -0.13774776 0.018079985 0.045414053 0.24037035 0.007665311 -0.0032436922 0.30569717 0.12018542 -0.071666226 0.027982842 0.07285643 -0.07294311 -0.05353626 -0.012073762 -0.2685183 -0.03505956 -0.2605644 -0.23764859 0.19448952 0.1870751 -0.04059235 0.031712838 -0.14796154 -0.010398564 0.18474865 -0.1217269 0.020164596 0.19620295 -0.010831263 -0.10319757 -0.04360949 -0.13738559 -0.10842898 0.12261036 0.16780812 -0.08937811 0.20692107 0.020312356 -0.14856428 0.20204024 -0.06827765
443 0.11960576 0.08085607 -0.007369867 0.09684954 -0.095768616 -0.019240668 -0.24781056 0.026574358 0.026130036 0.00392228 -0.14476967 0.031507924 0.028833097 -0.0484681 0.10709874 -0.0743078 -0.14522736 0.26567417 0.07957992 -0.11127734 0.023592487 0.09696896 0.10610947 -0.23720933 0.26300725 0.1648486 0.010434669 0.16546494 0.040415023 0.029570507 -0.14668374 0.083927 -0.06837473 -0.22237495 0.21618764 0.0999492 -0.07981437 -0.1934768 0.23236972 0.079705715 -0.18701798 -0.035695206 0.22919607 -0.1677349 -0.1421721 -0.079239435 -0.08481452 0.18196997 0.26160902 -0.21285029 0.06513777 -0.07892378 -0.06604201 -0.08697105 0.23957367 -0.251287 0.10068842 -0.05605511 0.09032863 0.107078925 0.12804998 0.0169055 0.009377662 -0.20877855 -0.021914186 0.115035705 -0.041767452 0.30730787 -0.10965829 0.04056923 -0.15440425 0.062904604 -0.017179841 0.19875687 -0.032637134 -0.08288754 0.080828115 0.05364562 0.07785406 0.106292516 -0.036761757 -0.088683285 -0.027602509 -0.039410442 0.3076401 -0.15155692 0.11857953 0.011764875 0.2810772 0.07575842 -0.1297946 -0.17152917 -0.2271878 0.28994215 -0.18087402 -0.13381727 0.1566742 -0.2248907 0.0030329945 -0.04623001
442 -0.16462012 0.13235594 0.19179201 -0.08017854 0.06106121 -0.14884017 0.022667706 0.1513136 -0.11952963 -0.24866182 0.14385708 -0.025143765 -0.16016154 -0.2621309 0.03964074 -0.18947342 0.13145341 0.046940517 0.049431864 -0.12391868 -0.11258668 0.15895997 -0.2680266 0.0065556327 0.29264927 0.0034524496 -0.004173782 0.030253695 0.09231646 -0.2223715 0.073710054 0.0032656975 0.17814574 0.13671009 0.065898255 -0.13570991 -0.046591204 0.15365992 -0.039968204 -0.2825654 -0.06827568 -0.27458107 0.12408948 -0.1379999 0.086904325 -0.14624274 0.06491737 0.032431066 -0.08376329 -0.018843003 0.17128357 0.036620546 0.12481864 0.19711544 -0.105347 0.04998439 -0.122919485 -0.24094117 0.07228649 -0.15200526 -0.0825282 -0.057510663 -0.34006912 -0.09981166 0.103950314 0.13470618 0.015079236 0.1330066 0.12893538 0.18162212 0.14217992 0.03197479 0.06146441 0.013872948 -0.22403815 -0.21180558 0.12933616 -0.065286286 0.12516835 -0.029873567 0.020792492 0.11602498 0.23658921 -0.053296834 -0.0024591014 0.21584213 -0.0023274464 -0.312015 -0.07469043 -0.07313823 0.042436115 0.2345136 0.17751056 0.108213946 -0.2335483 0.025079101 -0.12905082 -0.001557729 -0.091288574 -0.044783354
441 -0.05287425 -0.0067149154 0.27590868 -0.16618279 0.022977207 -0.1576599 -0.2448866 0.14282893 0.055495884 -0.027086267 -0.12597395 -0.14166765 0.12770334 0.12795654 0.25275445 0.17288816 0.04352645 0.06854505 -0.0070682587 0.29614437 0.0010556106 0.10218357 -0.043792248 -0.22644022 -0.2074048 0.1151025 0.23640555 -0.08586706 -0.063194826 0.11063501 0.13141522 -0.25212333 -0.032498244 0.06937532 -0.21949054 -0.19991638 0.1284245 0.09866328 0.11620237 -0.15468855 -0.057031088 -0.11094906 0.01504762 -0.08728698 -0.05919828 0.16203706 0.17083697 -0.07259071 0.028531663 -0.027763354 -0.011356684 0.0058243126 -0.19513133 -0.032137517 0.2743436 -0.024100011 -0.042508934 -0.028850382 0.123584196 -0.063643485 0.18945692 0.11034323 -0.24770673 0.0011342278 -0.13817303 0.11200705 0.10699353 -0.05254613 0.31286556 0.10162809 0.30119872 0.091816746 0.114258535 -0.103201814 0.22995849 -0.12037405 0.20114703 -0.11432845 0.11150272 0.03195333 0.0952675 0.14081588 -0.11815717 -0.018609978 -0.16163714 0.23216142 -0.013141281 0.108633175 -0.073243886 0.20719436 -0.05703602 -0.113768704 -0.024433732 -0.081213236 -0.020105507 0.0053499257 -0.14075212 0.31140697 -0.076415904 -0.11075277
440 0.30266917 -0.24937437 -0.091469616 -0.12778188 0.05543902 0.06881745 -0.06255666 0.022475885 -0.10850282 0.1966777 0.10358431 0.041579742 0.22839521 -0.17935993 0.14363816 -0.03147168 0.03668466 0.12195742 -0.0316105 0.10272095 0.12516044 0.34244964 -0.09402746 0.04970068 0.05902407 -0.0079022795 0.23373564 0.050777704 0.14050621 -0.10888292 0.040394146 -0.022313504 -0.038634982 0.22838274 -0.12806135 -0.029058002 0.039773438 -0.20771126 -0.277147 0.017299145 0.06503193 -0.17334889 -0.1065515 0.1973598 0.1861703 -0.10358263 0.111412235 0.18107931 0.033228066 0.06999167 -0.31643274 -0.15395838 0.043462444 -0.06480798 0.004670119 0.115713954 0.072015315 0.13169605 0.19600932 -0.028567573 0.12895618 0.23314655 0.06729511 -0.30239436 0.15367769 -0.177779 -0.021218788 -0.04287828 -0.0076919612 0.10846205 -0.21245174 0.064116485 -0.33495352 -0.03719732 -0.100343175 0.031046238 0.012820136 0.2237957 -0.1978176 0.09369583 -0.1066155 0.034224972 -0.27630913 -0.07872207 0.0053082905 0.13589461 0.11036695 0.07864285 -0.09300544 0.13303511 0.0888563 0.07943826 -0.031076228 -0.09973004 0.15276685 0.05144098 0.09022519 0.0964469 0.2063437 -0.13106726
