893 64
344 0.05477223 -0.2193866 -0.021602973 -0.081250206 -0.112995885 -0.26283604 -0.017972002 -0.017130015 0.17563255 0.2728175 0.112064175 0.12475234 -0.010416202 -0.2189058 0.31034684 -0.3121788 0.12794833 0.008933571 0.0449341 0.025946744 -0.029127382 0.23234247 -0.04288418 -0.1633681 0.30961263 -0.28112748 -0.06344085 -0.052624114 -0.22098273 -0.079702154 -0.14745358 -0.18287902 -0.10917483 0.220251 0.044140175 -0.11884794 -0.21317355 -0.24052161 -0.10766138 -0.28056812 -0.4822875 0.24401474 0.18297702 0.10795344 0.4588645 -0.17344387 -0.030037612 -0.0569782 -0.08854655 -0.0070709307 -0.30665705 -0.039264433 0.22899134 0.09655505 -0.16386117 -0.07779622 -0.129245 0.31978798 -0.10943129 0.029097421 0.07701754 -0.14739753 -0.03825825 -0.20066403
819 0.009519413 0.776476 -0.18896522 0.032631937 0.21592994 -0.016307952 0.19095142 -0.14471443 0.16161668 -0.068200275 -0.042260453 0.25158384 0.008663228 -0.32036328 0.13319091 0.08481892 0.6169641 -0.14702223 0.10531758 0.17584355 0.15976018 0.23277478 -0.6265266 -0.3247844 0.0076716887 -0.4897885 -0.070476316 -0.09579689 -0.6142207 -0.092245825 -0.20020892 0.07204397 -0.13584666 0.02369661 -0.048107877 -0.30254513 -0.30646268 -0.015628254 0.26582208 -0.28345907 -0.22745797 -0.23729204 0.13839705 0.5094187 -0.075657405 -0.060452186 0.41285238 -0.08240238 -0.25810614 0.00668893 -0.053114485 0.16149327 0.055376433 -0.15301672 -0.10203513 0.20250064 0.08965113 0.038546506 0.02195744 0.20292734 -0.20956664 0.35705757 -0.2944499 -0.016498605
346 -0.2590456 0.16760547 0.31335595 0.5115497 -0.04098491 -0.27115184 -0.50086546 -0.1605738 -0.019288652 -0.17255609 0.059710607 -0.22028482 0.049820006 -0.6875235 0.10277328 -0.29907423 -0.3067583 0.27663243 0.5059171 0.091525495 -0.05078746 -0.18136016 -0.15237379 -0.18817574 -0.22908899 -0.061298437 0.42704326 -0.37332472 -0.1277762 -0.20300788 -0.080619864 -0.22448082 -0.15494022 0.07884556 0.023353355 0.36200666 -0.09121195 0.1304179 -0.510049 -0.09757354 -0.034994718 0.2591817 0.053648323 0.44026452 -0.1588638 -0.05688416 0.35069862 -0.094380006 0.07949235 -0.24394247 -0.15337315 0.19971196 0.13445178 0.19276778 0.5752993 -0.24088798 0.14791916 0.40457457 0.3300655 0.5347883 0.3422312 -0.09575399 -0.17448649 -0.23822194
347 0.17301667 0.2357488 -0.20156738 0.15766521 0.05051799 0.49555826 0.09036095 -0.27326813 0.13738629 0.054444928 -0.08206445 -0.117634095 -0.28992808 -0.51097125 0.020758625 -0.04624692 0.19613683 0.10914086 -0.037739776 -0.08582054 0.108115576 -0.1306857 -0.1281904 -0.3971765 0.21060699 -0.179607 0.026118586 -0.29705185 -0.0856011 -0.20671318 0.27713087 0.010181035 -0.4564182 0.1365298 -0.027743122 0.48355657 -0.40454844 0.26507914 0.18172039 0.0951894 -0.28532168 -0.30857822 0.114880174 0.03193898 -0.06724255 0.11723867 -0.29821548 -0.21504565 -0.4060086 0.043991663 -0.12211869 0.44020444 0.4962853 0.4773376 -0.29581803 -0.06165496 -0.17258617 0.101296976 -0.37319198 -0.18746327 0.20383157 0.26866975 0.0022048338 -0.23802938
340 -0.10299412 0.07016574 0.15016894 0.11799438 0.31567222 -0.26388752 -0.010657741 0.55767924 0.2954588 0.1907193 0.14223154 -0.008451699 -0.0058878944 -0.20592229 -0.12713563 -0.56484246 0.53967637 -0.22360805 0.15225425 0.10149493 -0.117377505 -0.11682088 0.016345134 0.22819449 0.1665375 -0.13695207 0.00025930782 -0.029621443 0.026515491 -0.2555136 -0.32741243 0.1407965 -0.14017946 -0.3038735 -0.21379678 -0.020934109 0.10305443 -0.032792196 -0.03718381 0.08653127 -0.5761142 -0.16513133 0.3636027 0.022593595 -0.39673755 0.077323735 0.32882994 -0.45381314 -0.09189109 0.46992868 0.07018913 -0.06352234 0.15720393 -0.22800776 0.36136228 -0.15749948 0.0844153 0.57499015 -0.23894972 0.103738576 -0.031345654 0.37375614 -0.29628816 0.5167809
341 0.14493518 0.010056118 0.21276966 0.19845662 -0.2651973 -0.23523319 -0.14612588 0.054111786 0.32214114 0.16482002 0.17421679 -0.035833403 0.056995712 -0.052985705 0.31643313 -0.3544938 0.30227926 0.10906083 0.2007579 0.14374405 -0.39027014 -0.022904288 -0.2749177 -0.14547358 0.011057752 -0.19643906 0.27598244 -0.38993573 -0.5463236 -0.18084401 -0.312661 0.2526407 0.17299828 0.34686697 -0.2985369 0.14328517 -0.32095048 0.32183877 -0.27307367 0.2430142 -0.46709585 -0.073648654 -0.008293597 0.21919662 -0.11438134 -0.19651185 0.08452502 -0.3419224 0.19985427 -0.23612392 -0.14852881 0.3582345 -0.0129499445 -0.12659378 0.2755973 -0.12010365 -0.12331798 -0.29028937 0.28324652 -0.022018991 -0.02707187 0.026108049 -0.41279992 0.14066271
342 0.34226114 -0.3938092 -0.38940057 0.05364973 0.22094303 0.12529084 -0.035217695 -0.041676406 0.01050838 0.033646494 0.29205677 0.09771493 0.27163446 0.17714508 -0.15122186 -0.012865129 -0.112239644 0.19100413 -0.11800209 0.26869532 0.2656947 -0.17334834 -0.4907162 0.09029528 0.37676838 -0.20430243 0.17727052 -0.22994654 -0.30645874 0.08345793 0.04358176 -0.21388683 -0.4445665 -0.043429725 0.046366896 -0.04385567 -0.17521746 0.27319258 0.2357009 -0.19493368 -0.1326119 0.034592956 0.15075314 0.40773532 -0.11895582 0.17056735 0.39298862 -0.13721247 0.16648467 0.2809127 -0.13203864 -0.20759177 0.2590849 0.26382214 -0.2280646 0.41317165 0.108059 0.7998716 0.16775669 -0.03358095 0.08508831 0.080256544 -0.00019135876 -0.18762583
343 0.11939459 -0.024306994 -0.039865993 0.46233523 -0.1719076 0.055916425 -0.10115003 0.1873493 0.18627211 -0.013627835 0.11618788 -0.08709728 0.2880746 -0.026778614 -0.021837665 -0.35355636 0.16553596 -0.06660276 0.32840437 0.03679134 0.038327776 0.10424762 -0.2666179 0.10864024 0.008171853 -0.12931335 0.11315956 -0.13247696 -0.13724057 -0.15025668 0.17055157 -0.1081794 -0.18180065 0.06460506 -0.09712074 -0.10853677 -0.22062808 0.2378558 0.09398659 0.012684247 -0.39667758 -0.040405817 0.09984617 0.21318194 0.10201971 0.051344946 0.08597157 -0.14356124 -0.22602028 0.32301575 -0.46238157 0.26672828 -0.007328981 0.065910675 0.31198117 -0.34246868 0.11801182 -0.04179615 0.04070521 -0.2547354 -0.11597192 0.09584105 -0.26091915 -0.16274142
810 -0.004578109 -0.2721974 0.19347528 -0.13246676 -0.075531505 0.035961345 -0.29416266 -0.15077415 -0.26388445 0.29370603 0.040589534 -0.0042388104 -0.041358568 -0.14820838 -0.031433716 0.02747284 -0.18564479 0.14350927 0.1510036 0.20327094 -0.16594851 0.09343424 -0.11740265 0.00015401858 0.13399976 -0.34460664 -0.3350809 -0.1968401 -0.3592538 -0.1723786 -0.070607305 0.035052806 -0.4792625 0.020644467 0.05458608 0.1412862 -0.24114022 -0.34932417 -0.25649583 -0.19141279 -0.28763825 0.19787632 0.3062204 -0.00918755 0.47488546 0.0046868357 0.11771098 -0.4533541 -0.6588924 0.5488422 -0.14586808 -0.28453055 0.7686664 0.05179951 -0.21925043 -0.03665798 0.16575648 0.30475184 -0.10291107 0.06504209 0.37490723 -0.2182276 0.100636765 -0.10268133
811 0.030235494 0.13932447 -0.012125669 0.015454867 0.4896512 -0.48339134 0.17679603 -0.43926886 -0.3063884 0.4657251 0.09679819 -0.1830304 -0.08382518 -0.49165282 -0.08622264 -0.26938093 0.24628443 -0.28731284 0.18524252 -0.17285705 -0.030704616 0.07489613 -0.42608607 -0.12888107 0.4335208 0.08692509 -0.14594395 -0.063846834 -0.014515886 0.058589987 0.12822549 -0.0011476115 -0.13501139 0.0047957236 -0.3911164 -0.06470486 -0.30350733 0.08155791 -0.20705771 -0.3625 -0.341929 0.23557119 0.27238882 0.5214542 -0.06353001 -0.11505265 -0.05287596 -0.02548519 -0.35067457 0.14883754 0.18288876 0.13725378 0.37834784 0.0018225433 -0.20342065 -0.06633027 -0.30339107 0.3258513 0.2064979 -0.034475464 0.07801837 -0.041388914 -0.31149155 -0.40644923
812 0.07579425 0.06189028 -0.2602094 0.14006081 -0.09413637 0.11352482 -0.15450352 0.11820263 0.09560231 0.106522456 -0.007814037 0.09574708 -0.050804496 -0.09058382 0.14700922 -0.2507084 -0.027198331 -0.022641841 0.06518468 -0.42792058 -0.28305265 -0.08849948 -0.06637505 -0.024555832 0.022507051 0.12371709 -0.09797609 -0.13428926 -0.35688493 -0.18833344 0.07656574 -0.108100936 -0.259404 -0.058346637 0.16408642 -0.33493695 -0.29364944 0.29414552 -0.04353918 -0.041352056 -0.0782526 0.14608686 0.2852308 -0.014678817 -0.21080205 -0.20443702 0.44003618 -0.32970795 0.26102722 0.5003234 -0.15463468 0.25777912 0.008196505 0.17144302 -0.1918353 0.42145088 -0.20975298 0.3065047 0.13539657 0.4320483 -0.120232835 -0.08450608 -0.36477768 -0.08630026
813 0.13258815 -0.039957058 -0.012671935 0.26590323 -0.28486598 -0.13997039 -0.28571478 0.40032816 0.10611924 0.31198135 0.21723054 0.14341576 0.09480719 0.14710045 -0.007844824 -0.5084705 0.05524965 0.14843577 -0.043097746 -0.012504463 -0.07405927 0.11288038 -0.44347775 -0.2675796 -0.24286039 0.053225085 -0.05926774 -0.5738218 -0.13078652 -0.12394296 0.12553836 -0.23963124 0.060546085 -0.0013804773 0.1833405 -0.02299906 -0.3685142 0.2708329 -0.03475303 -0.1896843 -0.3153777 0.13995954 0.073216945 -0.06443653 0.13674597 0.08212587 0.012937083 -0.4669351 0.1077021 0.18768127 -0.20302877 0.09001929 -0.28829208 -0.013576539 0.27539283 -0.056849353 -0.22735389 0.5403459 0.1122696 -0.111919135 -0.48895538 0.03724896 -0.11740906 -0.3004432
348 -0.16914679 -0.10187091 0.021277316 -0.05313419 0.1096023 -0.098770805 -0.062419217 -0.082793556 -0.0024705885 0.046293896 0.012979 0.18487132 0.15175577 -0.23280405 0.29593447 -0.218469 -0.101141825 -0.07504782 0.0020119434 -0.17945269 -0.010109727 -0.030298756 0.028630864 -0.13690723 0.010179313 0.019073147 -0.0066644507 -0.1479119 -0.023601292 -0.42218348 -0.2169548 -0.32320398 -0.1876585 0.06212088 0.04059315 0.21556386 -0.24703369 0.09528865 -0.025149703 -0.15093787 -0.43349332 -0.013926085 0.273017 0.25010413 -0.14201467 0.24605227 -0.03027809 -0.090073586 -0.035505258 -0.021376368 -0.3064951 0.085832484 0.1521719 0.21728337 0.03353646 -0.028473942 -0.19098191 0.10923005 -0.12398358 0.25704718 -0.086077385 -0.046570968 -0.16529238 -0.10088819
349 0.2039283 -0.119105555 0.14964601 -0.20148243 0.24477488 -0.115757704 0.28791195 -0.23416884 -0.17242979 0.19594197 0.08668141 0.11208799 0.18529649 -0.26665127 0.17399861 -0.2618278 0.2161969 -0.36864373 -0.11763521 0.1397346 0.1034726 0.07607814 -0.022067983 0.1215851 0.13332441 -0.15848663 0.065248765 -0.23748036 -0.3470493 -0.10391066 -0.12792283 -0.63904804 -0.415385 0.31728202 0.19012055 0.17038928 -0.1352293 0.10325389 0.08080379 -0.10049703 0.0070754006 -0.0061590215 0.57167786 0.08367363 -0.31571662 0.008248195 0.2893407 -0.2698379 0.21525818 0.28903744 -0.10439113 0.24278508 0.03479007 0.11792524 0.06298427 0.14628945 -0.10934199 0.30286875 0.030401422 0.031040158 -0.11488196 -0.35296658 0.09724129 -0.012996582
816 0.22391476 0.5353718 0.0004993192 -0.19136146 0.29583046 0.1814223 -0.14160396 0.30328414 0.30943778 -0.030129049 -0.3386224 -0.06273308 -0.11657355 -0.22292921 -0.039352257 -0.29434747 0.1411348 0.081853986 0.106824525 0.0025240174 0.15086499 -0.051650155 -0.5782371 0.09126287 -0.079355955 0.17323802 -0.35206297 0.03749328 -0.65217733 -0.31657183 -0.08483767 0.15398641 -0.39230812 -0.0802757 -0.34904167 -0.11420227 0.063350014 0.06093162 -0.20435883 -0.016159251 0.020599468 -0.1455031 -0.018946389 0.12231166 0.054154966 0.21939528 0.09178451 -0.46662587 -0.39289373 0.12512076 -0.5084575 -0.021702928 0.22957931 0.0002676454 0.161171 0.42680395 -0.18717521 -0.24216054 0.050901152 0.019636286 0.06726508 0.22848406 0.027836958 -0.33975065
817 0.32976243 -0.12770267 -0.39782196 0.51874596 -0.4069979 -0.0047562867 -0.009402489 -0.14005713 -0.009089197 0.49502644 -0.13118564 -0.20121592 0.2010354 0.059002507 -0.0881467 -0.30232552 -0.050315768 -0.28490904 -0.04196714 0.28521055 -0.25201002 0.06683964 0.052386228 0.14610556 -0.10812408 -0.06039597 -0.06266511 -0.021026356 -0.37696 -0.0729372 0.04105955 0.19078113 -0.6417837 -0.1667057 0.07403069 -0.11128528 -0.10336173 0.052899078 -0.5949894 0.41649398 -0.22829756 -0.10629717 -0.16805659 0.22870484 -0.13350268 0.23519248 0.11081356 -0.19532797 0.23000412 -0.059301708 -0.6377112 -0.05983573 0.25268844 0.07576253 0.32900035 -0.4196813 -0.06465442 0.39228117 0.21239138 0.38181722 -0.17224027 0.19443317 -0.47214925 0.06657996
737 -0.14713594 0.16374722 -0.35327587 0.56077003 -0.5014894 -0.39702368 -0.38797155 -0.023618227 0.26243618 0.054039933 -0.31741282 0.0030840202 0.053957503 -0.37015352 0.09912613 -0.06456795 -0.131828 0.059299156 0.22147268 0.07904898 0.10378764 -0.19315043 -0.27633077 0.056431714 -0.15257098 -0.19314364 0.03725641 0.10310405 -0.10351914 0.18870273 -0.016951155 -0.2514778 -0.39458925 0.4102742 -0.34046406 0.22670403 -0.40305182 -0.014569859 -0.5159579 -0.11406671 -0.16250488 0.35517484 0.18180476 0.26232588 -0.2186648 0.13024263 0.27988428 -0.5380318 0.056064617 -0.37606385 -0.1832422 0.58495027 0.25067806 0.38338897 0.14478798 -0.4892824 0.06295856 0.22847007 0.11231767 0.3791752 0.20641664 0.31386766 -0.07624978 0.28956583
719 0.53855973 -0.038789827 -0.08589818 0.08124152 0.19109654 0.05984625 -0.05317253 -0.023932146 -0.12686239 0.53072953 0.08266208 0.36564583 -0.11990011 -0.08409648 0.22092539 -0.48994967 0.08506124 -0.06285781 0.03680149 0.067399256 0.16067165 0.36132902 -0.012453565 -0.24681564 0.23082754 -0.47618663 -0.011625557 0.3019953 -0.016061144 0.040524505 0.11632661 0.3830654 -0.18901332 0.16710041 -0.48164216 0.06987293 0.018547183 0.3851049 0.23285097 -0.04077247 -0.24239855 0.06337173 -0.25885004 -0.059186004 -0.32749504 0.058257554 -0.057853196 -0.4401205 -0.18561889 0.37758267 -0.16510043 -0.19215976 0.3426921 -0.024782808 0.040224057 0.055446412 0.17794426 0.055701323 0.26861402 -0.08126939 -0.07406702 0.17303197 0.048187815 -0.53892124
718 0.4566021 0.31035253 0.1911415 0.46993968 -0.15467228 -0.27759576 -0.05063188 -0.029237986 0.16731589 0.074765325 0.004595332 0.057935137 0.4634069 0.029989673 0.17749596 -0.358111 0.027001014 -0.26135856 -0.026549585 0.11569934 0.10542694 -0.3634556 -0.27481762 -0.08545517 -0.123650044 -0.17705289 -0.13382877 -0.115370706 -0.011635442 -0.14766115 0.036186885 -0.026163055 -0.006136302 0.13269255 -0.286523 -0.22798997 0.1815485 0.51176935 0.0121659115 0.06413868 -0.11014103 0.041888494 0.21702643 0.3553604 -0.3382 0.25814047 -0.15646608 -0.3436398 0.06543175 0.17251943 -0.30191734 0.18456805 0.1506098 -0.60424155 0.02237282 -0.33094198 -0.26800922 0.41205353 0.14029299 -0.19847223 -0.008861334 0.1836598 0.0039973035 -0.07087185
717 0.2002725 0.2063111 0.30892253 0.14132941 0.074893825 0.41932628 -0.1374557 0.17547663 0.29898447 0.16254663 -0.35554934 0.31455866 -0.034725353 0.22968496 0.62458104 -0.261356 0.071972266 -0.12148036 -0.1969944 -0.2438214 -0.10169395 -0.08041667 -0.4055996 0.14038846 -0.14915697 -0.39697772 -0.37299123 -0.21204533 -0.17020032 0.097221434 0.17369163 0.30780753 -0.54173964 -0.31577012 -0.003085432 -0.24748312 -0.45957574 0.15762696 -0.22824202 -0.3991659 -0.2349519 -0.029133772 0.007665304 0.358155 -0.010853559 0.10684421 0.11160225 -0.25485864 -0.46844116 -0.001672127 -0.10160119 0.064437285 0.035451584 0.15677215 -0.09828199 0.6065384 0.020815141 -0.030539503 0.3954635 -0.13487756 -0.030107798 0.17402712 0.29343438 -0.057076003
716 0.06981159 -0.3112983 -0.033245504 0.2693546 -0.12277128 -0.112891965 -0.38198698 0.2259946 -0.012967698 -0.05960456 -0.10919991 -0.10244383 0.09905292 -0.25874734 0.2667001 -0.414587 0.081852905 -0.17628929 -0.06862531 0.0077919383 -0.36948848 0.3145279 -0.29271877 0.15285984 0.08288941 0.12488563 0.20177054 -0.22561985 -0.21113364 -0.13493997 -0.031310625 -0.19881846 -0.06595602 -0.1925394 0.16622673 -0.06202677 0.011584649 -0.18151683 -0.26953185 -0.09995414 -0.54247534 -0.05491323 0.4920071 0.27579105 -0.17057744 0.2021692 0.3625172 -0.069799624 0.30677205 0.36062622 -0.15649198 -0.079704046 -0.09091654 0.038826734 0.17187054 -0.3345847 -0.15409297 0.12455913 -0.077745296 -0.25252935 0.05334159 -0.20261759 0.06661757 -0.39678285
715 0.31522238 0.564365 0.09087165 0.20020732 0.13780084 -0.0403707 -0.2550045 -0.07079114 0.4154224 0.120980665 0.071568675 0.39757156 0.13126577 -0.4841916 -0.025499377 -0.42478392 -0.029759783 0.0012651928 0.48465383 0.32995874 0.026469728 0.03429877 -0.22744977 0.09629634 -0.2672732 -0.1798008 -0.027173426 -0.21264039 0.18253182 -0.23312803 -0.11246492 0.2037371 -0.32852763 -0.10558884 -0.1670662 -0.08382148 0.0036197016 0.6004467 0.06762204 -0.22026893 -0.093339644 0.0682894 -0.10666659 0.45974067 -0.017418835 -0.099186726 -0.15041016 -0.1742808 -0.17441304 0.11445776 -0.42160782 -0.22770235 -0.03695124 -0.11101352 0.31705233 -0.1696664 -0.059268482 0.035690237 -0.0694308 -0.23368801 0.37447378 -0.18401888 -0.015537673 -0.0062652426
714 0.27694196 0.022940267 0.07243502 0.38005343 -0.23837003 -0.19650802 0.25403947 0.30123228 -0.29122293 0.22230937 0.034547605 -0.012219737 0.16672395 -0.39285663 -0.1849621 -0.2748612 0.048416696 0.051778004 -0.35935584 0.25036067 0.47995368 0.1712746 0.21592344 0.30967698 -0.20131247 -0.5030453 -0.2518626 0.02763678 -0.4498842 -0.06386431 0.032441918 -0.17930563 -0.09923686 -0.02998848 -0.27590096 -0.44916397 -0.44994262 -0.1715054 -0.41681778 -0.22941446 -0.119084336 0.22615321 -0.08073578 0.12745465 -0.026163809 0.5889613 -0.10143718 -0.13702585 0.6279803 -0.26698184 -0.60191005 0.16768107 0.20143989 0.11756096 -0.15218917 0.29530507 -0.40180522 0.13636601 0.058093224 -0.053084772 0.33914486 0.09433908 -0.36328006 0.0045578987
713 -0.011753619 0.5818774 -0.03636843 0.104053654 0.34377462 -0.1290876 -0.20005766 0.007413796 0.078309566 0.20000249 -0.19447562 0.08044238 0.07087563 -0.44069386 -0.0956566 -0.22887048 0.17592964 -0.19169834 0.14266327 -0.13823129 0.16491364 0.09677588 -0.7261553 -0.038284957 0.28889424 -0.1769079 0.22049165 0.009294518 -0.19166715 0.048437014 -0.20483534 0.18305446 -0.48909965 0.27305996 -0.037414305 -0.40271792 -0.16088812 0.17198035 0.09397847 -0.34666845 0.105345264 -0.4626892 -0.020728415 0.15171418 -0.0837894 0.06792823 -0.04050983 -0.3092965 -0.022654427 0.14470397 -0.16940558 -0.0076401467 0.47171435 -0.1810918 0.18165486 -0.17179585 -0.11124578 -0.048789922 0.31856018 -0.18935388 0.055879932 0.11079923 -0.3547115 -0.25694194
712 -0.16162147 -0.42199308 0.14130695 0.52677196 -0.22076531 -0.38205993 -0.030392583 -0.1336302 0.45522773 -0.12933163 0.16171731 0.008523984 -0.59488374 -0.17418332 -0.1184021 -0.38333938 0.1550825 0.03593563 -0.28156865 -0.334363 0.24792527 0.23184018 -0.20468922 -0.29642335 0.1709647 -0.29907644 -0.48702824 -0.113665245 -0.12102403 -0.015741585 -0.08727441 -0.30981067 0.3849497 -0.2886153 0.44206563 0.05197433 -0.2637437 0.085877515 -0.12999111 -0.44221517 -0.052458234 0.07140706 0.06712199 0.32071435 -0.38669327 0.578972 0.66379833 -0.7865603 0.23841362 -0.19647825 -0.030637307 -0.23671266 0.03308041 -0.043861374 -0.07157148 -0.22489828 0.1558952 0.079631925 -0.39986855 0.008402833 -0.24795015 0.17727081 -0.04884224 -0.41610906
711 0.281354 -0.31393313 0.13795912 0.26474962 0.28768992 -0.011879022 -0.03376383 0.1907398 0.36467862 -0.078312054 0.22864491 -0.2245023 0.18226425 -0.11089353 0.54540753 -0.24666022 0.2797997 0.03511434 0.2704663 -0.23855917 -0.16830611 -0.08468281 -0.37387967 -0.26846525 -0.15383695 -0.030531159 -0.09515706 -0.49470636 -0.12146717 0.10011299 0.33410323 -0.3089556 -0.052181505 -0.009647387 0.049295653 0.12165511 -0.14493662 0.21395785 -0.38062632 -0.25251704 -0.49399218 -0.40481278 0.38310835 -0.21898688 -0.06967535 -0.028518757 0.04380699 -0.31908035 -0.0068090437 0.25315246 -0.238043 0.15158322 -0.23440194 -0.2532221 0.18099575 -0.19248773 -0.31003004 0.19337249 0.04709751 -0.25899875 0.103265114 -0.045876943 -0.18163005 -0.13952076
710 -0.102218896 -0.22164205 -0.14149773 -0.2596521 0.28181362 0.08607386 0.05725813 -0.464799 0.21626379 0.20008886 -0.22243857 -0.052420855 0.258263 -0.2602442 0.16742977 -0.21451001 0.19637759 -0.25147605 0.15129533 0.41971433 -0.08245142 0.18555559 -0.0607533 0.01936968 -0.13744842 -0.110857494 -0.21348077 0.3140796 -0.420955 -0.08023806 -0.36273998 0.055690218 0.032233153 -0.07636942 -0.018072812 0.54228 -0.3297868 0.04749996 -0.048853014 -0.122306496 -0.30968714 0.37359536 0.10226853 -0.06478459 -0.42047995 0.19199325 0.32689396 -0.29720464 -0.3841576 0.034420554 -0.077015035 0.087166235 0.3490186 0.49658546 -0.28110793 -0.22805034 -0.1634827 0.32838598 0.20876348 0.0027529658 0.020651167 -0.10097831 -0.59635925 -0.15804866
619 0.22732927 0.3618918 0.15068531 0.3632049 0.4725817 -0.0013664612 0.014665522 -0.52719575 0.17803654 0.33484164 -0.19291699 0.01219988 0.123898596 -0.20060131 -0.44815361 -0.32815662 0.35486135 -0.0572016 -0.30370182 0.17796317 0.10510323 -0.014861258 -0.24133193 -0.09743878 -0.08978125 -0.9503662 -0.0048747193 0.03456422 -0.2912079 -0.3985028 -0.16084453 -0.28150895 0.29731646 0.6488722 0.044875607 -0.29237276 -0.037720993 0.1790951 0.045948587 -0.24973427 -0.51096076 0.07995595 0.24629861 -0.24379489 0.1119678 0.119709164 -0.0028409036 -0.08528418 -0.13839245 -0.6020796 -0.27240592 0.11950032 0.25706697 0.23134406 -0.2839631 0.3527642 -0.6126482 -0.27083403 -0.28776225 0.04434154 -0.06245122 -0.03618555 0.15768304 -0.22247629
298 0.08723903 -0.050375856 0.069409356 0.38041428 0.12079031 -0.18675277 0.12885596 -0.046259478 0.6496058 0.33550832 0.04121581 -0.06767448 0.35653844 0.05844203 0.28722957 -0.19380347 0.14668992 -0.060113944 0.30211252 -0.07388373 -0.25485152 -0.12001923 -0.103392415 -0.08520318 -0.25193992 -0.2957958 -0.028335815 -0.07173975 -0.27252302 -0.27485466 0.19482833 -0.17908904 -0.32250026 -0.026823223 0.025774881 -0.1626121 -0.05415299 0.40862787 -0.3153239 0.4077208 -0.4462791 0.19618392 -0.08542624 0.20154706 0.03821246 0.08677128 0.22223754 -0.16655192 0.17464069 -0.035582718 -0.08319219 0.24667473 -0.046156682 0.15149854 0.20186174 -0.07611656 0.18578859 0.15489027 0.15652294 -0.022709154 0.363064 0.26227242 -0.030703329 0.2397407
299 0.2233731 0.23863988 0.10838019 0.10062868 0.15119512 -0.4895316 0.042398717 0.18484391 0.49118826 -0.045892745 0.1462537 -0.26801977 0.28941193 -0.16237557 -0.06884367 -0.37233645 0.18263888 0.063263185 0.22435571 -0.037276763 -0.07865392 -0.048323248 -0.12892455 0.20915608 0.02797411 -0.21763429 -0.23326114 -0.17346413 -0.025927972 -0.1803851 0.2745125 0.21963175 -0.27666125 -0.12098193 -0.17909156 -0.27078578 0.032234192 0.12941049 -0.49267882 0.09634127 -0.36980242 -0.20557962 0.007765443 0.15322205 -0.19262083 0.09221102 -0.08895082 -0.31070465 0.011234314 0.1125761 -0.32167828 0.22053729 -0.107848 0.024578458 0.108978525 -0.34233546 -0.014517398 0.36232394 0.25596005 -0.24944721 0.26900768 -0.035752267 -0.2255235 -0.10212862
296 0.32712337 0.20495334 -0.23326321 0.42810142 -0.15393348 0.18613276 0.052612755 -0.03332979 0.052572384 0.006088523 0.017992174 0.22681145 -0.072545476 -0.32153934 -0.0041413708 -0.29132864 -0.05220338 -0.1335023 0.045709148 0.13983555 0.038326234 -0.2480937 -0.28533942 0.04352057 0.3917589 -0.21564624 -0.102104545 -0.32408723 -0.3668387 0.08633844 0.008030431 0.13131925 -0.35173064 -0.1278932 -0.006910045 -0.12877549 -0.0454806 0.30086178 0.15721141 -0.09494332 0.1347253 -0.051516518 0.114874326 0.35734713 -0.00038867994 -0.062089123 0.04401813 -0.14498855 -0.22084801 0.24196349 -0.50577044 0.18318531 0.13178419 0.21161237 0.029138895 0.15261471 0.14151078 0.078166366 0.20587616 -0.46192384 0.04202307 0.37717158 -0.28005615 0.010938087
297 0.20100132 0.08454175 -0.16344033 0.12630464 -0.006487126 -0.07253251 -0.17780945 -0.19717152 -0.104899794 -0.08490704 0.041931983 -0.06117754 -0.033327688 -0.24123386 0.17285603 -0.24572559 0.16667405 0.088022426 0.21008724 -0.26151136 -0.2300692 0.030270165 -0.23220597 -0.065037385 0.18764025 -0.16165131 0.1646669 0.017377682 -0.37783274 -0.33271706 -0.2527833 -0.07916927 -0.16253899 -0.15533881 -0.024382696 0.020337978 -0.3858624 0.11312066 -0.25447902 -0.24181539 0.06061812 0.028629933 -0.044004172 0.12974653 -0.20885788 0.056745235 0.114634864 -0.29749182 0.14122374 0.07038902 -0.18659465 -0.01793789 0.074943736 0.019998433 -0.0266815 0.22967114 -0.04313267 0.09164294 -0.21265955 0.19793859 0.054543965 0.024173176 -0.057756934 -0.07027208
294 -0.07408865 -0.04160158 -0.027805971 0.64942986 -0.111726224 -0.12209613 -0.16664036 0.32292196 0.1636309 -0.01966058 0.0053447047 0.17227127 0.014340589 -0.17723273 -0.1185745 -0.067672 0.15453756 0.41488537 0.34641695 -0.2582658 0.33736345 -0.111746415 0.5651219 0.21096611 -0.18071738 -0.42227206 -0.06291525 0.0646009 -0.36380336 -0.13772894 -0.15058301 -0.54769313 -0.43965358 0.33482903 -0.11111369 -0.03452604 -0.22414593 0.1932169 -0.28076085 0.07406718 -0.051472474 0.19849686 0.07398938 0.23391429 -0.01663298 0.27736917 0.1371884 -0.38894695 0.11187219 -0.07100741 -0.43048546 0.50595164 -0.067216665 -0.052270602 0.24224435 0.43991613 -0.06760135 0.16875595 0.12285527 0.20803824 0.5205419 0.38363275 -0.2868818 0.12039551
295 0.34009865 0.10699673 0.51029265 0.1368802 -0.1071108 -0.21191224 -0.4444329 0.2295352 -0.1564692 0.12599911 0.29115957 -0.25343245 0.02895516 -0.36606586 0.29769993 -0.45421574 -0.07187815 -0.59409386 -0.38637242 -0.03963767 0.089284174 -0.14729589 0.0899162 -0.11916118 -0.18186155 -0.4823878 -0.51277035 0.15239042 -0.06207677 -0.395195 -0.17107756 -0.6442033 -0.02488972 -0.12767112 -0.5339235 0.03681972 -0.008048199 -0.0407456 -0.08850329 -0.1587976 0.03650788 -0.20725136 0.6299863 0.33483437 0.05943958 -0.29234 0.044657238 -0.32006803 -0.43606555 -0.31950364 0.10442288 -0.2348657 0.1100584 0.027813304 -0.100498095 0.53239685 0.4536218 0.2502861 0.2741849 0.06291239 -0.064283505 0.17455028 -0.14500009 -0.18513474
292 0.269503 -0.18010944 -0.1651015 0.22251596 0.1044305 -0.065276645 0.17686525 -0.01698042 -0.16319543 0.41961965 0.12417312 0.06532015 -0.2581679 0.22746511 0.02112409 -0.4037992 -0.15443578 0.019170929 0.20458862 0.15847972 -0.019380921 0.2692847 -0.2888484 -0.17720515 0.26290256 -0.22704351 -0.055324152 -0.012555221 -0.36848632 -0.2582556 0.03875992 0.21965297 -0.54034394 -0.13872284 0.094340876 -0.025513554 0.061828833 0.04008947 0.04891382 -0.15325433 0.0011458646 -0.072421685 0.04219045 0.091318645 0.064321175 -0.17834333 -0.117169075 -0.47663796 -0.12221673 -0.06939214 -0.06495751 -0.12755759 0.4138527 0.1412274 -0.42357218 0.3723741 -0.065756015 0.19334428 0.36163235 -0.14631751 0.2155863 0.2299727 -0.026757037 -0.25322443
293 0.06709936 -0.12211805 -0.32675728 0.04285624 0.40849012 0.04428811 0.0032248024 -0.3009131 -0.07030317 0.21433683 0.15238369 -0.3243437 -0.14940056 -0.34717712 0.2471608 -0.44809902 0.013679678 -0.0029983246 -0.0913823 0.39255142 -0.06404098 0.15586402 0.2632712 0.22706023 -0.036981463 -0.034275554 -0.10823654 -0.34879488 -0.08232309 -0.6916695 0.11194702 0.15612951 -0.278774 -0.23281898 -0.14290653 -0.026032947 -0.14041677 0.27277595 0.05730845 -0.16444384 -0.34591308 -0.22482648 0.24013726 0.15932664 0.055325106 0.022734862 0.5142146 -0.1348892 0.15053803 0.16024217 0.09576847 -0.09266147 0.09102454 0.31147668 0.31048638 0.14013831 -0.18948491 0.18057968 -0.11165124 0.018723462 -0.14247021 0.09747413 -0.15526907 0.037387613
290 -0.19611366 0.4526963 -0.15548374 0.32433307 0.20218222 0.009490977 -0.44666517 0.2074747 -0.0994521 0.12651955 0.1330269 0.16394491 -0.30044377 -0.4551509 0.21515977 -0.45527014 0.06736562 0.19748941 0.2298292 0.041122176 0.08951759 -0.35560587 0.24451669 -0.14904961 -0.15967345 -0.40390912 0.039052173 -0.05387924 0.30370814 -0.32824495 -0.070035 -0.16560543 -0.13464458 -0.41838282 -0.17139204 0.010770975 -0.021175304 0.059542846 -0.21802218 -0.12751622 0.10782915 0.40867203 0.08576367 0.55613416 -0.41233942 0.14613123 0.118190885 -0.15233614 0.19486317 0.23097749 -0.2158821 0.2275371 -0.100198366 0.34910122 0.023072174 -0.14327586 -0.11915862 -0.15166593 -0.043686986 0.025163291 0.27857327 0.33749655 -0.08585478 -0.17898162
291 -0.010484457 0.2749434 0.053739574 -0.075068936 -0.062742755 -0.08761838 -0.17276192 -0.25022322 0.16590418 0.13796706 0.35837612 -0.6465488 -0.19180529 0.15670003 0.22974987 -0.5021498 -0.15566285 0.1981235 -0.0006495116 -0.011264148 -0.13634998 0.22609673 -0.16292635 -0.104187354 0.23266576 -0.32015532 0.19784102 -0.09763476 -0.28286126 -0.4526692 -0.3440785 -0.21547246 -0.2862483 0.21369927 0.13009131 0.14493069 -0.15213084 0.27980357 0.08699926 -0.5392017 -0.1593404 -0.17789476 -0.1873299 -0.13905606 -0.017888518 0.13824299 0.21910304 0.010487875 -0.07192579 -0.08344015 -0.13135077 -0.2981065 0.5511667 -0.07458339 -0.51452357 0.12985347 -0.075295374 0.2810352 0.13728204 -0.23868378 0.05697248 -0.050958835 0.10659762 -0.048098452
591 0.041708007 0.076284505 -0.3705921 0.6006778 0.3572467 0.09670718 -0.274039 -0.19498007 -0.0072111133 0.22403328 0.20645264 0.24339779 -0.16696957 -0.36736223 -0.08088877 -0.26089615 -0.19256417 -0.23285694 -0.42909485 0.04790382 -0.120901905 0.17245889 0.1305517 0.3195077 0.1862185 -0.15847522 -0.091331184 -0.034471136 -0.42269817 -0.13794245 0.5084954 0.028047621 -0.1913029 0.11022464 0.24785653 -0.22119789 -0.07330376 0.30075702 0.018324342 -0.19304019 -0.4886279 -0.2730227 0.23509987 0.057326004 -0.56574416 -0.022542471 -0.019190144 0.017710777 0.12255163 0.42139375 -0.3185742 0.132571 0.1310867 0.04222793 -0.08263432 0.31214368 -0.10001932 -0.028610248 0.057510674 -0.20853317 0.072932296 -0.24838005 -0.30246034 -0.13300356
590 -0.06697092 -0.044230502 -0.104193255 -0.21008188 -0.14313301 0.18389763 -0.16219561 0.17446104 0.24278721 -0.06510902 0.16390243 -0.12538616 0.38223332 -0.11939943 0.10085005 -0.13585208 0.15366422 -0.16033654 -0.011727263 -0.16972658 0.2695749 -0.49634418 -0.250956 -0.29646635 -0.02472845 -0.025514897 0.0901945 -0.2675392 -0.26650646 -0.39710367 0.33141214 0.26256347 -0.36161435 -0.2082994 -0.18924536 0.082511246 -0.7050143 0.35191998 -0.026161011 -0.25127178 0.01465018 -0.2752688 0.062869325 0.25432432 -0.3145401 -0.09717591 0.065084994 -0.256459 0.2274939 0.2598953 -0.44741225 0.29326904 0.21037066 0.12863016 -0.49017388 0.27573934 -0.16581641 0.079586916 -0.38357878 0.1977698 0.06979886 -0.508548 0.06872071 0.06165048
593 0.015537787 -0.06896213 -0.014678204 0.16977318 0.27393925 -0.16939312 -0.0065739243 -0.2578818 -0.030326435 0.16409478 0.092769854 -0.05008102 0.12776384 -0.14416273 0.43510306 -0.3249851 0.087056324 -0.02352661 -0.18281358 0.06851333 0.06906745 0.2975124 -0.030605115 0.020615606 0.056999285 -8.900581e-05 -0.017581016 -0.17470647 -0.32187182 -0.16105448 -0.21806674 -0.106207095 -0.12520307 0.06148466 0.09169281 0.049800124 -0.2702003 -0.05454985 -0.055313736 -0.10555147 -0.38423976 0.026297513 0.119058914 -0.06503294 -0.12112165 0.22954936 0.06137751 -0.2777478 -0.005507361 -0.0056362557 -0.16658656 -0.10343523 0.18930481 -0.10636725 -0.09915051 -0.06466627 -0.28727597 0.28105372 0.013441976 -0.0016736288 -0.113227665 -0.09813197 -0.21245441 -0.058149613
592 -0.13220204 -0.011645823 0.1456951 0.11224958 0.26409596 0.28812277 -0.023059895 -0.047199063 0.14463148 0.33309767 0.23517273 -0.23844521 -0.0083410265 -0.09126035 -0.1430928 -0.55291426 -0.015157349 0.18762581 -0.12608112 -0.14093542 -0.057677034 0.1326057 -0.054507773 -0.17348343 0.2975529 -0.007486942 -0.048678793 -0.24544269 -0.004165531 -0.4652953 0.0033141419 -0.07011624 -0.37699622 -0.09801147 -0.32751548 0.20979136 -0.30965877 0.22015087 0.25506452 -0.24946274 0.063021764 0.03025255 0.12515472 -0.20871478 -0.4635718 -0.10966999 0.47673738 -0.12220769 -0.15628403 -0.35322493 -0.031407308 0.21818201 0.4655489 -0.05693104 -0.13029958 0.44041187 -0.20090969 0.13725607 -0.09202125 -0.4380354 0.22236596 0.062351108 -0.05164733 -0.21869887
199 0.07571643 0.031613205 -0.0655931 0.03996265 0.12914442 -0.28720877 0.023970965 -0.13408023 -0.031422623 -0.045667395 -0.06574604 0.041212402 0.041687135 -0.09901898 0.115674846 -0.327682 -0.055193387 -0.30609065 0.26775405 0.02158487 -0.10609756 0.18860602 -0.020649323 -0.11475867 0.03594469 -0.53331345 0.07934621 -0.21904534 -0.1955558 -0.3573176 -0.21597774 -0.30363974 -0.20696428 -0.21015276 -0.25495365 -0.034223583 0.014887444 -0.082224645 0.097200945 0.052258875 -0.41967893 0.17435619 0.041035395 0.17065659 -0.15391774 0.23528531 0.13830054 -0.020739041 0.07161931 -0.051297687 -0.06900284 0.074769296 0.14124072 0.32945952 0.023787377 -0.006313156 -0.26896784 -0.11887099 -0.0064220103 0.31532243 0.26958975 -0.15799268 -0.034257013 -0.037816714
594 0.27492023 -0.2842382 0.003926771 0.1451507 -0.23298527 -0.09116403 -0.5465034 0.38657007 -0.0018082123 0.099016234 -0.0984988 -0.39416653 0.3009308 -0.4075081 0.2915697 -0.48315328 0.29133192 -0.101838194 0.51534444 0.118896365 -0.15378177 0.30556962 -0.48216835 0.21602425 -0.023933718 0.19898404 -0.10133283 -0.41246694 -0.23713897 -0.08298826 0.28918684 -0.5011389 -0.14971745 0.07927095 0.2528264 -0.008206558 0.13356912 -0.26511934 -0.06663783 -0.06488103 -0.32054043 -0.23181036 0.359784 0.2656181 -0.06664566 0.30100977 0.09588737 -0.103957824 0.21066602 0.22343732 -0.2383378 0.40168414 -0.30612695 0.00046668906 0.59180987 -0.035491712 -0.003943097 0.47372252 -0.20217805 -0.35572147 0.064039975 0.052842718 0.2043621 -0.5064199
597 0.031488005 0.102671646 -0.07912564 0.2269673 -0.23560502 0.23826213 -0.08444718 -0.38825712 0.1802367 0.13164568 0.19976701 0.16926783 0.06782033 -0.011638735 0.45222017 -0.70139647 0.102694236 -0.19212009 -0.4002169 0.0053910553 -0.32397664 0.13037056 -0.0011508662 -0.3195978 0.37810507 0.33723268 -0.32890937 0.0027475234 -0.19503282 -0.06532408 -0.59974277 0.18422991 0.19798525 0.1446693 -0.06595439 0.16657035 -0.6263434 0.050860766 0.068934955 -0.3569211 -0.106730856 0.007026339 0.23214363 0.15526067 -0.12350337 0.10211278 0.071338065 0.123381294 -0.14126484 0.33599088 -0.36979827 0.058545887 0.36765668 -0.049453184 0.10131501 0.08476777 -0.51026505 0.44122064 0.023135629 0.39579538 0.3377451 0.4760172 0.3553696 -0.25502688
596 0.36297485 -0.06823429 0.29353258 0.12065132 0.0020385147 -0.24079692 0.32664043 -0.3767987 0.11863925 0.16342762 -0.056609344 -0.29785332 -0.36774862 -0.299739 0.1138598 -0.47034687 0.111626655 -0.13148594 0.26563 0.46185923 0.06966661 0.053452753 -0.3861947 0.0012406374 -0.020394895 0.23173827 -0.40913954 -0.18117328 0.15425602 -0.48311996 0.039333016 0.1047202 -0.12618907 0.058160163 -0.40782377 -0.029557994 -0.32032707 0.024870018 0.48072296 -0.13699847 -0.24187702 -0.047467016 0.030657347 0.4545762 -0.07045693 0.101613 0.14878324 -0.2485103 0.058475863 -0.05883853 -0.12819323 0.083450586 0.4251805 0.23967876 0.33356452 0.51589173 -0.043999925 -0.048930958 0.036969103 -0.3114079 -0.085097276 0.013913584 -0.21665508 -0.33817062
195 0.12671539 0.08047034 0.3969014 0.047238138 0.07627107 -0.4076266 -0.015893111 0.5066418 -0.000113017595 0.00537261 -0.11645488 -0.018820088 -0.04842905 -0.2072127 0.44914716 -0.2555935 0.108042955 0.056557834 0.27152094 -0.1209369 -0.118746504 0.31490383 -0.5403982 -0.114449054 0.10065225 -0.20222077 -0.41383493 0.21036884 0.27244323 -0.42875686 0.16615409 -0.27867237 -0.15873124 0.08875815 -0.07711193 -0.1487031 -0.3062939 0.23138586 0.06765314 0.19229038 -0.08512667 -0.32176524 0.16681212 0.30158275 -0.12600741 -0.12190617 0.017706439 -0.29184353 0.28433692 0.308518 -0.26438928 0.59312946 -0.040413648 -0.32283297 -0.3197046 -0.24222074 -0.21539849 0.42416403 0.3079518 -0.58186597 0.45433927 0.15260762 -0.3079719 -0.065032035
194 -0.1374332 -0.082610786 0.14349172 -0.016379196 0.07437191 -0.14464158 0.21779735 0.28305438 -0.15837832 0.21607156 -0.22098652 -0.057553224 -0.16734143 -0.2674672 0.016727505 -1.0106206 0.49690747 0.012694448 0.67884403 -0.028460879 -0.29384008 0.08017445 -0.4538027 -0.13102938 0.048532736 0.0789023 -0.09981751 0.09257955 0.2792991 -0.092627876 -0.06782316 0.11196568 -0.3878943 0.029952275 -0.16508451 -0.228177 0.13144504 0.07390394 -0.3828046 -0.31234854 -0.18983747 -0.13576448 0.1793491 0.40687668 -0.25952744 0.31754634 0.008164176 -0.37915617 0.033558264 0.14544237 -0.12775545 0.10547385 -0.20637372 0.035514846 0.20634815 -0.077217534 0.22618869 0.44099432 0.16141033 0.6236657 0.24809426 0.11469419 -0.28743678 0.1770008
197 0.11554938 -0.20809332 0.18888032 -0.122421116 0.22374143 0.2065853 -0.380059 -0.63300973 -0.13806422 0.4329221 -0.029384578 -0.08926688 0.03920727 -0.0018732314 0.07449151 -0.28739357 0.46638188 -0.29649922 0.24305934 0.06740723 0.16207135 -0.037454672 -0.4099744 -0.17939323 0.13403618 -0.015459938 -0.22642368 0.18655527 -0.11615691 -0.34960914 -0.44027925 0.0338509 -0.23218168 0.15334332 0.36152622 0.14791517 -0.20733371 0.15617552 -0.20347014 0.17655218 -0.13174951 0.18083607 -0.09817404 -0.038876094 -0.3234917 -0.100602806 0.21094091 -0.048210893 -0.23566301 -0.22347344 -0.20800273 -0.37163883 0.34457254 0.26745322 -0.101023436 -0.1807762 0.23664606 0.30553427 -0.09024019 0.030108018 0.17087834 0.044618838 -0.56298125 -0.55729085
196 0.214218 -0.23096734 -0.11369126 0.056455117 0.19156983 -0.121085666 0.19513506 -0.121248856 0.004724195 0.049098074 0.34751457 -0.18879062 -0.044878624 -0.15147337 0.30780527 0.34969124 0.30959594 0.2430956 -0.50878876 0.10269211 0.17051832 -0.1019717 -0.37902513 -0.20511578 0.19016826 -0.18493065 0.2543174 -0.29614806 -0.03992808 -0.31313848 -0.042644743 -0.10510002 -0.4834465 0.25377366 0.06283118 -0.15172535 -0.062122725 0.22139569 0.1697393 -0.30376884 0.00798937 -0.053325035 0.13224043 0.1132787 0.4572953 0.13122982 0.15231165 -0.2986988 -0.31421328 0.21312499 -0.6094628 -0.27391896 0.3747728 0.38185096 0.014616891 0.16008961 -0.00916785 0.49922863 0.044957913 -0.012130566 0.15640087 0.10574873 0.06251366 -0.10397811
191 0.15991071 0.3266547 0.23083767 0.06839639 0.014056488 -0.45278123 -0.006879423 -0.5620383 -0.42585376 0.13508798 -0.14658855 -0.40154254 0.31717524 -0.20524095 0.036281887 -0.15936494 0.23654667 -0.25902116 -0.03258859 -0.23635145 -0.09235772 -0.22951894 0.24638215 -0.21265341 0.50115174 -0.023389384 0.09030853 -0.4691062 -0.2912816 0.037195567 0.021381315 -0.22769535 -0.38237727 -0.07252085 -0.028798403 -0.054202422 -0.26391184 0.18782279 -0.17050764 -0.09520823 -0.44927606 0.33050606 0.29318008 0.16633719 0.12722845 -0.23882745 0.32439712 -0.5939805 0.0034713119 0.19889048 0.0018165604 -0.3500795 0.14780273 0.28253916 0.34191117 0.13185802 -0.47791514 -0.120453194 -0.20737427 -0.17579027 -0.16750586 -0.0067605623 0.3189865 -0.27092996
190 0.2394826 -0.29150212 0.13754083 0.29564217 0.43641052 -0.034933828 0.26182228 -0.07244865 0.13772449 0.25541067 0.14883132 0.09830569 0.32167733 -0.6124142 0.3661911 0.24065311 -0.23428819 0.101884365 -0.029639842 -0.54135644 0.03515696 0.16627239 0.108049 -0.37169722 0.14427094 -0.7364616 0.12737796 -0.38325745 -0.26843584 -0.04897111 0.22619332 -0.38312206 0.017414637 -0.5085404 0.47062793 0.53528684 -0.70474374 0.106224544 0.35555768 0.26206535 -0.40399498 0.06492266 0.13416623 -0.27282768 -0.010007432 0.030488748 0.18366458 -0.25745875 -0.17511751 -0.407612 -0.6098744 0.14943418 0.5946515 -0.023069225 0.03337161 -0.08877644 0.3336711 -0.18423805 -0.33160976 -0.13185373 -0.6217744 -0.06090674 -0.52023876 -0.49023572
193 0.18108806 -0.06238677 -0.0017076472 0.13639788 -0.073597066 0.14078133 -0.3237144 0.2625831 0.16776115 0.28438118 0.042146575 0.025260681 0.0937859 0.028719347 -0.14074287 -0.3519186 0.08303379 0.19504029 -0.074381426 -0.18824577 0.26266405 0.13774192 -0.46481988 -0.21282893 -0.21974042 0.16879804 -0.039110824 -0.14002751 -0.20010148 -0.15227063 0.45013896 -0.27901015 -0.34357917 0.21320991 0.083033025 -0.025149696 -0.022355797 0.27131274 0.06815822 -0.113044776 -0.5845301 -0.00029937725 0.338307 0.2441847 0.18750158 -0.011291182 -0.09199621 -0.6708623 0.3544673 0.19018552 -0.17837834 0.180343 -0.069796525 -0.121380396 0.121822014 -0.18012464 -0.26378828 0.44825742 -0.08561818 -0.085297 -0.13130452 -0.14485003 0.03056308 -0.014452592
192 0.29645628 0.24053563 -0.49262074 -0.2073992 0.1507779 -0.34072995 0.343359 -0.2621519 -0.02408861 -0.35214248 0.26806253 -0.13516295 0.2341588 0.035350848 0.6498939 -0.3012908 -0.022217087 0.22667253 -0.36129284 0.1473277 -0.31294933 -0.07342489 -0.43938562 -0.13541347 -0.07559968 -0.10907338 0.19108072 -0.10750955 0.13257794 -0.3914855 -0.3927427 -0.12484552 -0.602654 -0.06250809 -0.32519644 0.26187977 -0.23678225 0.017545678 -0.29000765 0.12252719 -0.35432073 0.09652927 0.2824858 0.07768639 0.038785066 0.21838816 0.3956297 -0.124386266 0.19254562 -0.0239944 -0.09148828 -0.28170472 0.03357334 0.03632598 -0.3152903 0.4636338 -0.1646924 0.63587904 0.06638521 -0.0096782 -0.2384735 0.13428041 0.33115968 -0.19270754
270 0.092564255 -0.31572595 -0.0065999646 0.042377505 -0.15805858 -0.13275146 -0.06187597 0.027525406 0.026079943 -0.12769678 -0.13652082 0.20979136 0.02962281 -0.08984352 -0.008509155 -0.29622108 0.20972882 0.12932646 -0.03768164 0.052613344 -0.055133767 0.036612112 -0.32816342 -0.24416585 0.011172835 -0.2639055 -0.1449733 -0.24856645 -0.2556529 -0.013010702 0.004134451 -0.100943305 0.1035802 0.18080632 0.30571583 0.12515973 -0.2710019 0.10638831 -0.037582915 -0.09539891 -0.23362865 -0.049366634 0.19734718 0.20178455 -0.18241352 0.1861053 0.27266648 -0.64994746 0.09912543 0.041057296 -0.30852157 0.23289551 0.0103182765 0.029226366 -0.022757083 0.26330635 0.004176551 0.05441145 -0.11464423 0.06371403 0.004134652 -0.20963149 0.13646472 -0.17556241
271 -0.12929496 0.113133416 -0.034398776 0.31201017 -0.09491848 -0.03325234 -0.22811626 -0.010314335 0.1644269 0.26543754 -0.0012033879 0.19963877 -0.08994358 0.07212624 0.29768214 -0.49561304 -0.23201561 0.0061607766 -0.18739727 0.047176637 0.019914135 -0.19908395 -0.11076509 0.29362166 0.009587381 0.10088106 0.016173137 0.127433 0.023115208 -0.36742288 -0.0019331684 0.024182156 -0.6203511 -0.08649069 0.23919538 -0.73089325 -0.21009415 0.24882314 0.46167222 -0.35869366 -0.5779044 -0.2222309 0.15051505 0.28335652 -0.16056575 0.06778216 -0.21996209 -0.4261904 0.08648122 -0.09509004 -0.11148282 0.0004856699 0.02562611 -0.167951 -0.13249028 0.014671849 -0.049709417 0.32877204 -0.12721795 -0.180033 0.2112323 -0.5076663 0.057925187 -0.018281318
272 -0.080011256 0.09338663 -0.055585705 0.31536797 0.33624446 0.1692721 0.10945959 0.2315729 0.26414558 0.42718628 0.02038503 0.39605075 -0.21753085 0.010605047 0.02788143 -0.3559929 0.31267288 -0.099136405 -0.14893997 0.34237292 -0.105714 -0.08729431 -0.03751901 0.15397231 -0.29562998 -0.37997037 -0.007130526 -0.48926607 0.10246087 -0.053765573 -0.6551285 -0.2480143 -0.020456424 0.22427592 -0.07330624 0.32360086 -0.22820354 0.12444807 0.3268933 -0.39502248 -0.2157897 0.2474054 0.13452971 -0.27500334 -0.014146448 0.8491867 0.19512309 -0.18023114 0.203814 -0.019611945 -0.29136705 0.4519699 0.090466306 0.06805152 -0.5428742 0.11260953 -0.24236134 0.018297603 -0.14933006 0.17853129 0.08468393 0.42683783 -0.009111795 -0.2556405
273 0.10254087 0.039507553 -0.23810177 -0.11017074 -0.046182837 -0.057458576 -0.036064394 -0.39053422 0.12093998 -0.3002683 0.07518215 -0.115051575 0.0048213005 -0.0088136885 -0.001516553 0.23802763 0.552872 0.0047332263 0.14775963 0.38755706 -0.05137816 0.30207768 -0.49197882 0.08954747 -0.096549325 -0.6170387 -0.4933763 -0.3227592 -0.2073511 0.036321208 -0.3581753 -0.39122462 -0.55579114 0.32842278 0.21628414 -0.014403044 -0.30972862 0.036957998 0.038861543 -0.22165643 0.02509812 0.16344573 -0.03783896 0.3154936 -0.2641265 -0.1294293 0.23648763 -0.45164675 -0.3098574 0.30567276 -0.1426625 -0.19268695 0.103151955 -0.28809115 -0.078087434 0.2531339 0.11071042 0.028039083 -0.16774267 0.51288176 -0.12241201 0.32369617 0.12316096 -0.54076916
274 0.46328145 -0.0155761065 -0.00559321 0.07823732 0.16372475 0.07183702 -0.3694407 -0.27677086 0.06593129 0.05994934 0.20100917 -0.08308858 -0.17022356 -0.049406365 0.3375045 0.030169558 0.20786266 0.020988604 0.042636104 -0.35944408 0.14076942 -0.08330982 -0.34095228 -0.044835124 -0.20625684 0.07242272 0.077718675 -0.17545792 0.16086763 -0.40268448 -0.07370228 -0.30071974 -0.18762617 -0.48848322 -0.01618318 0.020474667 -0.41038036 0.22694351 0.18018337 -0.6095001 -0.36780906 0.0954604 -0.07489823 -0.33037335 -0.76620567 0.25797567 -0.08725159 -0.07129533 -0.06893114 0.1113529 -0.114434876 -0.22945344 0.18104284 0.26382396 -0.20261128 0.2771141 -0.120558575 0.09090288 0.008124806 -0.1900307 0.1405177 0.44454053 -0.26874822 -0.19115867
275 0.22494878 0.72750795 -0.06779239 0.42746058 0.31467056 0.095524214 -0.60479164 0.22489774 -0.38622093 0.077324554 0.26787654 0.04063525 0.22189835 -0.15847231 -0.40453216 -0.47591278 0.25195995 -0.14376472 -0.16916248 -0.09677002 -0.2575474 0.5274379 0.038892813 -0.09291557 0.01773071 -0.5960655 0.04632087 -0.011241769 -0.16027701 -0.44519728 -0.2952166 -0.51713806 -0.5334539 0.07461039 0.2808555 0.08608944 -0.0825561 0.17814082 0.0666151 0.33129543 -0.1911927 -0.30290508 0.44857648 0.34900504 -0.14185712 -0.1085335 -0.58001703 0.27797803 0.21160127 0.10207099 -0.1788596 0.034074858 -0.20224902 0.08274021 -0.07191968 0.13555355 -0.059295062 0.17622578 -0.26227036 0.145696 0.2774283 -0.40030053 -0.11256199 -0.26225176
276 0.0073572677 -0.18062428 0.48288676 0.06141015 -0.18595332 -0.11608159 0.1535105 -0.10099588 0.59636134 -0.0079942765 0.14607337 0.051438767 -0.10895731 -0.09327214 0.28723547 -0.38955992 0.16087033 0.28150105 -0.024692189 0.08908695 -0.21249323 0.1363616 -0.22878471 -0.039548006 -0.1133964 -0.33235097 -0.011623268 -0.20966473 -0.08990083 -0.281362 0.5275965 -0.1509649 -0.100255676 0.08708391 0.06459453 0.20475507 -0.11213751 0.6209514 -0.026313921 -0.21046183 -0.20102508 0.08713848 0.15495257 -0.02408585 -0.08869179 -0.27987632 -0.13961625 -0.5049718 0.17531909 0.21930465 -0.26808956 0.07656469 -0.1986918 0.07307132 0.30713898 -0.13019776 -0.20121935 0.27337024 0.31402048 -0.010358585 0.014446451 -0.46924868 -0.30374345 -0.19066136
277 -0.07096924 0.17990027 0.07238541 0.19940047 -0.18866451 0.14503217 -0.36652112 0.031974193 -0.055440832 0.013020887 0.1139674 -0.21522109 0.23367047 -0.05854862 -0.12780307 -0.1168574 0.4402351 -0.07760269 -0.23595376 0.30792147 0.3035739 0.33975464 -0.5156074 -0.10567127 0.25474668 -0.8885189 -0.31493992 -0.116087824 -0.043535307 -0.60470015 -0.27520707 0.04554289 -0.053842478 0.42582035 -0.011309695 0.1275006 -0.21751198 -0.2372959 0.09600206 0.027894547 0.13551004 0.12854065 0.0621646 -0.039979305 -0.3167553 0.28496468 0.24302685 -0.4305025 -0.5675545 -0.00756863 -0.07441855 -0.088611856 0.07525797 -0.030379022 -0.26221293 0.41805473 0.11391217 -0.13818422 -0.010840989 0.22179647 -0.28840372 0.44152647 0.10072182 -0.40293196
278 0.16042744 -0.0611093 0.1446369 0.25438452 0.33766064 -0.18888108 -0.26428884 -0.07704249 0.077592425 0.1238365 -0.028288791 0.13952765 0.052366454 0.0017111324 0.08178106 -0.34553647 -0.0037716168 -0.2248983 0.22430387 -0.13563333 0.026028978 0.039511222 0.045053482 -0.15934765 0.26253515 -0.28045028 0.21835409 -0.121408716 0.005217046 -0.3343435 -0.24310118 0.0028476377 0.14504209 0.08786615 -0.16630273 0.18943878 0.13822615 0.06502965 0.016453441 0.097693406 -0.3328481 0.098953806 0.25448102 0.105390996 -0.35623464 0.25009272 0.050568957 -0.32711825 -0.072168484 0.2681391 -0.23342681 0.02272628 0.08336586 0.23386402 0.12091146 -0.23973384 -0.36243582 -0.033272374 0.1350296 -0.055891406 0.1907476 -0.08571942 -0.04178018 -0.06367218
279 0.29404205 -0.052892674 -0.007710164 0.11464155 -0.09545262 0.15204456 -0.2435682 -0.42703852 -0.30617967 -0.07879869 0.034358952 -0.3008312 -0.0025262143 -0.12564425 0.7450953 -0.53040135 0.14910895 -0.10924255 0.033206835 0.0939636 -0.18010022 -0.099428445 0.2965611 -0.13242927 0.12516245 -0.26140663 -0.17583126 -0.15923662 -0.11420499 -0.27964038 -0.59666234 -0.034752164 -0.44519028 0.12052584 -0.42638704 -0.39795426 -0.024047626 -0.18907565 0.117239006 0.08159497 -0.17855783 -0.06939203 -0.13895673 -0.23374961 0.16202563 0.089572296 0.28756297 -0.13906306 -0.04004734 -0.05922505 -0.25886035 -0.0922017 0.34719566 -0.25748065 -0.32800084 0.6212652 0.29189324 0.49914193 0.2511043 0.11108356 0.04537747 -0.070204265 -0.23376016 -0.20519678
569 -0.17277564 -0.0811853 0.04539488 -0.03494742 0.1778787 -0.13352585 -0.39322302 -0.25090024 0.047264326 0.44421163 -0.15869947 -0.34124106 -0.4110042 0.37743992 0.035966128 -0.49016878 -0.22992246 0.3156835 0.28658995 0.032273524 -0.06126724 -0.060473032 -0.18910791 -0.01950215 0.021033227 -0.38580567 -0.20262404 -0.13020912 -0.7031371 -0.4577032 0.027486717 0.11244282 0.100004785 -0.12208094 0.07586831 0.013951467 0.17390595 -0.32873538 -0.28147262 -0.13122156 -0.06568104 0.55946875 0.15012555 0.16505535 0.061172236 -0.35766038 0.0880293 -0.39569986 -0.22429547 0.09852595 -0.43288517 -0.077418 0.772069 0.2326221 -0.42251405 -0.17159522 0.05474988 0.071752734 -0.26335946 0.043673575 0.21939746 -0.08596879 0.27165988 -0.27260014
524 0.1101456 0.29360676 0.047398526 0.114639096 0.059899386 -0.013391687 0.059661426 -0.16589437 -0.15520269 0.0660652 0.49981952 -0.17287485 -0.29806888 0.39462093 0.042146247 -0.27820444 -0.13226748 -0.22618365 0.358338 0.13458003 -0.23503502 0.35949066 -0.12599668 -0.3797865 0.16841918 -0.48887083 0.32151613 -0.35298103 -0.2956785 -0.30160505 -0.3294794 0.001560414 -0.26823705 0.094506845 0.040160853 0.13710563 -0.0018366099 -0.13325506 0.114643894 -0.18535915 -0.4940667 0.14242637 0.12249462 0.13980196 0.21194316 -0.01986099 -0.1107496 -0.39284575 -0.03153762 0.11010398 -0.05837718 0.1673039 0.37422147 -0.08666065 -0.016966714 0.1744989 0.12188601 -0.20783316 -0.2717385 0.020971816 0.078231275 -0.14742668 0.020286813 -0.35740626
525 -0.25539342 -0.11396531 -0.11153593 0.014557571 -0.26958558 -0.2629898 0.031067664 -0.16774248 -0.066598386 0.4576538 -0.05468084 0.023371726 -0.012874927 -0.21798691 0.16931795 -0.0045413794 0.1383612 0.2182893 -0.052583013 0.07892568 -0.18410885 0.26285008 -0.09070349 -0.28183264 -0.16885497 -0.53921026 -0.42902225 -0.21578604 -0.3915892 -0.09480921 0.41298938 -0.12865008 -0.16772763 -0.2998577 0.19835968 0.029529106 -0.1506676 0.026989115 -0.18542685 -0.14745845 -0.14347036 0.26869324 0.27943814 0.12827343 0.23784128 0.2549698 0.15120189 -0.21435894 -0.23193747 -0.062010277 -0.42287132 0.025058312 0.7522536 -0.010634865 -0.28749204 -0.19024296 0.021363923 -0.12064041 -0.26995897 0.09811291 0.21013722 -0.2811783 0.104639195 -0.3238764
526 0.14927714 0.07201822 0.18237515 -0.4675241 0.044404674 -0.14949298 0.18438059 -0.046478227 0.06166207 0.40362412 0.2647509 0.20475775 0.1797645 -0.40636146 0.028034288 -0.35727882 -0.39022225 0.17337672 -0.13805278 -0.89607036 0.33631015 0.08167358 0.17149808 -0.032020904 0.3106645 -0.33645344 0.13544849 0.19231813 -0.00019287385 0.06874639 -0.065244034 -0.4064635 -0.10272902 -0.020746019 0.023397252 -0.05226857 -0.24710427 0.110231094 0.20048676 0.63107085 -0.6545278 -0.30510363 -0.10086461 0.1803486 -0.13124047 0.18698283 -0.077513136 -0.52375764 -0.3356906 -0.14621514 -0.9103012 -0.016302679 0.70968103 -0.07956317 0.43967497 0.17389162 -0.103644796 -0.49112558 -0.23039205 -0.05088988 -0.2538648 0.19878262 -0.45499408 -0.33349296
527 0.37263346 -0.10801182 0.15477547 -0.08054118 0.19861637 0.010497086 0.36528757 -0.025672533 0.11298529 0.35209808 0.22686207 0.56602764 0.1443913 -0.68952245 0.14300507 0.08796881 -0.03497291 0.14545186 0.064286985 -0.34997946 0.22804059 0.23132923 -0.08321917 -0.29764274 -0.04238654 -0.7229214 -0.08153384 -0.56219995 -0.123332664 0.27176 0.09396687 -0.498634 0.010677882 -0.05142467 0.4120393 0.41761443 -0.4761671 0.12824187 0.54292744 0.102449924 -0.4807388 0.06948461 0.17462699 -0.2961798 -0.10212557 0.11460676 0.45645776 -0.49536765 0.11722338 -0.60894513 -0.41944575 0.033425655 0.5316529 0.06917938 0.040985387 -0.11099034 0.3517067 0.022202672 -0.22223064 -0.14411637 -0.32162133 -0.09223293 -0.5047394 -0.21873379
520 0.0125320405 0.2079685 -0.4193343 0.31187046 0.074091956 -0.069391176 -0.3576414 -0.37563294 0.20039333 0.06266789 0.13298564 -0.3454023 -0.050235484 -0.21419087 0.39887613 -0.77067107 -0.3859628 0.07241105 -0.10949688 0.04911845 -0.19890286 0.016842272 0.23977141 -0.22837307 0.063927375 -0.015430469 0.02581496 0.039623883 -0.0028498378 -0.26077867 -0.34504035 0.044848878 -0.18683466 -0.22248052 0.0901797 -0.37236845 0.031798977 0.12761623 0.18922976 -0.0706974 0.13362733 -0.13081351 0.09388502 -0.046837196 -0.36887106 0.093914986 0.2766297 -0.32001728 0.0037837243 -0.00894491 -0.15584041 -0.33394918 0.42016518 0.035947688 -0.061185792 0.51128113 -0.42247555 0.4525328 0.06137864 -0.295225 0.05910074 -0.15270254 0.042303286 -0.13637568
521 0.14623378 -0.13221712 0.01300595 0.22227411 0.028830385 0.0150576355 0.026239077 0.20437628 0.20995231 0.19952366 0.08800048 0.16060539 -0.07402087 -0.016031833 0.04091238 -0.35534418 0.123126924 0.20997787 -0.23234661 -0.014616493 0.037804306 -0.26736283 -0.46404785 0.13088526 0.23300222 0.19102356 0.22601177 -0.15285604 -0.28508198 -0.20488673 0.11893833 -0.019170037 -0.40266973 0.011482646 -0.03750058 -0.16607761 -0.09322913 0.41453186 -0.06909835 -0.05914649 -0.3654575 -0.18866724 -0.01654715 0.17505193 -0.24315631 0.21431592 -0.15221956 -0.17833142 -0.06681089 0.05468312 -0.34344763 0.34021544 0.034585644 0.06758561 0.08043042 -0.03140902 -0.095996946 0.17300427 0.12893234 -0.19131412 0.19016504 -0.07637564 -0.15763222 -0.08086159
522 0.07695521 -0.09399361 0.0071113314 0.2443369 0.017770855 -0.08645844 -0.16884814 0.21064214 0.14716472 0.12548867 0.05789904 -0.15596947 0.17981452 -0.14712727 0.2896711 -0.4297876 0.056316797 -0.094863825 -0.2191689 0.07458413 0.004488979 0.15572344 -0.07468781 0.08344781 0.13347863 -0.08582097 -0.014911146 -0.024281485 -0.35246167 -0.09946957 0.0208053 -0.08771257 -0.045852825 0.05601207 -0.007621038 -0.27061266 -0.03580663 -0.06821125 0.03819762 -0.20275816 -0.46303886 0.02807194 0.20886692 0.017799757 -0.29367813 0.16042784 0.2017505 -0.014689232 0.124585725 0.13093044 -0.063123375 0.0137305185 0.19255026 0.25042608 -0.017150888 0.002436211 -0.23979446 0.26701596 0.015386616 0.10687977 0.118625514 -0.0059449193 0.11031872 -0.12784381
523 0.43344522 0.1386114 -0.3940713 0.028111205 -0.31116036 -0.17523044 0.12246622 -0.5009223 0.20350462 0.31550133 0.58972055 -0.4711636 -0.21675321 -0.044277027 -0.13237031 -0.2881401 -0.21279417 -0.17806792 -0.26986003 -0.12329936 -0.01675791 0.35814565 -0.30920058 -0.51587135 0.048599016 -0.025369678 0.0883949 -0.33281738 -0.12652032 -0.38989058 0.06239745 -0.1253803 -0.73828197 -0.011251739 -0.5755782 -0.39262584 -0.09383043 -0.15135229 -0.20945358 0.053322434 0.082480654 0.23681228 0.22595201 0.22421381 -0.1482072 0.2825893 -0.15699287 -0.21768947 0.38447312 0.064168125 0.09500983 -0.17972341 -0.13430429 0.37198645 -0.14085527 0.15195057 -0.34973717 -0.019196182 0.20483324 -0.1404104 0.2579242 0.04326333 0.12290692 -0.03421846
528 -0.034039054 -0.33463243 0.104875505 -0.2323861 0.5290735 0.115771696 -0.08033167 0.071084745 -0.05091257 0.30071035 0.2734852 0.097564444 -0.1329559 -0.30104694 0.13754141 0.10006762 -0.2593111 0.4654807 -0.49664733 -0.3516929 0.065181404 -0.067345105 -0.07735006 -0.0819382 0.25166947 -0.15742631 0.4498805 -0.0073748273 0.0034697347 -0.1973649 -0.9136233 -0.11265833 -0.6794648 -0.27514845 -0.056971148 0.0963758 -0.28893688 0.096297346 -0.2999063 0.30354267 -0.1325728 0.024830297 0.13524579 0.45965025 -0.19814491 0.62863314 -0.10123545 -0.5051875 -0.010496534 0.20600392 -0.3959247 0.19623244 -0.15116243 -0.20759305 0.096415825 -0.25669247 0.08466924 0.15534492 -0.38444996 0.086279064 -0.27293807 0.20702054 -0.03277996 -0.6276378
529 0.06808882 -0.2631123 -0.23754612 -0.39954314 -0.026698854 -0.06856513 -0.08823642 -0.45148578 -0.08074642 0.66555923 -0.010489414 -0.563066 -0.06561807 0.11679654 0.11240769 -0.13211468 -0.302143 0.08593939 0.37028152 0.0047894605 0.0884833 -0.032204337 -0.18836762 0.16789788 -0.15251045 -0.44195557 -0.31063968 -0.26653445 -0.2513982 -0.4743673 -0.09585023 0.001040792 -0.12908185 -0.10767986 0.19873749 -0.096213385 0.10010976 -0.15800574 -0.38026014 -0.14445962 -0.2818295 0.6423178 0.07227059 0.21681675 0.10047352 -0.10350558 -0.08318533 -0.39117506 -0.19708568 0.45918056 -0.44852668 0.15575168 0.9833422 -0.10077895 -0.24071106 -0.02337462 0.4839 0.23696564 -0.012758583 0.060278893 0.08927075 -0.298174 0.31400976 0.03220999
449 -0.106763326 -0.15988839 -0.26536632 0.21256398 -0.07578988 -0.19141524 -0.18993792 -0.2819364 0.030649181 0.2646382 0.16345574 0.120753646 -0.19257022 -0.50604665 0.019200103 -0.31332484 -0.19792812 -0.12914912 0.31615275 0.15990892 0.056227323 0.045432802 0.031835504 -0.25474086 0.064847976 -0.2672126 0.22776562 0.0044079223 -0.28877708 -0.46001044 0.07897108 0.17203048 0.09473232 0.047240335 -0.144857 -0.006782969 -0.05460394 0.045471463 -0.1160417 -0.09494408 -0.29153898 0.40832445 0.14457896 0.14739065 0.16900852 0.21229537 0.32893515 -0.3797683 0.0767685 -0.18524486 -0.22088857 0.26892135 -0.03582194 0.5976131 0.34076285 0.2239527 -0.0016050276 -0.0075298804 0.04072434 0.17289485 0.19488068 0.065155365 0.32374805 -0.07646662
448 -0.032837667 -0.041012533 -0.11571648 -0.2845756 0.17502354 -0.096855275 -0.17687048 -0.39689323 -0.35834384 0.74669087 0.1559687 0.32098892 0.36356843 -0.16618599 0.26386213 -0.017758265 -0.013793804 -0.12092515 0.5536239 0.029853761 -0.10210095 0.21458206 0.20291746 0.13291276 0.14407602 -0.34171706 -0.21170607 -0.009724958 -0.11099688 0.058572385 -0.060692593 -0.026275864 -0.12195607 0.03380344 -0.17807792 0.06506193 -0.22710052 -0.23070846 -0.10797905 0.21032351 -0.3853182 0.045391105 0.3459412 0.10200271 0.05767275 0.28786555 -0.020120291 -0.33661664 -0.24898341 0.0119862715 -0.58035475 -0.161021 0.62729824 0.10005068 0.028374394 0.12546842 -0.2608845 0.17361824 -0.066971436 0.45064726 -0.04691592 -0.12106727 -0.44801626 -0.09878485
345 0.3313238 0.21418811 -0.12591627 -0.05723567 0.16884664 0.3862668 0.049523093 0.24056919 0.18036918 0.3816153 0.24262242 -0.086758144 0.15498346 -0.2767306 0.009966085 -0.11397603 -0.102308996 0.28690463 -0.10411644 0.07640709 0.37662175 0.10210183 0.034306142 0.16145645 -0.16223301 -0.47473654 -0.03789941 -0.09015964 -0.24370739 -0.57439494 -0.0913186 -0.23539412 -0.24755879 -0.028078206 -0.19405359 -0.04812438 -0.110250145 0.02918786 0.052888174 0.12825246 0.00034620886 -0.51767987 0.10502983 0.29018053 -0.16457714 -0.22396971 -0.0854707 -0.039056383 -0.12627648 0.24525794 -0.09918321 -0.03439172 0.27941352 0.85858387 0.32639256 0.310763 -0.2786319 0.33596492 -0.009699085 -0.06205392 0.06983123 -0.09364198 -0.42752936 0.10074706
443 0.059680253 -0.25863925 0.059445206 -0.047524534 0.064880006 0.14438406 -0.13355593 -0.48176908 0.36487067 0.3185832 0.07921273 0.034481306 0.07441844 0.25186148 0.0705492 -0.44269153 0.05841769 0.04880172 -0.13221326 -0.22978492 -0.32304817 0.11236879 -0.24319284 0.030332819 0.21391213 -0.08069808 -0.68096566 -0.21389464 -0.20600888 -0.25677133 -0.32533118 -0.14597036 0.025479304 -0.07417289 -0.112507835 0.33636957 -0.6633273 -0.030061727 0.2339088 -0.19208908 -0.1376781 -0.09038629 -0.12854446 0.36032933 0.38722974 0.22304115 -0.023328936 -0.09394629 -0.36901906 0.26242176 -0.37614918 -0.16130242 0.5492718 -0.13648586 -0.24859984 -0.2320261 -0.09411379 0.35719496 0.08839522 0.19644782 0.019417595 -0.074815325 -0.01762563 -0.3671609
442 -0.21070415 0.026588706 -0.12695011 -0.0401957 -0.101091534 -0.002951517 0.12325482 -0.052021667 -0.06871182 -0.036973663 0.22643057 -0.182001 -0.028573401 -0.04735777 -0.04316854 0.008482197 0.1625778 -0.12070343 -0.037223272 0.07820537 0.20054504 0.21436551 -0.27059337 -0.09584123 0.043360606 -0.42703834 -0.2868693 -0.57846284 -0.24064241 -0.2337723 -0.4454152 -0.22118749 -0.3546451 0.20475978 0.3441917 0.092007466 -0.3467265 0.04653723 -0.5474878 -0.24340737 -0.20989834 0.05673622 0.19120389 0.13916858 -0.15336767 -0.24389021 -0.09692864 0.0658926 -0.12873328 0.09410411 -0.20893915 -0.095673725 0.63614607 -0.204432 -0.22070703 0.6987453 0.094703615 0.30188346 -0.0958347 -0.093033545 0.16975544 -0.00077080773 0.25298557 -0.25424227
441 0.13658665 -0.20311704 0.31487492 0.24266507 0.19198391 -0.31475425 0.16771854 -0.39377636 -0.014241009 0.23571357 -0.41830218 -0.3544749 0.21300317 0.05007337 0.17539933 0.09725298 0.34532848 -0.37521744 0.055022843 -0.08567979 -0.18887457 0.16167702 0.022094218 -0.14254601 -0.022604236 -0.368496 0.012532845 0.015746815 -0.17017342 -0.07523533 -0.20402078 -0.21452138 -0.44223237 -0.3241401 0.1652356 0.123748355 -0.26909965 0.20900503 -0.08509529 0.25169742 -0.5831168 0.14453699 0.30081314 0.2818545 -0.2752646 -0.14357665 -0.056950144 -0.39343968 0.379658 0.07815565 -0.019308982 0.11992415 0.30554152 0.3071665 0.034253616 -0.30946442 -0.10561939 -0.13017155 -0.112616785 -0.5046959 0.13161191 -0.25434104 -0.009042611 -0.096095674
440 0.07881074 0.10593736 0.16599396 0.23364162 0.0061241034 0.28125146 -0.24012478 -0.11520599 0.6256738 0.07270332 -0.081564166 0.107136324 0.1975004 -0.13440855 0.40378538 -0.22456805 -0.09971409 0.104089536 -0.001465408 -0.10325823 0.024412382 -0.0573393 -0.38048396 0.2562944 -0.2825071 -0.10308487 0.19060051 -0.3749725 -0.36059582 -0.16973005 0.30003306 -0.078579135 -0.19397362 0.02062357 0.37204662 0.08458331 -0.009971783 0.27747628 -0.09954027 -0.33518144 -0.28574625 -0.048546344 -0.06903921 0.07861459 -0.2678137 -0.41991594 0.06366948 -0.40384823 0.20854512 0.17510107 -0.2241991 0.19439888 0.113537185 0.13354674 0.24039495 -0.09925277 -0.17028983 0.13480826 0.09045209 -0.0016895353 0.08181207 -0.30424562 -0.40103433 0.1274282
447 0.08685893 -0.10064776 0.05183836 0.101482816 0.010142022 -0.05965538 -0.26371905 -0.2907445 -0.076203555 0.12771061 -0.19677135 0.11617671 0.09619976 -0.17817622 0.25510454 -0.2631632 0.15810075 -0.036658272 -0.06497147 0.025729958 -0.007365734 0.07174757 0.0006805054 0.01947479 0.030338965 -0.436161 -0.044102475 0.041754227 -0.15016715 -0.25161693 -0.06424977 -0.033316445 0.08284188 0.05559176 0.057885468 -0.016357483 -0.122817874 0.07344938 0.26852942 -0.03492723 -0.27662867 0.0714012 0.37282115 0.14695327 -0.25932875 0.0646801 0.12173038 -0.29035145 0.12714817 -0.005764933 -0.44193748 0.03409104 0.019773988 0.20528859 -0.0076441136 0.2749546 -0.3380567 0.17879109 0.08974888 0.077808335 -0.057662677 -0.2403791 0.037765447 -0.21753417
446 0.12898758 0.23777202 0.3621234 0.006070078 -0.0879776 0.27705297 0.10078954 -0.105200104 -0.10106768 0.20725332 0.2931856 0.1265138 0.17169797 -0.24530064 0.21389802 0.011430015 0.022517625 0.20559867 0.013051004 -0.027785834 0.065329075 0.0814687 -0.2864092 0.07128972 -0.015371622 -0.4796117 0.02948433 -0.47052675 -0.28961194 -0.5315807 -0.05334413 -0.10752557 -0.26321626 0.32082602 -0.058588352 0.15616338 -0.37873805 -0.15351234 -0.19198173 -0.14899918 0.13134775 0.21435566 0.12463481 0.19478694 -0.03192162 -0.30315894 -0.26714945 -0.19889791 -0.27698827 -0.022152647 -0.10168214 -0.124677844 0.37301973 0.019668514 0.0448684 0.40663603 0.19629739 0.33079547 -0.07519204 0.26275566 0.05855281 -0.18163575 -0.019889185 -0.3236577
445 0.2860119 0.33801895 -0.09243083 0.057683956 -0.045903273 -0.44212866 -0.09563176 -0.27004802 0.21667318 0.29892898 0.101716675 0.1762548 -0.030954324 -0.25690395 0.16706853 -0.11867874 0.04204688 0.039388098 0.287822 -0.040529627 -0.11169892 0.11463335 -0.10872176 0.12006975 0.03778036 -0.5620615 0.02803515 -0.17220381 -0.26484674 -0.08651424 -0.18163814 0.076138236 -0.15781775 -0.046437502 -0.07441127 -0.101297945 0.039067477 -0.117249295 0.09659452 -0.2867571 0.021861022 -0.16395521 0.017602775 -0.06995201 -0.33897054 0.37282267 0.08757428 -0.20240815 0.05255209 -0.14215572 -0.32347456 -0.3341997 0.026660483 0.0953148 -0.22495426 -0.13931707 0.023967445 -0.13971636 -0.15395464 0.14042461 0.27982974 0.23388322 -0.24673687 -0.39739743
444 0.03075387 0.663586 -0.03629046 0.22062159 0.13772266 -0.36121407 0.3338461 -0.15706715 0.2176656 0.408879 -0.09093559 0.47598225 -0.24002755 -0.3133885 0.11319572 -0.399726 0.0391016 -0.4432589 0.16566454 -0.08563188 0.3059193 0.13371485 -0.28291148 0.028859796 0.13117331 -0.16528137 -0.21848004 0.34145236 -0.2289887 0.1964294 -0.35109112 0.21974738 -0.20289479 0.15418637 -0.093645506 -0.26113832 -0.39488742 -0.04126059 0.056115255 -0.6783379 -0.44283876 0.013481519 -0.35381818 0.7195238 0.09911026 0.4523772 0.030840253 -0.2259382 -0.030415613 0.16971532 -0.21878262 0.09153437 0.28305832 0.0033790441 -0.06770223 0.15808573 -0.4815496 -0.16696459 -0.06453459 0.5904033 -0.3718617 -0.22996214 -0.15830375 -0.34923157
108 0.011413002 -0.10214414 -0.07620741 -0.0902728 0.32550445 0.111742586 -0.13915113 -0.15069191 0.18605381 0.408899 0.2655273 -0.35522598 -0.08234983 -0.06052586 -0.062361103 -0.32632667 0.28811705 0.12496892 -0.12914233 0.25660804 0.28910664 0.099366285 -0.30810755 -0.2164938 -0.24608485 -0.23590691 -0.21653783 -0.48455432 -0.2818317 -0.4008299 -0.0746341 0.16340303 -0.08846617 0.14917755 0.27781108 0.05157212 0.013812704 0.10706756 -0.24611767 -0.33770624 0.21569274 0.34463415 0.07926711 0.01157808 -0.35751408 0.21839671 0.42120436 -0.10193439 -0.15179738 0.09236006 -0.48995045 -0.20730816 0.19501743 0.098204665 -0.46468973 0.18130037 0.18531935 0.18875043 -0.08473118 -0.1400071 -0.2503563 0.17216511 0.25678158 -0.05376313
109 0.071762644 -0.031074554 0.053200465 0.42297414 0.30638933 0.11188177 0.20124623 -0.4121701 0.11886385 0.36386785 0.3512072 -0.42143396 -0.503166 0.033921074 -0.2558473 -0.3790499 -0.0447502 -0.047145195 0.03212108 0.17812034 -0.40763777 0.33771828 -0.2559207 -0.38362142 -0.020253232 -0.36518943 0.13389514 -0.0071846587 -0.17495123 -0.25628597 -0.0074458513 0.14692383 -0.58608013 0.13157111 -0.045867823 -0.21707124 -0.25300732 0.026219612 -0.21435347 0.28194466 -0.16013508 -0.46691126 0.33869374 -0.20609356 -0.27974293 0.2138385 0.110570885 -0.57201004 0.1915866 -0.08802435 0.26659286 -0.35290715 0.15050618 0.024000186 -0.045739196 0.19033375 -0.059374817 -0.12255768 -0.09474616 -0.2524704 -0.03867887 0.20944919 -0.077578485 -0.35216555
102 0.21259981 0.29547778 0.07928726 -0.025562026 0.016761063 -0.20293099 0.035968315 0.09500531 -0.04862503 0.3260675 -0.115641 0.046341762 0.05969148 -0.370427 -0.2466361 -0.3021899 -0.0020935852 -0.19038607 -0.04972329 0.108094186 -0.29192984 -0.05770137 0.08513975 -0.2930322 -0.13691714 -0.18703151 -0.06894944 -0.25214714 -0.44220686 -0.18863843 -0.0837507 -0.35452434 -0.10014362 0.12665653 -0.047954146 0.08143471 -0.18907337 0.33158493 -0.05473836 0.07024722 -0.44669238 0.056838643 -0.023559747 0.3004604 -0.22643687 -0.15942857 0.19093834 -0.122192115 0.23438263 -0.029833237 -0.3461049 0.11071552 -0.1246636 -0.31667823 0.09763717 0.007980941 0.10414842 0.0452434 0.098906085 0.1480331 0.42113757 0.23010622 -0.21335724 -0.045518238
103 0.056812253 0.24701254 0.32851836 0.11541467 -0.018375961 -0.12531829 0.22337548 -0.24638595 0.4836037 0.2293943 0.08403234 0.1413329 -0.21553369 -0.5302446 -0.12075888 -0.29102963 -0.13085853 0.21220054 -0.4212946 0.22226755 0.05290781 0.13266946 -0.25639322 0.0028691464 -0.0027585612 -0.23835784 0.03978332 0.17298183 -0.27249733 -0.10020042 0.0030131282 -0.38162118 -0.042341467 0.20737433 0.26211354 -0.12502499 -0.37574357 0.07792525 -0.06341251 -0.16123118 -0.1061587 0.2251229 -0.08501927 -0.1324011 0.22304791 0.560263 0.053396434 0.0064656874 -0.19343331 -0.07983214 -0.52934694 -0.0036534055 0.38115785 0.06259959 -0.15248926 0.07701806 -0.010701576 0.076312184 -0.47188628 -0.276832 -0.11078395 0.48254195 -0.31270686 -0.49650592
100 -0.021434791 -0.17439665 0.032721844 0.5565734 -0.16982803 -0.25710052 0.1247877 0.397816 0.20257875 0.2028781 0.06251752 0.03350473 -0.23135373 -0.45057347 -0.22050348 -0.23422667 -0.18300116 0.3408719 -0.39232764 -0.06738643 0.48411456 -0.016927486 0.02538943 0.26053384 -0.33040175 -0.06487278 -0.003855815 -0.05134688 -0.66131204 0.03694461 0.16438623 -0.30744687 -0.2562631 0.33086717 -0.25525877 -0.4608913 -0.32021657 0.1426379 -0.16708936 -0.19629557 -0.16850905 -0.15311915 -0.023037648 0.22716106 -0.1535029 0.24250314 0.25633162 -0.20883971 0.6273628 0.10160238 -0.5068546 0.1469791 -0.10630583 -0.04446379 -0.13100575 0.26204887 -0.28876394 0.2508463 0.4267067 0.13517667 0.48005623 0.24721588 -0.24703905 -0.021702161
101 0.09904435 0.052253406 0.020269882 0.18405758 -0.2650882 -0.1187933 0.11519817 0.14567974 0.23224838 -0.048681706 -0.05919255 0.22314425 0.34918356 0.20417142 0.07408365 -0.48097545 0.39026532 0.1426945 0.26964512 -0.032760832 0.017078748 -0.17436463 -0.04841255 -0.048380673 -0.16071938 -0.33431983 0.11641292 -0.30482957 -0.12506405 -0.27698627 -0.07001493 0.019633053 -0.19184297 0.1940839 -0.3610919 -0.018549768 -0.09757763 0.17928511 -0.20174223 0.21906912 -0.27947438 -0.12770155 -0.00834912 0.24718545 0.0026499012 0.020225815 0.20963919 -0.5325131 -0.11219188 0.24304536 0.1330828 0.28826872 -0.03261413 -0.39698014 0.042662796 -0.36808175 -0.25195307 0.25132883 0.33716333 -0.12558167 0.052743774 0.31813034 -0.40809074 -0.18410745
106 0.4868203 -0.16479714 -0.011080239 0.15781692 -0.15923439 -0.061819267 -0.13238725 -0.4368375 -0.119165935 -0.008106265 0.20985371 0.15672387 0.053340103 -0.069338344 -0.24333018 -0.20126009 0.07224205 0.029695695 -0.124171 0.31210488 -0.095178075 -0.18785189 -0.38652718 -0.104455374 0.081090964 0.1590258 0.06368011 -0.17830119 -0.19828475 -0.40706655 0.03500051 -0.19937986 -0.16121002 0.10718537 0.19701706 0.1510614 -0.018983746 0.023823652 0.0089603355 -0.03944245 -0.39024156 -0.26887637 0.22563964 0.22236978 -0.19415998 0.20100212 0.094147764 -0.1388917 0.07944478 0.4405889 -0.40028885 0.33353487 0.10247899 0.16094668 -0.37476936 0.17907308 0.09683199 -0.16280037 0.1579401 -0.020214329 0.14077607 -0.18818024 -0.29222885 -0.21152768
107 -0.15446368 0.115236685 -0.07434816 -0.09550217 -0.03894731 -0.038923364 -0.21684632 -0.14900543 -0.2617963 0.117412105 0.040102344 -0.06894539 0.0725966 -0.2236102 0.10899924 -0.33817378 -0.040887974 -0.19744493 0.02713548 0.054382544 0.11445966 0.05413573 -0.11763637 -0.24699192 0.026956493 -0.15036069 -0.10429552 -0.24063969 -0.46719497 -0.4520553 0.1237479 -0.0072502443 0.05490544 0.0780828 -0.033738047 0.21607283 0.03963583 -0.009506607 -0.0757567 0.041494813 -0.32996517 0.0033347155 0.2588527 0.16451032 -0.16571583 0.060193893 0.02417339 -0.18920037 -0.029252762 0.20714815 -0.3033701 0.2569382 0.26358512 0.20403287 -0.093720436 0.08730848 -0.07256998 -0.024452938 0.058141384 0.25713497 0.11879506 -0.13057996 0.019440284 -0.13584638
104 -0.18039665 -0.34882277 -0.09607947 -0.13686238 0.011926362 0.31769097 0.29765823 0.25714377 -0.21851149 0.21936825 0.06490121 0.5630074 0.016183201 -0.1629351 0.40371704 0.060234416 -0.06244596 0.18810314 0.16191284 -0.1777087 0.008050826 -0.39935422 -0.195039 -0.07489392 0.51219344 -0.4864733 -0.14519022 -0.008954796 -0.3668504 -0.08176828 -0.034409 0.012346663 -0.10279686 -0.08024713 -0.07671876 -0.052590728 -0.31560376 0.038415406 -0.03521811 0.07328904 -0.105106056 -0.10391069 0.3442324 0.39172482 -0.24713644 0.37658674 0.08816723 -0.39633343 -0.1573342 0.14174654 -0.13207135 0.028655315 0.31322354 0.31991526 -0.40327147 0.29483756 0.31690836 0.63089365 0.2887929 -0.04400529 0.10135386 0.39224714 -0.15203404 0.24717396
105 0.33369905 -0.10095373 0.39194036 0.07417916 0.53007424 -0.112275004 0.15578829 -0.3706852 0.28636566 0.41652566 0.090366445 0.23522165 0.23888768 0.022411969 0.028922733 -0.13094401 0.06563899 -0.25848013 -0.28111175 0.15986557 0.08426427 0.28884673 0.12380398 0.17666797 0.23905675 -0.039013304 0.13893054 -0.16734275 -0.32781246 -0.2654038 -0.83203447 -0.5003534 -0.3218996 -0.27516192 0.27264 0.17817545 -0.15905423 0.14211755 0.005270825 -0.1651287 -0.43747106 0.38701406 0.16604649 0.13254642 0.06087539 0.40384555 -0.09224749 -0.25712082 0.008047882 0.43888977 0.38239452 0.49016464 -0.029063927 0.17887154 -0.008220907 -0.47375003 -0.31329238 -0.17172231 -0.27462998 -0.06410533 -0.31025797 -0.09189635 -0.066415384 -0.56277245
39 0.15439081 0.13381983 -0.31159636 -0.09510755 0.1289383 0.29472637 -0.14807273 -0.14082906 0.030810338 0.11844177 0.06708425 0.0057291426 -0.2946365 -0.46094042 0.20472991 -0.40127802 -0.016694348 -0.16184066 -0.09197237 0.16161095 0.23245364 -0.24710086 -0.4368376 -0.029499646 -0.047829647 -0.29570916 0.104200356 -0.04451578 -0.3845774 -0.2218551 0.21067584 -0.13231857 -0.15318365 0.07137615 -0.26809016 0.10356022 0.11206649 0.43140402 -0.12535392 0.0916798 -0.065879494 -0.20052004 0.11062472 0.31030953 -0.07854828 -0.10214822 0.06090404 -0.06995292 -0.11242298 0.19186766 -0.08817792 -0.19973148 0.32383716 0.53477436 0.21979211 0.14761312 -0.072923735 0.0015280392 -0.20558839 -0.23416854 -0.13967463 0.24628621 -0.45528558 -0.09293958
38 -0.025382727 -0.14346695 0.2136382 -0.14396553 0.33222884 -0.122395635 0.11294176 -0.33283618 0.41768122 0.40110397 0.5233125 -0.26030585 -0.38316947 -0.12788203 0.17077084 -0.09211063 -0.25199333 0.058957778 -0.2831455 -0.01042917 0.010015576 0.36284292 -0.5630505 -0.1615388 0.24672464 0.031379044 0.26391852 0.048666093 -0.007705546 -0.12623255 -0.39047518 -0.26878908 -0.46225673 0.0041447263 -0.15204476 0.25190577 -0.14911956 0.10935507 -0.2906297 0.47555605 -0.121002294 0.11725526 0.24486798 0.36633822 -0.24422257 0.22719276 -0.15574993 -0.7076445 0.23772667 -0.0028685473 -0.031834014 0.023737656 0.08284297 -0.077314906 -0.014201645 0.017106064 -0.18526798 -0.07150148 -0.022139577 -0.22061245 -0.36304238 0.112233736 -0.2196778 -0.5290677
33 -0.10810016 -0.0052466732 -0.065558456 0.16548446 -0.2174161 0.11810076 -0.28662714 -0.06475848 0.37270796 0.42770937 0.062452346 0.24819921 0.16702126 -0.14313707 0.04895292 -0.11025905 0.29013857 -0.23026516 0.08081709 0.27076152 0.29938337 0.09161063 -0.14868757 0.14393026 0.024629086 -1.0029488 -0.061396573 -0.078625634 -0.1724314 -0.19479784 -0.4559105 -0.14078821 -0.06401872 0.45097277 0.15753987 0.12083973 0.11163431 -0.009783498 0.12164079 -0.13062304 -0.23935604 0.26878053 -0.008178503 -0.2393588 -0.29219526 0.3763996 0.013942927 -0.7937412 0.13416873 -0.117698684 0.06227105 0.13356918 -0.1693276 0.063704096 -0.2863038 0.07223101 0.18443991 -0.2757753 -0.10933451 0.0946624 -0.09663909 0.42018217 0.11902578 -0.05920327
32 -0.012414803 -0.07543222 0.06912656 0.10923569 -0.0047265324 -0.34126508 -0.13616934 0.34197533 0.25076962 0.39885384 -0.22363174 -0.16220203 0.091142654 -0.079705514 -0.032299034 -0.24039507 -0.09736229 0.02487939 0.010495371 0.31084478 -0.2625082 0.05317899 -0.02142274 -0.067035295 -0.020866282 -0.43203348 -0.35314867 -0.010450262 -0.09248943 -0.34882092 -0.14683859 0.22269228 -0.23993045 -0.07194686 0.1797195 -0.23764919 -0.4119019 0.3440318 -0.02492498 0.42783266 -0.15563811 0.070549555 0.10214115 0.27551037 0.18314831 -0.14453222 0.4978394 -0.17058228 0.29144478 0.14592849 -0.37057582 0.10080658 0.16340315 0.23864147 0.0739701 -0.63391256 -0.046442002 0.045367617 0.28201285 -0.21766245 0.4898313 0.18538693 0.026873676 0.026177874
31 -0.036780093 -0.23205005 0.1118911 -0.22639985 0.5254516 0.14892787 -0.09123807 0.03033037 -0.041104913 0.14183164 0.44702843 -0.3614106 0.008952019 0.06591744 0.31556562 -0.06418483 -0.08000362 -0.07256882 -0.50143296 0.06358598 0.05390341 0.14049363 -0.4534363 -0.30073833 0.15690266 -0.23257056 0.18090454 -0.14053686 -0.15993436 -0.15381154 -0.5016255 -0.112435505 -0.26734847 0.0358805 0.10509091 0.28226656 -0.38984177 0.2762803 -0.02307925 -0.0041777454 0.0731354 0.25959575 0.2727216 0.6144393 -0.19907545 0.22296129 -0.17608298 -0.29396012 -0.13206452 -0.014893074 -0.59829783 -0.1975314 -0.1176553 -0.32396165 0.061261244 -0.26326 -0.20848677 0.023197412 -0.23402527 0.10330259 -0.0985808 0.6027178 -0.24427323 -0.23166734
30 0.009251575 0.22536342 -0.1867312 0.22006223 0.008691166 0.16712384 -0.031296484 -0.090066954 0.0906589 0.28018573 0.0046571074 0.08089134 0.17135532 -0.026610928 0.19260615 -0.43956992 0.18463743 -0.18050031 0.14747702 -0.1872306 -0.31406832 0.1285959 -0.050563857 -0.131452 0.07780567 -0.029305693 0.14480104 -0.48081896 -0.24427396 0.02084682 -0.30019128 -0.20702806 -0.249636 -0.21455474 0.17738192 -0.07493648 -0.119516514 0.2071465 -0.12962563 -0.385241 -0.021316992 -0.12521264 0.26191932 0.051451318 -0.1866185 -0.05167851 -0.0046672854 -0.0008153459 -0.13475008 0.21211626 -0.06969733 0.31158635 0.058353405 0.21222407 -0.15061778 -0.0472244 -0.07305993 0.09449903 -0.21087636 0.352472 0.03257892 0.46589065 -0.41197658 0.08525455
37 0.29964745 0.123667546 -0.00085245114 0.15616924 -0.16297027 0.19022793 -0.36421815 0.024773208 0.14728841 0.28054166 -0.102979496 0.19120604 0.15333599 -0.4430417 -0.22131462 -0.34818712 -0.17379956 -0.10889901 0.017006282 -0.05365446 -0.045512665 -0.023749901 -0.12703796 -0.24398473 0.31225315 -0.34468386 0.11499031 -0.26823035 0.13938822 -0.4432172 -0.08251412 -0.2920861 -0.39265066 -0.009241575 0.15210849 0.067973204 0.22493199 0.20661567 -0.15736167 -0.2146867 -0.042726617 0.083691016 -0.062796496 -0.13265592 0.050947353 -0.13501985 0.0027353559 0.089106664 -0.24728821 0.039772857 -0.15183735 0.34800917 0.21905321 0.33190978 -0.0082119135 0.1868929 -0.29917958 -0.07665063 -0.025760258 -0.10431903 -0.10226515 0.4642466 -0.56676555 -0.21807979
36 0.16376425 -0.20526586 -0.033267256 -0.13218337 0.09376174 -0.41087505 -0.0049109105 -0.15473427 0.3828802 0.4490021 0.38254824 -0.12198619 0.36344227 -0.35847777 -0.057801154 -0.4669427 0.26325932 0.1986824 0.36243415 -0.19546692 -0.21153863 -0.15751056 -0.02600357 0.24134897 -0.014804455 -0.07008538 -0.3472426 0.01959406 0.0029835121 0.057561528 -0.25317177 -0.378881 0.114071615 -0.25098655 -0.13228974 -0.061277196 -0.025041977 0.09848934 -0.17998591 -0.10723885 -0.57716906 0.042921975 0.03626714 0.37564805 -0.2538257 0.31607696 0.19001558 0.012305197 -0.021654774 0.100295395 -0.2070891 0.19575435 -0.0016590967 -0.051605664 0.49756843 -0.018093014 -0.065054365 0.15674253 -0.1556295 -0.19453366 0.24646151 0.38059738 -0.079199806 -0.0632271
35 -0.19451566 0.11521447 -0.038323574 -0.033094633 0.05880058 -0.1048958 -0.15565996 -0.4010421 -0.16551775 -0.07406315 0.116733365 0.12935694 0.33815476 -0.03178256 0.10726151 -0.0690694 0.48866075 -0.21270752 -0.20322779 -0.04928018 -0.010037167 -0.10680175 0.21803738 0.04249492 0.45992455 -0.18181156 -0.30897063 -0.24287122 -0.2018511 0.037283853 -0.30450895 0.10506214 -0.07085514 -0.27349722 0.23234196 -0.11023086 0.0058660535 0.22699663 -0.059508096 -0.35775048 -0.47955322 0.12934628 0.5962248 0.10772625 -0.32609254 0.24497281 0.3787371 -0.47720483 -0.10622836 0.70195436 -0.2118871 -0.256492 0.17077136 0.089178026 0.27482665 -0.14054604 -0.27507022 0.060445346 0.04272789 0.2738914 -0.17399769 0.26421577 0.26779038 -0.09811269
34 -0.06951465 0.2714594 0.11625122 -0.2941723 -0.11137005 -0.1465481 0.17121038 -0.026185548 -0.24215986 0.35626107 -0.05899708 -0.45028397 0.26975963 -0.44344315 -0.22007865 -0.44256005 0.15370195 -0.032354478 -0.02799682 -0.24663946 -0.32566386 -0.03969526 0.03114979 -0.37777454 0.38603252 0.03457675 -0.19425295 -0.43267888 -0.31047225 0.13509211 -0.24269839 -0.2867501 -0.4322204 0.00925031 0.3350048 -0.41546306 -0.0035511476 0.16152477 -0.037504688 -0.22342014 -0.48166385 0.32589778 0.2390026 0.10436296 -0.22180197 -0.26643947 0.2372777 -0.56470567 -0.04781708 0.5859418 0.33408228 -0.19986418 0.11659957 0.08087696 0.057373468 -0.16465715 -0.3096119 -0.3361103 -0.006312602 0.040637773 0.0907913 0.16288093 0.009275776 -0.14869983
641 -0.092181854 -0.46072194 0.4978372 0.06812888 0.56891584 0.0044931527 0.23895535 -0.006034338 -0.039156843 0.12800531 0.20554098 -0.0073665725 -0.08713619 0.019375088 0.248254 -0.2964811 -0.13636953 -0.2140486 -0.18825859 0.4622046 0.30169657 0.18135872 -0.5044782 -0.060550403 0.039822996 -0.107670955 -0.013320009 -0.28071773 -0.15396003 -0.42812303 -0.40295812 -0.11744749 -0.1368414 0.50031555 0.119796135 0.035703573 -0.10456507 -0.015456241 -0.12206174 0.021480521 0.003355479 0.029928483 0.4399466 0.52258086 -0.14053896 -0.16885743 -0.07993936 -0.30946392 0.06315553 -0.27280533 -0.0940806 -0.13663447 0.19804801 0.21643862 -0.04535015 0.13322139 -0.22282286 0.54129636 0.030870387 -0.106140405 0.058173966 -0.29221874 -0.23281884 0.014608127
640 -0.03275794 0.36609197 -0.06530549 -0.017519232 -0.23144735 -0.021663183 -0.0743639 0.0279817 0.06666423 0.41770223 0.27038205 0.041410718 -0.062954135 -0.21646306 0.25447896 -0.5627171 0.115375385 -0.061994758 0.010185213 0.17148273 -0.09791919 -0.3327101 -0.25442362 0.078241676 0.04620892 -0.2012897 -0.1271071 -0.59203434 -0.29440996 -0.0329232 0.038782682 -0.033715826 -0.35070363 -0.14081705 -0.2537723 -0.53566855 0.15396236 0.2367297 0.053063035 0.058346555 -0.35701638 0.23433071 0.1260146 0.022493277 -0.23489542 -0.1467677 -0.057087135 -0.16198108 0.013332181 0.013250444 -0.03284551 0.09599079 -0.10706169 -0.41001362 0.007372033 -0.3918333 0.25187242 0.37548 0.11603668 -0.019658405 0.22598027 0.25415802 -0.42750275 0.10023053
643 0.036549628 -0.12705967 0.12583281 0.031365816 0.040618654 -0.058746126 0.09920702 0.042135116 0.05401461 0.047008723 -0.09018128 0.024925455 -0.08080167 -0.03346023 0.1476879 -0.5129978 0.017361028 -0.045178466 -0.020516427 -0.24784657 0.044372424 0.005185557 -0.15894878 0.031882297 0.030815203 -0.19500385 -0.111037284 -0.2200547 -0.03411767 -0.18037865 -0.059135854 0.03305481 -0.26949033 0.029304823 -0.04265198 -0.019295273 -0.36982462 0.15708244 -0.09490288 -0.18127051 -0.34165013 0.13040583 0.09913485 -0.23014295 -0.3422069 0.011107064 0.3741569 -0.3272516 0.11509858 0.024514941 -0.15158431 0.06282562 -0.03561736 -0.014156134 -0.14392519 -0.09449878 -0.2558939 0.057111207 0.030316513 0.1651749 0.04450577 0.08241039 -0.05083103 -0.13301845
642 0.09350351 0.53826344 -0.093109466 -0.19991818 0.17024723 -0.373855 0.15722549 -0.24834476 0.08322059 0.31297046 0.28033328 0.39562932 0.13922063 -0.3403185 0.32493943 -0.33585742 0.075942874 -0.22780727 0.1479447 -0.15490417 0.17085049 0.17420325 -0.1405953 -0.07983195 0.10649604 -0.25445226 0.14096515 -0.069870226 -0.31686142 -0.022192005 -0.28552702 -0.20656544 -0.21190989 -0.11385523 -0.14310418 -0.010519111 0.041450135 0.18709807 0.030667003 -0.029020363 -0.3361767 0.013696325 -0.23457226 0.20336503 -0.1360956 0.011252036 0.13903952 -0.32148135 -0.31966108 0.41825086 0.11021211 0.081374295 0.09445074 -0.37518704 -0.041083805 0.03428452 0.0027156265 0.18454418 0.10705804 -0.1181385 -0.20365755 -0.03456359 -0.1953179 -0.1022346
645 0.07099661 0.076768056 0.16335262 0.041672144 -0.4019317 0.19114555 0.033565722 -0.037513494 0.030394495 0.20870957 0.124908514 -0.13335097 0.13411821 -0.25177613 -0.35789555 -0.26946035 0.08655306 0.027565032 -0.027533136 -0.07971692 0.2227672 0.5637338 -0.4434579 -0.34789857 -0.08949553 -0.6506123 -0.3319639 -0.31677645 -0.3542031 -0.20742731 -0.040023748 -0.055317655 -0.33501962 0.44770014 0.08161937 0.38127288 -0.13652483 -0.17037575 -0.29311723 0.044199757 -0.05347435 0.115201145 0.0604694 -0.11976473 -0.5455771 0.02843505 -0.22133201 -0.08530717 -0.21404482 0.24569082 -0.17940754 0.018816829 0.2566795 0.028639536 -0.19360854 0.34672418 0.009204614 0.054832153 -0.2997973 0.11238205 0.10315574 -0.009099806 0.25494942 -0.2845376
644 -0.06636499 -0.28635404 0.018884998 -0.038100287 0.1336276 -0.14235799 -0.03203649 -0.15763356 0.2171825 -0.021444881 0.14229101 -0.064927265 0.008226422 -0.074300095 0.1318086 -0.32179558 0.22482298 -0.048360817 -0.41846707 -0.13565852 -0.061585613 0.2088428 0.0022718986 0.046992015 0.035802428 0.02384947 -0.11166708 -0.18008462 -0.29057166 -0.30886674 -0.3034701 -0.076380335 0.029885791 0.15611815 0.121653184 0.11401235 -0.016047468 -0.022336498 -0.008094878 0.011723295 -0.50678563 0.13137868 0.2943227 0.1671761 -0.16814229 0.27693376 0.23412691 -0.21258001 0.09968185 0.23320022 -0.21573403 0.06814216 0.24157341 0.12698218 -0.10639906 -0.085122764 -0.22630426 0.13174015 -0.08442192 0.13253348 0.03393109 -0.02293155 -0.048095424 -0.11128673
647 0.327948 0.12460665 0.31998467 0.15708928 0.08590156 -0.10354283 -0.012623815 0.23567726 0.16854581 0.15938011 0.1533216 0.083450444 -0.3445205 -0.14960009 -0.21893951 -0.4042331 -0.28685614 -0.38376024 -0.026379641 0.2007125 0.20654473 0.09520644 0.1728862 0.0036967252 -0.003174147 -0.27085787 0.12503895 -0.20122686 -0.37204245 -0.14684418 0.21721107 -0.32313862 -0.0026877685 -0.17529428 -0.0112749105 -0.34495428 -0.39097136 0.42519763 -0.020735528 0.04144588 -0.2567902 0.12126603 0.054225013 -0.120293036 -0.065440014 -0.04781808 0.18764335 -0.2291671 0.28412104 -0.1976881 -0.5508598 -0.1284909 0.03157756 -0.069134 -0.11031217 -0.26027307 -0.09294789 0.18655413 -0.25254244 0.0989424 0.49187225 0.33391574 0.09549801 -0.104855895
439 0.28402343 -0.24278411 0.16939908 0.3075559 -0.03186227 0.11627015 0.0642754 0.3567957 0.28224933 -0.044717494 0.14245981 0.17392 0.23898646 -0.05996948 0.41158867 -0.36576164 -0.030101389 0.099117525 -0.083461225 0.070810415 0.101174906 -0.0040285443 0.08911559 -0.25464424 0.0626283 -0.22347839 -0.2721471 -0.32893077 -0.45070058 -0.14560618 0.16111349 -0.13128434 -0.0037305998 -0.13292354 0.19988334 0.112881646 -0.2612786 0.2670604 -0.35444745 0.029076729 -0.18129398 -0.3148522 0.2396046 0.066408195 0.083201446 -0.17938143 0.1316557 -0.47443482 0.36435112 0.38362923 -0.3602726 0.3171072 -0.16284685 -0.16094142 0.221666 -0.093903325 -0.3435123 0.009185024 0.21637656 -0.04284657 0.09719258 0.08624647 -0.3937316 0.15711394
436 0.0029457114 0.014959181 -0.038619336 0.17841437 0.064743415 0.020736389 -0.16775198 -0.04215667 0.18413377 0.22655264 0.04399786 0.13656127 -0.18873155 -0.13297603 0.16526178 -0.5586152 -0.128348 0.09087641 -0.14543197 -0.10696731 -0.054111723 -0.0049710306 0.101150036 -0.08948647 0.024860172 -0.28957993 -0.27851263 0.13593096 -0.35349175 -0.30096844 -0.16313802 -0.04470178 -0.06806093 -0.12517661 -0.04220849 -0.135622 -0.21153215 0.08176463 0.0671563 -0.18859373 -0.36435133 0.010591399 0.04909806 -0.013461039 -0.19008298 0.25456554 0.101056576 -0.17195179 0.062136464 -0.1888755 -0.17204598 0.0029771128 0.048240334 0.100082375 0.11817196 -0.054074768 -0.07711359 0.19150321 -0.07491627 0.12252476 0.07313643 0.0013780612 -0.1766438 0.03325267
648 0.05947557 -0.23855081 0.031929526 0.33812156 -0.25006175 0.05018543 0.064927526 0.2885334 0.08220217 -0.3528863 0.19287269 -0.039046917 -0.12791197 -0.03192583 0.03164659 -0.42839998 0.13452731 -0.23290393 0.19161597 -0.034620807 -0.044490367 -0.066824846 -0.29500666 -0.1298087 -0.06960731 -0.15862677 0.107745685 -0.1890344 -0.1987845 0.00591812 0.054266717 -0.18302774 -0.16142605 0.054245662 -0.12788928 -0.16349004 -0.13037059 0.31457576 -0.110425234 -0.24390975 -0.23157535 0.25864694 -0.05386417 0.11064048 0.0037705805 0.0043287603 0.118820906 -0.32559904 -0.28108186 0.15172404 -0.33201778 0.15233704 0.06775112 -0.028548688 0.00088987953 -0.031161003 0.19155137 0.34413967 0.09388587 -0.23805296 -0.20409125 0.11431199 -0.080299646 -0.23063315
434 -0.13109164 0.446079 -0.34061489 0.49450007 0.007608698 -0.25795245 0.036259715 0.17539947 0.65577596 0.30076295 0.06417978 0.23833081 0.43274832 -0.15175249 0.4271332 -0.09583407 0.055998094 0.15579106 0.35333613 -0.169202 0.056013644 -0.024211723 0.029189842 -0.1022187 -0.2595961 0.13311222 0.20991518 0.049571205 0.04552324 -0.24444531 0.20003386 -0.3607312 -0.22157452 0.3971917 0.19010471 0.045111522 -0.039048675 0.40836635 -0.089736566 -0.15679428 0.03844769 0.05222522 0.07844498 0.4128235 -0.077418536 0.16565388 0.21531646 -0.5502058 0.026492028 -0.023984665 -0.29440045 0.1340485 0.10145335 -0.0037295725 -0.07833893 0.007643496 0.108671956 -0.031032842 0.34471756 0.49504095 0.533567 0.12161602 -0.18671532 -0.16464853
435 0.14208058 -0.19418946 0.2084908 0.011899771 0.2966305 -0.106475435 -0.06860625 -0.18821603 -0.054456227 -0.061410237 0.19179764 -0.004967629 0.29556248 -0.19505028 -0.043446153 -0.12065084 0.63721085 -0.31057304 -0.020919537 0.4004215 0.11553591 0.18239963 -0.16591763 -0.27750185 -0.13528769 -0.14633423 -0.18057054 -0.07038997 -0.08426923 -0.10927614 -0.23996617 -0.15260912 -0.2456241 0.07388174 0.093308784 -0.03988017 -0.15543841 0.025913242 0.037063558 -0.056557294 -0.21509504 0.08911558 0.25524226 0.29222575 -0.21971516 0.29555932 0.02714683 -0.06950541 -0.012156602 0.17013691 -0.07632296 -0.27162322 0.38461003 0.22862364 -0.31784242 0.1296621 0.015223523 0.5876314 -0.15021096 0.14061022 -0.19516098 0.20560704 -0.015583263 -0.24292056
432 -0.04441277 -0.5210685 -0.032270987 0.1672959 -0.54247034 -0.026637577 -0.32816932 0.28578743 0.2434433 0.25317308 0.16044077 -0.33888015 0.27894786 -0.29541317 0.1876036 -0.4364335 0.05593833 -0.051560648 0.459793 -0.20132615 -0.16622148 0.6142843 -0.35478318 0.12311906 -0.33310816 0.10099296 -0.09827859 0.027082607 -0.13619517 0.2284984 -0.33846804 -0.3993922 -0.04976564 0.25475326 -0.011274859 -0.26132092 0.019345788 -0.31401688 0.080210865 0.05759738 -0.5362397 -0.18202528 0.7884177 0.5630667 0.019350164 -0.05030234 0.22019769 -0.26712453 -0.20033427 0.061245643 -0.3520949 0.040510386 0.13883151 0.00083384744 0.27200672 -0.28985944 -0.019214246 0.19518118 -0.48355374 0.5130394 -0.0767265 -0.15468925 0.09643523 -0.44683754
433 0.38581884 0.49922863 -0.20262209 0.34524807 0.24043754 -0.25440207 -0.5647885 0.15594643 -0.07204596 0.06389314 -0.21786693 -0.06056346 -0.025832225 -0.6673881 0.23805101 -0.08523727 -0.33896592 0.24732378 0.16628237 -0.08665692 -0.015458403 -0.18288158 -0.20079497 -0.13153131 -0.032095272 -0.22934663 0.4325538 0.061482042 0.20856023 -0.41153482 -0.0675858 -0.25814 -0.117463216 -0.29010308 -0.014093037 0.2636008 -0.13484974 0.38812238 -0.40002528 -0.0961217 0.05208228 0.10034066 0.3266709 0.05749253 -0.03579324 -0.04425184 -0.111633755 -0.24518484 -0.048556883 0.27838168 -0.34538192 0.16052629 0.063208126 0.41214088 0.046004687 0.07470615 0.23016967 -0.009056628 -0.087321915 0.19081245 -0.04617143 0.4055621 -0.066475265 -0.20105827
430 0.12814331 -0.3171398 -0.0845944 0.1636466 -0.23843294 0.09322209 -0.2234968 0.18942204 0.19517314 0.15671591 0.2064044 0.10264933 -0.17359567 0.11545775 0.20008776 -0.33767644 0.26320645 -0.024437869 -0.5138589 -0.4647069 -0.35463002 -0.31106916 -0.44784674 0.15426503 0.20051411 0.314338 0.17779161 -0.018875556 -0.09529276 -0.4810081 0.063959226 -0.059012547 -0.67390037 0.21026368 0.15342136 -0.21159369 -0.35767716 0.49237558 -0.1368304 -0.01621255 -0.30483234 -0.11283347 0.29434288 0.09427787 -0.16604811 0.12360862 -0.5299405 -0.40192974 0.2531064 0.05392572 -0.12769993 0.27630082 -0.07498581 0.29942882 0.06494063 0.24313584 0.36477935 0.26420185 -0.06247161 0.0033632983 -0.15375777 -0.051560998 -0.0062022144 0.07566139
431 0.0119482735 -0.5714251 -0.03410654 0.017933082 0.033505317 0.10272284 0.004988057 0.118901946 -0.23690955 0.1286405 0.16024515 0.3662238 -0.3523327 0.23941305 0.11070944 -0.11120172 -0.49127355 0.101677336 0.11111533 -0.1529305 -0.36320323 -0.60646784 -0.44407517 0.06785636 0.6431927 0.112828046 -0.15743458 -0.29306442 -0.04743121 -0.4015364 0.010632654 -0.08523793 -0.357831 -0.11342693 -0.09717773 -0.2504373 -0.25789148 -0.005047974 -0.09166286 0.0193244 -0.45634308 -0.18569873 -0.14458467 0.34896168 0.051847477 0.22562112 -0.11995261 -0.24683549 -0.13463683 0.02544788 -0.2672326 0.59821063 0.15153271 0.36729318 -0.0014390736 0.33927187 0.0010549056 0.32985842 0.15922967 0.23934774 0.27196667 0.13238181 -0.15378836 -0.7377949
339 0.24848738 0.25885025 0.046869535 0.44917345 0.17610647 -0.2639847 0.011794399 0.14337678 0.053018007 -0.02989527 -0.009359541 -0.11761855 0.30605176 -0.25156942 0.13812973 -0.5777203 0.21402556 0.033424266 -0.0520384 0.023518082 -0.31647077 0.22269703 -0.3323496 -0.1343762 0.17792597 -0.31026626 0.122874275 -0.22300074 0.35728353 -0.24930423 -0.10149811 0.024366058 -0.065546386 -0.041526448 -0.1875828 -0.30151019 0.22309083 0.056827452 0.17006214 0.049977753 -0.09387514 0.026205573 -0.20963387 0.27354264 -0.2572126 0.08835472 -0.09855214 -0.3142062 -0.4057994 0.61785877 -0.21691884 -0.03881452 0.15264466 0.15280913 0.11133849 -0.0116056735 0.047409877 -0.03700266 -0.3085751 -0.11161714 0.09548546 0.24274549 -0.13326001 0.17737873
338 -0.04837811 -0.17664249 -0.076133646 0.54638 0.07416016 -0.09979683 -0.10844264 -0.011832542 0.34805536 0.06237178 -0.019551769 0.042270124 0.12007084 -0.14865878 0.011659502 -0.010633544 0.17272031 0.2154662 0.2676739 -0.3015483 -0.09944807 -0.09198141 -0.07657921 0.112746246 -0.06273964 -0.22441176 0.0912479 -0.3047742 -0.03081519 -0.2066453 -0.18142718 0.046600286 -0.16688596 -0.043678157 0.28548408 -0.0065742903 -0.21366744 -0.077947445 -0.19703637 -0.1332164 -0.4443742 -0.029323699 0.20737045 -0.03901305 -0.15604058 0.002254278 0.33407152 -0.20760725 -0.093068026 -0.09912224 -0.34543473 -0.36572358 0.28033456 0.054552324 -0.078692295 0.089018025 0.097218916 -0.17363776 -0.2468496 -0.15932639 0.1532426 0.073493674 -0.026726853 -0.29018635
335 0.42322093 -0.06719078 0.08348842 -0.23822513 0.04090947 0.33431256 0.11892195 -0.31042573 0.015426415 0.23932983 0.0030851117 -0.24318925 0.022611357 0.07672572 0.34397006 0.0009805921 0.010500538 0.036884606 0.07117969 0.089980595 -0.16842191 -0.03429606 -0.20046641 0.0955605 0.20237003 -0.034967333 -0.09682789 -0.1986957 -0.35899583 -0.3028076 0.21007636 -0.14728965 -0.24688016 -0.17681913 -0.20884255 0.21732673 -0.3982605 0.0373764 -0.1994566 -0.123222545 -0.21335968 -0.015733825 0.14535013 0.22509272 -0.46234268 -0.071273774 0.11344501 -0.1198061 -0.2683194 -0.093949355 -0.38267398 0.009038489 0.37111476 0.0042747217 0.2166498 0.07515799 -0.04180865 0.25999442 -0.10539578 0.0021471095 -0.16420744 0.023095407 0.07141082 -0.30300328
334 0.16249129 -0.28204146 -0.17662817 -0.07132955 -0.14504437 0.1578412 -0.054896235 0.10438576 0.128294 -0.1196566 0.12619045 -0.31848857 0.33417737 0.0142376 0.036626462 -0.55900246 -0.14734408 -0.06851772 -0.19458464 0.2903067 -0.20031984 0.08306571 -0.13186254 -0.02415896 -0.30593824 -0.26119307 -0.22300845 -0.20475835 -0.27683836 0.057042185 -0.11532961 -0.041162442 -0.21377556 -0.28893733 -0.045536987 -0.2970383 -0.059428163 0.15384613 -0.017964548 -0.20953663 -0.434765 -0.10215433 0.017951304 0.45296633 0.06274146 -0.113903016 -0.0009949256 -0.47123286 0.23008795 -0.13435446 -0.64860106 0.06793767 -0.07900071 -0.024334848 0.42738542 -0.5947617 -0.11582724 0.34881043 -0.05395028 0.1813111 0.15048985 0.12597688 -0.15698577 0.17052604
337 0.30345914 -0.107760295 0.043587655 0.054231208 -0.3659541 -0.136512 -0.028154686 0.15429586 0.63181746 -0.039256644 -0.012445741 -0.08841612 0.367779 -0.37799522 0.2767086 -0.31841895 0.2146321 -0.081195995 0.26189667 0.22315802 -0.27418962 0.14781047 -0.2354575 0.17809223 0.1263832 -0.28271437 0.20184337 -0.10912116 0.0047565326 -0.24945402 0.12383827 0.119819574 -0.32890153 0.06499651 0.17744759 -0.380519 0.11739511 0.29739916 -0.19343229 -0.111537956 -0.18248865 -0.17311141 0.3054331 0.008651592 0.0679762 0.209406 0.16926242 -0.28787398 0.13365567 -0.014078613 -0.18279013 0.014871234 -0.025367217 -0.17779519 0.20291542 -0.45096987 0.07135788 0.09662933 -0.022343772 -0.0152957 0.26620352 -0.042324997 0.009973316 -0.30631077
336 0.24003042 -0.09805889 -0.13153921 -0.10745774 -0.44557106 -0.04429388 -0.032711726 -0.080394424 -0.09783888 0.267703 0.030558877 -0.059183992 0.22547747 -0.12977047 0.46337917 -0.15156892 0.35848308 -0.06738382 -0.28546458 0.10488225 -0.00061584753 -0.30967414 0.08883861 -0.12849234 -0.2652182 -0.46418893 -0.18821904 -0.32562634 -0.19869268 -0.32187864 -0.76217306 -0.47918093 -0.25009137 -0.3159244 -0.38615572 0.032122213 -0.29830506 -0.03270501 0.007667557 -0.13656625 0.04361561 -0.6492398 0.42680243 0.14403102 -0.08599225 -0.27582327 -0.3712137 -0.25804335 -0.29457018 -0.087159894 -0.16403587 -0.012864797 0.13600554 0.38647246 0.08624052 0.041770365 0.3322482 0.47611377 -0.2267496 0.33807608 0.18669313 -0.31255457 0.1545184 -0.08467097
331 0.15515272 -0.01897048 0.49550536 -0.2467646 0.0037531045 0.06805273 -0.1886151 0.16944882 -0.0039711115 0.13050549 0.23071904 0.1386505 0.24474137 -0.47055316 0.044818074 -0.38666677 -0.07329488 -0.44328538 -0.3011757 -0.14546166 0.09705766 0.2231425 0.16467789 0.112431794 -0.29351738 -0.34439227 -0.3904244 -0.21931997 -0.18958317 -0.6516772 -0.53964525 -0.7840854 -0.093268424 -0.17395642 -0.0766926 0.2873633 -0.14732961 -0.5646735 -0.0712374 -0.5737594 -0.22006892 -0.23331425 0.5738791 0.39502862 -0.09058777 -0.051017735 -0.42612943 -0.1698248 -0.29881316 -0.059500914 0.1592361 0.12111196 0.10277428 0.1313242 -0.216098 0.18096797 0.24427351 0.15378676 0.10890914 -0.22330166 0.04318038 -0.49558714 0.069434196 -0.19990076
330 0.30622143 0.030812671 -0.31724846 0.4672365 0.2586708 0.21651311 -0.3286111 0.13811281 -0.0382145 0.10631914 0.1775017 0.1807631 0.015914463 -0.007358802 0.11742162 -0.2737071 0.12657815 -0.35391277 0.08832432 0.34528387 0.10143407 0.0427906 -0.1408804 -0.24384569 0.24086447 -0.18427713 -0.2694077 0.048833966 -0.23341714 -0.3215949 0.045021165 -0.16487992 -0.38303447 0.010884707 0.2616072 -0.20626685 0.22675858 0.6799532 -0.12536407 0.068351 -0.38189852 -0.12792896 0.24772574 -0.12635015 -0.30434898 0.21240157 -0.3189049 -0.0861497 -0.15267317 0.18121701 -0.11956302 -0.18199708 0.14884403 -0.2556057 0.055334084 0.29457667 0.08012941 0.031808976 -0.36307722 -0.30307662 0.3152739 -0.30969757 -0.035339646 -0.09914672
333 -0.17712684 -0.30423525 0.35806876 0.17588727 -0.17317396 -0.09094242 0.052075513 0.054232437 -0.14628913 -0.09945631 -0.08039317 -0.18997742 0.21554393 0.072227314 0.5192664 -0.6129319 0.049961485 0.07390771 -0.15042771 -0.19000864 0.17161371 0.0541668 -0.24803956 0.10467575 0.1251579 -0.10826147 -0.030083608 -0.22623053 -0.2773452 -0.074172676 -0.22935344 0.20344234 -0.42203805 0.13529973 0.21330516 0.042552914 -0.2765672 -0.034954842 -0.35052124 -0.30275574 -0.25637093 0.19574568 0.0801855 0.029150903 -0.34626102 -0.115253925 0.29631597 -0.32904804 0.2919187 -0.2527921 -0.10042539 -0.23971793 0.3582185 -0.010519809 -0.09082753 0.13857578 0.098690294 0.21481404 -0.41741836 -0.15147524 0.060539253 -0.3551648 0.20151554 -0.21723273
332 0.5297514 -0.22939485 0.3126056 0.3302592 0.07054857 0.18817857 -0.5265922 0.35384575 -0.017556133 0.4355337 0.094640404 -0.0036454373 0.09765475 -0.10609936 0.30881992 -0.36284682 0.042836122 -0.23951384 -0.5457414 0.090328805 0.13763984 0.10122478 -0.13654615 0.22372146 0.10246964 -0.44775096 -0.32880038 -0.24615024 0.11664243 -0.10902668 -0.46280602 -0.61176676 -0.25732946 0.09546248 0.029861206 0.23559096 0.17021914 -0.11174469 0.2052449 -0.042196438 0.029436793 -0.023948647 0.44128507 0.37041694 0.11069313 0.2154596 -0.23139584 -0.23187111 -0.27691314 -0.096094586 -0.013708944 -0.15979779 0.21552804 -0.037330855 0.11905084 0.33866647 0.17650127 0.29863864 0.37197015 -0.017897388 -0.28004462 -0.30994317 -0.22197208 -0.56083274
744 0.44927248 -0.06216795 -0.046521466 0.100563854 0.44476774 -0.1165567 0.29071477 -0.22457874 -0.101877585 -0.015021181 0.38033077 0.47610715 -0.15784688 -0.6758852 -0.034366664 0.028286027 0.39009938 0.10337049 0.05882541 -0.14911586 0.031779032 -0.24607866 -0.46161374 -0.5560976 0.39922357 -0.27156147 0.3375558 0.07751981 0.1675741 0.05139746 0.10834154 -0.38471532 -0.36091328 0.09596205 -0.0189154 -0.34162897 -0.4027179 0.5241065 0.4907598 0.20405513 0.05920892 0.32891288 0.12587361 0.15428315 -0.07870534 -0.017244754 0.37756008 -0.23832358 0.10084026 0.13849783 -0.38233268 0.25211087 0.19247457 0.44114676 0.32970253 0.096639134 -0.12811518 0.101150975 0.036422037 -0.2693147 -0.06556297 -0.2724414 -0.48217037 -0.3756983
745 0.079427116 -0.030505449 -0.00024490771 0.007063464 -0.157862 0.06828441 -0.11233111 -0.337896 0.08380712 -0.2291228 -0.13957366 0.5162641 -0.11974054 -0.11852942 0.32750148 -0.29138982 0.14494897 0.08497214 -0.058533624 -0.09258334 -0.05177924 0.17023394 -0.3086537 0.0040269457 0.118555315 -0.40578067 -0.19979872 -0.14135663 -0.22439587 -0.46962795 -0.32433504 0.124913685 0.22693022 -0.14336123 0.014809489 -0.15176786 -0.1766242 0.006108059 -0.037145957 -0.20095272 -0.16255131 0.008426226 0.14252654 0.037158933 0.071022935 -0.087093 0.40053037 -0.047864083 -0.15330586 -0.21521293 -0.45542842 0.022442905 0.18075006 0.3077218 0.08558018 -0.023822827 0.04150324 0.35040358 0.23433174 -0.1777623 0.15117818 0.12107646 -0.0455133 -0.1431228
