2708 128
593 -0.59997195 -0.30400148 0.13935669 0.54580605 -0.24041514 0.08270105 -0.28110713 -0.6125178 0.21544036 -0.02422868 -0.57164526 -0.15655094 -0.2920429 -0.14437963 0.50979376 -0.09200314 0.090332925 -0.26034868 0.13584605 0.12201282 0.5832269 -0.015514497 -0.15376812 -0.0026921483 -0.099268466 0.3559556 -0.15149404 0.38938665 -0.16548842 -0.38814378 -0.41043955 -0.051724836 -0.17542112 -0.18662985 -0.2701149 -0.8315911 -0.15260322 -0.06674723 -0.32290384 -0.36496496 0.006172411 -0.26869538 0.023806518 -0.28931233 -0.8042188 -0.54205376 0.29051048 0.13492893 -0.29495272 0.7559452 0.06427926 -0.03349308 -0.39891586 0.6175372 -0.39947125 0.8483372 0.3568681 -0.014369721 0.24055779 0.39810398 -0.1544764 0.053546302 -0.1768739 0.017185317 0.053242624 -0.009651635 0.59395593 -0.34761167 -0.0425904 0.7696948 -0.22483885 0.21249153 -0.32104823 0.51056 0.26312765 0.5638138 -0.33823708 0.34887156 -0.26676366 -0.19416387 -0.094110504 -0.24617368 -0.16732046 -0.368441 -0.02780516 -0.4297738 -0.0266428 -0.1217424 0.17615771 0.0061315726 0.049207 0.26636186 0.14265832 -0.332556 0.47340506 -0.73424786 0.43034613 -0.15504146 -0.5552948 0.008912758 0.58869064 0.39400855 -0.16983658 -0.71910566 -0.09480351 -0.21565856 -0.22850907 -0.0305783 -0.072650716 0.27852902 -0.13805123 0.12953047 0.15117061 -0.14043877 0.24593964 -0.38534707 -0.13229711 0.164686 0.15346657 0.33892196 0.44726884 0.56530356 -0.1931385 -0.4876121 -0.35263067 0.53721243 0.5816821 0.3035858
344 -0.24087301 0.02375186 -0.02959512 0.45186687 0.12146518 -0.53072375 -0.3432203 -0.16699685 -0.50786054 -0.1029941 -0.4676202 -0.26307052 0.25338176 -0.5342879 0.5258427 0.1880076 0.03972432 -0.1071907 -0.028262079 0.09696392 0.28817338 -0.59768355 -0.14923401 -0.18625242 -0.32237518 0.17430674 0.46436504 0.23873423 -0.08957691 -0.18185417 0.19371171 -0.21249394 -0.57462984 0.06363276 -0.37015855 -0.6883624 -0.34347963 0.44141155 0.027407993 0.53623146 0.36769792 -0.4124687 0.3132155 0.48611328 -0.56714946 -0.37701148 0.17610432 0.30277336 0.026194656 -0.076395325 -0.20240615 0.064661145 0.7218404 0.0962217 0.018795608 0.6794992 -0.17748716 -0.012424294 0.020862179 0.10292769 -0.66033846 -0.33338782 0.005992485 -0.12811394 0.30580106 0.3661397 -0.051187754 -0.2304108 0.030799506 0.1831189 -0.005538122 -0.102926694 0.0032386559 -0.12696193 1.1827058 0.45090342 -0.058257293 0.35214618 -0.19113606 0.19846074 -0.11189418 0.32096002 0.39887062 -0.30481875 -0.43009287 -0.38168567 0.39731565 0.32868254 0.58362 -0.3327896 0.78350097 0.045009244 0.06544745 -0.36622202 -0.22002724 0.13126744 -0.02606288 -0.53900826 -0.5191863 0.19914426 -0.06505513 -0.16715294 0.19478276 -0.00790334 -0.03546157 0.039660282 -0.1881297 0.07821762 0.1426077 0.23248804 0.58412266 0.3947505 0.05219044 -0.229446 0.23971845 -0.23989743 -0.24114694 0.37628192 0.5269831 0.33283943 0.3942075 0.7705635 -0.018515954 -0.21966468 0.37329844 -0.39218426 0.13679546 0.9032527
345 0.08774408 0.29496536 -0.5255828 0.0093150735 0.12927555 -0.006070573 -0.6900997 -0.16029827 0.33761346 0.85994047 0.02255648 -0.50071716 0.34147996 -0.49322474 0.08832667 0.6172505 0.5406427 0.10137323 -0.82727396 0.014456695 -0.44025815 -0.036563873 -0.522598 -0.29936665 0.7052068 0.024322264 0.08674622 0.04769091 -0.6664352 0.6081254 0.34154245 0.039203938 0.097963065 -0.36349887 0.09952743 0.063782044 0.24064624 0.3739595 -0.33182815 0.0037208581 -0.24672982 0.1668887 0.21254802 0.090655334 -0.44839454 -0.04215812 0.2525518 -0.021837948 -0.29522073 0.19814563 -0.05281766 0.112473115 -0.50279754 -0.16998887 0.20014773 -0.18223293 -0.17878446 -0.92070174 -0.055781703 0.078225635 -0.22240789 -0.106343925 0.3697355 -0.47712108 -0.19509268 0.6067116 0.5198303 -0.12117304 -0.31578213 0.23931341 -0.033773545 -0.30952358 0.019290406 -0.00648681 0.40718088 0.6536265 -0.6511123 -0.7755152 0.2583713 -0.4399105 -0.111696415 0.33043972 -0.42926592 0.0045188623 0.22834474 0.010821878 0.4375884 0.24886005 -0.041102387 -0.017557714 -0.031716235 -0.5295287 -0.027226346 -0.21208999 -0.45980692 -0.21714504 -0.12290231 -0.15932813 0.047022197 -0.951299 -0.67736423 0.2457403 -0.3697273 -0.053816848 -0.5728578 -0.16798028 0.17202142 -0.5200257 0.64078236 0.52598006 0.13760455 -0.30750653 0.36045372 -1.012506 0.6631535 -0.031011086 -0.0014282069 -0.24177133 0.56679505 0.33590367 -0.12927403 -0.2261693 0.0695698 -0.31403348 0.284567 0.67576504 0.62761074 0.8103247
346 0.1316176 0.4606631 -0.34301218 -0.053285625 -0.3932355 -0.39399573 -0.22482331 -0.15206148 0.024941165 0.15668578 -0.23196983 -0.21087486 0.15578006 -0.39836422 0.20555429 -0.12850575 -0.05208886 -0.28289843 0.07471084 -0.34586078 0.007853611 0.15190378 -0.7563175 -0.087336585 0.1628749 0.08520155 -0.0516185 0.14891103 0.07869712 -0.14602154 0.32586092 -0.93740845 0.08024712 -0.17972298 0.08806269 -0.48623663 -0.01929768 -0.12536079 -0.32571158 0.3270874 0.3884545 0.07511796 0.41537672 0.014005076 -0.33650273 -0.48171613 -0.3885567 0.24853176 -0.33009806 -0.39030448 0.02665905 -0.31499067 -0.0418618 -0.028842349 -0.015728045 -0.50501394 -0.6905871 -0.102259554 -0.026375785 -0.29645255 0.3469665 0.15138578 0.19583099 0.058198664 -0.13033998 -0.056046516 0.37649897 -0.15229493 -0.11507598 -0.11566221 -0.373436 -0.6831969 0.022023456 -0.22352593 0.4130527 0.3582808 -0.80408704 -0.47007072 -0.33998436 0.5373362 0.35893077 -0.11170362 -0.37439477 0.043322515 0.21748665 -0.31936175 0.5835525 -0.4355578 0.097824074 -0.4708199 0.23790443 0.05748353 -0.2491336 -0.6375041 -0.24755163 -0.18350588 0.16390088 -0.10936544 -0.40018198 0.01014358 -0.21541236 -0.01865538 -0.061068557 -0.15341572 0.002247955 0.34164244 -0.053514574 0.16970553 0.3709784 0.43118092 0.064497896 -0.04824995 0.22675548 -0.055030875 0.3103233 -0.18558572 -0.3853838 -0.009236821 0.7418091 0.45053482 0.28996795 0.52572966 -0.3253956 -0.5863066 0.41122422 0.0038729056 0.05606948 0.42857212
347 -0.40596807 -0.14374833 0.052994817 0.3393177 0.4097063 -0.23741026 0.30014265 0.015649516 -0.30940422 0.07457618 0.15714225 -0.5640271 -0.3029845 -0.85062295 0.37422916 -0.15608999 -0.051124834 -0.38561973 0.06319469 -0.33299103 0.4846461 0.24591152 -0.26542318 0.19486749 0.26881936 0.48367557 0.06430188 0.33406988 -0.5950535 0.2794965 0.29197362 -0.14658679 -0.7522131 -0.2364328 0.27222523 -0.9487761 -0.019224083 -0.5958641 -0.10612476 -0.14249903 0.07308721 0.07277647 0.32655287 -0.54411983 -0.08463204 -1.0070082 0.21197514 0.98211306 -0.26349828 0.5655563 0.16106595 -0.17831421 -0.3334893 0.07869207 0.14998615 0.42384386 -0.75310695 -0.24801563 0.41188413 -0.30658397 0.07240478 0.30394292 -0.50055 0.09850058 -0.39744705 0.24034946 0.049560037 0.26207456 -0.29670274 0.62502265 -0.29782787 0.26407212 -0.21170233 -0.5117691 -0.10862616 0.14382206 -0.2411933 -0.23110406 -0.36152956 -0.048880782 0.18226853 0.21816601 -0.59543467 -0.33668694 0.27188033 -0.7109686 -0.32165098 0.034305982 -0.7670755 -0.2813778 0.16280758 0.3533898 0.14683296 -0.40618932 0.4183602 -0.5017617 0.058077417 -0.32990056 0.17180793 0.18135342 0.480475 0.2510892 0.49048215 -0.24553029 0.21677867 0.37076196 -0.32561067 -0.20694952 0.56061804 0.2440228 0.09830663 -0.010554268 0.17276493 -0.16323665 0.053733163 -0.3832612 -0.26912478 -0.17278737 -0.014592631 0.08961155 0.3158806 0.14444812 0.060295586 -0.63970214 -0.2983398 0.39919475 0.02994299 0.3814573
340 -0.15861209 -0.8569361 -0.18120196 0.10237496 0.38634023 0.14237644 -0.017765073 -0.21127507 0.01017214 0.14213382 0.105367705 -0.5197789 -0.2731485 -0.6494404 0.17266697 -0.11850196 0.075054795 -0.45484027 -0.17998643 -0.3181654 0.3975489 -0.2687947 0.14668018 -0.016715175 0.023120223 0.76637423 -0.017809484 -0.0050804922 0.02003563 -0.22086485 0.41388583 0.1540362 -0.7686064 -0.62329113 -0.25002772 -0.3649306 -0.5675625 -0.16884424 -0.24405697 -0.8163198 0.49035853 -0.54336524 0.5117657 0.017671276 -0.3414055 0.19609155 -0.45712563 0.42103872 -0.38086674 0.5976078 0.16191381 -0.18991183 -0.5055332 0.39189473 0.38578117 0.3080682 -0.5520689 -0.3032077 0.96357244 0.29523045 -0.8069196 0.21975717 0.056515235 -0.2665258 -0.41306004 0.16240028 0.09894281 0.075685374 -0.041366573 0.300533 -0.8980515 0.47995982 0.081000656 -0.5416417 0.20629415 -0.026418006 -1.1334454 0.17409721 0.05096103 0.21567537 -0.05678595 -0.11130688 -0.28267705 0.5586492 0.06649985 -1.015462 0.55356455 0.14445008 0.379444 -0.24744172 0.906328 -0.051231414 -0.47486886 -0.5488962 0.063133635 0.2065059 0.09289033 -0.30057603 -0.34159717 0.09856846 -0.060318857 0.3996324 -0.049693156 -0.10407375 0.35711116 -0.3469092 0.21745849 0.33001426 0.7237862 0.18213128 0.45830634 -0.22167738 -0.12547067 -0.90771836 0.08555968 0.26346344 -0.31766534 -0.100450166 0.21684277 -0.51286125 -0.1474121 0.368528 -0.43465316 0.7718007 -0.45701876 0.17055915 0.27309048 0.84027326
341 0.14167999 0.40927118 -0.2838414 -0.052384373 -0.25259402 -0.07958249 -0.079608634 0.040916584 -0.43260884 -0.2841646 -0.1764791 -0.32772422 0.27224624 -0.36016616 0.36608005 -0.5856476 0.14965716 -0.4346936 -0.6302577 0.0844987 -0.03323624 0.104375176 -0.4597289 -0.2880459 0.112753384 -0.12506564 0.18429302 0.26534092 -0.24312906 0.14328903 0.29158023 -0.5135327 0.019472437 -0.25388718 -0.27147782 -0.22914053 -0.28454477 0.079187706 -0.71798074 -0.4271282 -0.040741272 -0.24400213 0.49467793 0.1099939 -0.19935954 -0.5790575 0.16200793 0.50652575 0.286385 0.38374668 0.11297655 -0.19213924 -0.35464478 -0.101088755 0.06274236 -0.0763728 -0.2280075 0.091727026 -0.29619497 -0.3451982 -0.08126162 -0.2953464 0.4644311 0.0643381 0.05471444 -0.2446812 0.5593691 0.19792508 0.20474409 -0.4329798 -0.2974992 -0.11314463 0.27546048 -0.16462728 0.2463335 -0.16009258 -0.84462434 -0.36035857 -0.093860544 0.3662245 0.14275031 -0.09850958 -0.17680073 0.30484793 0.2346881 0.0828711 0.5895528 -0.44929355 0.03289404 -0.10891076 0.12923858 0.021777794 -0.0713268 -0.59439 -0.107466996 -0.023624307 0.51845133 -0.13451765 0.32772765 -0.146292 0.24476638 -0.021827037 0.08115268 -0.6715372 0.0744557 -0.20368916 0.1350292 0.5955273 0.620641 -0.0077292672 0.11057688 -0.10048766 0.18356544 0.44065866 0.1764128 -0.035491325 0.0006868157 -0.08291803 0.24174558 0.35737637 0.030952143 -0.30423912 -0.2294666 0.54161316 0.5129799 0.16114667 0.2579367 0.5277062
342 0.2839887 0.54672486 0.29000306 0.43447343 0.02298182 0.06557453 0.19880153 -0.043386593 0.31359008 0.14930019 -0.053023838 -0.040922064 -0.040891174 -0.32146168 0.043066125 -0.33271483 0.03482554 -0.31117168 -0.28157625 0.3096232 0.8474864 -0.13370639 -0.39202613 -0.21247737 0.58016783 0.28906363 0.32790366 -0.14379998 -0.5398806 -0.1795796 0.61536413 -0.28416067 0.4738299 0.45489785 0.23455814 0.011244591 0.041806594 -0.06903121 -0.23859558 -0.2156892 0.34108105 -0.08250782 0.41290924 0.32526264 -0.27980733 -0.65398645 0.07379839 -0.2368039 -0.12008432 0.030977441 -0.26925445 -0.044992067 0.15081751 -0.36073086 0.113366 -0.11490846 0.24619482 -0.13013421 0.1714542 0.7642368 0.006159973 -0.17156374 0.33696717 -0.28572896 0.39206848 0.23471831 0.47489178 0.017055286 0.05703377 -0.06340788 -0.3839022 -0.21351518 0.47973305 -0.46394438 0.55259955 -0.14479136 -0.5277095 0.024977703 0.0025139782 -0.23159786 0.051338844 0.39535183 -0.27864423 0.26760662 0.70807076 -0.16466688 0.5845081 0.22479974 0.0648593 -0.6605251 -0.5050593 -0.14686248 -0.06637659 -0.3070464 -0.5516781 -0.10384685 -0.23559041 -0.46964523 0.124249324 -0.21956739 0.540612 -0.24013257 0.5963836 -0.052812774 -0.48716095 -0.11841294 -0.29788744 0.022336127 0.13484311 -0.15217851 0.3958003 0.11021471 0.057893544 -0.23421565 -0.11373482 0.08390821 0.16613509 0.1495849 0.29928666 -0.39261067 0.40471023 0.5995971 -0.010373982 -0.0059797843 0.45327392 0.22905841 0.17548165 0.26803064
343 0.027239475 0.68177485 -0.12791035 -0.41648066 0.42823616 -0.010298261 -0.65080726 -0.3052243 -0.2053634 -0.028325068 -0.0674533 0.21720365 -0.078012176 0.3769827 0.17135823 0.19245423 -0.031816322 -0.66497743 -0.08739972 0.21696423 -0.24580066 0.041878078 -0.4668613 -0.18032795 0.09485045 0.11954898 0.4035222 0.37265584 -0.5766007 0.10622537 0.15381272 -0.11400019 -0.55582 0.112611994 0.07306767 -0.12759039 0.030597866 0.37140858 -0.2710291 0.041852325 0.63187116 -0.0444877 0.19535321 -0.20537971 0.2555174 -0.041458845 0.04482862 -0.12909155 -0.0007570699 0.5118233 0.31875488 -0.36612558 -0.18794684 0.16175875 -0.23462251 0.5648761 -0.1885469 -0.10122607 0.17330086 0.49778524 -0.1860164 -0.33035234 -0.1916691 -0.64700526 0.21571335 -0.0057348185 0.24992058 -0.030057857 0.26591924 -0.01294802 -0.189648 -0.76267445 0.58059615 -0.17696 0.017842637 -0.016130881 -0.46478263 -0.19637293 -0.123605326 0.12885 -0.09235181 -0.09123574 -0.2791438 0.7375549 0.26826903 0.026294142 -0.6115091 0.10957668 0.41891122 -0.43960103 0.13473538 -0.1530389 0.4685724 -0.47519106 0.02862754 0.3894546 0.010992903 -0.35752454 0.008278807 -0.33641657 -0.20428899 0.38816878 0.21059285 -0.41244733 -0.71833223 -0.009698392 0.2630331 0.26401418 0.49452972 0.09384846 0.12286291 0.2066552 -0.075609684 -0.68548673 0.3091987 -0.12861398 -0.07107933 -0.72066 -0.37061018 0.50437117 0.0053373575 -0.02016376 0.013365121 0.3316826 -0.13735108 0.015994001 -0.22776121 0.48150745
348 0.12479059 -0.6934696 -0.75893795 -0.17666246 0.18557543 -0.17246372 -0.0847715 -0.17390624 -0.056296807 0.6096841 -0.37958306 -0.69520247 -0.15535092 -0.5070145 0.8233358 -0.46208012 -0.12173003 0.5883809 0.2763319 -0.035716593 0.42171934 -0.10284538 -0.49946856 0.52738404 0.8886578 0.81545687 0.23218036 0.26579532 -0.51092786 0.6463352 0.2813507 0.4570567 0.06917175 -0.34773815 -0.30040902 -0.51981735 0.26206374 0.5083493 -0.3200015 -0.8842164 0.39631125 -0.27549878 -0.29500702 0.21325909 -0.24711353 -0.04986132 0.05021618 0.14308293 -0.11687484 0.41858688 0.29388028 0.2401042 -0.26765135 0.12016323 -0.011292815 0.41623664 0.19147411 -0.18704271 0.15177576 -0.031973373 0.2052139 -0.45294598 -0.020772487 -0.28116244 -0.42954743 0.3216131 0.6392544 0.9405638 -0.4818957 0.37821496 -0.9776389 0.25636062 0.6064532 -0.22767745 -0.082768 -0.23541182 -0.8739074 -0.28164664 -0.37715262 -0.101102374 -0.27030483 0.13774736 -0.6067908 -0.099161476 -0.14633112 -0.61618143 -0.053893417 0.12423442 -0.038739566 -0.0053957063 0.91497135 -0.70647246 0.65481836 0.17860964 0.43851498 -0.46372405 -0.5050491 -0.43661192 0.33920598 -0.4436369 -0.63803005 0.36780596 -0.13547418 0.17978093 -0.5052253 -0.19098572 -0.40040094 -0.28287596 0.27908647 0.22831488 0.5303371 -0.4149794 0.24863406 -0.01806944 0.2137852 0.22080128 0.63236177 -0.44918737 0.438607 0.18547554 0.16222732 -0.2703062 0.10348048 0.30373207 -0.046232797 -0.22221631 0.551172 0.5530361
349 -0.27366003 -0.6816032 -0.580655 -0.103982866 0.29635015 0.0045675095 -0.7122059 -0.3221198 0.1838265 0.100273006 0.12638006 0.35964867 0.48970446 -0.06974948 0.3849057 -0.095071875 -0.079161204 -0.6181492 0.69922227 -0.09125858 -0.039898623 -0.11321355 -0.26882273 0.116253406 -0.047717128 -0.04233728 0.107092015 0.22215575 0.13729478 0.08855113 0.47454652 -0.51683277 -0.6932123 -0.42090845 -0.10198352 -0.123031646 -0.029506767 -0.51247025 -0.6646686 -0.28005576 1.0579259 0.32136923 0.07314058 -0.18327938 -0.5953885 -0.60566396 -0.2558638 0.51625454 0.107322186 0.59284955 0.09008089 -0.16695432 -0.31160116 0.30607906 -0.2702448 0.6934972 0.18900019 0.1951466 -0.023847617 0.20557639 -0.06788005 -0.99135375 -0.38806236 -0.10976338 -0.14232303 0.62658894 0.35195598 0.50492865 0.2861588 -0.29864758 -0.040158432 -0.20719273 0.4561309 -0.27600506 0.8549521 0.39791435 0.20079795 -0.5717047 -0.061741527 0.18242717 -0.5012229 -0.63519365 -0.22381349 0.44927368 0.37251306 -0.95614403 0.07900349 0.34528908 -0.21021432 -0.19269809 -0.05423061 -0.055084225 0.52995837 -0.7869528 0.5438399 -0.007505739 -0.14750497 -0.623782 -0.9339097 -0.26913017 0.24119331 0.34840232 0.14552952 -0.0937825 -0.5496817 -0.1491057 -0.48438117 0.6385905 -0.13070412 0.8609594 -0.0031931072 0.14678968 -0.24016082 0.12000632 0.20239839 -0.39083838 -0.517231 -0.29283732 0.27833408 0.4444985 0.9315077 -0.16440348 0.39654619 -0.13226618 -0.116508365 0.3908688 0.25428376 0.0013855895
1296 0.04829038 0.21785203 0.09274858 0.8302159 0.081621155 -0.2900891 -0.64740497 -0.24541958 -0.042770054 0.14307237 -0.0475269 0.15735056 0.45114952 -0.33541048 0.64927983 -0.22693782 0.05173366 -0.66523075 -0.3091989 0.09763679 0.6956409 -0.28633162 -0.39910352 -0.60889435 0.5823497 -0.097858384 -0.044121236 0.14894296 -0.569931 -0.2769967 0.66891474 -0.25241476 -0.014758532 -0.80575335 0.41373867 0.23145379 0.07175987 -0.027150335 0.41332337 0.12535316 0.21751761 -0.41457972 0.48018226 0.10293965 -0.527574 -0.14715154 0.098748334 -0.07401515 -0.053977728 0.2934917 0.3244738 0.05743982 0.4752517 -0.3979402 0.49224463 0.23151122 -0.43774405 -0.35463715 0.6187941 0.45616642 0.25672743 -0.16945353 0.1510886 -0.008269564 -0.37621313 0.075276785 -0.1841836 0.035052028 0.36926112 0.3423957 -0.103217795 -0.43682253 0.45710424 -0.68627834 0.81992054 -0.10476202 -0.8695946 0.48834884 -0.01695322 0.15603572 -0.32187986 0.52813315 -0.33087084 -0.0064544184 0.12263116 -0.17473973 -0.28809446 0.7885718 -0.220848 0.308908 0.44628572 0.028545791 0.017351614 -0.5914901 -0.045607124 -0.3746083 -0.1100994 0.056351986 -0.0685695 -0.13899313 0.45402083 -0.0013298853 0.47149917 -0.31472826 -0.36477423 -0.26357573 -0.4347351 0.6206754 -0.28079453 0.066946335 0.08845423 0.026158758 0.25235087 -0.098991804 0.8208323 -0.45449236 -0.23052847 0.38239565 -0.5129726 0.028101536 -0.14568077 -0.12742381 0.26350474 -0.06637328 -0.2961956 -0.009946149 0.12671022 0.11942869
2318 -0.5711531 -0.3132435 -0.48264924 0.3597925 0.1619541 0.080864795 -0.31380528 -0.05538807 -0.18182209 -0.044584673 0.30833954 -0.44200692 -0.6493738 -0.16488138 -0.100018546 -0.11208678 -0.34256664 0.144784 -0.41727778 0.49583042 0.44533473 -0.13895947 -0.000913569 0.22950555 -0.36321223 -0.23359042 0.7325448 0.36993346 0.15175776 0.42992544 0.7450305 -0.37171218 0.44511613 -0.31156272 0.2440652 -0.40958136 -0.32516807 -0.39833048 -0.057758253 0.24843982 -0.1682419 -0.3877455 0.31630385 0.096634075 -0.077221185 -0.390178 0.21247779 0.27700028 -0.06257606 0.5597451 -0.13683441 0.3675833 -0.14829487 -0.18504566 -0.10985174 -0.2555383 -0.19739065 -0.61240387 -0.021065408 0.11887054 0.07471887 0.26585802 0.17164186 -0.6314387 0.3357212 0.2128185 0.02319295 0.6957792 0.23148891 -0.5032784 -0.26339278 -0.26344407 0.30431256 -0.46828917 0.34325236 0.024083486 -0.37674853 -0.13638914 0.3194107 0.27011865 -0.39773104 0.6780126 -0.4264741 -0.24104404 -0.024141973 -0.62801427 0.12317933 0.19001481 0.23571618 -0.045001563 -0.29596713 -0.23997474 -0.15520032 0.39382488 0.37662807 -0.09362299 0.24262932 -0.4325491 0.17644402 -0.46126696 0.07040483 0.10414956 -0.08378076 -0.028284686 -0.22878726 -0.45048648 -0.36180216 0.16068874 0.5791601 0.17308123 0.11513497 -0.09496414 0.06246448 -0.39130804 0.4669699 0.103234425 -0.2712595 -0.32185623 0.13014704 -0.01049833 0.35314515 -0.19226617 -0.2940717 0.3553286 0.27821207 0.4018 -0.21873632 0.42886627
2319 -0.44618225 -0.3993464 -0.25386494 0.23168936 -0.042004827 -0.30801833 -0.26769328 -0.24930893 0.12782006 -0.32599622 0.41453415 -0.31838787 -0.1646203 -0.2596387 0.48124295 -0.3285454 -0.1969765 0.1891806 -0.47692546 0.91536117 0.60284704 0.35775176 0.15899628 0.37356427 -0.46660262 0.2874624 0.23546846 0.22385022 -0.11962567 0.29454702 0.6374968 -0.27454522 0.019654274 -0.54868335 0.091026545 -0.2443327 0.10415038 -0.21437258 -0.10123073 0.006713125 -0.13663614 -0.32178217 0.6166976 0.0061543034 -0.3574421 -0.19787647 0.31673124 0.15768361 0.034425136 0.7209851 -0.1976115 -0.0028744189 -0.24644634 0.061843034 0.08578693 -0.22298774 0.073813125 -0.6046136 -0.17621672 0.34381908 0.23841654 0.22461021 -0.25251454 -0.80282575 -0.008740787 0.36785334 0.23382166 0.719624 -0.06567361 -0.67292535 -0.32147476 -0.15894285 0.048570707 -0.5879641 0.7274445 -0.33990481 -0.25874957 -0.48701993 0.22506648 0.10120391 -0.33293495 0.51083463 -0.34452277 -0.21020658 0.09058929 -0.47526935 -0.26390988 0.4607715 0.0065444005 0.28803083 -0.2025074 -0.26531777 -0.12240821 0.16024852 0.4637448 -0.23082523 0.03743586 -0.33454677 -0.0073702154 -0.3447362 0.23230782 -0.008355252 0.11513248 -0.10755735 -0.05196787 -0.5712725 -0.4548851 0.010663954 0.8411256 0.04233883 -0.32291466 -0.27562279 0.5313203 -0.22091432 0.14877556 0.02503171 -0.20583402 -0.23478858 -0.16241276 0.049670827 0.27720794 0.0058608116 -0.032812703 0.26661438 0.1272015 -0.2220419 -0.055045556 0.0956342
2316 0.15366119 0.22922981 -0.17169222 0.36575508 -0.14715488 -0.12519291 -1.1057181 0.0018367232 -0.10175599 0.10551409 -0.8270603 -0.83591974 -0.24023166 0.1803841 -0.10609301 0.17675516 -0.08647161 -0.207888 -0.25641394 0.07046416 0.3098149 -0.013438211 -0.2015323 -0.13922492 0.37354967 0.016399955 0.19161436 0.04381992 -0.27700028 0.43212423 -0.08876718 -0.5571074 0.086922966 -0.5948333 -0.06473047 -0.6856033 -0.19869485 -0.3316809 -0.1891673 -0.35683015 0.32927313 0.14602849 0.02261431 0.27191967 -0.3137642 -0.6088084 -0.27600262 -0.004755322 -0.24051714 0.18439232 0.23761414 -0.35853872 0.28708443 -0.48178455 -0.20850033 0.28909826 -0.24177912 -0.26516166 0.05889569 0.21912529 -0.4774603 -0.22768717 -0.3179585 -0.29297814 0.22389758 0.49865928 -0.44888797 -0.041722875 -0.03338386 -0.04308822 -0.41362885 0.14253598 0.27017194 0.35203466 -0.10888721 0.26400927 0.13860509 -0.46223482 -0.09500388 -0.19697575 -0.5850166 -0.10110552 -0.72999537 0.115297675 0.21677259 0.04498667 -0.32938737 0.26255655 0.0049886825 -0.10529729 0.23125167 -0.027316634 0.30165097 0.15142755 -0.054745328 -0.15641159 -0.26599073 -1.1137102 -0.52325624 -0.24469718 -0.064853854 0.33312085 0.71174085 -0.13077745 -0.48589405 -0.340618 0.049375456 0.00089049037 0.37575775 -0.38466325 0.047404245 0.0151523 0.12777658 0.3757135 -0.114162065 0.5919602 -0.14779295 0.046463322 -0.5937051 0.4439286 -0.2135677 0.6666508 -0.18115865 -0.32192224 -0.11377881 0.6950029 0.018053906 0.41286677
2317 -0.24676043 -0.02515111 -0.4782561 0.022290917 0.7273674 -0.098937444 -0.4456723 -0.30013394 -0.08782405 -0.3048722 -0.19369783 -0.2912545 0.14085247 0.46707997 -0.24285965 0.029311627 -0.18278177 -0.5114028 0.31927574 -0.032505568 -0.07942748 -0.07023007 -0.22942758 -0.2220328 -0.3332842 0.72912335 0.36942998 -0.25043663 0.074491315 0.41359213 0.37850147 -0.40299946 -0.29264286 -0.29867312 -0.37821543 -0.26609144 0.10745675 -0.68183076 -0.7567278 -0.19245014 0.21554717 0.38080734 0.035111915 -0.4894346 -0.44592473 -0.48049518 -0.1501561 0.27526456 -0.25973636 1.1191419 0.38228056 0.112994686 -0.7889474 0.03931762 -0.16309342 0.3241568 -0.20342073 -0.5047583 0.15301095 0.05489098 0.02243321 -0.40459654 -0.75152826 -0.7422634 -0.37707025 0.40408364 0.3754769 -0.19580644 0.06990965 0.10605691 -0.2132928 0.29901516 -0.03541024 0.04583858 0.8311755 -0.34117654 0.17954676 -0.41343865 0.38419786 -0.16983707 -0.5024595 0.19409876 -0.059317987 0.2425885 0.3670507 0.08083412 -0.31395432 0.2517758 -0.4436369 -0.25034392 0.029136216 0.23396961 0.8512165 -0.27475956 0.07528265 0.035795152 -0.39982313 -0.63064057 -0.6075867 -0.18336426 0.29422066 0.59025913 -0.17875054 -0.0039441916 0.08118449 -0.19400674 -0.119949065 0.405414 -0.045948204 0.23440318 -0.15872648 0.06628237 -0.03591798 -0.08548963 0.52225965 -0.47090262 0.2185672 -0.076729454 0.38853475 0.79989 0.881402 0.30261672 0.40823027 -0.36404368 0.16017187 0.37760124 0.48418322 -0.010165077
2314 0.4277754 0.40602937 -0.35100067 -0.30739635 0.21947011 -0.1583759 -0.2682291 -0.36825523 -0.40676615 -0.043892022 -0.5239284 -0.20427151 0.11574065 0.45563242 0.50521576 -0.44735348 0.12727608 -0.35723773 -0.5966025 0.21649462 -0.29766843 0.16717432 -0.3369922 -0.21349433 -0.22121532 0.08529906 0.2933436 0.041867256 -0.21224017 -0.08636965 0.46876925 -0.21036923 -0.004931462 -0.0044825803 0.081764795 -0.49367052 -0.019924901 0.679366 -0.20868048 0.36950076 0.91037846 0.13529783 0.5823333 -0.07905715 -0.00067280175 -0.51913345 0.026171757 0.18089736 -0.2730278 0.33855215 0.25914657 -0.19709338 -0.479526 -0.55325115 0.18263856 0.21929331 -0.46737713 0.07106683 0.45275986 0.40431353 0.09400111 -0.008526118 -0.09474402 -0.095048614 -0.398388 -0.49824557 0.66956466 -0.36606595 -0.16559967 0.17418048 -0.3943396 -0.62527686 -0.11193074 -0.002778724 0.30036935 -0.1109946 -0.5630957 -0.6666992 0.22615229 -0.33808723 0.03283444 -0.26590362 0.077960126 0.87088466 0.4413561 -0.15844978 0.2758621 0.367721 0.05137663 -0.13895221 0.08542795 0.061059486 0.4755361 -0.48636585 0.33665183 -0.033819288 -0.036713865 -0.19169144 -0.88178676 -0.75521004 -0.59332776 0.056442574 -0.26725525 -0.08815902 -0.17432404 -0.014949648 0.4546073 -0.08507905 0.39014137 0.20397773 -0.3708239 0.5418952 -0.09976356 0.043814242 -0.025850063 0.283735 -0.49501708 -0.4714862 0.033575818 0.36301988 -0.05930732 0.19625244 -0.24464491 -0.51410866 0.5928258 -0.01196692 0.13438009 0.3651969
2315 -0.11376243 -0.44830346 -0.6895532 0.23790203 0.61013085 -0.2077537 -0.75216556 -0.13276322 -0.076477624 -0.41162622 -0.20851035 0.14243284 0.4804425 0.20846161 -0.052376535 0.21448146 0.23787451 -0.50112873 0.17185761 -0.22939792 -0.02347933 -0.47434783 -0.28601658 -0.16413713 -0.15482634 0.7297272 -0.16579564 0.07128017 -0.54062194 0.5030269 0.23100504 -0.3442314 -0.24783072 -0.06399967 -0.07741868 -0.2779779 0.01777034 -0.42688975 -0.77531755 0.07709802 -0.11205035 0.16314843 -0.009137632 -0.047900293 -0.6773237 -0.64678043 -0.15922084 -0.09944786 -0.27774665 0.86499804 -0.001588934 -0.08512294 -0.28324726 0.34960192 -0.2882181 0.4138495 0.013738238 -0.8642568 -0.068522416 -0.042123325 0.13829851 -0.18941668 -0.29748 -0.4236006 -0.6520094 0.9886045 0.45574903 -0.28377765 -0.18566464 0.40304202 -0.17549226 0.023146855 -0.42006904 -0.075260736 1.050724 -0.43452772 -0.4353639 -0.28941908 0.021684244 -0.025783895 -0.4236427 0.37577385 -0.24461569 0.24748579 0.36617136 0.07926318 -0.3469814 0.07741804 -0.66379523 -0.13430096 0.3535366 0.4291218 0.5363731 -0.4690245 -0.17553414 -0.13732226 -0.2441121 -0.6743675 -0.1475036 -0.041798662 0.18866283 0.59132254 -0.13778183 -0.010547468 0.15420122 -0.15008657 0.06266083 0.27194294 -0.17337939 0.33833146 -0.10970273 0.0060398136 0.4702216 -0.0667951 0.43421888 -0.01688093 0.08961345 0.21229343 0.14895025 0.3816724 0.35629705 0.19018674 0.22371562 -0.4037386 -0.07324439 0.51743114 0.53079623 -0.0081654
2312 -0.23143387 -0.09189918 -0.36400858 0.25736555 0.23763289 0.069210045 -0.17080028 -0.59892046 -0.19404134 -0.012388983 -0.054024816 0.19842684 0.14657226 -0.60067296 -0.39549634 0.09419997 -0.06231926 0.12882203 0.042817008 -0.3085342 0.4002764 -0.09450053 -0.07761908 -0.3232256 0.4321492 0.4019879 0.34639013 0.8106047 0.43965444 0.44453663 0.48058635 -0.12464168 -0.2832827 -0.57477415 0.09665586 -0.31286213 -0.16960616 0.6018269 -0.010626224 -0.23224953 -0.3155856 0.0847581 0.11765612 -0.124385014 -0.37025404 -0.14211886 0.18788002 0.28527492 0.05391229 0.47185406 0.18754523 -0.71861327 0.14485376 0.12434696 -0.12270428 -0.008176456 -0.7192911 -0.41929233 0.4288907 0.20133698 0.24609414 0.08193636 -0.14835972 -0.87873924 -0.42758754 0.21126151 0.18777406 -0.10206537 -0.23321196 0.12106862 -0.84494555 0.57103777 0.16406181 0.12130138 0.42723715 -0.10615348 0.21768674 -0.2762106 -0.06515209 -0.28180304 -0.19428733 0.26163313 -0.3416155 -0.57811356 0.08822567 -0.06272744 0.41803807 -0.056308847 -0.39326677 0.012192319 -0.32324314 0.02375528 -0.113341376 -0.36256886 -0.0385809 -0.32294455 -0.07440424 -0.03811564 0.13550079 -0.6169221 0.35303682 0.74205667 1.0228553 0.0337314 0.6290018 -0.2946029 -0.20683262 0.34584835 -0.5489976 -0.0030687207 -0.3383455 -0.26031557 -0.0038132833 0.39659572 0.8443006 0.3275729 -0.2983578 0.5144365 0.27652904 0.41254458 0.32610416 -0.13953234 -0.19689201 -0.44777238 0.271712 -0.093207285 0.30145618 1.2496772
2313 0.2587776 0.44466347 -0.3157982 -0.6540065 0.011978792 -0.16374321 -0.49359652 -0.51700294 -0.4244974 -0.11066974 -0.4985069 -0.14503665 0.38518587 0.27068695 0.25709087 -0.20232098 0.24704133 -0.29680553 -0.31499428 0.36025465 -0.07772575 -0.07809494 -0.418783 -0.06445308 0.16264878 0.16001977 0.2715505 0.38304427 -0.40217012 0.20089109 0.20909086 -0.45714173 -0.23317787 -0.059337918 0.5035122 -0.46398413 0.05356424 0.4747586 0.04947537 0.40389097 0.8841243 0.06955357 0.13973358 -0.24087024 -0.014743961 -0.7559003 -0.09268156 0.0790283 -0.31107533 0.29341838 -0.019916901 -0.0076733055 -0.21211204 -0.5031915 0.17057241 -0.06402258 -0.29519188 0.31280008 0.27360994 0.245825 0.3500457 -0.09122053 0.06869197 -0.52970964 0.041817542 -0.73601687 0.25770926 -0.04920417 -0.11885953 0.3505625 -0.4771261 -0.7935141 -0.0074083447 -0.0760997 0.021387976 -0.22082067 -0.9363697 -0.3820045 -0.14069466 -0.11201966 -0.06129241 -0.23629948 0.0052249674 0.5144371 0.57706547 -0.20080085 0.2005805 0.2133394 0.13050033 -0.28935915 0.187614 -0.29448655 0.2855738 -0.47597516 0.024255706 0.12589474 0.16583559 -0.286209 -0.9541049 -0.67686117 -0.44921342 0.0055710846 -0.39090008 -0.1691947 -0.10113248 -0.018067103 0.35508823 0.0013250526 0.20022625 0.1258177 -0.27491447 0.45400146 -0.27644804 0.19690692 -0.05667853 0.17432277 -0.3991996 -0.3168264 0.030916685 -0.19045047 -0.09644377 0.21567227 -0.039022993 -0.36618853 0.3607324 -0.02194085 0.021912346 0.8012648
2310 -0.20916878 -0.41859484 -0.28553942 -0.08537603 0.7912925 -0.25877267 -0.7952891 -0.48235476 -0.11480078 0.319371 -0.09441753 0.6645557 -0.46921915 -0.8754539 -0.1440332 -0.25410149 -0.4789443 -0.53733265 0.53997856 0.5840141 0.15187697 0.36376223 0.027793175 0.08862266 -0.040845845 -0.12636489 -0.0007947348 0.1482762 -0.44397682 0.23043649 0.7137794 -0.45978823 -0.811328 -0.584165 -0.3714177 -0.50537956 -0.08822558 0.24625622 -0.22140497 -0.4081243 0.13302897 -0.012126653 0.20233512 -0.4215961 -0.7865226 -0.13975483 0.495555 -0.25026846 0.04607752 0.4202611 -0.3330735 -0.7586797 -0.31474248 -0.34059897 0.06698898 0.59555835 -0.23561166 0.06454588 0.48054796 0.10779408 0.51167643 0.37890065 -0.34144372 -0.2502376 0.054833654 -0.05252245 0.0443256 0.36228487 -0.094214976 -0.46135178 -0.8912864 0.06529058 0.13093317 -0.56111276 0.8297237 0.38595948 0.30848163 -0.32205608 -0.058972888 0.10197772 -0.48892725 0.4209469 0.26405388 0.275277 -0.5593998 -0.6998623 -0.20036581 0.2999331 -0.30707765 -0.5292752 -0.2723616 0.27764812 0.17198953 -0.44211727 0.050273392 -0.55499685 -0.14862116 -0.10493721 -0.22098255 -0.28159562 0.31918305 -0.0581284 -0.15158625 0.13832489 -0.013976351 -0.67408967 -0.8286675 -0.10659664 0.49978593 0.07054019 0.31052485 0.68773466 0.43291393 -0.30304822 0.051911063 0.28590778 -0.46103185 -0.112632126 -0.13271406 -0.010555672 0.40176105 0.29055235 0.13179238 -0.49053785 -0.413241 -0.022367205 0.59181595 0.17204408
2311 -0.23271342 -0.12492409 -0.23856366 -0.1092844 0.4984028 -0.29817063 0.024354888 -0.07569429 -0.11200402 0.122459084 0.32634097 -0.89679545 0.0003520453 -0.53788704 0.47558427 0.42845193 -0.029158713 0.06333235 0.35789672 -0.31003195 0.310882 0.70293486 0.16240239 -0.03267624 0.3569394 0.29822174 -0.14877969 0.46149608 -0.74816614 0.086874016 0.2808322 0.26710987 -0.4995504 -0.1256543 0.47732818 -1.0281556 0.33812413 -0.40772915 -0.48339927 -0.6859062 0.3137977 0.40584862 -0.082646415 -0.1759577 -0.81415933 -0.5824276 0.124379285 0.7269515 -0.24583764 0.5423162 0.46547887 -0.48430797 -0.7230119 -0.43155947 -0.013792885 0.58663297 -0.7905363 -0.6856167 0.35331458 -0.5764222 0.03423388 0.3308154 -0.52934337 -0.22589773 -0.531759 0.6536148 -0.21637975 0.0038912843 -0.01028601 0.4089818 -0.3098098 0.121534504 0.069849856 -0.32137913 0.034802716 0.4739431 -0.124429315 -0.42653525 -0.3363174 0.07227409 0.28845906 0.27296022 -0.8895973 -0.15106134 -0.14366315 -0.61891925 -0.23312487 -0.15079074 -0.25703797 -0.23473868 -0.087556176 0.07438588 0.35608393 -0.78202724 -0.15207535 -0.6799256 -0.29508644 -0.2334551 0.45491505 0.16504534 0.61311346 0.1772159 0.22371371 -0.2561362 0.07594698 0.38966006 -0.0552076 -0.18650612 0.54249626 0.042182036 0.30462158 -0.34106028 0.18433526 -0.26474276 0.16588579 0.11227489 -0.30416426 -0.296874 -0.59128875 0.12088292 0.60754555 0.41043782 0.47898537 -0.53018224 -0.6462025 0.6055673 -0.08774008 0.38384354
298 -0.2537093 -0.25640696 -0.8107462 -0.42885667 -0.105736695 0.042016484 -0.70116365 0.16378641 -0.06687402 0.2846017 0.027512463 -0.24915268 0.18401107 -0.6399202 0.20360194 -0.32306635 0.015018267 0.18378617 0.2386706 0.34399524 -0.07631766 0.04910285 -0.2703921 0.83236706 0.32315695 0.3882232 0.19634622 0.26628813 -0.35625225 -0.18367258 0.81657404 0.22195765 -0.51717037 -0.23045486 -0.0030417254 0.14225681 0.40539604 0.3843792 0.04459236 -0.07624168 0.19762212 -0.4579568 0.43089116 -0.021844422 -0.054856032 -0.2656677 -0.60928726 -0.17832595 -0.41015956 0.37668186 0.08094552 0.105975136 -0.41271523 0.17068015 -0.15186882 -0.09289858 0.012664275 -0.20383072 0.51294297 0.09210221 0.065295435 0.048479136 -0.28651685 -0.4497787 0.04600562 0.06871989 0.19826928 -0.06599964 -0.07981749 -0.20524687 -0.26968348 0.03511987 0.19801828 -0.30259296 0.44722444 0.44559985 -0.09429757 -0.84838337 0.030578738 0.11894761 -0.33945507 0.08487499 -0.3537019 0.1504479 -0.40384215 -0.48835054 0.15138552 -0.47287402 0.0013466476 0.0055051516 0.4817418 -0.23204613 0.0534893 0.03533396 0.42962056 0.14920552 0.57319623 -0.97652197 -0.0661594 0.07241318 0.004841238 -0.22227319 0.76221824 -0.24154143 -1.017554 -0.019826137 0.3060821 -0.03256833 0.7999745 0.38503292 -0.16536388 0.5254789 -0.5420403 0.0703911 0.37273958 0.24826734 -0.2429599 -0.19008479 -0.23820986 -0.35117736 -0.1607354 0.07939202 0.37203732 -0.17482479 0.12047929 -0.32288957 0.0660694 0.28460568
299 0.050887354 -0.21956095 0.07777845 0.8364888 -0.007560861 -0.0036292255 -0.20325652 -0.33923015 -0.15131196 -0.086305976 -0.26508766 -0.47080848 0.014753472 -0.38517362 0.09342048 0.10203549 0.0464663 0.31198597 -0.09812306 -0.15136042 0.33442855 -0.6149906 -0.083601005 0.87010396 -0.20945334 0.87330794 0.050345246 0.49374676 -0.36205813 -0.15251364 0.4883105 0.48800755 -0.23725712 -0.08375924 0.15335564 0.19660214 -0.58403337 0.03702973 -0.5615038 -0.07057525 0.42579496 -0.7182855 -0.06110491 0.3680214 -0.6400311 0.024510114 0.2801889 0.42866692 0.0040743113 0.4995862 -0.1652213 0.41181058 -0.13351083 -0.2875433 0.333253 0.76427424 -0.6276446 -0.4605927 0.76231176 -0.08105944 -0.5148546 -0.07961082 0.09847576 -0.20134693 -0.18331012 0.5540811 0.6228372 -0.14392647 0.2882883 0.46381137 -0.73408717 -0.34695473 0.124314524 0.116397284 -0.071278565 -0.53691137 -0.7489922 0.2776791 -0.34291047 -0.21113035 0.33987615 -0.19978328 -0.33029473 -0.3055775 -0.16964896 -0.4460104 0.7086275 -0.1520895 -0.391199 0.0024232208 -0.21400449 -0.50698966 -0.10235045 -0.03692794 -0.31397867 -0.08002694 -0.4232668 -0.3238548 -0.13424027 0.2664773 0.86554563 -0.046786048 0.78135157 -0.015330031 -0.031511594 -0.90692395 0.21164906 0.23540227 0.09664384 0.039241042 0.0904994 0.04782655 0.15706205 -0.39526966 -0.15166411 0.33006367 -0.28729463 -0.0006819118 -0.3413307 0.08081115 0.3612457 0.3979145 0.4666377 0.32304335 0.20804952 0.56593007 0.012868932 0.2137225
296 0.09180317 0.16779058 -1.3048767 0.39761618 0.26019362 -0.33159232 0.2834187 -0.44658446 -0.27245492 -0.097495005 -0.4123583 -0.18964463 0.17681311 -0.6644152 0.38070336 -0.36212602 0.107996486 0.00049712317 -0.45744973 -0.14645718 0.30773818 -0.053008046 -0.5265831 0.3378168 0.11250324 0.434136 0.4421369 0.54086614 0.06364257 -0.6071093 0.2673614 -0.67250216 -0.061725643 -0.121475935 0.28708914 -0.5234208 0.042188227 0.43869922 -0.83039093 -0.08830241 0.23627065 0.26657778 0.028335746 0.45601666 -0.43302467 -0.2951357 -0.6657195 0.2201491 -0.40692773 0.4560303 0.06468911 -0.05901115 0.2899434 -0.27016482 0.20080456 -0.31967288 -0.7289267 -0.21967861 0.051072776 -0.0017959204 -0.20812435 0.21357323 -0.020341035 -0.1778883 -0.3434096 0.06187468 0.2931214 0.50167435 -0.1980876 0.08196608 -0.1816887 -0.46163544 -0.08469626 -0.22507133 0.07227878 0.2321389 -0.42316625 -0.44581106 -0.19766337 -0.05385991 -0.14113405 0.44027615 -0.7608812 0.012840765 0.2683214 0.19135112 0.5610739 -0.018542018 -0.012642345 -0.45130643 1.0911477 -0.050167922 -0.28252295 -0.29087165 -0.3698303 -0.30100635 -0.11126783 -0.43505678 0.20835224 -0.04688594 0.055863358 0.09810479 -0.61076933 -0.15236647 0.19564198 -0.09400269 -0.0092503205 0.03926853 -0.12870812 0.24935037 0.08095133 -0.1932034 -0.36510295 -0.64435303 0.017501846 0.11742367 0.1543328 0.12931591 0.5474372 0.03164001 0.023422047 -0.20588541 -0.35236385 -0.11692305 0.9217661 -0.1560981 0.080768645 0.3963589
297 -0.07001414 0.37733084 -0.11677883 -0.43871713 0.61803085 0.22644271 -0.43803483 0.064551316 0.051237773 0.19449827 -0.113275334 -0.06836928 0.3664427 0.080087274 0.15212704 0.11323327 0.14048289 -0.09352937 0.3532969 0.23143768 -0.04996763 -0.17778018 -0.17472258 -0.09689796 -0.29008064 0.57230705 0.13428886 -0.08888008 -0.6102911 -0.21149708 0.3250677 -0.16748124 -0.26222143 0.18340081 0.1675342 -0.016123155 -0.2674818 0.25814512 -0.5206962 0.2457763 0.37540272 -0.66927886 0.018654235 0.1759586 0.17928284 0.08478699 -0.028088074 -0.3224321 -0.28914213 0.24058384 0.2761135 0.3190211 -0.29190406 0.37245128 -0.35568577 0.29650292 -0.77445185 -0.71642995 0.24372725 0.43290535 0.1187998 0.055068184 -0.056987017 -0.2609043 -0.28142983 -0.49813682 0.5195129 0.059336297 0.10154313 0.15424947 -0.061693236 -0.46736085 0.09166883 0.14855117 0.27495196 -0.26133862 -0.4223298 -0.37082294 -0.091957845 -0.08715785 -0.095703006 0.08842463 -0.24205238 0.3067801 -0.054271378 -0.24908201 0.14005828 -0.34164724 0.0020477325 -0.50999933 0.03564788 0.12737079 -0.03429175 -0.105474964 0.23728827 0.037288126 0.37926358 -0.69015175 0.07405039 -0.09110128 -0.27916765 0.55061877 0.070725895 -0.54894245 0.31177542 0.05510115 0.4464864 0.2734639 0.6204809 -0.08639348 -0.094784215 0.033792015 0.044982307 -0.6300233 0.5806546 0.030386169 0.19036995 -0.24591939 -0.10861148 0.5541868 0.56844306 0.41629678 0.6355344 0.1655969 0.5041262 0.33422834 0.6814181 0.010138157
294 -0.04408823 -0.003924078 -0.090450324 0.23333365 0.08880577 0.29005396 -0.4578271 0.08890757 -0.4819695 -0.21732411 -0.19575407 -0.4459405 0.2121464 0.1122518 0.5871108 -0.25450805 -0.6076013 -0.50907737 -0.5359144 -0.08710002 -0.22689655 0.07965519 -0.47809294 -0.34025714 -0.3190038 -0.16020973 0.3315443 0.49290013 -0.39292035 0.18641125 0.4274207 -0.23543589 -0.2041937 -0.32073414 0.23332918 -0.6663945 -0.45164293 -0.15378138 -0.2371895 -0.33508182 0.21846376 -0.22989678 0.42916408 0.12563705 -0.03886038 -0.015437147 0.588514 -0.14967923 0.2786145 0.27051818 -0.052398458 -0.2580385 0.01032745 0.09130549 -0.0721711 -0.07913785 -0.26898062 -0.059225284 -0.1329511 0.70022035 -0.15714858 -0.44865736 -0.3545635 -0.4357473 0.34907672 0.23696178 0.2918072 0.09843537 0.23191856 0.24180903 0.13129154 0.05126767 0.39224294 0.061963145 0.14146541 -0.018180175 -0.7843294 -0.47345713 0.21385962 0.19322123 0.11083891 0.16037053 -0.23493457 0.16809429 0.33390987 -0.117900364 0.18563482 0.46621367 0.4187939 -0.08505399 -0.078340866 -0.03776528 -0.47798514 -0.21183981 -0.15955243 0.20937453 0.15459017 -0.43709558 0.050774354 0.10238753 -0.24190107 -0.040483676 0.39283055 -0.1603394 -0.07574987 -0.5766521 0.07151162 -0.04197407 0.7280534 0.03372397 0.07010295 0.005033757 0.011296803 -0.21218191 -0.13204102 0.15074813 -0.09316059 -0.34577328 0.5252157 0.32605743 0.09714345 0.46614867 0.22089334 0.5451344 0.11953259 0.34084818 -0.10123525 -0.06387252
295 -0.010001437 -0.40046328 -0.59985876 -0.48566929 0.50586945 -0.35361055 -0.6389673 0.48700273 0.21569063 0.32556283 -0.16657223 0.10041001 0.41117135 0.003622806 0.58058006 0.4650425 -0.4356225 -0.20529504 0.37468684 0.15936881 -0.08960597 -0.34220105 -0.35306194 0.1375701 -0.50406206 0.67886555 0.30908424 0.33701378 -0.8570093 -0.06713209 0.5950632 -0.4344411 -0.46921194 -0.118646964 0.57144326 -0.26752263 -0.78338253 -0.11215201 -0.6557031 0.3019314 0.6774604 -0.19368906 0.2846871 0.67877716 -0.095275864 -0.039889727 -0.50022864 -0.09656848 -0.14073814 0.46261027 0.32077366 0.1471426 -0.4320748 0.10666478 -0.05770459 0.32441768 -0.6158138 -0.7036667 0.5838869 0.10387471 0.36394447 0.3079591 -0.65844524 -0.418103 -0.50548625 0.070289046 0.961952 0.17463167 -0.28641126 0.15235685 -0.068643354 -0.28879863 0.3924222 -0.5581752 0.5453361 -0.7160537 -0.2442111 -0.60654336 -0.12856703 -0.080828816 0.16367947 0.22885326 -0.71027905 0.75926673 0.40484527 -0.47642386 0.16694485 0.04033461 0.5029358 -0.42033133 0.66041875 -0.47534347 0.24237117 -0.5580185 0.19067429 0.023678306 -0.51372623 -0.6922295 0.13211395 0.036890704 -0.42860898 0.6790583 -0.1626657 -0.08612497 0.16706467 0.19005919 0.025233194 0.26020715 0.49634668 -0.4338116 0.1218324 -0.12798281 -0.06331353 -0.6288392 0.21782455 -0.20592988 0.050296273 -0.24765725 0.22080055 0.64048636 0.09674052 0.6430616 0.55725336 -0.32576603 0.22474858 0.6045659 0.8558411 -0.032180212
292 0.22542372 -0.61172265 -0.83831066 -0.1994623 -0.015657708 -0.98277265 -0.5431935 -0.6308339 -0.8158735 -0.10331028 -0.43105426 -0.37115932 -0.17896798 -0.36766303 0.4212665 0.26676416 -0.174922 0.2431102 0.43028527 0.26548174 0.28488514 -1.0025156 -0.14795473 0.724752 -0.12408587 1.1377068 0.59159213 0.8656546 -0.7766606 -0.17268275 -0.01410976 0.30020514 0.24334653 -0.025104245 0.50485766 -0.61089665 -0.16150512 0.017231707 -0.27804437 -0.42891473 -0.25391033 -0.26874927 -0.48158926 0.07586593 -0.26720574 -0.042453334 -0.5958784 0.17987682 -0.21971932 1.2445046 0.40863046 -0.62963545 -0.80006444 0.18449982 0.05580062 0.3740762 -0.7079689 -0.39827597 1.1714517 0.08047156 0.86193895 0.55662996 0.022505363 -0.67686343 -0.70278126 0.36879402 0.2796485 0.61192054 -0.3368333 0.4707593 -0.7973723 0.006399849 0.6865238 -0.065774575 0.6687776 -0.6338275 -0.7550655 -0.09396529 -0.8478988 0.111260965 0.14599258 0.1017123 -0.7892562 -0.3402056 -0.34820953 -0.5392593 0.06507102 -0.2819362 0.3431947 -0.14202754 0.6832275 -0.65236694 -0.25327072 -0.7229581 -0.12204305 -0.8019449 -1.2007092 -1.0397931 0.23216502 0.40448716 -0.016645685 0.33172527 -0.22605896 0.2563337 -0.028147275 -0.702893 -0.32007545 0.40647575 -0.3960434 0.45757696 0.3658039 -0.22522847 0.4031713 -0.49041858 0.19915469 0.9102546 -0.13551363 -0.63553625 0.2849645 -0.49107867 0.28029826 1.0318146 0.36471164 0.272297 -0.45722795 0.18578333 0.9876609 0.5526138
293 0.114394605 -0.24421757 -0.4170903 0.00422522 0.15265127 -0.1757173 -0.7079884 -0.87444025 0.4894675 0.1149703 -0.13139038 0.2881419 0.29016262 -0.26118562 0.3415304 -0.24769098 0.33143124 0.118132435 -0.20894407 -0.054032315 0.20119254 0.24491185 -0.38058457 -0.12793319 0.43628374 0.12670779 0.09222989 0.18332681 -0.07520864 0.7292723 -0.086189784 0.42213273 0.09193865 -0.24071512 -0.1671214 0.09850786 0.48736575 0.2711711 -0.33618405 -0.22005421 0.36948538 -0.031261336 0.26008725 0.0481632 -0.244518 -0.34297243 -0.31484368 0.44897914 -0.16310948 0.46895087 -0.42885965 0.07088077 -0.22820972 -0.15031414 -0.068639584 0.20989457 -0.33721277 -0.3960085 0.1910859 0.7852665 0.12986328 0.0062864562 -0.02535763 -0.61723894 -0.17360185 0.27367288 0.2584542 -0.21311715 -0.0954443 0.01246277 -0.47237387 -0.57923263 0.24863927 0.43072617 -0.18961419 -0.07886526 -0.52815706 -0.65130186 0.60758895 0.037175436 -0.46269742 -0.54249597 -0.43894213 0.3857388 -0.04997149 -0.62911576 0.3361518 -0.3351072 -0.07267809 -0.44697812 -0.5294005 -0.32260102 -0.42602065 -0.26207903 -0.36064994 0.025796533 0.012899906 -0.40635222 0.34570968 -0.29412723 -0.70759046 0.35304943 0.07397522 -0.067727454 -0.9325465 -0.25722504 -0.1539531 -0.11686128 0.73076624 0.5132484 0.12109692 -0.13235918 0.41823858 -0.24480127 0.44618136 -0.34627178 -0.34358504 -0.071838 0.1244857 -0.050557375 0.33649492 -0.59693265 -0.044136252 -0.16399917 -0.11228046 0.2584258 0.86255175 0.27610904
290 0.083745584 0.5904579 -0.7043575 -0.10496563 -0.19345444 0.36589944 -0.20150065 -0.24096571 -0.30270553 0.4242164 0.2626112 -0.18235728 0.44638094 -0.10117131 0.085903026 -0.5528312 0.13575427 0.15185139 0.28968924 0.24440013 -0.3469311 0.29103968 -0.341557 0.28187367 0.27029806 0.13238509 -0.062027827 0.23907354 -0.54281557 -0.4455917 0.669565 -0.35434216 -0.0836236 -0.007517916 0.009875859 -0.110808834 -0.17819858 -0.11856295 -0.56812376 -0.08005898 0.3497988 -0.3227649 -0.22639985 0.40957326 -0.5064086 -0.15258667 -0.1376702 0.58032155 -0.6530152 0.39410824 0.22353004 -0.7162775 -0.13366899 -0.50838244 -0.093056 -0.53860074 0.07031181 0.13045238 0.14838275 0.2213153 -0.35167435 0.01235964 0.23945792 -0.327034 -0.23875932 -0.23889832 0.076270014 0.57295614 0.16188456 -0.21765274 -0.5004617 -0.3487421 -0.09603256 -0.39827883 0.10954998 -0.13318567 -0.6471885 0.16031006 -0.2927025 -0.40787053 -0.0746271 0.009764119 -0.644752 -0.13095671 0.54388756 0.27451047 0.35580087 -0.3644176 0.40992182 -0.20484617 -0.089316934 -0.08959962 0.12245625 -0.42847812 -0.3924778 0.09277272 -0.27191713 -0.12073527 0.16626061 -0.39875156 0.118172 0.005797281 -0.22634326 -0.26085582 -0.083227746 -0.35825562 0.03280635 -0.18176398 0.33764157 -0.15530506 0.35004845 0.18710098 0.28432766 -0.07019557 0.033774227 0.122604944 -0.36243746 -0.0013319184 0.67651445 0.6731873 0.051833753 0.62484515 -0.08986211 0.17952377 0.0009932385 -0.5896402 0.20894165 0.5998426
291 -0.0850418 -0.051790614 -0.16161402 0.0399123 -0.05072498 -0.12244704 -0.32687828 -0.43173483 -0.334862 0.008821527 -0.14835423 -0.32430214 -0.75925046 -0.920207 0.3613761 -0.72644967 0.033726986 -0.006573622 -0.0078465985 -0.10293496 -0.3133463 -0.2638483 0.12665708 0.42384803 -0.43281722 0.13129658 0.45395166 -0.03484151 -0.8564369 -0.43072087 0.41294408 0.4297685 0.32129186 0.124261074 -0.18053629 0.10269264 -0.062534235 0.007725541 -0.36836866 -0.2073683 0.5432155 0.08828985 0.43170235 -0.16094132 -0.25904912 -0.23935093 -0.28793228 0.44278666 -0.5466104 0.5214511 -0.004385496 0.1773307 -0.30169564 0.07465344 0.36210677 0.13594373 -0.4961114 -0.43811226 0.36325565 0.26905933 -0.59084815 0.506609 -0.3040345 -0.07385456 -0.39141765 0.20228952 0.5315834 0.106752515 0.22647595 0.49029976 -0.4706506 -0.3274283 -0.36210236 -0.49578074 -0.081339985 -0.086616196 -0.05530508 -0.4522735 0.024351096 0.027581071 -0.10532469 -0.2003643 -1.156317 -0.01123147 0.15055583 -0.8377288 0.37038714 -0.054897662 -0.6323609 -0.70515454 -0.31482413 0.0651529 -0.09822369 0.027329233 0.1834719 -0.14871325 -0.2697362 -0.6564218 0.3677472 0.07986793 0.16184627 0.48683792 0.2563123 0.02407599 -0.025929527 -0.45054886 -0.034748495 0.10301044 -0.06079179 -0.08905183 0.07584692 0.31933868 0.71122587 -0.3657513 -0.058852315 -0.5509612 -0.34737122 0.03115466 -0.32268173 0.3879627 0.2439662 0.587535 0.26471683 -0.115487814 -0.30365244 -0.34734964 0.33710197 0.07483672
270 -0.1603983 -0.044522863 -0.1805555 -0.07370643 0.57611054 0.05715157 -0.7528069 -0.2964367 -0.29869622 0.06084096 -0.12180388 -0.46838078 0.028237622 0.26998818 0.48944727 0.090145156 -0.008095904 -0.15684405 -0.307763 0.51011723 -0.31858033 -0.17623149 -0.10535871 0.18494435 -0.42960152 0.1191547 -0.051818483 0.43876487 -0.36294094 0.4526215 -0.059811313 -0.47363317 -0.48410758 -0.485331 0.23064984 -0.70372367 -0.088531256 0.23910473 -0.2232985 -0.19008894 0.18107451 0.114930324 -0.12340734 0.004592884 -0.3237132 -0.42510262 -0.0496908 0.46359843 -0.5538127 0.26292425 0.4239294 -0.718367 0.4686844 -0.28597918 0.33283615 0.04338785 -0.3583212 -0.023449032 0.49679902 0.64554435 0.24166355 -0.27961612 0.022742512 -0.4608151 -0.18787363 0.5962915 -0.13078311 -0.00046643344 -0.42495248 -0.13378054 -0.7639313 0.27737656 -0.062000133 0.8886437 0.047829147 -0.32305437 0.15317138 -0.15245394 -0.22516263 -0.55371696 -0.093532845 -0.44247612 -0.28500327 -0.016474074 0.4033007 -0.6250106 0.20743938 -0.07584757 -0.24713397 -0.21810478 -0.049652 -0.34493822 -0.23665062 -0.44968015 -0.063629486 -0.48911527 -0.055637706 -0.2852771 -0.31802687 -0.32323223 -0.24571782 0.57292867 0.1119718 -0.50686157 -0.17582698 -0.097678095 0.48963103 0.34359673 -0.013960364 0.1127025 -0.4822776 0.6571743 -0.28471148 -0.090965055 0.089686245 0.4934456 -0.4273856 0.13108416 -0.25202355 0.025269309 0.11999989 -0.024030082 0.22113198 0.082705215 -0.61129063 0.117855765 0.5852054 0.35923892
271 -0.3112776 -0.82513857 -0.17927289 0.10089246 0.099050924 0.03970614 -0.194084 -0.30699873 -0.2511247 0.0068922844 -0.49025303 -0.6042393 0.06391226 -0.10336507 0.31264037 0.09541912 -0.3102952 0.21657403 -0.18388371 0.030984845 0.4974349 -0.44576967 0.3984085 0.9003151 0.30763954 0.6095255 0.043649852 0.33452827 -0.31665304 0.0135217 0.5584521 0.26944715 -0.25269055 0.027350286 0.33341384 0.07762839 -0.6767462 0.22113252 -0.8078572 -0.09527909 0.16198161 -0.9231695 0.41826484 0.181537 -0.2927778 0.1514579 0.079634264 0.45714325 0.011127722 0.8070283 0.026502082 0.46720865 -0.53379554 -0.24673536 0.6246574 0.6447057 -0.68561596 -0.4166981 0.6274649 0.18415643 -0.6880481 -0.18450037 -0.073004164 -0.22412306 -0.18846856 0.27017266 0.25817713 -0.3446232 0.01761113 0.26590338 -0.8593755 -0.22012487 0.586738 -0.09270901 0.025756104 -0.13121791 -0.670683 0.115543425 -0.24467582 -0.051562652 0.34851122 -0.13806508 -0.0592985 -0.58765584 -0.07700705 -0.080398284 0.3217934 0.13608141 -0.04335308 -0.070900016 -0.023103962 -0.67571515 -0.11711111 0.0640154 -0.009795927 0.4587169 -0.38918838 -0.16838953 -0.24815199 -0.19045526 0.30000645 0.14734265 0.7261486 -0.07811837 -0.095522225 -0.8908204 -0.08677574 -0.20430043 0.09816185 0.35939023 0.43685424 0.025827337 0.21781059 -0.43554655 0.17346019 0.066150896 -0.121544145 0.064317405 -0.0504451 -0.106160305 0.0653581 0.12923755 0.34892368 0.64125484 0.0033175354 0.6109884 -0.28463894 -0.088412456
272 0.081979826 -0.009558548 -0.6906377 0.20982505 -0.11825901 0.05906519 -0.54438376 -0.17670058 0.051962983 -0.40217328 -0.21132827 0.065970905 0.3905472 -0.039433107 0.20694827 -0.24567978 0.16540864 -0.489382 -0.30028236 -0.36244386 0.35983354 0.063252375 -0.7011732 -0.13855943 0.19029848 0.082158424 -0.015269784 0.38771996 0.15994757 0.13876036 0.29524434 -0.45419177 -0.11766404 -0.38142836 -0.18269767 -0.1625087 -0.14543399 0.13885671 0.114064015 0.42074406 0.25683266 0.12052223 0.4428958 0.2098689 -0.82063705 -0.6102712 -0.5010557 0.49789777 -0.35700145 0.9128561 -0.56649274 -0.12124917 -0.1245827 0.5570938 0.39089146 0.31266093 -0.40184692 0.16742115 -0.019070514 0.06251641 0.12354761 0.21854894 -0.37811637 -0.07083406 -0.4856348 0.8012573 0.60196966 0.24813868 0.43005815 0.23247182 -0.37342855 0.046396766 -0.04839884 0.5751943 0.39295086 -0.10401346 -0.23626222 0.113121994 -0.24087346 -0.3689744 -0.27780315 -0.4269451 -0.6301842 0.019895926 0.47495517 0.03812676 -0.2591734 -0.44404346 -0.4032527 -0.61523503 -0.1970276 -0.1810646 -0.07060414 -0.2326173 0.4900281 -0.19869998 -0.08954182 -0.9446115 0.023219738 -0.4522035 0.18555062 0.13291638 -0.086011894 0.13198532 -0.40316373 0.23186328 -0.33734927 -0.46931982 0.062724836 0.48645616 0.28105047 0.517536 0.16997539 -0.32165074 0.47653702 -0.23003922 0.013587411 0.30890206 0.09908146 0.41035756 0.15741478 -0.24958983 0.0022240186 -0.6414783 0.15399104 0.5833526 0.4554083 -0.030045234
273 -0.18772538 -0.1320414 -1.2622653 0.05990898 0.36432925 0.046736773 -0.8565845 -0.39132425 -0.4784825 0.42990553 -0.501074 -0.12983781 0.026449457 -0.63193846 0.54327893 -0.054938212 -0.14835584 0.34398556 -0.14943153 -0.24208386 -0.235265 0.024664674 -0.2525674 1.1811764 0.27886853 0.89729303 0.2501403 0.7709004 -0.5328538 -0.102842845 0.2953135 0.29350346 -0.06618468 -0.4411921 0.6045792 -0.293477 0.6718502 -0.018175563 -0.5862863 0.07960004 -0.09920493 -0.6658301 0.06911016 -0.3829019 -0.29467857 -0.0349775 -0.7135507 -0.06527297 -0.17478032 0.6126864 0.58088726 -0.32315075 -0.497124 -0.288608 -0.04753371 0.3378683 -0.26214316 -0.19320524 0.64364076 -0.043641116 0.31828982 -0.13282216 -0.19760628 -0.67164946 -0.57089496 0.7150566 0.12272212 0.39457723 -0.54451436 0.21554457 -0.21714449 0.05923303 0.38136536 -0.5534857 0.7106922 -0.0504073 -0.96275663 -0.4294453 -0.7482564 0.58310074 -0.6692788 0.33456287 -0.4168108 0.2506079 0.05584712 -0.6775165 -0.046689045 -0.117348716 -0.43128422 -0.017457802 0.9485293 -0.4094604 0.1489874 -0.15259632 -0.27456167 -0.19482806 0.25512835 -0.64153665 -0.14358857 0.0399547 0.4174445 -0.5222565 0.44154072 0.05602883 -0.74899465 -0.0383953 0.24817911 -0.28069976 0.64367926 0.41563854 -0.06747398 -0.19015059 -0.6968318 -0.4428358 0.62420607 0.4401091 -0.13726428 -0.525656 -0.27561992 -0.6256297 0.21113746 0.4402372 0.1418735 -0.1482896 -0.43443167 0.38442162 0.10766283 0.71904093
274 0.11410224 0.2535125 -0.47154117 0.3465792 0.5173629 0.112258464 -0.31537345 -0.4271098 -0.28547558 -0.14404692 -0.5964945 -0.15375286 0.23245391 -0.8121629 -0.11643133 0.11471226 0.22223404 0.5612543 -0.4146635 -0.2057248 0.19239661 0.2569466 -0.31363872 0.26736242 0.3531959 0.3350425 0.33253887 0.4193766 0.31107357 0.03488129 0.5719386 -0.40168783 -0.348733 -0.35137528 0.15476635 -0.47171178 -0.13208152 0.69719577 -0.42520684 -0.1698736 -0.35318902 0.06772217 0.10806133 0.12393191 -0.46171087 -0.2835227 0.15434049 -0.40016332 -0.09396945 0.1044224 -0.21828835 -0.29467583 -0.28574726 -0.10913046 0.042382352 -0.39323774 -0.61988896 -0.05679849 0.030433556 0.2627673 0.06757751 -0.09165683 0.32140934 -0.5037886 -0.47993985 -0.39747456 0.35322034 -0.018389424 -0.17142218 0.23780096 -0.4849626 0.06596524 -0.08105458 -0.17608906 0.14153126 -0.4600214 -0.3273114 0.22026618 0.034948908 -0.16949032 -0.09735964 0.23927988 -0.4459289 -0.3412757 -0.29055262 0.2244275 0.19917312 -0.24534863 -0.23056012 -0.3328888 0.22689942 -0.31882972 -0.2917803 -0.7963647 -0.27117732 -0.21813683 0.029739514 0.048733447 0.07061906 -0.8008657 0.17139503 0.14313874 0.6400395 0.16338065 0.28842527 0.29344884 0.033039343 0.085105 -0.67190886 -0.60250986 0.092539005 0.020615947 0.07358373 0.049550373 0.5771504 0.1817533 -0.17480747 0.1893736 0.2877944 0.115098774 0.10847829 -0.080432 -0.738171 -0.3064423 -0.5606242 0.09463931 0.31459635 0.6456102
275 -0.5266123 -1.0186573 0.062920734 0.13527587 0.33725992 0.20244995 -0.39427868 -0.56285596 -0.1114118 -0.35677493 -0.5556656 -0.34471402 -0.5329693 -0.07602787 -0.0015069142 -0.5088185 -0.114895806 -0.020831304 -0.039101776 0.0058951294 0.5613802 -0.39676505 0.12848002 0.6145928 0.35503918 0.7065688 -0.04855414 0.040827293 -0.39201435 -0.4393779 0.14755592 0.33653036 -0.44781148 0.07109969 -0.3240569 -0.26830828 -0.22188663 0.3003884 -0.44383362 -0.34605843 0.32399973 -0.88738984 0.632037 -0.31750336 0.21875238 -0.011637985 -0.09752684 0.37042063 -0.60928154 1.0884417 -0.49044448 0.030168226 -0.66615736 0.2032541 0.38166487 0.28390282 0.026002005 -0.5346821 0.55727 0.2777945 -0.28776416 -0.27432325 -0.61085373 -0.29360178 0.2040737 -0.3850898 0.30678642 0.2669939 -0.22983956 0.061985757 -0.7603817 0.44440493 0.11249732 -0.15780707 0.4896352 0.15180749 -0.67657536 -0.32574534 0.21076979 -0.3775405 0.012447161 -0.069397435 0.121564426 -0.0041427836 0.13437772 -0.77510244 0.27881163 0.33477736 0.5146364 -0.2505927 0.5562249 -0.12866119 -0.01899583 -0.2711239 0.43899566 0.4451395 0.017770998 -0.43591213 -0.1110273 -0.37578386 -0.19246227 0.43922484 0.24707718 0.30321378 -0.27651304 -0.8136047 0.02081107 0.07419785 0.30990148 0.31245205 -0.059431694 -0.22769174 0.25993097 -0.46729562 0.48048416 -0.33551586 -0.26501146 0.30116925 0.12551308 0.20671812 0.11833817 -0.42255732 -0.03385761 0.53180003 0.057459194 0.052489802 0.18897516 0.40959117
276 0.002067347 0.18055251 -0.27113372 0.4165519 0.009559688 -0.097205535 -0.17215785 -0.17681783 -0.24942423 -0.312898 0.60152894 -0.65574247 0.24179636 -0.5865841 0.39469892 0.21609323 -0.958577 0.20299837 0.19508196 -0.3343226 0.42645487 0.18726033 -0.50208634 0.2637396 -0.3545215 0.32506055 -0.11757829 0.7754476 -0.04471929 0.13272683 -0.18161628 0.005085852 -0.35172054 -0.6252393 -0.12412969 -0.3713204 -0.49873486 -0.0050569 -0.01931868 -0.22892986 -0.4518579 0.077964246 0.45777005 0.2442098 -0.08021189 -0.41339535 0.18287076 0.107431345 -0.8102782 0.8393998 -0.097633824 -0.48917738 0.11976525 0.11098159 0.29015246 0.23067157 -0.6299868 0.36322966 0.6149548 -0.23170868 0.18336181 0.27965224 -0.27001736 -0.1207641 -0.18386486 0.1491049 -0.11448915 0.38603273 -0.83533305 0.6414033 -0.74991614 -0.31606984 -0.20911527 -0.017912561 0.44613796 0.054948874 0.3161911 -0.31973672 -0.0970862 -0.16201398 0.471186 0.10828836 -0.7178544 -0.21306346 0.13694344 -1.060274 0.21293508 0.38007748 -0.17657492 0.112347566 0.28806898 0.1743301 -0.19620356 -0.3426203 0.33539543 -0.76546675 0.09165785 -0.23309839 -0.538589 -0.034497906 0.3751843 0.42228776 0.4900808 0.57647204 0.08615271 -0.22467351 -0.7595919 0.08935761 0.012193442 0.12169276 -0.07221363 0.07260125 0.22611326 -0.36162874 0.019499525 0.62695456 -0.20505893 -0.11274213 -0.34713143 0.03366459 0.19139466 0.32288492 0.017578175 -0.124442294 -0.11586644 0.32466188 0.21535803 0.5350788
277 -0.11019875 0.27607718 -0.41048074 -0.09208473 0.6306387 -0.06804616 -0.5108335 0.059758246 -0.014361702 -0.2966698 -0.23936264 -0.052618038 -0.100985825 -0.41730398 -0.04069821 -0.3609055 0.4475542 -0.53779316 -0.084372446 0.30188653 0.122442104 0.0009480727 -0.34693268 -0.21373075 -0.1903803 0.34525558 -0.12371214 0.6759523 0.20409715 -0.012899898 0.24779187 -0.36699417 -0.4367656 -0.2648285 -0.09583242 -0.07491077 -0.1895778 0.26139507 0.078044586 -0.38373995 0.7922473 -0.096107356 0.2393146 0.1181572 -0.7904515 -0.14241424 0.19160074 -0.14767133 -0.1259987 0.06099693 -0.32555127 -0.27647212 0.06863014 0.83189344 -0.2789506 -0.060686745 0.054039396 -0.13072486 0.030750263 0.17190138 -0.22335935 -0.05869565 -0.07069426 -0.28926954 -0.30974907 -0.01649848 -0.16712058 0.1036414 0.20546189 0.07184722 0.04325875 -0.14327914 0.42194226 -0.26745588 0.5643997 0.64373106 -0.106774956 0.16045532 -0.2574009 -0.43694183 -0.45631382 -0.15512753 0.08419166 0.188265 0.23993026 -0.033770707 0.2057511 0.18463202 -0.053130306 -0.57568884 -0.18297245 -0.29401517 0.320832 0.39919376 0.5363644 0.16681302 0.394355 -0.9319575 0.027368125 -0.27728453 -0.08087315 0.16104715 0.26418823 -0.047007486 -0.45558035 -0.17598933 0.06500116 0.3860712 0.54599136 0.14111507 -0.12084967 -0.0047364677 -0.0017719145 -0.15295422 -0.31602883 -0.3050671 -0.39664948 0.4901404 -0.2772637 0.27802372 0.53783345 -0.52946484 0.42769015 -0.39469984 -0.0024890376 0.35485044 0.07246014 0.013959292
278 0.16429013 0.16531275 -0.4215228 -0.33647305 0.03522484 0.24145487 -0.07455272 -0.50430036 -0.47381693 0.29965183 0.11126675 -0.18593913 -0.68481535 -0.81589794 0.21872835 -0.5058316 -0.1288706 -0.13062248 -0.08810628 0.30620444 -0.42058936 -0.11397209 0.10471667 0.17697227 -0.26125383 0.48227546 0.075793386 -0.047905654 -0.8783456 -0.08644059 0.4599416 -0.27600923 -0.14960073 -0.32150862 0.35508665 0.10417909 -0.13180712 0.23713237 -0.40636483 -0.24900661 0.96594495 -0.10539787 0.11947722 0.11779654 -0.25950927 -0.069068104 0.052925773 0.039464556 -0.71595657 0.37578967 -0.10679965 -0.060334176 -0.012444545 -0.12173733 0.22849354 -0.33001977 -0.047729358 -0.037742198 0.33170813 0.21417312 -0.55132145 0.10129115 -0.13722487 -0.1572923 0.14539415 0.058182854 0.08065239 0.31178728 0.32261443 0.62321466 -0.66869605 -0.5952988 -0.35462624 -0.35999745 -0.08603968 0.43810236 -0.17587702 -0.068658665 -0.38440463 -0.3874204 -0.3532802 -0.46842253 -0.53376484 0.3722392 0.03411376 -0.6714948 0.35300407 0.015645348 0.0117492275 -0.4474496 0.053122684 -0.06574086 0.0109875705 -0.065626964 0.0856232 0.02980222 -0.04036024 -1.1252565 0.72434056 0.32883257 -0.06360412 0.60942745 0.25308195 -0.021196635 0.29414314 -0.733292 0.33847028 0.10331615 0.15200134 0.02859841 0.093654126 -0.02681409 0.39747977 0.12037304 0.28984153 -0.5666444 -0.38645452 -0.35315126 -0.065762535 0.6885484 0.3449382 0.61732787 0.69620204 -0.07168048 -0.17130393 -0.8069739 0.7682517 0.23402524
279 0.2628234 -0.0823409 -0.12516703 0.28009662 0.3351096 0.014110636 -0.5858242 -0.3519241 -0.39305854 -0.027441276 -0.004739676 -0.43074742 0.083953515 0.6301762 0.035013832 0.17773801 -0.37354362 -0.19435191 -0.16690715 0.35317662 -0.25906938 -0.17619294 -0.20821017 0.06008898 0.07374748 -0.092156716 0.32082683 0.3219699 -0.20724261 0.39297134 0.03809452 -0.5132701 -0.5505403 -0.27235496 0.59428406 -1.0204682 -0.011331289 0.074647024 0.03178934 -0.013105562 0.13404605 0.32676888 -0.015012952 -0.03974327 -0.40269887 -0.53798217 -0.14147739 0.011510613 -0.3714407 0.6212792 0.1956769 -0.80445325 0.5932075 0.0936477 -0.03567941 0.014212431 -0.25615832 -0.26012278 0.69764245 0.22112091 0.20319179 -0.36374858 -0.14544345 -0.31487545 -0.36139056 0.30192003 -0.111123666 -0.071380265 -0.16584717 -0.079766996 -0.68548954 0.097187564 0.2124989 0.9045359 -0.1597199 -0.13715306 0.25461546 -0.08660994 -0.34406543 -0.40745285 -0.22186618 -0.33380896 -0.12267333 -0.008348874 0.32574067 -0.50599885 0.132228 -0.018916167 -0.35739064 -0.22993599 0.37457758 0.022190683 -0.20363396 -0.23070207 -0.15115538 -0.7241749 0.19898327 -0.47521424 -0.31857988 -0.4082919 -0.18363827 0.5309403 0.68441135 -0.53572285 -0.15716031 -0.22697526 0.5997887 0.027494138 0.0068061985 -0.13326769 -0.43396965 0.57201856 -0.26047254 -0.12085676 0.22451393 0.18585406 -0.2736105 -0.08949321 -0.19916134 0.13057567 0.006962881 0.2914717 0.22795086 -0.27890828 -0.29845762 0.22831342 0.41149297 0.47626138
738 0.2258665 -0.34408164 -0.40683654 -0.50565255 0.14956321 -0.12952009 -0.21677348 -0.40060866 -0.1315159 -0.36620015 -0.34469575 -0.49878395 -0.13540182 -0.24481419 -0.30524808 -0.03515842 -0.1490719 -0.51691264 0.24150877 -0.19939728 0.079408355 -0.023135312 0.047429167 -0.001353644 0.48716775 0.5492023 0.22909851 0.45661446 -0.20532677 0.19261079 0.62298644 -0.105692476 -0.08574952 -0.18970124 -0.027774485 -0.42253944 0.34221706 0.10001914 -0.4768885 0.07494194 -0.11732778 0.09762145 0.34809715 -0.32727525 -0.5210615 -0.037275538 -0.40035993 0.39893046 -0.6347978 0.5840158 -0.14179212 -0.3077535 0.23588637 -0.063516796 -0.08897184 0.30712664 -0.51759934 -0.14075306 0.88355815 0.19901872 0.06796781 0.05887075 0.057574064 -0.39516345 -0.10718486 0.21452142 0.20686513 -0.91955763 -0.21450527 -0.20452046 -0.24317814 0.21393329 0.012966068 0.14922641 0.46142417 0.03274179 -0.15868339 -0.4347718 0.17243516 0.04635364 -0.51945883 -0.119864985 -0.23892951 0.004216166 -0.13308838 0.06469845 0.3692761 -0.376291 -0.04534808 0.14647308 -0.42077905 0.22532678 0.35704076 -0.17294294 -0.4770732 -0.033539362 -0.3276741 -0.20461836 0.011682982 -0.4253645 0.1729609 0.3473669 0.6398787 0.3096909 0.6431759 0.17179115 -0.22992356 0.20654035 -0.40191883 0.3240196 -0.63153327 -0.51428515 0.22682634 0.16623785 0.30086923 0.3617074 -0.21253835 0.100673325 0.11335261 0.783922 0.23246156 -0.105879955 -0.060657248 -0.6588859 -0.027023626 0.04238772 0.053028453 0.88876647
2268 -0.71559286 0.016111407 0.0393886 0.17056887 0.021141784 -0.02704948 -0.3003794 0.03999635 -0.18290415 -0.12043607 0.099217705 -0.37952846 0.5783183 -0.33757454 0.13548215 -0.45547518 -0.035300545 -0.4717524 -0.007872211 0.33221388 0.061518475 0.4436829 0.04604186 0.00694891 -0.18127169 0.23334017 -0.00283338 0.28408438 -0.09993975 0.118716106 0.12757571 0.12446678 0.01620138 -0.49048188 -0.33385745 0.0021120494 -0.07483431 0.12749591 -0.46393168 0.19893828 -0.025714802 -0.40797204 0.48322847 0.17499872 -0.109000415 -0.35486272 0.1374808 0.75786763 -0.7606393 0.89293313 -0.43764862 -0.44325972 -0.0032185512 0.27224106 -0.34653383 0.47319064 0.31453907 -0.7810149 0.07683345 0.34212315 -0.04368055 0.25377843 0.30374154 0.13711853 -0.2946613 -0.020617707 -0.119419515 -0.009420467 -0.067441925 0.1452656 0.007663333 -0.46356708 -0.035348777 -0.7763572 0.12238948 -0.6776702 -0.38816768 -0.48434395 0.5393342 -0.1957609 -0.5348375 0.07369494 -0.7372232 0.4068549 0.35630336 -0.51422745 -0.4357269 0.51508605 -0.42474622 0.21181704 0.14092281 0.1815434 -0.10542221 -0.04634627 0.6135549 -0.9289646 -0.08038937 -0.4460287 -0.21465097 -0.6259153 0.098688275 -0.14632766 0.24061663 0.1790871 -0.11166186 -0.26453188 -0.021025727 0.15923496 0.46935454 0.115656696 -0.15368734 0.4281289 0.58866924 -0.24187918 0.3496678 0.033996027 -0.31132823 -0.2799143 -0.17765257 0.3522232 0.29020545 0.21017218 -0.0011220435 -0.124241784 0.032582328 -0.27412635 0.1317084 -0.37513158
2269 0.18679732 0.054537732 -0.037255794 0.1721536 -0.09092303 -0.17244047 0.10622025 0.06938054 -0.35918042 0.43418112 0.44333717 -0.38444683 -0.011286321 -0.5664944 0.21016456 -0.16645189 -0.47738814 -0.4519147 -0.41518545 0.7488388 0.10344894 0.65307647 -0.011752629 -0.13755594 0.53563505 0.63482296 0.65946436 0.38583177 -0.6322402 -0.5216405 0.07401095 -0.49211475 0.774235 0.2987193 -0.014239884 -0.43760657 0.09199658 -0.36931995 -0.24840093 0.1735535 0.076176494 -0.3022656 0.3851801 0.25882426 -0.56999344 0.5491663 -0.19418432 -0.2812714 -0.034210138 0.4889822 0.15980576 -0.48293135 -0.19539101 0.2791502 -0.14554666 -0.073765256 0.4249138 -0.2185588 0.20698103 0.16194649 -0.38634005 -0.28889668 0.024798132 -0.1793519 -0.21843395 0.6312178 0.10522198 0.5496605 -0.18710837 0.29807556 -0.7536046 0.39994645 0.17287162 -0.6555256 0.36271098 0.19098786 -0.5029256 0.3429712 -0.69167036 -0.104738384 0.19075818 0.33039573 -0.47937065 0.012137978 -0.08105966 -0.6513249 0.4162049 0.29903665 -0.061469328 -0.6894653 0.103687644 -0.35441238 0.16522337 -0.2540849 -0.12636913 -0.22056782 -0.51865244 -0.7148043 -0.020746103 -0.10241643 -0.18884467 0.47755727 -0.12191939 -0.43093416 -0.4323899 -0.04611732 -0.040949307 0.18814707 0.28755745 0.014759311 0.77693397 -0.35763615 0.105768666 -0.11609793 0.22265516 0.47020432 -0.13024558 0.17626429 0.21908669 -0.026068004 -0.13259083 0.42556557 0.3314926 0.070323214 0.43982637 0.9328169 -0.16042499 0.78656274
2262 -0.4639026 -0.48610777 0.26455614 0.17741118 0.7015583 -0.25812745 -0.8281099 -0.16226704 0.003144236 0.19439271 -0.4457042 -0.3923614 -0.3397302 0.19803362 0.23235503 -0.25755814 -0.1848968 0.21567927 -0.36261138 0.5363469 0.9197549 0.019513069 -0.11247361 0.3255096 -0.08262638 0.5738494 0.5719725 0.77331924 -0.050058216 0.13007404 0.61399263 0.06922523 0.09215628 -0.23781255 0.08748631 -0.53396255 -0.022559179 -0.02812235 -0.4069345 -0.36383212 -0.10768351 -0.3371109 -0.1296671 0.2100277 -0.098886065 0.42071202 0.15395616 0.18218228 -0.0106844725 0.08214594 -0.18049137 0.3070545 -0.18434827 -0.18726957 0.01433531 0.27426904 -0.4136766 -0.6269166 0.42355227 -0.06493526 -0.14372231 -0.17983848 -0.07499619 -0.5540962 -0.31594133 -0.09597471 0.52503103 -0.11437104 -0.47492635 0.42699945 -0.5763853 -0.15639387 0.34279346 0.30046803 0.043927573 -0.5234314 -0.14491564 -0.13600314 0.8803216 0.3570113 0.33830005 -0.099509396 -0.3729176 -0.044995308 -0.17473498 -0.38801625 0.35676503 0.20617107 -0.44579732 -0.56554365 -0.077891655 -0.79021215 -0.18729587 0.5004217 0.071420476 -0.5648771 -0.02343207 0.14387295 -0.39253283 -0.5030246 -0.15721053 0.1625208 0.3492462 0.04043658 -0.42560515 -0.57257456 -0.4928433 0.5262536 -0.04139006 -0.13855821 -0.10921923 -0.2319354 0.22447786 -0.51162326 0.27826223 -0.115466274 0.047575336 0.28826782 -0.13267215 0.037695397 0.077072196 0.007792385 -0.42617837 0.55632645 -0.3457227 0.45258754 0.03453393 0.13869861
2263 -0.067380205 -0.5783959 -0.12497502 0.25330794 0.13796945 -0.6006477 -0.8604509 -0.6351772 -0.32706794 -0.07565553 -0.5295606 -0.5668393 -0.3222298 0.35500208 0.076229244 -0.7480202 0.20060161 -0.19998898 0.065812714 0.36507854 0.7387703 0.10005494 0.10099098 0.6964005 0.038606785 0.14203925 0.38616103 0.23432288 -0.16337469 0.3711926 0.34204108 0.36522588 0.35671967 0.36204848 -0.11284661 -0.43850437 -0.057224493 0.034637548 -0.49823195 -0.607197 0.1490631 -0.13590634 0.2760521 0.14004043 0.035602473 0.18514536 -0.067029044 0.19251278 -0.18442684 0.5289712 0.2421084 -0.20844345 -0.3107929 0.36138543 -0.28853616 0.0642875 -0.07427066 -0.5860203 0.42157227 -0.19545053 -0.06895641 0.26739165 -0.25502458 -0.7010404 -0.33178398 -0.3029224 0.53025955 0.15667924 0.06017416 0.8038373 -0.82132214 -0.52044624 0.43500334 -0.28743258 0.29542816 -0.55321205 -0.18968414 -0.05383327 0.38583806 0.53393424 0.34579328 0.04186534 -0.26150408 0.14467515 0.046394058 -0.61945003 0.047359075 0.12207143 -0.6055527 -0.45087624 -0.36982402 -0.3080006 -0.10021514 0.33142376 0.27683482 -0.18842323 0.12642525 0.1404634 -0.6885472 -0.7252859 -0.1382883 0.23592322 0.55175483 -0.2988904 0.14838347 -0.47701818 -0.14064565 0.46650854 -0.17658152 0.1275402 -0.27126426 -0.19032782 0.3712309 -0.053748384 0.37607574 0.1502407 -0.0072073317 -0.017442815 -0.6231085 0.24050866 0.28539264 0.1824671 -0.4806545 0.4761215 -0.47854996 0.6527935 -0.62761563 -0.10670517
2260 -0.58654207 -1.1033535 0.2379501 0.3549666 -0.1375626 0.01021147 -0.773978 -0.76815563 0.42916054 -0.22364107 -0.67879546 0.17817445 -0.3403874 -0.32538155 0.24617934 -0.1932741 0.21092711 -0.02308584 0.017614035 0.1365446 0.83822995 -0.056550007 -0.073573075 0.51776016 0.21698855 0.68381774 -0.109499365 -0.032333948 -0.20593095 -0.14740424 0.06134456 -0.0013062297 -0.42597595 -0.116910376 -0.37440833 -0.50907767 -0.1148378 -0.26711956 -0.55500495 -0.44298777 -0.21117528 -0.9230596 0.4866672 0.32757688 -0.37581757 -0.022438152 -0.25204888 0.2982995 -0.0695401 0.9054198 -0.45185605 0.10864518 -0.055911638 0.3333546 -0.09451189 0.4769673 0.26849177 0.066756845 -0.017018924 0.3991386 -0.07970766 0.30344298 -0.077857226 -0.23178627 -0.19864313 0.431825 0.504035 0.40352264 0.109790415 0.6107418 -0.34507877 0.5586759 0.56387436 0.43358403 -0.080813676 0.15363696 -0.7785919 -0.32313123 0.31259486 0.05110479 0.0016538674 -0.35952213 -0.5709956 -0.11669591 0.019662164 -0.81118953 -0.03463799 0.4502682 0.31105238 -0.6184921 0.27532348 -0.15039054 -0.3062913 -0.04300185 0.040598724 0.14896986 -0.012408948 -0.6488963 -0.5866776 -0.36463502 -0.067276314 0.08095842 0.42406595 -0.16500811 -0.043685857 -1.1590663 -0.18589701 -0.30457333 0.7516773 0.4638915 0.07422279 -0.3266536 0.41743532 -0.47296384 0.450836 -0.16534095 -0.19551411 0.44842204 -0.25233012 -0.0995684 0.051443674 0.38281316 -0.15882815 0.32019195 -0.44271332 0.6980902 0.023940697 0.28397655
2261 -0.46679655 -0.10321615 0.20814657 0.4146116 0.051584814 -0.05082036 0.030147122 -0.8229943 0.5853499 0.15303238 -0.4360918 0.13493705 -0.21706423 -0.046518505 -0.0061949436 -0.15894619 -0.22279067 -0.21060972 0.26815197 0.3982955 0.49004632 0.027903905 0.3716319 0.20425044 0.3567411 0.57434314 0.28555065 0.16240163 -0.01924375 -0.25064483 0.11414143 -0.074461356 -0.23558944 -0.31320226 0.12506379 -0.7759076 -0.31030604 -0.13298598 -0.43067774 -0.27418014 -0.50196 -0.6015819 0.036570933 -0.2770474 -0.8106385 -0.32799223 -0.077368535 0.2739201 -0.4850987 0.6347291 -0.00985927 0.14577179 -0.23158114 0.43709603 -0.1283496 0.71591663 -0.10456223 -0.45492828 0.44287163 0.31085798 0.099072844 0.23524384 -0.13851662 -0.22559047 -0.051452506 -0.091453075 0.46051544 -0.5609444 -0.31425777 0.4300542 -0.65875715 0.4526029 0.14741543 0.74132454 -0.09579209 0.31974748 -0.5556775 0.05505182 -0.15305531 0.41173163 -0.32607576 -0.4212064 -0.32048178 -0.26631868 -0.38091964 -0.29382688 -0.11234268 -0.47026366 -0.18476358 -0.051206846 -0.00695188 0.33678627 0.076822795 -0.4978528 0.21449298 -0.49845445 0.034327146 -0.47099397 -0.5358319 -0.2619566 0.787833 0.6284902 0.18568616 -0.6326091 -0.068978995 -0.4343774 -0.23409984 0.112731345 0.05839164 0.26490295 0.2090273 -0.17030363 1.0748566 -0.091537 0.029187648 -0.689993 -0.33342034 0.4732294 0.33623865 0.15888508 0.28408948 0.3214636 -0.31227225 -0.7520429 -0.14840071 0.39949355 0.26677153 0.29729342
2266 -0.20186307 -0.47027153 0.0074273166 0.13486215 -0.31038523 -0.29731026 -0.17244619 -0.2602435 -0.04742973 -0.10855191 0.16468365 -0.5139958 -0.85038996 -0.90671974 0.60943496 -0.5073107 -0.5444278 -0.023956768 -0.012934996 0.8084362 0.78092474 0.3391455 -0.15569054 0.0064616906 -0.48853916 0.14210792 0.7232985 0.377374 -0.3463667 0.07310827 0.6471978 0.13683398 -0.031918943 -0.27059102 -0.050845787 -0.5294681 -0.050389968 -0.348839 -0.416168 -0.13587466 -0.19166803 -0.12029872 0.24872234 -0.4918096 -0.20932776 -0.17698123 0.13376683 0.4646223 -0.23405446 0.7182957 -0.0075523066 -0.13142626 0.016748156 -0.46866578 -0.18347119 -0.13757195 -0.082750894 -0.30287066 0.27343816 -0.23667845 0.22594127 0.49081722 -0.4533613 -0.58005226 -0.36306623 0.62121093 -0.07601112 0.6805448 -0.5338094 -0.3008841 -0.74904376 0.09322599 -0.019516138 -0.5894811 0.35982198 -0.24075861 0.031378977 -0.5778678 0.12421557 0.25167665 -0.58425385 1.0144771 -0.44657177 -0.20153524 -0.48242533 -0.8371711 0.23228069 0.700342 -0.49161014 0.12937205 -0.09169703 0.051110096 0.026105229 -0.056601215 -0.07970989 -0.5958952 -0.07725676 -0.5518407 0.14040251 -0.104009464 0.29544124 0.3205521 0.15390365 -0.069824025 0.009203475 -0.595079 -0.4788668 0.2134664 0.426335 0.18541461 -0.18069848 -0.19166718 0.63076055 0.2804396 0.22390532 -0.05176162 -0.354906 -0.11317956 -0.2339439 -0.07937935 0.16806062 0.5209857 0.00470141 -0.32690877 -0.12845628 -0.38130066 -0.062144246 0.16926327
2267 -0.18163216 -0.18151695 0.01070715 0.28212586 -0.086918525 -0.15340513 -0.11695602 -0.09027654 -0.005416906 0.020377066 0.19303383 -0.54920757 -0.7632787 -0.8310078 0.56669194 -0.5372204 -0.6927845 0.09786979 -0.19550152 0.6118224 0.8838207 0.46092668 0.041030724 0.004991652 -0.3798618 0.22231062 0.52342904 0.2498929 -0.14546295 0.15163869 0.64988977 0.15893732 -0.091603905 -0.47897753 -0.14352888 -0.57288575 -0.09556519 -0.3062584 -0.39508924 -0.17157508 0.054206178 0.056614053 0.5154396 -0.48633742 -0.31723797 -0.1585467 0.3488495 0.6923688 -0.17856914 0.7086583 -0.09046965 -0.24669671 -0.24471335 -0.37020066 -0.2564558 0.09456884 -0.13310865 -0.59806216 0.46432722 -0.19952524 0.21986206 0.7596584 -0.43960705 -0.63859993 -0.29348376 0.66623044 -0.20883356 0.5359466 -0.36286664 -0.3800315 -0.7438309 0.17397493 0.13406047 -0.81309015 0.32749224 0.023671253 0.13535565 -0.4425049 -0.03251755 0.10634379 -0.610835 1.061629 -0.40093124 -0.22501 -0.31351718 -0.7566714 0.017628903 0.58796847 -0.21242559 -0.15392837 -0.06391908 -0.18275368 0.03333347 0.06479938 0.012965818 -0.73054004 -0.3372837 -0.6282262 0.11596732 -0.081932716 0.27611268 0.32771537 0.15195206 0.074322835 0.12633447 -0.5367545 -0.61620224 0.05470762 0.5197927 0.062220853 -0.28106016 -0.38545486 0.5640964 0.044961542 0.344098 -0.20909667 -0.20214164 -0.20342639 -0.21805568 0.14671056 0.501878 0.5098118 0.06491865 -0.19742902 0.0150629785 -0.2963369 -0.21217094 0.36286122
2264 0.17260474 0.021050172 -0.55424815 -0.12559117 -0.01032789 -0.21979801 -0.45686632 -0.11956487 -0.23421365 -0.17090574 -0.043987032 -0.777094 -0.2964459 -0.4254021 0.85935444 -0.18831195 -0.18199296 -0.2679301 0.49781787 -0.49993205 0.6552466 0.17549112 -0.08891144 -0.10531236 0.28462163 0.38585263 -0.040382806 -0.1476288 -0.47609276 -0.05457872 0.7507045 0.0813231 -0.29846725 -0.8324722 0.16125454 -0.38646924 -0.27198854 -0.6695995 0.034018856 0.07500955 0.22612281 -0.4499773 0.22272253 0.57661253 -0.96513987 -0.0026535676 0.29661515 -0.12095303 -0.5368778 0.3082652 -0.06610212 -0.13061886 -0.058494277 -0.052312538 0.23941873 0.4351936 -1.324362 -0.17851654 0.33252212 -0.3619972 0.04196732 0.18852311 -0.13089027 -0.029975813 -0.3711562 0.64616 0.30978182 -0.1146476 0.09655016 0.35568053 -0.072211616 -0.30667678 0.24292274 -0.39325264 0.57583123 -0.19951972 -0.30542934 -0.084488496 0.40431955 -0.02890535 0.39313 0.07658844 -0.10761516 -0.30194762 0.20168835 0.033767816 -0.22333512 0.33775088 -0.4526073 -0.22323762 0.51918894 0.25844237 0.2720999 -0.6683582 -0.43612424 -1.3393368 -0.454 -0.22632656 0.67067844 -0.051515035 0.4811455 0.10515358 0.146968 0.2819257 0.14746737 0.06723507 -1.0165064 -0.028446548 -0.29765797 0.5609446 0.4230991 -0.09103187 0.70025337 -0.16934396 0.17638199 -0.16498703 -0.8045101 -0.3179669 -0.11515616 -0.13461687 0.22005264 0.32548112 0.43473053 -0.66943383 -0.93301487 0.41600743 0.19060965 0.27526906
2265 -0.32107028 -0.6512332 -0.6046851 -0.097154155 0.27657053 -0.7506888 -0.6278146 -0.5711487 0.029315488 -0.12516634 0.08558781 -0.20193578 0.39458826 -0.43294662 0.23043063 0.123530164 0.1427302 0.37200564 0.07880786 0.29094648 0.14247078 0.61440265 0.051667206 0.66785765 0.4737226 0.5072675 0.2283896 0.26319867 0.05950426 0.50443304 0.09056176 0.296736 0.56602025 -0.559916 -0.3508339 -0.24899414 0.3467447 0.07665758 -0.6444205 -0.3837497 0.121020384 -0.09957215 0.5730901 0.18216902 -0.21714291 -0.12888023 0.10046387 0.40268904 -0.084689856 1.3154106 -0.16261485 0.40698206 -0.011687945 -0.2193709 -0.3885429 0.10103283 -0.3658632 -1.1173561 0.23965666 -0.14025663 -0.036782376 -0.27114645 -0.56126124 -0.49927768 0.013849784 0.34436274 0.36679846 0.27083093 0.25573286 0.57185644 -0.4949306 -0.8523618 0.77182114 -0.16962536 0.1873945 -0.17969288 -0.21646331 -1.1035295 0.75979406 0.5904065 0.10335821 -0.2459558 -0.7414614 -0.18652265 0.31536022 -0.2698621 0.12978834 0.049803693 -0.5147745 -0.118187636 -0.17052579 -0.65043473 -0.13204789 -0.036526367 -0.15789925 -0.49494946 -0.31969097 -0.2638294 0.5884699 -0.49863553 -0.33023244 -0.2541069 -0.11984273 0.3748796 -0.5080611 -0.64839846 -0.39395332 0.6008013 -0.091627195 0.5631234 0.10121797 0.40058488 0.5777034 -0.11994355 0.5520416 -0.37364098 -0.3841511 -0.0020876196 0.018474614 -0.31732228 0.8906069 -0.060075354 0.14827012 -0.36142486 -0.28088886 0.14565572 0.23176457 0.15751675
2442 0.16001722 0.07899772 -1.001357 -0.48070306 0.04276398 -0.22061472 -0.73874664 -0.6444946 -0.13876115 0.3335558 -0.07601822 -0.56472397 0.060861077 -0.51984864 0.4710356 -0.23326246 0.31796396 -0.48822388 0.030178733 -0.30291313 0.038395036 0.13403289 0.016070705 0.05765743 -0.0027459331 0.33652872 -0.050225034 0.2910752 -0.085529126 -0.011916598 -0.0704095 -0.13722685 0.090966225 0.1423721 0.12717727 -0.78379774 0.13421789 0.049307734 -0.28271663 -0.48103687 0.30690238 -0.3561734 0.23282437 0.2666445 -0.3792026 -0.3171394 -0.29006672 -0.3645466 -0.4182772 0.03087056 0.39378852 -0.62143075 -0.7011668 -0.22363241 0.6669829 0.00037150492 -0.47222966 0.26016554 0.21941493 -0.030695371 0.2167239 -0.18155222 0.12632772 -0.1325567 0.30795208 -0.3017216 0.31518483 0.27119386 -0.06646092 -0.2728117 -0.8098523 -0.03992813 0.43208885 -0.34353286 0.54813164 0.006276604 -0.688696 -0.11467575 0.13320018 0.0037646776 0.2695328 -0.5579412 -0.6898966 -0.04452423 0.29570597 0.27350637 0.32909384 0.5243086 -0.48751336 -0.20309372 0.5789744 -0.20372768 -0.24064568 -0.16402577 0.12018453 -0.49856 0.23834224 -0.032221597 -0.43834564 -0.06546306 0.27577668 -0.14482968 -0.19123782 0.024315022 0.03612354 0.1054234 0.058578547 -0.42909542 -0.19807619 -0.17154169 0.37384233 -0.25352186 0.2721413 -0.36942434 0.3259775 0.25466672 -0.27262476 0.18496293 0.95202595 0.5356426 0.5413017 0.18143727 0.15599756 0.34503457 0.45871967 -0.362724 0.22940536 0.823276
2443 -0.08910837 0.016588299 -0.23268417 0.10175819 -0.5089173 0.061509293 0.01421648 -0.20407565 0.035188437 0.25100648 -0.033088356 -0.74869204 0.1351557 -0.5306186 -0.22494982 0.004066307 0.07725447 -0.79250896 -0.36159632 0.32853055 0.7367834 0.12363479 -0.13847972 0.43017492 0.3493425 -0.04225602 -0.41949794 0.5008468 -0.8823108 -0.5007787 0.043145597 -0.01620141 -0.03981721 -0.18837437 0.3380414 -0.5476397 0.21081884 -0.2530113 -0.7214108 -0.43046653 0.030642353 -0.6439155 0.4983185 0.30395842 -0.5275727 -0.8191541 -0.44688696 0.057906553 -0.44644403 0.41298994 0.23257685 -0.5263271 -0.456634 -0.06294358 0.35674712 0.24558851 0.34263965 -0.19807754 -0.047795404 -0.28855178 -0.3182401 -0.28389436 0.04354684 0.22427942 0.022900252 -0.59623134 0.36501932 0.48780295 -0.2701502 -0.12937047 -0.07217314 -0.24437496 -0.11216665 -0.3621484 0.2806374 0.18683189 -0.40878457 0.059931733 -0.20380795 0.38122588 -0.24431452 0.06988123 -0.4427196 0.58118886 0.10634357 0.23413025 0.28962338 0.07589024 -0.3668133 -0.36724463 0.26360545 -0.43670854 0.024754534 -0.4764464 -0.22073826 0.07616158 -0.3661748 -0.4935454 -0.03677953 -0.51409096 0.22228539 0.10956609 -0.22733445 0.10642632 -0.24737082 0.28664723 0.08408425 -0.09494799 0.32307112 0.29157776 0.055347852 -0.07105262 0.15797229 -0.11861402 0.34086445 0.4365688 -0.24290156 -0.37273914 1.3251164 0.17298049 0.264802 0.22563969 -0.20421684 -0.08136797 0.41028526 0.011749333 0.31366214 0.07076088
2440 0.28248653 0.1935452 -0.86329806 -0.2578921 -0.014405111 -0.5836511 -0.76122856 -0.6872191 0.003257307 0.23895928 -0.0065270346 -0.37281927 -0.18850681 -0.2723022 0.24404801 -0.14187199 0.5256668 -0.5954436 0.055009045 -0.17495921 0.19556762 -0.07077395 0.015974095 -0.16162854 -0.011346287 0.16308518 -0.208569 0.06318736 -0.25419024 0.01487194 0.18461868 -0.17209557 -0.032588206 -0.14911258 0.31154385 -0.66218007 0.15194489 0.089106366 -0.15074998 -0.5830147 -0.023603786 -0.27453125 0.1931741 0.23175165 -0.56629467 -0.5659743 -0.3048435 -0.33995074 -0.34074652 0.19482912 0.4794145 -0.73708254 -0.46059817 -0.04781018 0.6756531 0.10221752 -0.37694573 0.1561502 0.32070506 -0.167725 0.17887996 -0.27826384 0.043213088 0.012835727 0.038378354 -0.26817548 0.49202353 0.19465435 0.064907245 -0.19840391 -0.68772465 -0.19084923 0.4937094 -0.48796666 0.39300042 0.21247797 -0.7029766 -0.34882322 0.006489009 0.07586973 0.0211132 -0.44732317 -0.54463196 -0.07671418 0.3227415 0.47555578 0.4206346 0.35632887 -0.4136803 -0.36164838 0.46990722 -0.27048105 0.06016463 -0.09507184 0.27885437 -0.2821107 0.043140262 -0.052591104 0.037239157 -0.04260316 0.44558382 -0.1942002 0.073917955 0.28095722 0.14519134 0.2904314 0.021863293 -0.47192067 -0.23231776 -0.10642812 0.29282212 -0.054743733 0.3758046 -0.40838042 0.46830785 0.3723886 -0.31224364 0.03175454 1.1384779 0.52173 0.5596187 0.048942216 0.33457157 0.17929655 0.4997357 -0.15050475 0.16376844 0.71086466
2441 0.14551646 0.14167045 -1.1155828 -0.7313159 0.044165462 -0.2051919 -0.62084305 -0.70956033 0.06815558 0.13317665 -0.035445016 -0.7320974 -0.06319604 -0.3490328 0.69666684 -0.39600277 -0.106963 -0.5844684 -0.29494023 -0.16003752 -0.11318826 0.030986823 0.022167088 0.27594483 0.40131387 0.08835427 -0.17798217 0.17139931 -0.2062747 -0.059021644 0.2588722 -0.56318027 0.006389134 -0.16251422 0.39647245 -0.33024505 0.14442348 -0.103206955 -0.11181759 -0.1329843 0.2684191 -0.3324491 0.18928199 0.4114685 -0.357721 -0.28855258 0.05176097 -0.308268 -0.39824793 -0.26706797 0.41325596 -0.8725517 -0.4990699 0.25286174 0.43022287 -0.09404181 -0.28678733 0.010054803 -0.050790064 -0.16762516 -0.28598627 -0.2757856 -0.07645065 -0.14214161 0.28476095 -0.20208676 0.5620505 0.2150649 -0.103223436 -0.3405112 -0.43469316 -0.14738502 0.17399085 -0.35994014 0.50237876 -0.2749721 -0.5235485 -0.0070534823 0.13652411 0.06697144 0.2855196 -0.46043566 -0.6228715 0.06956917 0.66227114 0.34096992 0.55724555 0.26208493 -0.24353346 0.16129111 0.46625078 -0.03139789 -0.026996508 -0.1967323 -0.489171 -0.27146152 -0.1447114 -0.33140606 -0.27718204 -0.10660299 0.30513027 0.25948086 -0.04676933 0.05386388 0.056109186 0.14830385 0.11477745 -0.13437852 -0.48671657 0.06765373 0.40986067 -0.3518705 0.4530346 0.07349295 0.5840069 0.17535017 -0.35870233 0.18767105 0.9876761 0.5798541 0.2589941 0.3639328 0.06709842 0.1322373 0.020706488 -0.15093613 0.10921844 0.54366255
2446 -0.11058361 0.5773691 -0.66181594 -0.09186273 -0.15530817 0.08142344 0.025258858 -0.33439708 -0.055815414 0.0614324 -0.14033818 -0.36516157 0.19638237 -0.34164193 0.21552454 -0.18144041 -0.24641106 -0.675269 -0.6124547 0.13112214 0.55634975 0.39716166 -0.36917043 0.08886765 0.41055694 0.24828732 -0.005003041 0.34587908 -0.08088249 0.079051405 0.28851756 -0.21849012 -0.049768105 -0.03640989 0.23786275 -0.31423572 0.43703118 -0.633328 -0.4436722 -0.28999367 0.21543638 -0.5736406 0.36452505 0.27029136 -0.6303637 -0.36469612 -0.30651644 -0.09025293 -0.64907473 -0.035327546 0.46779063 -0.6520919 0.07555198 0.33972436 0.4689992 0.10424664 -0.46897763 0.2719495 0.013577942 -0.33293468 -0.26052603 -0.13140689 0.14398733 -0.19138761 -0.12198652 -0.27695534 0.583355 0.15623975 -0.2658502 0.14792766 0.16295904 -0.27242377 0.10200428 0.16692375 0.45305178 -0.28516376 -0.51344556 0.022173902 -0.1220761 0.1321508 0.07789747 0.0021076903 -0.27154258 0.0969459 -0.15188022 -0.4387021 0.20178778 0.29597718 -0.010964895 -0.037245862 0.35809812 -0.40266442 -0.10598607 -0.5116894 -0.47742215 0.043775525 0.10671881 -0.04696214 -0.35970256 -0.21466921 0.084355265 -0.0672744 -0.32553428 0.11287548 -0.24038188 -0.06336501 0.15937978 -0.10080178 -0.085078046 -0.05161648 0.24490377 0.07503539 0.453426 0.15668142 0.56072587 0.34979498 -0.5942982 -0.21061103 1.0421829 0.013105055 0.24945211 -0.069167234 0.3677387 0.33485225 0.47036684 -0.30811954 0.35163185 0.13374256
2447 -0.07312333 0.34462264 -0.5501357 -0.12531549 0.0194529 0.021449022 0.053813208 -0.3620254 -0.3651085 0.18779764 -0.30899167 -0.38007295 -0.13890147 -0.4010481 -0.042167608 -0.16327292 -0.30801895 -0.5472929 -0.7856262 0.0076302704 0.51366436 0.043802135 -0.27883846 -0.15381673 0.4781805 0.1131303 0.2136087 0.44000223 -0.48001233 0.2678348 0.09964683 0.020827852 -0.034709513 0.00053692906 0.4217049 -0.52402204 0.60449815 -0.72848195 -0.6834286 -0.06750859 0.20526421 -0.61075747 0.27196434 0.23882648 -0.66307485 -0.39592844 -0.25543645 -0.022285623 -0.92459005 0.007426464 0.6041054 -0.4475762 0.0077006784 0.29223022 0.7378339 0.3797792 -0.3223608 -0.08010115 0.026040986 -0.27567396 -0.07745471 0.35367906 0.20691723 0.22927949 -0.22804525 -0.35703933 0.41741806 0.3985926 -0.49093708 0.19244666 0.196994 -0.22667524 0.018587528 -0.14276753 0.6289713 -0.32337013 -0.4314407 0.03985787 -0.052310254 0.115157135 0.19059233 0.0009722271 -0.33077064 -0.033623658 -0.22801487 -0.42682934 0.3483566 0.33021307 0.02377696 -0.4469877 0.75387865 -0.20417023 -0.09960595 -0.54268146 -0.3048635 -0.0812527 0.101509206 -0.34173277 -0.31931567 -0.48435172 0.27935034 -0.021170888 -0.10731463 0.18950999 0.10512028 0.15241015 0.29801792 -0.27939877 0.23479804 0.30539224 -0.22835954 0.053677205 0.48270917 0.12140025 0.6108518 0.67846435 -0.40634713 -0.23853853 1.109015 0.22125088 0.16963257 -0.06796992 0.09209744 0.29488465 0.21277831 -0.3494746 0.27686423 0.30559084
2444 -0.08151045 0.06697337 -0.6203233 -0.076904476 -0.46377337 0.31996742 -0.29484046 -0.08138317 0.19191527 0.8326878 -0.122622676 -0.63726026 0.2779078 -0.14285773 -0.34586483 -0.05934775 -0.14182839 -0.36091807 -0.05135707 0.1658683 0.3244542 -0.059957303 -0.3393099 0.082339875 0.19326411 -0.08004465 -0.49575981 0.3725078 -0.64756596 -0.32013655 0.30910894 -0.5099282 -0.2837877 0.034175903 0.32272682 -0.036266696 0.3555567 -0.19869214 -0.6988282 -0.1875676 0.41513538 -0.2625633 -0.06533114 0.20270078 -0.53415394 -0.88395804 -0.32063895 0.3146891 -0.8952371 -0.10791786 0.342191 -0.49383277 -0.026060306 -0.006201677 0.13781379 0.007696647 -0.5290712 -0.06605625 0.117526695 -0.28581533 -0.001179787 -0.045926806 0.21579376 0.02353847 -0.19328295 -0.39057037 0.5002769 0.5246116 0.05886658 0.095338166 -0.16447002 -0.021184951 0.17495397 -0.30993748 0.31589717 0.21226665 -0.4278484 9.99952e-05 -0.37015054 0.26921162 -0.29138702 0.28888074 -0.60484976 0.43012494 -0.06859002 0.19041558 0.55680114 0.26550847 0.21154486 -0.045268696 0.58260185 -0.3060651 -0.08566344 -0.41623706 -0.30940115 -0.00409646 0.07435754 -0.12441328 -0.23371197 -0.5769973 -0.20722753 0.24378774 -0.17149334 -0.1057273 0.14176008 -0.16713095 0.0685095 0.015435087 0.05716047 0.20008244 0.07812192 -0.25720242 0.2566326 -0.15503933 0.16973154 0.30287603 0.19732921 -0.14351216 0.7942505 0.4104739 0.051820237 -0.050813854 -0.2517599 -0.1882138 0.44061598 -0.035262745 0.31742093 0.0071615544
2445 -0.021782156 0.24222726 -0.35728377 -0.035559878 -0.44454435 0.33975992 -0.49674633 -0.04275012 -0.058971606 0.59700936 -0.04315706 -0.6344632 0.08159583 -0.41665652 -0.13591667 0.11752493 -0.09704806 -0.35803574 -0.014166524 -0.09210781 0.56932014 0.20301034 -0.50389487 0.26360393 0.31134018 -0.17198373 -0.39082226 0.5966546 -0.5755734 -0.08887125 0.20677301 -0.1484681 -0.29844177 0.0020998183 0.53074044 0.018983155 0.34209523 -0.19833905 -0.5869848 -0.2902589 0.24978629 -0.19075507 0.16723818 0.27017316 -0.92143583 -0.78726923 -0.37744737 0.4832299 -0.79210603 0.16279477 0.24947882 -0.70533746 -0.0751885 0.20715524 0.474783 0.20447288 -0.36576906 0.12656148 0.13678277 -0.11318595 0.07509288 0.06878875 0.21229523 0.23983103 -0.15930064 -0.51081157 0.44793054 0.39153087 -0.09020707 -0.057438944 -0.2381628 0.07137998 -0.020548148 -0.17689255 0.3206741 0.05383434 -0.6845087 0.07555281 -0.23064452 0.16350524 -0.05898343 0.23754257 -0.38734055 0.21328141 -0.14187533 -0.05239849 0.75661737 0.21738417 -0.0633134 -0.27928025 0.5749844 -0.4604012 -0.062361293 -0.4869997 -0.0655453 0.03779186 -0.09475695 -0.20179191 -0.11568171 -0.3212284 -0.12759197 0.21572323 -0.31815353 -0.008051835 -0.03600591 -0.32520577 0.19324625 -0.14860053 0.21246505 0.15912473 0.070391975 -0.2481856 0.14708248 0.11567222 0.28560677 0.6177213 -0.31046793 -0.13974777 0.8501966 0.6482583 -0.07681676 0.20303515 -0.08327761 -0.110640496 0.66660404 0.009395589 0.20125096 0.03774747
2448 0.3563641 0.4488587 -0.33426723 -0.2819129 0.04949833 0.051868714 0.15603667 -0.28160495 -0.35905114 0.28729624 -0.26377264 -0.20895389 -0.013520913 -0.1913005 0.1574893 -0.26741508 -0.52238953 -0.35434675 -0.6169452 0.15777649 0.5694902 0.09375919 -0.63007945 0.2181978 0.0832852 -0.07944434 0.23758772 0.37558734 -0.103575334 0.35245368 -0.0060180924 -0.10085783 0.051363558 -0.45781335 0.5257767 -0.48835388 0.02098696 -0.55160224 -0.5548778 -0.27956253 0.1523409 -0.6499423 0.23581542 0.29257655 -0.6297483 -0.37800434 -0.15737475 -0.0856148 -0.4428884 0.14872019 0.6189833 -0.7295187 -0.35369727 0.34051728 0.81663024 0.15125048 -0.3980681 0.08322858 -0.32021493 -0.40251786 -0.25041085 0.030694453 0.25601265 -0.17952901 -0.018367572 -0.14972642 0.5230326 0.08666109 -0.110207 0.15064798 0.16176458 -0.4589207 -0.024419114 -0.16640726 0.03980434 -0.29541504 -0.10653325 -0.66378456 -0.037972305 0.31484172 -0.08960907 -0.10896301 -0.47903997 0.08811935 0.069421455 -0.3687673 0.39279884 0.3389543 -0.39061794 -0.18709747 0.3716734 -0.39809358 -0.13046184 -0.42219445 -0.3138566 0.4672843 0.023265347 -0.3046812 -0.17473574 -0.3180483 -0.0067748437 0.05053818 -0.11746315 0.29803202 -0.28279492 0.13676149 0.3580178 -0.18993504 0.03777209 0.27818996 0.596512 -0.19685459 0.12918925 0.20369706 0.425867 0.3167465 -0.5213651 -0.16537668 1.0559438 0.29019362 0.53405976 -0.47091103 0.16694614 0.33213115 0.3944143 -0.26398745 0.30566707 0.39597064
2449 -0.77590287 -0.020621601 -0.25972137 -0.06566793 0.33565375 -0.25109437 -0.82309103 -0.04726585 -0.037573207 0.19039083 -0.6237773 0.25594947 -0.07687699 -0.44152272 0.26364005 0.47064817 -0.43378437 -0.53581446 -0.31832024 0.13629058 -0.0049592652 -0.83116317 -0.3756862 0.14230672 -0.505863 0.53643274 -0.047511805 0.20732836 -0.5661853 0.14163063 0.49490738 0.107504845 -0.4781212 -0.16427445 0.31736997 -0.36083877 -0.21320653 -0.28590733 -0.07801147 -0.39193398 0.50381124 -0.5537998 -0.26599327 -0.0026086809 0.27417833 -0.7621431 0.09296593 -1.0903811 -0.19587137 0.24250332 0.29233953 -0.04912964 -0.51719624 -0.07663019 -0.366855 0.5097252 -0.043780807 -0.11303719 0.15147734 0.19115807 0.07958255 0.10954988 0.26240805 -0.38943812 0.24271646 0.40099755 0.27764672 0.5642974 0.23809628 0.8269466 -0.43027005 -0.012323767 -0.11878592 -0.13658993 0.92088664 0.54652214 -0.8110302 -0.23066688 -0.23320156 -0.70829123 -0.7624551 0.55346006 -0.34994835 -0.33164555 0.1400846 0.019824563 -0.05231488 -0.7183776 0.0131543735 -0.021727042 0.63063985 0.40953526 0.18677403 0.12351433 0.033084545 -0.1791643 0.08632611 -0.09669634 -0.118697286 -0.3782205 -0.27461022 0.7412245 -0.2871099 -0.4299971 -0.46204925 0.13462782 -0.165857 0.0570653 0.45781788 0.34493786 0.4715664 -0.13444035 0.2904802 -1.0050879 0.4768828 0.4457983 0.3277661 -0.6783998 -0.12022668 0.24369067 0.11821586 -0.036556628 0.30418837 -0.12672792 0.3979272 0.296455 0.5541422 1.05675
108 -0.2703741 -0.028610975 -0.5999684 -0.1901709 0.2030729 -0.030639173 -0.62174314 -0.6158123 0.02074266 0.91803074 -0.28791824 -0.7285756 -0.37898725 -0.9888465 1.0595287 -0.3132155 -0.13174407 -0.011948793 -0.29327807 -0.54094535 0.121270195 -0.47217178 0.07496031 0.2024955 0.18381745 0.5819794 0.15012221 0.45729846 -0.24023604 -0.46174616 0.40245977 -0.022518674 -0.487363 -0.6095685 -0.040480793 -0.48636457 0.4658104 -0.3204814 -0.10954296 0.1968892 -0.094685696 -0.4305553 -0.13723958 0.41981488 -0.06986239 0.2396605 -0.23211418 0.7882308 -0.15315224 0.7317349 0.3917622 -0.99323076 -0.39625582 -0.2043256 0.0737381 0.8256233 -0.14957969 0.18062308 0.38023314 0.020614492 -0.10911547 0.027650138 0.12312044 -0.2037631 -1.041425 0.7309882 0.19515295 0.45330572 -0.45805478 0.29048565 -0.25291327 -0.076982036 0.52197176 -0.881793 0.5005711 -0.0032488152 -0.61370885 -0.70702046 -0.46600398 -0.2576688 -0.7292473 0.20630148 -0.86547416 -0.3095887 -0.18253556 -0.55257577 -0.36375865 0.061340213 0.6707614 -0.06673924 0.45788473 0.016355688 -0.06354899 0.3046657 -0.040217996 0.08607375 0.1477298 -0.2898944 -0.3850308 -0.1413067 -0.04483305 0.6654033 0.0070311157 0.28007644 -0.7267225 -0.4005279 -0.26183683 -0.28345728 -0.51981294 0.05018964 0.33511025 -0.60372734 -0.0043774224 -0.6386708 0.42208353 1.1416268 -0.26324323 -0.2575749 -0.108755454 0.24223652 0.39379027 0.0652406 0.4817965 0.02221162 -0.047840837 -0.45338002 1.0114069 0.5787349
109 -0.10751166 0.09214061 -0.3477069 0.38740483 0.1883856 -0.21951114 -0.639236 -0.050498933 0.10006349 -0.23603934 0.13041994 -0.37419024 -0.2983308 -0.13933781 0.019178675 -0.26779622 -0.33049366 -0.33102342 -0.549384 0.46857092 0.27831066 0.04591632 -0.38299504 -0.11972204 -0.23906644 -0.21122314 0.48781678 0.12748636 -0.38602856 0.27959412 0.063559376 -0.2715136 0.0015569339 -0.1746742 0.06875252 -0.13128084 -0.11807792 -0.3436718 0.22092694 0.039226487 0.2603446 -0.30758473 0.51820457 0.016191661 0.45445272 -0.24251278 0.28362998 0.1330985 -0.003108583 0.1946919 0.15377308 0.20982741 -0.0277316 0.084880024 -0.21265331 0.24187487 -0.34977987 -0.2737276 -0.07057678 0.115137614 -0.47230554 0.0027478538 0.21558608 -0.27615115 0.060701378 0.26286072 0.25843173 -0.026107697 0.08963164 -0.1859142 -0.5929903 -0.22889936 0.11190912 -0.040963657 0.108442195 0.09085038 0.25437123 0.14073144 0.31672242 -0.09154956 0.0152895935 0.06316506 -0.1370773 0.068713166 -0.069196746 -0.31291905 0.17580779 0.20065989 0.41278943 -0.46675968 0.112899564 -0.17077011 -0.20017299 -0.23965052 0.15533765 0.27230623 0.05372736 0.085084885 0.07722706 0.015522873 -0.019512726 -0.32759437 0.5283081 -0.17683598 -0.00227911 -0.49024978 -0.19654456 0.015365408 0.27646226 -0.110485144 0.087068185 -0.24250405 -0.22247599 -0.35310805 0.030300308 -0.20551768 -0.2855724 -0.2286912 0.4625742 0.22651695 0.22063673 0.23108529 -0.09015481 0.231737 0.50456995 0.3979912 -0.14322399 0.6697353
102 0.15153022 -0.08068334 -0.2781254 0.47485486 0.45762205 -0.7991867 -0.4865062 -0.28113434 -0.14696379 0.10982962 -0.05268809 -0.2514407 -0.2674431 0.0016698653 -0.08759498 0.26564312 -0.32467973 -0.19131537 -0.5312075 0.20488533 0.110485144 -0.014643115 -0.29203412 -0.15987104 -0.29032677 -0.31635037 0.24281397 0.8848221 -0.07505074 0.19511805 0.48983678 -0.20465943 -0.06730321 -0.37554246 0.31075388 0.035388183 -0.11527327 0.04740183 -0.22400728 0.05876399 0.08015561 -0.0073457947 0.35426015 0.0341993 0.26423728 -0.29802755 0.63406575 -0.012478608 0.056834098 0.13124715 0.06733033 0.16343288 0.2680413 0.16225937 -0.20742297 0.37947085 -0.19101909 -0.18247698 -0.12830782 -0.038928296 0.036834475 0.08649119 -0.019355476 -0.004158429 0.41314644 0.5606443 0.2339787 -0.1995841 -0.2468563 0.07048331 -0.38304165 -0.21820657 0.17905751 -0.23515946 0.54383665 0.16600755 -0.19998288 -0.0044253143 0.15798162 -0.14621659 0.049030457 -0.019960608 -0.4665013 -0.04627885 0.12863614 -0.10993017 0.25063768 -0.1223196 0.63532513 -0.4260159 -0.6638635 -0.269706 -0.39088768 -0.04190811 -0.13613375 0.40302756 0.10901073 -0.1873091 0.43368334 -0.5093716 -0.38898334 0.029401533 -0.05614931 0.011036722 -0.077181466 -0.009809847 -0.15686643 -0.09003076 0.65286195 0.3650498 0.6049314 0.26031843 -0.34123638 -0.6251421 0.4878671 -0.30406454 -0.17923462 -0.80369234 0.42131153 0.12836021 0.051852122 -0.1510537 0.05638116 0.39870557 0.10344613 0.3453899 0.20565474 0.3742051
103 -0.10788576 -0.16503604 -0.1290125 0.07968885 0.18922599 -0.17560522 -0.06891529 -0.22651188 -0.1547864 0.022400204 0.20810851 -0.30087805 0.13293512 0.121022716 0.8928088 -0.686636 -0.040607397 -0.51149666 -0.77733415 0.1704528 0.25108978 -0.26517996 -0.24843459 -0.20083795 -0.047975834 0.18423742 0.23307787 0.7544854 0.20387627 0.6867453 0.24511902 0.070699066 -0.046277378 -0.22712274 0.15688752 -0.12779334 -0.32356128 -0.35555047 -0.06848278 0.047577348 -0.2282245 -0.14939629 -0.0123055475 0.4732457 0.038684446 -0.45772463 0.3536853 0.43308422 0.17714402 0.10350482 0.1551204 0.0014040872 0.07160462 0.13718246 -0.2761233 -0.12381002 -0.43236217 -0.10135309 -0.17640261 0.792862 -0.22428545 0.3954241 -0.042654168 -0.19666773 0.40022022 0.2712828 0.5128099 0.11058134 0.010536628 -0.23082016 -0.41991407 -0.10096549 0.5897051 -0.34932476 0.25564545 -0.13390134 -0.75594515 -0.2401059 0.14830709 -0.034206003 -0.023327671 0.5776623 -0.47137502 -0.151566 0.57036495 -0.72993934 0.08269715 0.32735234 -0.1375071 -0.16271304 -0.29208392 0.29696113 -0.26631325 0.045000754 0.59003276 0.02517851 -0.092012174 -0.08932608 0.21868937 0.017698692 -0.21592651 0.12277152 0.4877325 -0.42162454 -0.4727841 -0.6199376 -0.2927468 0.09113408 0.20584692 0.21585965 0.07414807 -0.12638886 0.2845733 -0.16387932 0.29920125 0.43539864 -0.026030794 -0.060463034 0.08402065 0.042559426 -0.0069730366 0.24647512 0.24657089 -0.14782059 0.18535356 0.5765311 0.04466576 -0.13713479
100 -0.27427155 0.05797918 0.013163443 0.13185507 0.41481477 -0.4691184 0.18505019 -0.2110387 -0.23105456 0.06197151 0.20189695 -0.7366169 -0.2276014 -0.66619986 0.09002682 0.04259153 -0.19911651 -0.28510052 -0.02447196 -0.30102295 0.37733987 0.3156665 0.40086266 -0.013810526 0.17530818 0.2028861 -0.20727295 0.7775814 -0.5225772 -0.078843065 0.26587915 0.18947597 -0.3848384 -0.3657129 0.5254654 -0.87997407 0.00456848 -0.13932355 -0.78327966 -0.34339544 0.014822098 0.33103532 0.011565814 -0.17463712 -0.45572066 -0.49815294 0.2499133 0.6283567 -0.26217064 0.50903434 0.27804565 -0.19642687 -0.6561039 -0.11112176 0.28639138 0.37896714 -0.8497209 -0.70161206 0.49810416 -0.20158176 0.10421435 0.6704479 -0.56510365 -0.25354877 -0.5083524 0.3461674 -0.16896191 -0.12147751 -0.15008666 0.028816236 -0.54501545 0.21969806 -0.2109821 -0.5172363 0.03606859 0.30993152 0.15849583 -0.3333978 -0.114872195 -0.20535167 0.2205978 0.5512878 -0.51631534 -0.58570987 0.19790004 -0.6363417 -0.025991913 -0.0077985977 -0.36047 -0.3343214 -0.21644169 0.020867802 0.3756275 -0.32945427 -0.26799545 -0.77330065 -0.08160523 -0.114123344 -0.09474121 0.14646313 0.5776707 0.3952393 0.26390004 -0.048043914 0.22204271 0.19926918 -0.2469282 0.043924917 0.06189592 0.18433884 0.22532506 -0.32370275 -0.047088563 -0.12543476 0.067743935 0.034256928 -0.40316615 -0.0076704365 -0.23432975 0.2929069 0.6877546 0.14892924 0.33130988 -0.32073516 -0.6324575 0.20513132 -0.047910754 0.3384284
