609 64
198 -0.30709645 0.09786818 -0.18132193 -0.3253073 -0.15613125 -0.19745864 0.1378324 0.12279488 0.07188192 0.036312267 -0.25101164 -0.17594358 0.018345667 -0.08139083 0.07643468 -0.065365404 0.018943451 -0.17964059 -0.008845187 -0.13116851 -0.23296508 -0.012213583 0.098408006 0.18385094 0.040918473 -0.15831399 -0.06288591 0.12241271 0.030800937 0.101714924 0.19551772 -0.19120139 -0.2652147 -0.09833812 0.22675833 -0.05585613 -0.18632156 -0.24224637 -0.026573798 -0.20584832 -0.04344682 -0.13795975 0.06136002 0.23156023 -0.04263275 0.2843033 0.23310038 -0.1736133 0.05886801 0.087253556 -0.022497104 -0.08870344 0.07813706 0.21925627 -0.13197179 0.09207567 -0.08822443 0.34202155 0.16324809 0.059470113 0.0135559 -0.2162833 -0.20109458 0.13523558
344 -0.36221412 -0.15548222 -0.18939348 0.24266699 0.011117558 -0.35983935 0.14662711 0.63260293 0.048767217 -0.25954762 -0.49771985 -0.3093206 0.006453015 -0.32668 -0.28951907 0.19028416 -0.06188454 -0.3122517 -0.5840454 -0.016562335 -0.44851926 0.3834658 0.5071763 0.46821713 0.3545934 0.107476294 -0.25383186 -0.1012153 0.4631343 0.70391905 0.19836374 -0.11855698 0.45194316 -0.34899974 -0.28513184 -0.6610051 0.399305 0.31746218 0.40821505 0.0023018853 -0.16254665 -0.33349887 0.34199956 0.24315695 0.07997667 0.63900757 0.39564407 -0.44329906 -0.26222226 0.5265496 0.2103469 0.099816404 -0.100047894 0.46964046 0.34257585 0.19537753 0.06932504 0.46971393 0.06965803 0.41521853 0.30578768 0.36567512 -0.18243195 0.39399627
0 -0.15757889 -0.110677056 -0.06844722 -0.23402521 -0.1693608 0.04154799 0.15964876 0.026223399 0.06917414 0.09818986 -0.23250069 -0.09665082 -0.03768533 -0.12050589 0.015446936 -0.24036777 0.19206321 -0.060139075 0.089867346 -0.09541744 0.002805939 -0.11638858 0.24824205 0.29425487 0.080511294 -0.11454829 -0.16182406 0.035773735 -0.03749299 -0.07567417 0.04677405 -0.13302374 -0.13250425 0.029337626 0.15968306 0.027957603 0.07256875 -0.065271735 -0.040157408 -0.2975384 -0.10152981 0.16048218 0.17114788 0.27416804 0.03454378 0.14234039 0.255372 -0.18190238 -0.009151351 0.12725842 -0.13907216 -0.053573348 -0.09354119 0.27406684 -0.13903569 -0.03661971 0.03506127 0.3603589 0.042836376 0.1899081 -0.071595706 -0.27261394 -0.12343273 -0.013831527
346 0.24725243 -0.42520568 0.4724773 0.17909913 -0.5309119 -0.06757646 0.25212207 -0.15957303 0.15024793 -0.01991047 -0.42973563 0.22278573 -0.25521886 -0.16527425 -0.015548036 0.13780263 -0.17952089 0.031135084 0.28126305 0.5503192 0.14128639 -0.3950122 0.4303639 0.0077274772 0.0026234412 0.15977007 -0.041744724 -0.3859604 -0.13894299 0.105788104 0.028767062 -0.3448559 -0.7218825 -0.29506332 -0.05727409 -0.45265448 0.09167925 -0.13981533 -0.33546853 -0.4251398 0.63406867 0.04370513 0.22686686 0.41207293 0.31380832 0.26851332 -0.05424033 -0.4359487 -0.23515241 -0.011599987 0.053168748 -0.1237126 0.39666197 0.30274248 -0.14442846 0.14057748 -0.11720498 0.16018827 0.237599 0.11760367 -0.32878613 -0.3189625 -0.044853393 0.3423799
347 -0.55380994 -0.25109795 0.35304737 0.21462947 -0.12386082 0.0980819 0.23495151 -0.33278915 0.21176091 -0.12929603 0.03744422 -0.09531364 -0.12881936 0.21169764 -0.20052186 -0.67519516 0.85156476 -0.6623919 0.09638364 0.20251712 -0.34311604 -0.2952194 0.2458935 0.7002774 0.02103927 -0.42562136 -0.026572498 -0.050079748 0.463337 -0.2637808 -0.098754704 0.28474668 -0.30721188 0.06681573 -0.20120065 0.30149367 0.2317521 0.11137755 0.42341852 -0.15323962 -0.1775291 -0.025245516 -0.2687221 0.51239085 -0.03983762 -0.24111708 0.26300755 -0.41642904 -0.056462765 0.18969743 -0.043616198 0.027919754 -0.05915111 -0.20465 -0.19969878 -0.13058163 -0.3396029 0.29344004 0.29913455 -0.2991837 -0.10011632 -0.22188906 -0.4524609 0.28984743
340 -0.01974923 0.17527817 0.28409216 -0.09898977 -0.18360716 0.34404173 0.19592021 0.18222946 0.3086326 0.16761538 -0.16250606 -0.06367387 -0.053978425 -0.26763728 0.059512272 -0.08312243 0.0038406788 0.4489311 -0.29868737 -0.0038533 -0.6324318 -0.13393752 0.13655238 0.23556606 0.04300897 -0.29445338 -0.20052937 -0.18631174 0.22590855 0.112734474 0.21768111 -0.45902702 -0.7562103 -0.3052421 -0.10748466 -0.014283308 0.14211956 -0.10463445 -0.07654601 0.034250673 -0.057153396 -0.10061507 0.011261337 0.43910792 0.18814084 0.48267877 0.044500597 0.07035404 0.11190924 0.23557097 -0.024685998 -0.05865272 0.0022470623 -0.30631185 0.08433624 -0.4828979 -0.31989953 -0.10910505 -0.07144738 0.10379366 -0.18221323 -0.3305191 -0.015679497 -0.009205978
341 -0.034053233 0.05873266 0.000772503 -0.23389325 -0.19454744 0.07500446 0.01904442 0.2807524 0.0792352 0.15880072 -0.18938337 -0.032824975 -0.08120221 -0.18818864 0.13704419 -0.16922408 0.025181595 -0.18853284 -0.009939438 -0.12536792 -0.09060339 -0.024070667 0.17948525 0.23924208 0.020703856 -0.2420386 -0.14783277 -0.00095901644 -0.14586598 -0.1250376 0.14601097 -0.235896 -0.06686386 0.064880535 0.11626732 0.075135045 0.049668133 -0.32546788 -0.15908904 -0.34227213 0.05369026 0.040487435 0.0902093 0.21710682 0.05382106 0.13611613 0.28379026 -0.0700814 -0.05167524 0.16611445 -0.10937778 0.062110707 0.033167314 0.2814514 -0.38094363 0.0624175 -0.025570856 0.16847153 -0.08861669 0.26690936 -0.25098467 -0.29847044 -0.31234437 0.08932664
342 0.26690882 -0.24399209 -0.10987018 -0.0074777757 0.17877626 -0.16423802 0.28054565 0.10445032 0.25236762 -0.04807847 -0.7617779 -0.18945812 0.26834977 0.14227827 -0.27849567 -0.082410656 0.15856916 -0.02072287 0.19469711 -0.5974379 -0.3224768 -0.094631866 -0.08889456 -0.03892761 -0.045060035 -0.54490286 -0.06643868 0.10889946 0.2364569 -0.13949065 0.38061345 -0.07506279 0.010513242 -0.08850515 -0.007030969 -0.010564097 -0.3895546 -0.20239857 -0.088705316 -0.425422 -0.14829852 -0.04303789 0.40788317 0.4774403 -0.056164846 0.29398656 -0.051939204 -0.032475054 -0.18075018 -0.41878533 0.6339325 0.32128984 -0.24684234 -0.17504473 -0.2565257 -0.44339764 0.041970752 0.62516403 0.12823543 0.019551147 0.19148411 -0.57931155 -0.5450884 0.17040023
343 -0.11166955 0.0053395717 -0.13942596 0.23774725 -0.21990994 -0.18372059 -0.089621335 0.48952517 -0.26865017 -0.08638939 -0.28149638 -0.27384043 -0.31002927 -0.0019209898 0.116064414 0.09416543 -0.05338349 -0.38550755 -0.11597343 -0.37290788 -0.5804945 -0.015986633 0.41362906 0.5242573 0.22008187 -0.12971465 -0.017075077 0.04024985 0.2005807 0.27401996 0.20784397 -0.15314433 0.005984273 -0.09522559 0.44576386 -0.17885906 0.09270155 0.036983125 0.116149254 -0.24372956 0.019549062 0.07313372 0.12288482 0.009178722 0.15429182 0.0011038035 0.27760208 -0.379589 -0.3278911 0.05344421 0.059182823 0.32961813 -0.43720332 0.08939564 -0.24762276 -0.004913157 -0.2035697 0.09515059 0.044631615 0.18419473 -0.12985572 0.116208956 -0.14409101 -0.08279422
348 -0.4530138 -0.16210532 0.055530272 0.049133975 -0.22611068 -1.0540291 0.037728317 -0.03588618 -0.14404728 -0.107279435 -0.38473886 0.27286652 0.14707436 -0.64593047 -0.4350803 -0.5094799 -0.00787636 -0.35405305 -0.107665315 -0.3872373 -0.48324537 -0.13507819 -0.0065716486 0.19965707 0.5404236 -0.5493859 0.09733397 0.045229383 0.26774263 0.077480085 0.18668588 -0.28556684 0.12694496 0.17795011 0.40558094 -0.16290624 -0.0024216375 -0.39390424 0.08992499 -0.08124189 0.53252286 0.1586307 0.29988575 0.01856431 0.21858543 -0.030698836 0.27540836 -0.12884638 -0.31040436 0.48642606 0.3598986 -0.5654975 0.25745916 -0.34321725 -0.27075967 0.22513346 0.16507298 0.6117453 0.26600194 -0.19111377 -0.15274255 -0.26042804 -0.07242175 -0.07091414
349 0.23237675 -0.41302454 -0.03110707 -0.26256958 -0.16462226 -0.30620095 0.27167022 0.16342908 0.041569512 0.008643524 -0.20621419 0.34777892 0.029537506 -0.71804076 0.18884093 0.06251897 0.3988507 0.052653298 0.08460371 -0.26687536 0.022801004 -0.1248166 0.34803084 0.23207009 -0.023661526 -0.39456633 0.16348903 0.019716468 0.31630877 -0.07390919 0.25589177 -0.11105415 -0.28894258 -0.11404079 0.44021758 0.21456464 0.44838652 -0.34249368 0.20126465 -0.062331382 -0.39549008 -0.18114348 0.37415186 -0.14680156 -0.24098046 -0.24086957 0.43923345 -0.074254945 -0.18910283 -0.26960114 -0.07707972 -0.005222757 -0.11022161 0.0990912 0.4042624 -0.25479484 -0.23744762 0.47076496 0.30797285 0.33984298 -0.17339225 -0.20589821 -0.054865114 0.076247625
595 -0.56842166 -0.29708204 0.3193631 -0.027987357 -0.37506968 0.19677922 -0.030877154 -0.29455274 0.42401144 -0.319246 0.03255686 -0.3732072 -0.096620046 -0.017686414 -0.43907246 -0.31449765 0.55534667 -0.3981398 0.09651163 0.35238636 -0.19075012 -0.18794817 0.024364604 0.43571982 -0.24221857 -0.2750979 -0.1611389 -0.43783686 0.27725178 -0.26106486 0.0048818276 0.14356475 0.007372802 -0.039699625 -0.2146012 0.2107376 0.23230885 0.3421976 0.31600255 -0.51446915 -0.31051093 -0.024678875 -0.16883808 0.47555995 -0.06614322 0.040335726 0.09937044 -0.4385413 0.1562548 0.15321249 -0.19347325 0.17907423 -0.20421852 0.2707558 0.14917107 0.11858562 -0.16277014 -0.010965308 0.3757146 0.2774407 -0.12560542 -0.334097 -0.71289337 0.25678495
298 -0.39919442 -0.16824126 -0.3796388 0.32397145 -0.17823914 -0.53067154 0.42834663 0.8262437 0.14153334 -0.3709871 -0.67567843 -0.3312093 -0.2572034 -0.8590847 -0.39130402 0.014236492 -0.073346704 -0.3402708 -0.42972183 0.060958795 -0.5448202 0.14376558 0.39495966 0.7092071 0.68966025 -0.16401514 -0.1241625 -0.26225862 0.25552642 0.37625667 0.44492266 -0.41248944 0.4382724 -0.69809437 0.08268933 -0.70746493 0.14379255 0.0924183 0.16408771 0.020275116 -0.05127109 -0.03736097 0.14708538 0.021501534 -0.058166973 0.1693142 0.22604606 -0.18905976 -0.23576654 0.44945052 0.16262697 -0.036906995 -0.12427554 0.5990195 0.62096524 0.3501145 0.02106902 0.119137056 0.2762846 0.3559568 0.3135539 0.2664571 0.056434058 -0.07128484
299 -0.029469816 -0.15592349 -0.07584612 -0.27588204 -0.17044486 0.0018866487 0.3741751 0.10416398 0.051768124 -0.17553182 -0.20922191 -0.017921545 0.014261149 -0.0635049 -0.089975685 -0.13726607 -0.070612274 0.046256907 -0.11126545 -0.064171694 0.05444803 -0.15542279 0.33658502 0.43872714 0.052770518 -0.22505233 -0.1080885 0.06378542 -0.1682084 -0.11530117 0.19663127 -0.114560924 -0.027667604 0.061116528 0.13141704 -0.010057418 -0.15147401 0.08042455 0.054501556 -0.2855636 0.13132903 0.007893097 0.34319347 0.27311435 0.07767434 0.0477915 0.2076065 -0.20631121 -0.13937575 0.12389491 -0.114500545 -0.15688436 0.20025565 0.3423246 -0.02441449 0.015136756 -0.14330274 0.3202441 0.16976859 0.12118947 -0.2693261 -0.28446853 -0.08189288 0.17225721
296 0.13988729 -0.5114067 0.09498631 -0.4339711 -0.39377216 0.095085666 -0.0270564 0.39508823 0.18232468 0.59510976 -0.4715804 0.115567796 0.09161508 -0.38865656 -0.20260951 0.1054236 0.2564884 -0.23873535 -1.0268704 0.37591335 -0.39884198 -0.49175343 0.2757327 0.094477944 -0.062461857 -0.022580102 0.028630923 -0.43063298 -0.1148089 0.47097403 0.07504277 -0.16837639 -0.73756933 0.045239076 -0.41414723 0.12158037 0.12061505 -0.41387898 -0.06832537 -0.14760071 -0.50385576 -0.20312437 0.34707132 0.51442593 0.121238545 0.17426789 -0.5050324 -0.066015035 -0.0119993985 0.30056167 -0.54839665 0.09145842 -0.021496981 -0.5319728 -0.3517427 -0.267744 -0.020063937 -0.08118728 -0.08517931 0.20513165 -0.4361056 -0.17385599 0.036687497 0.66933453
297 0.28745058 -0.59164083 0.13942546 -0.5277779 -0.008472802 0.31982568 0.43233103 0.3746928 0.45987833 0.42556524 -0.4065799 0.1204192 -0.4001522 -0.058786403 0.08116813 -0.23602884 -0.2716701 -0.07407724 -0.52154106 0.11931216 0.16672622 0.06447831 0.43027544 0.3654802 0.33327982 -0.7615334 0.0833555 -0.18271686 -0.35246214 0.07587913 -0.34485447 0.4465128 -0.16819473 -0.17693338 0.0017015567 -0.17662324 -0.083480574 0.23463437 -0.013645233 -0.25888464 0.11312759 -0.091443524 0.29543737 0.2957448 -0.12554048 0.45038244 -0.34930468 -0.56995374 -0.32320675 0.47744194 -0.3943336 -0.08211992 -0.25606546 -0.043356866 0.055692416 0.08827738 0.21064307 -0.082389094 -0.21778458 0.26396933 -0.24049982 -0.22402866 -0.4248691 0.14786679
294 0.12944613 -0.29292503 -0.3422476 -0.1767507 0.0051336484 -0.7116649 0.4160617 0.53295416 0.86057997 -0.20086916 -0.55020565 -0.11130662 0.20256464 -0.5935185 0.12523226 -0.094497636 -0.04200379 -0.32764104 -0.04705784 0.17760195 0.2705998 0.13267215 0.5317562 0.20843464 0.24343427 -0.104528874 -0.18044588 -0.30217814 0.48413178 0.34272486 0.44492126 0.0067216954 0.32419208 -0.07949071 -0.08020651 -0.62798446 -0.028909491 -0.24145718 -0.2831068 -0.27515182 -0.17680873 0.25525367 0.12484152 0.49759915 0.048054058 0.50734925 -0.33637205 0.13578649 -0.3910788 0.4004218 0.16991766 0.114833385 -0.15778692 0.0672113 0.13305111 0.36420515 -0.51358277 -0.25914183 -0.07863681 0.073326744 -0.0013726315 -0.38177693 -0.05735884 0.32445502
295 -0.057983536 0.30339733 -0.49674433 -0.22521475 -0.055193234 -0.19741544 -0.18407382 0.16705064 -0.33016804 -0.14527701 -0.43317336 0.25934663 0.021095602 -0.10627656 -0.28051087 -0.06698533 0.27542 -0.17031208 -0.21359436 -0.39150816 -0.25106534 -0.073073536 0.17498463 -0.14406617 0.09754468 -0.29234383 -0.11067152 -0.13450383 -0.042786818 -0.014418445 0.05297936 -0.36338708 -0.48187143 0.027501736 0.1895089 -0.11216816 0.27879015 0.078091554 -0.19550218 -0.23066728 -0.25414225 -0.29298988 0.41669467 0.5346 0.04110653 0.08075206 0.30071977 -0.45805326 0.22233456 0.13010271 -0.11310807 0.11701906 0.34448376 0.23247951 -0.2320193 0.029993331 -0.14034128 0.054496862 0.13322817 0.1010495 0.17957653 -0.10785686 -0.18303293 -0.21078186
292 -0.16844347 -0.25420737 -0.22364064 -0.30459782 -0.37803233 0.27640778 0.034089644 0.0372976 -0.13494052 -0.10803463 -0.48902917 -0.02421345 -0.08752605 -0.07797447 -0.084620245 0.0035870082 0.06298902 -0.22861579 0.024745775 -0.035016455 -0.108698346 0.073651 0.39863172 0.15558314 0.12873562 -0.26202884 0.10529543 -0.04230643 0.1116129 -0.20871557 0.03479161 -0.12146776 -0.17285609 0.023048308 0.30494204 -0.038923007 -0.08447319 -0.031692196 -0.14557709 -0.30541137 -0.050477643 0.03581008 0.2878875 0.31691265 0.17565311 0.13602746 0.11226537 -0.1519677 -0.021755325 0.19158205 -0.029661521 -0.045723774 -0.14462583 0.20109941 0.03899961 -0.15033057 0.010366131 0.17258553 0.07316849 -0.12221374 -0.077701144 -0.044345643 -0.2330175 -0.18106236
293 -0.15097141 0.07219804 0.015823474 -0.105267115 -0.28562912 -0.23395261 0.24572594 -0.062654115 0.023700368 -0.28295305 -0.3862754 0.08889195 -0.28328624 0.12607655 0.7562081 -0.025666201 0.21684675 -0.09236496 -0.14312045 0.0027023533 -0.22822548 0.064746596 0.3326402 0.023819953 0.16619961 -0.25439584 -0.017352141 0.14247446 0.13957019 -0.06841268 0.086614 0.2829169 -0.23999423 0.009428278 0.26454133 -0.08848618 -0.10293873 -0.611159 -0.31951743 -0.31544092 -0.2854185 0.19132668 0.2864923 0.17226896 0.5146766 0.18355821 0.07886266 -0.21893269 -0.19105916 -0.03640232 -0.003710508 0.090002365 -0.12919787 0.018715097 -0.025244921 0.16463539 0.20917988 0.19032131 0.16803099 0.058997832 -0.52671164 -0.2764622 -0.15189198 -0.15738025
290 0.0031023119 0.057570037 0.058121946 0.1948886 0.036451448 0.24269725 -0.2502392 0.16824819 -0.031984255 -0.16012754 0.10478561 0.30761215 0.47875628 -0.17910059 -0.014251601 -0.01575843 0.014822131 -0.36057782 -0.12978177 -0.5411492 0.17617084 0.07251129 0.38982174 -0.16663355 0.012417871 -0.33985704 -0.11871607 0.0932237 0.39794576 -0.14727186 0.02794891 -0.49487984 -0.13311361 -0.30648103 0.42516536 -0.07726777 -0.24839263 -0.20673327 -0.25826338 -0.12217489 0.2663247 0.31024265 0.08178646 0.36897954 0.022473626 0.22536501 -0.43863988 -0.19154835 -0.02278627 -0.14326207 -0.05569752 0.3673532 -0.21177201 0.7478154 -0.034651533 -0.23935002 -0.34851852 0.9775808 -0.29347527 0.24745473 -0.165446 -0.48244807 -0.5434924 0.21754585
291 -0.1076112 -0.18680523 0.1228715 0.08587305 -0.17116605 0.0014190488 0.4983489 -0.26135772 0.14950998 -0.3013713 0.095517 0.24741244 -0.046290513 -0.29199666 -0.33692205 -0.33454588 0.023563337 0.062332235 -0.05195152 -0.09141954 -0.25692934 -0.22459956 0.3369321 0.16490498 0.03154951 0.029426886 0.10214653 0.09977801 -0.128678 0.14631914 -0.045693047 -0.09933908 -0.43430164 0.013760887 0.023738487 0.09267741 -0.20494613 0.109638035 -0.11620243 -0.23353562 -0.11050259 0.22873785 0.34808218 0.2395204 0.18203798 0.23787333 0.28166205 -0.31676203 -0.46826968 -0.13915879 0.043341316 0.06897671 0.17735146 -0.0031484931 -0.49567237 -0.0249635 -0.09613804 0.20568907 0.18421128 0.09442029 -0.09764685 -0.2769435 -0.19376644 -0.003949697
591 -0.20024015 -0.10639868 -0.038202062 -0.36175165 -0.22100541 -0.036275916 0.24527079 0.035094384 0.110461585 -0.0038294552 -0.31455132 0.04263886 0.0810239 -0.07948523 0.1840079 -0.14645702 0.22766212 -0.038150463 -0.14744112 -0.24326585 -0.028881773 0.08284033 0.09276931 0.30213755 -0.02099212 -0.18735275 0.17170842 0.15409146 0.012310512 -0.19905147 0.1981711 -0.14131466 -0.1830212 0.01806873 0.29772052 0.082516834 0.032780718 -0.10175689 0.02544786 -0.40317494 -0.0395555 -0.09016175 0.12541409 0.22165753 -0.11338388 0.0052914834 0.07061471 -0.01692053 0.14139254 0.092644 -0.09419051 -0.020499507 0.062293034 0.18190758 -0.34418857 -0.121541195 0.00791147 0.36202988 0.26684055 0.18853703 -0.13653392 -0.3064546 -0.1741078 -0.012162266
590 -0.15542032 -0.1684822 -0.04510172 0.4241758 -0.0658752 0.14132042 -0.12978178 0.004885393 0.25597054 0.09248069 -0.32988304 -0.11405688 0.3295466 0.003284299 0.34665298 -0.13087602 0.14092925 0.008493671 -0.022851408 0.047324788 -0.17635927 0.0517632 0.2095916 0.74454844 0.44599319 -0.48625615 0.12710415 -0.23728718 -0.17459673 0.11213293 0.45410958 -0.005268405 -0.55303556 -0.6341636 -0.13735166 -0.19510897 -0.1870969 -0.0928533 0.017230863 0.1244796 -0.13450539 0.11546831 0.0891581 0.28848118 0.48674902 0.3228507 -0.059630238 -0.2180199 -0.056919996 -0.19427018 0.058847677 0.27310285 0.12941961 -0.274721 -0.20743981 -0.05340701 -0.4239642 0.3724086 0.0076378607 0.40198937 -0.20263088 -0.14324906 0.096212395 0.004665497
593 -0.64755327 -0.3890498 0.04329086 -0.3049153 -0.14877209 0.11017888 0.028097523 0.20955841 -0.15971 0.09805781 -0.55257237 -0.00068120874 -0.039702997 -0.39747354 -0.17964756 0.06965078 0.30429775 -0.36410332 0.05423734 -0.03956042 -0.03874286 0.2514644 -0.032287836 0.043844152 -0.038839817 -0.3436808 -0.26266718 -0.21083416 0.33008638 -0.13640377 0.12499694 -0.17564528 -0.385533 -0.04696923 0.2525861 -0.22542687 -0.1888811 -0.0052371123 -0.19658098 0.21009567 -0.33758616 0.18703559 0.04801392 0.06967357 0.1515676 0.14737275 0.21553828 -0.38889638 -0.13871995 0.2097848 0.054065123 -0.20343304 0.2842755 0.6910053 -0.73757076 -0.3229165 0.406011 0.014638947 0.22994219 -0.11546533 -0.09836787 -0.09072844 0.17938437 0.47691566
592 -0.3647441 -0.45389298 -0.2533673 0.021712134 -0.16388343 0.031041898 0.19423884 0.21114033 -0.23608114 -0.016004795 -0.22744836 -0.07654276 -0.35051546 -0.21400975 -0.04226425 -0.20371027 -0.39157036 -0.3804899 -0.15344113 0.11046375 -0.22309513 -0.0124682095 -0.092004575 0.0046771243 0.20234774 -0.016739057 0.040529113 -0.011450247 0.27491847 0.06970096 -0.23738515 -0.18540725 -0.35654232 -0.32950467 0.24666108 0.14379671 0.056889087 -0.13969976 0.059398085 -0.049009338 0.1762697 0.054187194 0.15351334 0.3471276 0.00964953 0.30463177 0.09705159 -0.13991584 0.15227328 0.25378576 -0.15880492 -0.109298356 0.29698837 -0.12555388 0.07791057 -0.051266804 -0.057393685 0.22764254 -0.2005043 0.17150888 -0.41576102 -0.12936519 -0.25656593 0.2413376
199 -0.5925814 -0.19893657 -0.11972228 -0.40944588 -0.5011033 0.1904674 0.18263178 0.21830001 0.45627144 -0.44353682 -0.47549066 0.06391742 -0.40851042 -0.31920326 0.23734435 0.18757823 -0.28390858 -0.28078324 -0.3506058 -0.5164595 -0.4013395 0.19623372 0.38348758 0.587343 0.27974954 -0.6866461 0.118171856 -0.2043226 0.3087877 -0.02073025 -0.14331546 0.2934656 0.22775589 0.5918102 0.33320063 -0.4325937 -0.100327805 -0.04014713 -0.25766993 0.03495164 0.10161435 0.042439803 0.2594705 -0.31166807 0.19211905 0.44624513 -0.124329686 -0.50812006 -0.38671175 -0.37799716 -0.83177567 0.3165807 -0.33207262 0.32104468 -0.09652446 -0.21176372 0.127459 -0.038030248 -0.3397856 0.011117283 0.26981133 0.056062557 -0.004427618 -0.27874768
594 -0.01771453 0.2038227 0.12825544 -0.3912627 0.042445622 -0.20277718 0.21244496 -0.20916063 0.2351023 -0.10539857 -0.34841356 0.21946752 -0.14113921 -0.64239424 0.0037800723 0.093441606 -0.35105228 -0.121999145 0.13457471 -0.13683242 -0.1273235 0.011068336 -0.24303995 0.26542392 0.16732194 -0.10840721 -0.47795075 -0.06821446 0.16126066 -0.026846861 0.27195153 -0.1299214 -0.15385945 0.014513619 0.26761028 0.010154846 0.057514496 0.023431037 0.11133985 0.053282835 0.026091408 0.09867516 0.20108585 0.10518409 0.37160864 0.1887243 -0.070508815 -0.36466652 0.22736235 0.3270719 -0.120688416 -0.17288397 0.08019291 0.17454652 -0.27197814 0.42796287 -0.47278365 0.14562672 0.09127835 0.3589218 0.28003937 -0.32232812 -0.14269833 0.10596875
597 -0.29351118 -0.3295905 0.12600932 -0.19993478 -0.19863002 0.068592906 0.12237324 -0.1377168 0.22537865 -0.29117104 -0.12823756 -0.27133486 -0.08507868 -0.09627915 -0.00889306 -0.109373614 0.33948067 -0.15973382 -0.0873263 0.113452695 -0.070487864 -0.10379492 0.2096996 0.3337405 -0.11214067 -0.30411825 0.005650466 -0.042327754 -0.012595646 0.012136595 0.012460053 -0.0819054 0.0058814446 0.11378725 -0.10366671 0.04125496 0.4743936 0.09114067 0.16145006 -0.3181413 -0.30311948 -0.15147205 0.05340445 0.5896907 0.2163253 0.0243821 0.22602071 -0.49256054 -0.13600826 0.14380437 0.2425966 -0.19382608 0.19294891 0.14993297 -0.02637709 -0.11543989 0.08183197 -0.086814426 0.32343876 -0.023164162 -0.23369107 -0.32708383 -0.4210554 0.024913337
596 -0.13430338 0.03283635 -0.12686996 -0.09070632 -0.522059 -0.082532324 -0.14935088 0.29152876 -0.10357797 0.11661957 -0.52276134 -0.326328 -0.19746678 0.095068075 0.28249243 -0.059179924 -0.072060764 -0.14693172 -0.039317932 -0.56112146 -0.29169467 0.068337664 0.20624821 0.265994 0.19385292 0.14587873 0.21865255 0.11055179 0.1236591 0.048525896 -0.021933055 -0.42149115 -0.41243443 0.10246545 0.24314371 -0.035300042 -0.09677729 -0.2130776 0.22656141 -0.16359575 -0.068321906 0.18959823 0.06281682 -0.09161161 -0.0873443 0.40780675 0.22282457 -0.18587767 -0.025023373 0.15058647 0.29121435 0.24837077 -0.19736747 0.17102967 -0.23953256 -0.12201152 -0.190073 0.033783674 0.10345527 0.14379674 -0.025136385 -0.08920859 -0.22346482 0.21556455
195 -0.3198025 -0.10007582 -0.22830105 0.07413881 -0.58113194 -0.45018902 -0.107314475 0.31139654 0.13979791 -0.0449944 -0.31638163 -0.18267536 -0.20203803 -0.11574716 0.21145977 0.2062967 -0.08945441 -0.093995176 0.14770544 0.0022811466 0.011662958 0.18394361 0.05101254 0.045059755 -0.09138269 -0.14836502 0.13263619 -0.17657322 0.26842123 -0.34956262 -0.09088036 -0.11249008 -0.31704888 -0.11192483 0.17402215 0.264917 -0.22630298 -0.21572725 0.42321682 -0.4210306 -0.08773815 0.085302584 0.22188681 0.13608482 -0.10151622 -0.02323077 0.07526927 -0.33632487 -0.60637844 0.04733775 0.20874609 0.14237556 -0.15017329 0.11399278 -0.11417206 -0.33602276 -0.26300332 0.44334152 0.036533847 0.40857968 -0.16057825 -0.06463867 -0.11743255 0.12791634
194 -0.25336826 -0.17310429 0.16249405 -0.08345031 -0.34032243 0.07110826 0.54929805 0.05976083 -0.08458869 0.22632356 -0.39172003 0.38465294 0.3468968 -0.34741277 -0.20273371 -0.31660074 0.09533136 0.08475088 -0.079109244 -0.3693935 -0.27208817 -0.27157736 -0.015324343 0.046217483 0.26532635 0.17100303 -0.2969362 0.13070339 -0.45490938 0.12356154 0.43904975 -0.17351729 -0.033284083 0.37132058 0.4892976 0.0509537 0.099368714 0.034640603 0.087843455 -0.27722982 -0.07975061 -0.3599886 -0.055480223 0.06317125 0.19526573 0.23915151 -0.14872767 -0.44073156 -0.40143642 0.08919163 0.14405683 -0.14295872 -0.05604831 0.2884915 0.1879415 -0.1608151 -0.20712738 0.4927269 -0.059146952 0.0016239724 0.008291275 -0.47499526 0.19335726 0.3877717
197 0.013267998 -0.10299749 0.09601986 0.41076112 -0.1791816 -0.015323934 0.34411833 0.10387226 0.25943345 0.111848645 -0.22683898 -0.027467111 -0.19267449 0.03195911 0.07944476 -0.32200587 0.07277656 -0.3261473 0.10964406 -0.16080166 -0.2987192 0.07403329 0.07033957 0.33929768 0.27020457 -0.21913601 -0.18508016 -0.29444724 -0.0747111 -0.28902695 -0.085337386 -0.1572434 -0.07941793 0.1719679 -0.014669648 0.136286 0.028682219 0.11847293 -0.34334055 -0.39247862 -0.3790711 0.13880712 -0.018076148 0.23238632 0.13062811 0.0040293797 0.22043021 -0.18313695 -0.050023653 0.13314836 -0.21541388 0.026174909 0.25838375 0.240242 -0.3400445 0.04986489 0.026599437 0.08809423 -0.18538676 0.27212337 0.014636461 -0.41924825 -0.25454098 -0.16350457
196 -0.18692072 -0.24048449 0.0057610557 0.14533734 0.23484725 -0.09080641 -0.0047351727 -0.1318141 0.02898268 -0.033028133 0.035936207 0.013396142 -0.27348793 -0.49937445 0.25251043 0.063215435 -0.5542214 -0.10401762 0.09781895 0.072147064 -0.3529722 0.394461 0.029226426 0.084885076 0.32406777 -0.007607952 -0.006465391 -0.06424999 0.1664704 0.019650362 -0.03911025 0.014447577 -0.47192758 -0.33522463 0.2175698 0.1252724 0.09335117 -0.015942212 -0.035512157 -0.098606 0.22502731 -0.08083662 0.098365426 0.20831223 -0.014147507 0.13157885 0.39891225 -0.3888928 0.14304574 0.102537766 -0.23623729 0.13175206 0.06712405 0.013351423 -0.030468848 -0.22611722 -0.25570238 0.2822614 -0.16780545 0.26494542 -0.21843126 -0.2671815 -0.3111251 0.0018680915
191 -0.20108315 -0.0040610824 0.17706405 -0.13712722 -0.22202352 0.15150489 -0.18087448 0.16010578 0.1089519 -0.031411164 -0.08074576 0.05123808 -0.48542026 -0.2534835 -0.020973131 -0.035471268 -0.095859945 0.17851749 -0.38141072 -0.510332 -0.146558 0.1903869 0.5220093 0.12600453 -0.10322168 0.008177448 0.2831541 0.05474262 0.14952655 0.097364515 0.15058279 -0.5268991 -0.3570626 0.09394762 0.23236558 -0.059706785 0.23725787 -0.16393684 0.08682012 -0.20151883 -0.09364007 0.04121713 -0.07340092 0.23840499 -0.011322413 0.39122778 0.108780466 -0.018734781 0.44246322 -0.0034583928 -0.037916433 0.007586503 0.17272183 -0.2104763 0.11543033 -0.04502617 -0.5065613 -0.08063763 -0.03630167 0.51409614 -0.13425176 -0.28975347 -0.08263147 0.3383382
190 -0.27174607 0.0847608 0.3307185 -0.31379104 -0.027344024 -0.0019631826 0.32807252 0.2564153 0.30314305 -0.41441682 -0.09394395 0.07629933 -0.3010955 -0.21773857 0.67427206 -0.2457181 -0.13701853 -0.07551781 -0.25589284 -0.39332834 -0.1539111 0.012070324 -0.12443821 0.36646834 0.2788133 -0.16547628 -0.016408456 0.29014722 -0.44018996 0.20398693 0.024448378 -0.01045418 -0.23624606 0.14417073 0.018410735 -0.31904405 0.06724624 -0.49464756 -0.19753644 -0.21528251 -0.36972833 0.071982846 0.02076557 0.32516623 0.30440402 0.068638854 0.07729436 -0.28720582 -0.45584857 0.14064835 -0.061445605 0.1812166 -0.043533716 0.48028752 0.11452259 0.07644952 0.0111144325 0.29130536 -0.46851614 0.02954657 -0.0801869 -0.15069209 0.2795828 -0.12689449
193 -0.026073616 -0.25013235 0.09400517 -0.24543712 -0.32251433 0.1802311 0.0021761982 0.021158203 0.0013883747 0.2259999 -0.26006207 0.02355211 -0.35732207 -0.19467145 -0.04325065 -0.1906419 0.10311548 0.037871532 -0.033908945 -0.047025733 0.066044636 0.054158594 0.29096407 0.15785871 0.35293147 -0.20507665 -0.12620655 -0.091099314 0.24681187 -0.08224065 0.08133055 -0.05756684 -0.16814119 0.050387684 0.13560684 0.10305851 -0.101047225 -0.11259873 -0.095847 -0.2540567 -0.0146959415 0.014555039 0.40434486 0.11857793 0.13241076 0.20934635 0.03528464 -0.107112624 -0.01504614 0.350246 -0.2910004 -0.097343504 0.043471478 0.2003418 -0.029731596 0.046000544 0.17892127 0.12478939 0.22608715 0.22880594 -0.18078583 -0.32276544 -0.21723466 0.07131386
192 -0.5581611 0.120022364 0.15044205 0.057551503 -0.35996354 0.15195177 -0.16797104 -0.052380174 -0.24822453 0.31148186 -0.24684289 -0.1438048 0.09033102 -0.106837586 -0.014357137 -0.3275423 0.03834261 0.12433006 -0.5939537 -0.29184854 -0.027846768 0.25739115 -0.17211331 0.2608898 0.10861272 0.27921557 0.008430556 0.41949868 0.030232409 -0.1687205 0.05754858 -0.076642275 0.005471674 -0.24527629 0.43524784 0.14447139 0.45677522 0.14642124 0.17245492 -0.43348372 0.14789663 0.2625069 0.43178985 0.35898295 0.4124336 0.5205594 -0.13747893 -0.21615006 -0.031223739 0.28731236 -0.006255935 0.33609468 0.33286253 0.15609698 0.23870756 0.26294786 -0.42610896 -0.13885607 0.36310613 -0.21334739 -0.5080241 -0.5558946 -0.37020874 0.034892622
270 -0.8750244 -0.3112662 0.2671439 0.16632976 -0.5563112 0.14865345 0.43868607 -0.029421961 0.093200475 -0.080398254 0.0673406 -0.24581356 -0.4207237 -0.4921703 -0.26602086 -0.33620954 -0.13038456 -0.704013 0.3626741 -0.10891485 -0.5366467 0.116336405 0.26278436 0.4457295 0.52180696 0.57456243 -0.36989564 0.07787859 0.3167732 -0.107775584 -0.2663197 0.23733997 -0.0433698 -0.2199022 -0.24807078 0.56278 0.1938692 0.058988422 0.2045225 0.009034856 -0.015177003 0.034785967 -0.037271906 -0.09859216 -0.12454069 0.079772994 0.53621954 -0.40669167 0.2992599 -0.17456098 -0.43066427 0.1946027 -0.18886437 0.40123367 0.38241452 -0.0028246867 -0.10276288 0.19894877 0.25744304 0.18794565 -0.014080802 -0.43307963 -0.17007838 0.27563298
271 0.09782187 0.02022084 -0.07004985 -0.13555846 0.07904208 -0.20416927 -0.2914608 0.008189031 -0.094773956 -0.29444638 -0.45191702 0.2895705 0.0686623 -0.24832572 -0.34043357 0.10919777 0.061589394 0.039192986 -0.03921337 -0.41161677 -0.20011917 -0.09310424 0.086239606 0.00071002473 0.10894383 0.016078966 0.0590141 -0.115125984 0.06904207 -0.0037831161 -0.025678156 -0.14175023 -0.3628625 -0.07795342 0.09710788 -0.2014917 0.084267505 0.24936874 -0.11077388 -0.28238907 -0.11244462 -0.19391921 0.43380144 0.3109939 0.1941557 -0.015738757 0.5623878 -0.2928199 -0.0020370807 0.15349936 -0.03785665 0.24279507 0.11180718 0.13779593 0.026679713 -0.19996431 -0.12582141 0.030138943 -0.041702744 0.15300937 -0.15655792 -0.30400673 -0.36700585 0.0024799283
272 -0.13656066 -0.17488012 0.06661307 -0.43767783 -0.09677841 -0.02538593 0.18737434 0.29781517 0.2526933 -0.160838 -0.12870303 -0.06763576 -0.2368941 -0.14905676 0.1595669 -0.34218913 0.14500017 -0.12171832 0.12073072 -0.08532765 -0.03719495 0.06938673 -0.03018559 0.32094383 0.12664497 -0.20386526 -0.15701611 0.023025824 -0.15251084 -0.2131956 -0.07250047 -0.15683651 -0.20038925 0.15799245 0.13087009 0.049639888 -0.14649338 0.19018891 -0.0834207 -0.18758966 0.09823551 -0.0498274 0.061436404 0.47013786 -0.05938737 0.09614574 -0.032566734 -0.27646482 -0.12994334 0.14568432 -0.0407952 -0.1204117 0.0011015979 0.2263341 -0.13676067 -0.088537335 -0.028999424 0.33025485 0.18451919 -0.021220986 -0.20188785 -0.17821479 -0.23450544 0.03731472
273 0.20791723 0.2057493 -0.030202704 -0.3514888 -0.014995681 -0.08239659 -0.039808113 0.1052835 0.2470219 -0.04868017 -0.4206092 0.25633588 -0.36698171 -0.30617586 0.21830808 0.013667708 0.016150044 -0.05792852 0.12678882 -0.29511732 -0.14296167 0.032483 0.04435934 0.21234223 0.103656806 -0.3370097 -0.065551616 0.11789777 0.1752592 -0.10183602 0.3615101 -0.070739515 -0.017974788 0.12842852 0.121620126 0.021704692 -0.021366533 0.115212396 0.04937631 -0.15915927 0.0029578363 -0.015330984 0.1533397 0.16117041 0.28252068 0.04300126 0.04599327 -0.36118945 -0.014914184 0.5798267 0.18794756 -0.20385385 0.17086555 0.3124069 0.052981533 0.24795346 -0.41783574 0.295073 0.004813193 0.11480904 0.0067444877 -0.26142237 -0.23712248 -0.03615874
274 -0.44369555 0.27575204 0.6036429 -0.023233905 0.13355944 -0.07834128 0.01356858 0.2700638 0.21536006 -0.08192196 -0.27922845 -0.02346064 0.13712172 -0.20789036 -0.35792735 -0.1453495 0.38667563 -0.23954926 0.4628505 -0.17659985 -0.37663043 0.12851019 -0.231592 0.27345377 0.016811758 -0.055147674 -0.31071436 0.23546478 -0.036955267 -0.30963683 -0.0928246 0.25791633 -0.23563397 -0.11629962 -0.12536985 0.073241875 0.20165427 0.057439018 -0.18942295 -0.53530157 -0.109725036 -0.15346713 0.40533155 0.49218795 0.3898734 -0.19593708 0.22283769 -0.2880158 0.20503832 0.020147365 -0.25126866 0.2788004 -0.16715983 -0.05492515 0.43036187 -0.19232401 -0.066187665 0.10200788 0.434366 -0.026838265 0.29312864 -0.17034945 -0.51721716 0.3967912
275 -0.6936422 0.1744097 0.050859746 -0.40850732 -0.2587213 -0.034990918 0.100178406 0.14200453 0.003440958 -0.6423614 -0.49405655 -0.19828206 -0.24852476 -0.27639982 0.3599299 -0.46793678 -0.11027268 0.36433098 0.23501666 -0.12139851 0.15143055 0.03740053 0.094891354 0.17714457 0.4832846 0.047806494 0.118897095 -0.26744547 0.7463411 0.36375424 -0.23288432 0.049402732 -0.60633796 0.5462547 0.21086882 -0.45931485 -0.21741854 0.19316188 0.31889874 -0.039139803 0.018581556 -0.27313465 0.27461004 0.6506255 -0.16230093 -0.2439985 -0.14863592 -0.12238813 0.3655495 -0.047055345 0.17873174 0.083298795 -0.27428466 0.0146761825 0.11107672 -0.21543893 -0.10962114 0.33382675 0.14723375 -0.050147936 0.029515725 -0.5246626 0.19403426 0.5241436
276 -0.15710337 -0.2279555 -0.11535065 -0.23154552 -0.21725196 -0.25263235 -0.100592986 0.03708752 0.21143797 -0.070938945 -0.13798366 -0.28818938 -0.25756165 -0.13832237 0.06801003 0.12551594 -0.26254976 0.17383702 0.18987894 0.029715987 -0.37586814 0.025637764 0.102394186 0.16603215 -0.5039303 -0.062488787 0.24870554 -0.13017295 0.14768411 -0.5156899 0.048902053 -0.5379886 0.009654431 0.2415999 0.4092337 0.16475448 0.059103794 -0.13305199 -0.10159629 -0.60089296 -0.093931735 0.31730184 0.4450886 0.48385206 -0.01207836 0.27958265 0.11038476 -0.27322918 -0.4512031 0.07623243 -0.060821034 0.098606855 0.14207438 0.43255854 -0.11351365 -0.25628707 -0.3882712 0.3583647 0.10178423 -0.07064289 -0.04963238 0.12677597 0.0326215 -0.20973037
277 -0.8974597 -0.37494212 0.172141 0.30087703 -0.61475635 0.32540098 0.41102624 0.17923015 -0.12011132 -0.11313151 0.32268387 -0.34575453 -0.6743998 -0.504719 -0.26661494 -0.29313993 -0.20991993 -0.7885284 0.15583389 -0.17239264 -0.39729518 0.20938626 0.3373205 0.6072653 0.5025299 0.5419881 -0.44001448 0.3045529 0.4351403 -0.019705143 -0.07855655 0.31573698 0.014938008 -0.36623645 -0.13475445 0.55348176 0.22916804 0.1271563 0.07301226 0.07212073 -0.033528343 0.02460563 -0.27855113 -0.25205633 -0.06417777 0.0792148 0.57397395 -0.3379105 0.27441546 -0.2575674 -0.39547986 0.25836304 -0.30626783 0.51540583 0.33459127 -0.050883405 -0.10294038 0.1403306 0.21839978 0.20353697 -0.13222586 -0.6325678 -0.20178685 0.2898194
278 -0.27497905 -0.018695697 0.13044566 0.31178704 -0.04791509 -0.12330468 0.69837415 -0.20204075 0.1260316 -0.10669536 0.08471893 0.25206327 -0.42661992 -0.16387753 -0.332292 -0.6385207 -0.22250998 0.2915159 0.017340604 -0.27390027 -0.17405604 0.3478934 0.11762824 0.36340654 0.052053712 0.35517192 0.08766519 -0.39370427 0.2503577 0.039545152 -0.018515017 -0.00026783545 -0.14278688 -0.14446867 0.08244556 -0.04984614 -0.25324073 -0.20379731 -0.3420954 -0.18648764 0.26210377 0.1929489 0.09345631 0.25720006 -0.07759305 0.33871242 0.35128778 -0.22102375 -0.1957679 0.07573556 -0.011314239 0.003238638 0.09696674 0.21471788 -0.62960356 -0.20167685 -0.17730963 0.13909383 -0.08612603 0.294691 -0.35464862 -0.31002474 -0.1515787 0.10556349
279 0.26864508 -0.5511222 0.3007788 -0.12794082 0.07117091 0.089767225 -0.10962974 0.1628634 -0.19150038 0.028192075 -0.35363618 0.37116265 -0.09133629 -0.33743027 0.15690789 0.055744793 -0.032918207 -0.32449734 -0.5248902 0.26003474 -0.075488545 -0.41071528 0.5403545 0.15228589 -0.114864014 0.28835842 -0.03638885 -0.13700837 0.046478845 0.2955188 0.4484967 -0.105945475 -0.19146964 0.2650325 0.071293004 0.038649883 -0.1539797 -0.11535922 0.052703857 -0.29721442 0.15044546 0.1873695 0.3039917 0.24504079 0.49498746 0.10475124 0.27679366 -0.11688295 -0.07005865 0.18262623 -0.68496853 0.12081593 0.026712274 0.1658691 -0.37030372 -0.0426941 0.0853329 0.40657687 0.15127735 0.31987035 -0.64822286 -0.09855995 -0.4571994 0.12334605
524 -0.2513988 -0.040956244 0.032972522 0.044825703 -0.13469076 0.11484732 -0.15676433 0.07458183 0.09440836 -0.049711138 -0.013062183 -0.22132966 -0.568698 -0.24781846 0.17188595 0.13605921 0.015289006 0.14011495 -0.17789403 -0.16534051 -0.28487933 -0.03893471 0.14684424 0.3422083 0.2542548 -0.22044627 0.01787644 0.10962122 -0.2202487 -0.17000918 0.270854 -0.5237666 -0.60810673 -0.18286228 0.05568764 -0.1534305 0.023856962 -0.38493177 -0.27872428 -0.04578414 0.13017075 0.044390235 0.056062635 0.1876277 0.19084026 0.22581324 -0.06581889 -0.04192188 0.14203893 -0.33912903 0.0016764846 0.12346914 0.011561788 -0.08610932 -0.19075032 -0.20956258 -0.36814544 0.12629008 -0.22380665 0.36484817 -0.08299357 -0.4160586 -0.023212599 0.18862507
525 -0.20952322 -0.23551276 0.20824517 0.03226737 -0.30426815 0.11241749 0.16462958 0.0032096645 0.15315643 0.15888213 -0.47093666 0.118403606 -0.16345832 -0.16028246 0.37984395 0.019390412 0.30958608 0.0894701 -0.11208449 0.080086425 -0.47497252 -0.39354318 -0.0016484809 0.25889555 0.06544992 -0.43955222 -0.22723219 -0.24709028 -0.038900934 -0.11108316 0.22224928 -0.355628 -0.084275216 -0.017622959 0.03805228 0.15507685 -0.024479087 -0.03362561 -0.17080656 0.040059403 -0.07530122 0.21980758 0.44604975 0.5298674 0.1429284 0.2691229 -0.24023212 -0.17493457 0.3343522 -0.009531653 0.08084788 0.18009168 -0.20764147 0.068856224 0.07509484 -0.34865135 -0.1355276 -0.11699832 -0.28863636 -0.10335463 -0.21832073 -0.023790168 -0.069312595 0.39234245
526 -0.34989116 -0.00628324 0.14952317 -0.20024745 -0.08053423 -0.14410584 0.3252514 -0.0017368565 -0.22757924 0.16468202 -0.44368544 0.13129659 0.2982126 -0.1871353 -0.2868707 -0.16951543 0.25811407 -0.02238579 -0.1194483 -0.26905745 -0.16134012 -0.15431848 0.13616076 0.018837232 0.39078507 0.13225657 -0.11088773 0.06835173 -0.531686 -0.08816616 0.3849877 -0.1102578 -0.09910058 0.023016207 0.41841206 0.10282338 -0.16058378 0.12145915 0.045120105 -0.32432103 -0.1338172 -0.43798032 0.2456029 0.1898938 0.25949782 0.07002168 -0.05454921 -0.36673772 -0.4030909 0.08299722 0.2800481 -0.18194938 0.01441674 0.24703702 0.00827834 0.1118923 -0.20114617 0.44376236 -0.28583443 -0.04480894 -0.29995748 -0.48581648 0.1554512 0.43827534
527 -0.9772636 -0.08324968 -0.22456904 -0.23844382 -0.49818143 0.3301145 -0.3522377 -0.0044995863 0.20128845 -0.095624425 0.22500339 -0.27112278 -0.54116887 -0.26077825 -0.111457355 -0.36515686 0.048369274 -0.30259982 -0.559301 -0.4033335 -0.25485533 0.08452799 0.19102778 0.38869566 0.31044644 0.7515047 -0.07381829 -0.20406929 0.6669465 0.22090162 0.18951757 0.07899681 -0.3998599 -0.31610766 -0.26959026 0.17422156 0.19363159 -0.12069787 0.44645065 -0.07048673 -0.0021827598 0.38622367 -0.19758037 -0.16581918 0.0041723135 0.3328854 0.28931198 -0.29899088 -0.04200448 -0.20017141 -0.13136561 0.25042912 -0.01459145 -0.3856521 0.01230104 -0.0028804156 -0.31323862 0.07061715 0.37032858 0.296666 -0.048512228 -0.6289721 -0.12241705 0.4275244
520 -0.102275744 -0.23554316 0.04465256 -0.30370215 -0.14603375 0.105288446 0.161496 0.107809395 0.06679832 -0.05656572 -0.14241815 0.076075934 -0.14363612 -0.29038218 0.0919182 -0.18128482 0.22886704 0.133025 -0.0009936325 -0.028312616 0.041679792 -0.07781597 0.21033211 0.24228887 0.044892095 -0.23276268 -0.17819953 0.089923926 0.05208206 -0.12583373 0.10610444 -0.03551048 -0.20187184 -0.012817228 0.26706558 0.04087582 0.09605682 0.037503455 -0.022793531 -0.13588557 -0.19667527 0.0018403382 0.31153587 0.4671539 -0.028959354 -0.0009080541 0.09582156 -0.52115 -0.005032183 0.21869631 -0.06544114 0.004131795 0.053970717 0.039133918 -0.16111735 0.15361987 0.110363364 0.17018472 0.0032562048 0.070732504 -0.0651594 -0.33833823 0.005914011 0.04799529
521 -0.33734545 -0.1525531 0.08063917 0.16173941 0.15350908 0.048189014 0.058878213 0.13886556 0.14365125 0.26950532 -0.02572899 -0.06308464 -0.38258225 -0.5824301 0.19052365 -0.19204326 -0.18983732 -0.5543134 0.35287336 -0.2606092 -0.073303424 0.16859773 0.22532298 0.1872877 -0.41323557 0.21834855 0.008980112 0.03989197 0.019407442 0.3320396 -0.13741903 -0.16788712 0.09332353 0.086593896 0.13623981 -0.3252481 -0.021716017 0.15944724 -0.2694085 0.13314737 0.1131017 -0.0116057005 0.14232354 0.46512175 0.40201426 -0.21083927 0.49077702 -0.2859282 -0.14283046 0.61588323 -0.22438566 0.039819345 0.022200493 -0.13167158 0.31711307 -0.51160616 -0.3711682 0.24426802 -0.12741052 0.049883917 -0.24976946 -0.25719225 -0.0034264845 0.24831164
522 -0.047239147 -0.10652076 -0.050310895 -0.24582367 -0.11227151 0.21420701 0.1129291 0.07827016 0.02750772 -0.11022366 -0.26812753 -0.029927619 -0.2281417 -0.1723459 0.058273908 -0.020786308 0.14825931 -0.23167229 -0.07121788 -0.17226924 -0.11019518 -0.03748233 0.17472316 0.2636487 -0.074970715 -0.19927315 -0.2096511 0.07511349 -0.07294137 -0.2582174 0.25630763 -0.3772563 -0.013071417 -0.17725682 0.25430927 0.06548781 -0.085279554 -0.069239296 -0.092667244 -0.29463664 0.028273832 0.14142115 0.17621021 0.0008222283 0.0733867 0.16525781 -0.02939646 -0.3035054 -0.044319265 -0.060533445 0.03205836 -0.16628227 -0.26827893 0.09568654 -0.044143893 0.02531616 -0.10828911 0.40024155 -0.09626536 0.10511073 -0.09109393 -0.37906915 -0.13708666 0.12908894
523 -0.16967125 -0.10964133 0.07249994 -0.113720134 -0.32876357 0.084995076 0.15998916 0.0035179802 0.07491837 -0.012128469 -0.15484491 -0.105363704 -0.19527274 -0.17209572 -0.17679177 -0.13143812 0.037708864 -0.04039232 0.024915934 -0.042341918 -0.15268119 0.12116336 0.15679938 0.17199643 0.02272675 -0.15392272 0.038455408 -0.06867608 -0.12740433 -0.08079053 -0.10547025 0.00797554 -0.17141421 0.21271057 0.26592642 -0.21778308 0.05656991 -4.0059953e-05 -0.03649749 -0.106713474 -0.05273198 0.014084157 0.17971943 0.28209206 -0.08265048 0.071660005 0.18250544 -0.19206232 -0.02058151 0.14005843 -0.1996062 0.13040014 -0.1785019 0.08453762 -0.08034911 0.10984582 -0.05090528 0.49199167 0.16951202 0.15885198 -0.17674583 -0.38506535 -0.19009416 0.20202819
528 -0.12524267 -0.104443535 -0.009475158 -0.3974313 -0.13421115 0.028122304 0.36367163 0.36484316 0.12659945 -0.16109915 -0.44396675 -0.13972223 -0.011342169 -0.052856546 -0.05351998 -0.38250926 0.26474714 -0.14632173 -0.37656528 -0.09385896 -0.01001905 0.38638002 -0.33687302 -0.14109418 0.5045168 -0.16475585 -0.3164143 0.42597368 -0.31160346 -0.26383173 0.16112877 -0.5112205 -0.2164634 0.12524466 -0.42004156 -0.19478048 -0.21141115 -0.39224422 0.26135558 -0.33692303 -0.07894065 -0.14455459 0.025153099 0.2363691 0.14382187 -0.05593697 -0.02767151 -0.080191314 0.15097791 0.1274805 -0.19228658 0.13766822 -0.27432057 0.13920198 -0.42729467 -0.12514472 -0.3394105 0.28354394 0.24892765 0.26525536 -0.5455581 -0.2718349 -0.39702702 0.012370165
529 0.09724895 -0.42933884 0.35387817 -0.30283445 0.055563014 -0.1342511 0.22583427 0.4194633 0.038460363 -0.5564332 -0.119218566 -0.0067609753 -0.00685354 -0.43655428 0.053550944 0.32017294 0.22950566 -0.19423558 0.4814184 -0.27459458 -0.07500537 -0.039527696 -0.032045312 0.39799854 -0.6346449 -0.3068483 -0.13974035 -0.10355293 0.8051747 0.052026767 0.07333359 0.28195894 -0.16989927 0.22116725 -0.07671853 0.62842923 0.24325378 -0.018427113 0.2838975 -0.47457826 -0.75211525 -0.071190625 0.25239938 0.5004917 -0.054795686 -0.45155257 0.5522718 -0.5397929 -0.2003893 -0.5408034 0.048318885 0.06018478 0.21762991 0.47741282 0.1575023 0.096808985 -0.24734111 0.49528527 0.069903746 0.28239948 0.1623851 -0.22116736 -0.48172513 0.10932792
449 0.07423341 -0.22406434 -0.10558566 -0.054086614 -0.016764602 0.18483503 0.1623015 0.065276414 0.23444298 0.23215677 -0.100998506 0.13650993 -0.16622043 -0.27992803 0.10431121 0.023135817 -0.029100224 -0.22015537 0.06289896 -0.24611749 -0.13409764 0.19982973 0.05950941 0.018643832 0.087133944 -0.30334616 -0.13488026 0.048463266 -0.11455185 -0.06149009 -0.06917611 0.028327381 -0.22493099 -0.108777784 0.037916865 0.019552007 0.11127593 -0.052149322 -0.06339954 -0.4836035 -0.23289806 -0.2785076 0.3192679 0.0073776008 0.009476523 0.033451498 -0.029163284 -0.31948563 0.0013819019 0.5453985 -0.21788149 0.13447192 -0.48961544 0.0005808571 -0.16616294 -0.26896134 -0.13224049 0.35544094 0.1430751 0.038605053 0.06998725 -0.22689125 -0.2619319 0.22920036
448 -0.028203148 -0.22883491 -0.12893598 -0.4088749 -0.6458282 -0.65124243 0.1748877 0.37613124 0.23287238 -0.056534745 -0.08963363 -0.3454596 0.044147365 -0.46999985 -0.2998637 -0.20166494 -0.14569601 -0.17744678 -0.082514174 -0.2873781 -0.11826949 0.050017763 -0.07091392 0.114767656 -0.4656878 0.05919174 0.13888817 -0.5651871 0.40977365 -0.22668634 -0.27273175 -0.1311188 -0.07039309 0.19153678 -0.0032706049 0.36010867 -0.24648951 0.0056383684 0.07634976 -0.41879553 -0.20260867 0.22526042 0.17928697 0.13673766 -0.13320908 0.13565212 0.08970356 -0.3902752 -0.46586812 0.035841465 -0.7250016 0.07707444 0.29849747 0.54151607 -0.39358327 -0.32981613 -0.35688096 0.45452255 -0.22148004 0.48622507 -0.33944616 0.13222264 0.22499423 -0.059701104
443 -0.041574776 0.1819506 0.021908117 0.09732402 -0.11127967 0.050768558 0.06990344 -0.22421119 0.12929372 -0.051541094 -0.32310006 -0.06920513 -0.49399236 0.028469529 0.14390382 0.37281343 0.18588367 -0.068711795 0.040451027 -0.06498092 -0.42336336 0.41345546 0.07237485 0.16758092 0.32103366 -0.18452758 -0.040681925 -0.25051117 -0.10857753 0.49741316 -0.09548078 -0.37609336 -0.50699013 -0.14310677 0.24084091 0.12317807 0.30939636 0.1619367 -0.55245847 -0.2350674 -0.07628986 0.16375755 -0.13667311 0.39058083 0.16579288 0.4734675 0.049880285 -0.03533275 0.34394997 -0.28812873 0.10369663 -0.41153187 0.27764177 -0.07126504 0.06701299 -0.2625961 -0.1782947 -0.07086444 0.1294822 0.2796339 -0.36318684 -0.5408111 0.020251976 0.42229676
442 -0.40743375 -0.17338064 -0.01537074 -0.18525325 0.028420499 -0.16961086 -0.09131467 0.19512042 -0.08462512 0.2896511 -0.1628201 -0.06724897 -0.081305325 -0.12847047 -0.16407531 -0.27412006 0.15905792 -0.19710678 0.06289346 -0.13011251 0.0028124359 -0.1695313 -0.050059427 0.20120464 0.06573714 -0.07604431 0.14490822 -0.06609807 -0.0617711 -0.0035398463 -0.09161986 -0.14664282 -0.36280516 -0.15643065 0.42277944 0.11605541 0.05033188 0.0059861173 -0.15733705 -0.22493069 -0.25372157 0.1875657 0.31505188 0.12130844 0.32528293 0.29242936 0.056899633 -0.121755786 0.0752144 0.34346598 0.38312346 0.29841673 -0.08170905 0.4304867 0.15670255 0.094895564 -0.21402997 0.30393037 0.4700445 -0.20059589 -0.05522705 -0.21259175 -0.38737807 0.2166177
441 -0.22836232 0.0116652725 -0.008600556 -0.13283241 -0.13046578 -0.07655705 0.1976043 0.2458562 0.0022171908 -0.12940124 -0.318743 -0.054577526 0.055607952 -0.094480656 -0.09949478 -0.13903993 0.15379909 -0.10686688 -0.01976485 -0.44341108 0.07257236 -0.0563478 0.19070612 0.22990732 0.13666393 -0.4841865 0.03322764 0.17781301 0.012686776 0.118311584 0.14618818 -0.10914848 -0.26267862 -0.028587922 0.20114076 -0.2195473 0.07942776 -0.07579871 -0.06994578 -0.20515193 -0.0028837344 -0.041588243 0.0595118 0.50724715 -0.028958619 0.03753132 0.19381219 -0.23384577 0.18399502 0.24447063 -0.013712794 0.036516976 0.07102536 0.10859156 0.06963915 0.11325159 -0.13587588 0.17203067 0.028794905 0.08068961 0.19347306 -0.28761482 -0.051089946 -0.123889305
440 -0.2227837 -0.44651124 -0.047743253 0.20186418 -0.1686479 -0.5668798 0.5171325 -0.30767408 0.3999426 0.26657835 -0.21566655 0.03735491 -0.2065335 0.20366609 0.35439402 -0.019082215 0.04036018 -0.128605 -0.17583737 0.2590664 -0.09469283 0.20064883 0.070370115 0.2743151 0.2762156 -0.028208554 0.33403105 -0.63348424 -0.12395146 -0.24274032 -0.14312072 -0.70213884 -0.39289996 -0.1430312 0.16216077 -0.060364358 0.2448702 0.17765325 0.2046896 0.17896451 0.2540283 0.047811568 0.18299007 0.34217402 0.12900223 0.026600432 0.013435683 -0.19438037 0.030589722 0.20994677 0.044499874 0.26744336 0.21626677 0.36805066 0.3039919 -0.26727664 -0.20210764 0.14463075 -0.31613666 0.20492809 -0.16742754 -0.2782454 -0.45872545 -0.100364335
447 0.20597228 -0.32248068 -0.20468721 -0.47977498 -0.13739635 -0.107812054 0.15570804 -0.30178744 0.0023477785 -0.08017088 -0.30023506 0.0632689 -0.30898386 0.13876288 -0.16042429 -0.21800664 -0.18701555 0.024870357 0.3709362 -0.16726883 -0.32283115 -0.012050854 -0.09245727 0.021564899 0.026212687 -0.48654392 0.1452676 0.26935816 0.07617651 0.13830769 0.1366124 0.021621227 -0.1731828 0.19457142 0.2034843 0.20548719 0.14569831 0.23464496 -0.43253052 -0.30849284 -0.20617506 0.16453959 0.50591624 0.2710864 0.026296142 0.023856547 -0.01194434 -0.29456383 -0.1602632 0.22663346 -0.22627947 -0.042583287 -0.050593983 0.12972516 0.24225998 0.015064456 -0.3641302 0.2195406 0.057499338 0.3428817 -0.092473 -0.27753448 -0.3489513 0.19410779
446 0.15255639 -0.21331674 -0.1738683 -0.4253747 0.26944384 0.2310164 0.05568167 0.029519437 0.2925912 0.019576652 -0.6257515 -0.31932563 -0.2939431 -0.17817563 0.0722472 0.20522262 -0.27886578 -0.17197034 -0.46371767 -0.41825724 -0.21385424 -0.013740397 -0.05016117 0.46596107 0.22129123 0.21308415 -0.17246267 0.23127565 0.10319501 -0.2262252 -0.11734517 -0.11165272 -0.0541585 -0.56374055 -0.12389549 0.1641049 -0.0046595284 0.19567272 0.0313971 0.14113988 -0.18308698 0.26869717 0.18052234 0.30374515 0.28010008 0.13553962 0.09846372 -0.29743072 -0.22483885 -0.20512897 0.2710828 0.07285574 0.39458454 -0.06852064 -0.33539852 0.010645109 0.0057445765 0.44331932 0.20716348 -0.3896969 -0.07103607 -0.649911 -0.1999819 -0.04174846
445 0.015754864 -0.2117197 -0.08883304 -0.20186925 -0.29842865 -0.12431496 -0.3467508 -0.6231724 0.44266674 0.09221709 0.19181445 0.08773842 -0.37044075 0.038116034 0.09929679 -0.100791894 0.5237269 -0.5715386 -0.11997807 -0.37705064 -0.36438373 0.6008975 -0.1868994 0.024798777 0.27578112 0.05253112 0.11514572 -0.5404643 -0.09261964 -0.06783135 0.019870142 -0.28159168 -0.31619626 0.22352143 0.1012022 -0.5738651 0.18780988 -0.14370924 0.030049711 -0.018973622 0.09779051 -0.01688022 0.24927479 0.26260188 -0.051307935 0.40903062 0.18578812 -0.04586407 -0.025179252 -0.2307693 -0.17253387 -0.257633 -0.0001660214 -0.017301105 0.28756654 -0.21031308 -0.7649994 0.47114977 0.2786353 -0.03122926 -0.16318901 -0.46830142 0.02794405 0.23602937
444 -0.1304865 0.019255403 0.55992126 -0.24569756 0.5872442 -0.14639449 0.5775689 -0.035518333 0.37017247 0.010633812 0.010727344 0.17527668 -0.70812 -0.5767821 0.025149679 0.08720069 0.11518409 0.5193403 0.4708953 -0.17819485 -0.1403335 0.5615145 0.07546924 -0.077343106 0.10030371 -0.15713698 -0.13563116 -0.4367482 0.070827015 0.207286 0.36446166 -0.37705517 -0.41143268 0.15265256 0.1374474 -0.12107821 -0.23927894 0.15697978 -0.4105699 -0.5991666 0.12914895 0.48503387 0.4847864 0.4023973 0.25224265 -0.109871246 0.12505715 -0.051732805 -0.5384509 -0.3583858 -0.072715804 -0.1903594 0.48555017 0.30101264 -0.4254321 -0.06867325 -0.10359628 -0.05235625 0.32991904 0.41680428 -0.051659446 -0.054003548 -0.042349122 0.087512456
108 -0.6823011 0.0524556 -0.4094448 -0.17653733 0.05291527 -0.33652112 -0.059254646 0.3321581 -0.236591 0.35210186 -0.35079122 -0.01186076 -0.16987227 -0.5104782 -0.07020961 0.1842572 0.22112925 -0.23510544 0.010673175 0.08048774 0.12007446 0.4550384 0.044593923 0.12973471 -0.25283435 -0.26569968 -0.22585186 -0.3848895 0.2818132 -0.24546881 -0.06772695 -0.30571756 -0.5049682 0.13313761 0.13888425 -0.08895743 -0.04423216 0.04296298 -0.049342606 0.10408864 -0.30040526 -0.06674377 0.2848063 0.062174454 0.20111208 0.18777752 0.30387503 -0.55734974 -0.056953657 0.13561077 -0.079809576 -0.34683642 0.4032673 0.59401274 -0.52571577 -0.5060147 0.24574545 0.16460375 -0.011634064 -0.2168401 -0.1810291 -0.17353556 0.30051756 0.31210056
109 -0.22181894 0.03834406 -0.20964092 0.14969578 0.11036079 -0.4099607 0.3098467 0.3875203 -0.019837866 -0.35376537 -0.37333938 -0.25742474 -0.31838036 -0.44001576 -0.13594046 0.026021343 -0.044925924 -0.053809714 -0.43033412 0.18361993 -0.36150295 0.2426049 0.5626515 0.4920952 0.12910286 -0.19040626 -0.199381 -0.18151814 0.13431151 0.59753984 0.2760451 -0.1492389 0.10352732 -0.48563504 0.29638776 -0.34038714 0.22032438 -0.12973858 0.044598766 -0.20660512 0.057591934 -0.32266346 0.039806727 0.08103093 0.1844506 0.3502659 0.2595502 -0.09249959 -0.6283187 0.37194917 0.19870539 -0.017509773 -0.31729046 0.21801722 0.46401125 0.13716002 -0.041071136 0.2245528 -0.08323087 0.26592982 0.37728527 0.0016741263 -0.33273947 -0.1539587
102 -0.53392005 0.2329605 -0.42379874 0.22283916 -0.11694548 0.0057844925 0.31802228 -0.6942495 0.44301412 -0.5272637 -0.24470833 0.7164652 -0.31724313 -0.042588674 -0.26549503 -0.4365827 -0.2026563 0.33649978 -0.034852836 -0.4747043 -0.06565114 0.2890385 0.31495628 0.067210704 0.1247955 -0.23072413 0.5702673 0.01195433 0.5485678 0.16421741 0.017240062 0.21111359 -0.5930156 -0.16004357 -0.08070866 0.14028025 0.18584988 0.43217868 0.057319757 0.072110526 -0.028086968 0.046045505 0.5876868 0.34158224 -0.12722492 0.106496505 -0.017163992 -0.6611452 -0.31786713 -0.28715333 -0.011295389 0.65565735 -0.51705825 0.09272917 -0.40863064 -0.29537603 -0.1738427 0.05046507 -0.14271694 0.1349175 0.15879405 -0.3041879 -0.4001718 0.361261
103 -0.11092275 -0.41178766 0.12662299 -0.42596743 -0.30380946 0.07685884 0.29917023 0.13942681 0.062066194 0.14480539 -0.4027755 -0.112046316 -0.15441951 -0.18789886 0.06114726 0.074789554 -0.09359315 -0.019783238 -0.120138176 -0.0803492 -0.0038176968 0.01807144 0.09713994 0.39707434 -0.003970185 -0.16477227 0.1553291 0.03108061 0.04089491 -0.17708522 0.13161509 -0.116721965 -0.099736445 -0.030040931 0.36216342 -0.028175998 -0.017821288 -0.06734017 -0.026533294 -0.18472944 -0.15240352 -0.09839698 0.09687187 0.2058534 -0.082449354 0.18082188 0.23042968 -0.2922438 0.083905235 0.18404599 -0.011385638 -0.11422333 0.044387177 0.1118839 -0.22116575 0.042475097 0.018003685 0.40870544 -0.019274132 0.08703059 -0.02787128 -0.14525625 -0.07544598 -0.04464521
100 -0.20500298 -0.017382052 -0.03686671 0.2221531 -0.21549508 -0.20323633 0.18446241 0.27660406 -0.064236104 -0.063840866 -0.057230134 -3.3450066e-05 -0.7061008 0.0019988336 -0.19973043 -0.26507902 -0.36607808 -0.22391056 -0.332581 -0.07709724 -0.5934488 0.11053587 0.6262672 0.549565 0.5967813 -0.16198793 -0.28339258 0.11052189 0.3155077 0.26590815 0.11153965 0.4621433 -0.035273086 -0.35451755 0.49913645 0.021940101 0.06580663 -0.07061853 -0.19218764 -0.06737939 0.09189717 -0.23382051 -0.10627007 -0.13800152 0.31482995 0.13025083 0.088614486 -0.27641922 -0.3903373 0.25600353 -0.10729985 0.5062955 -0.38624054 0.1720303 -0.37374872 -0.027763234 -0.4435643 -0.037314527 -0.21070172 0.23958959 -0.16130692 -0.113060884 0.0746911 0.1534623
101 -0.19896738 0.017870894 -0.48057082 0.16755871 -0.22472462 0.0112129375 0.37174487 0.0115845045 0.4208386 -0.3572431 0.00038273822 0.14936475 -0.14254521 -0.05531039 0.33772278 -0.14213142 -0.07305367 -0.03594536 0.19257103 0.17342542 0.027802726 0.059555713 0.036774177 0.17825627 0.014685293 -0.1273692 0.21068671 0.16453189 0.2049054 0.332164 -0.27985495 -0.05096939 -0.47990966 -0.5112271 0.10737098 -0.31890953 0.22336783 0.073011704 0.45513967 -0.3838239 0.06917074 0.072122246 -0.18357591 0.40472144 0.567854 0.24626477 -0.27816656 -0.39766806 -0.06310061 0.09750418 0.33531284 0.005418682 -0.081930235 0.17656037 -0.03395304 -0.8142615 -0.052934136 0.28329435 0.222329 0.06299284 -0.23798753 -0.3667901 -0.32638317 0.12871602
106 -0.2819838 -0.24770708 -0.09639029 -0.15767486 -0.024398636 -0.0037101975 0.03082526 -0.34423998 0.09615871 -0.0631836 0.25756076 0.11548139 -0.3003587 -0.35380274 -0.06162818 0.01610085 0.86472577 -0.23237875 0.026009412 -0.09270679 -0.14713705 0.30794314 -0.25310314 0.16726978 -0.05953698 -0.16767934 -0.07101761 -0.592016 -0.06452218 0.25206953 -0.27049294 -0.15154883 0.0022052256 -0.11618709 -0.02314863 -0.22656198 0.29352105 -0.100416645 0.4119827 -0.34172243 -0.26779476 0.25726646 -0.1665282 0.4559124 -0.08360377 0.3218713 0.35871074 -0.6509613 -0.31532356 0.14902224 -0.024219967 0.15580823 -0.03605582 0.062034916 0.4216735 0.34038183 -0.15038821 0.097245514 -0.13936651 -0.06363463 -0.4246366 -0.47602597 -0.25827497 0.15220799
107 -0.05514246 -0.1107378 0.12919895 -0.6465269 -0.2091213 0.12831058 0.083385915 0.12500086 -0.04774677 0.19269761 -0.22984178 0.07259344 0.07565614 -0.13509777 0.05214033 0.10222357 -0.42096186 -0.31979984 -0.06203925 -0.17534165 0.07792869 0.22711228 0.2553122 0.09185827 0.30460182 -0.5764883 0.13206771 0.074402384 0.32251668 0.13566132 -0.27230632 -0.001637291 -0.11844358 0.118903905 0.12963554 -0.28337812 0.036951702 -0.031202963 -0.23778799 -0.05378214 0.24275488 0.06876037 0.12282333 0.120256186 0.23676085 0.3860224 -0.042528473 -0.40012217 -0.22525148 0.060382668 -0.13662684 0.24723057 -0.09289499 0.093610555 0.175758 -0.15518877 -0.017602261 0.34414572 -0.22827673 0.24138926 -0.31122133 -0.39303192 -0.21267661 0.07176239
104 -0.3960328 0.045009196 -0.22751917 -0.21774982 -0.48727077 -0.103794634 0.3578579 0.036124453 0.31400618 0.04119763 -0.08603112 -0.33934796 0.13808174 -0.38691244 0.52832586 0.06915094 -0.2348277 -0.09014978 -0.04067042 -0.09787187 -0.54084384 -0.25050992 0.116811045 0.10319707 0.26704764 -0.28457087 0.146839 0.049412448 -0.041910835 -0.4573484 0.3205044 -0.13908614 -0.13340221 -0.02485835 -0.2435471 0.23363557 0.2967782 -0.20606221 -0.41770217 0.18159369 0.012805523 0.0051280726 0.38238034 0.26097807 -0.044502493 0.3877555 -0.09735843 -0.05102419 0.110762015 -0.042783387 -0.033565752 0.07836622 0.13076292 -0.048360378 -0.10345784 -0.08801228 -0.07448936 -0.052584782 0.5716099 0.37445304 -0.14792988 -0.14307328 -0.51125103 0.4057189
105 -0.117174804 -0.29670858 0.21758953 0.19301923 -0.024533646 -0.29644024 0.2809256 0.25682265 -0.091942586 0.071214736 0.032899447 0.38804632 0.048519544 -0.6079228 -0.38153276 -0.1258934 0.73331857 -0.38074324 0.030647246 -0.07237752 -0.49384928 0.33056405 -0.2971198 0.5704531 -0.0537223 -0.52405727 -0.26587546 -0.35570297 0.13022885 0.37746203 -0.3969388 -0.3678011 -0.11346499 -0.31851786 0.121407114 -0.2315583 0.3562607 -0.5147899 0.4848424 -0.5283012 -0.093901455 0.33771646 0.03946743 0.36814514 -0.53873116 -0.13978294 0.469676 -0.49004075 -0.42842612 0.18727334 0.17605795 -0.12402 0.12088027 -0.34970367 0.49834016 0.2264281 0.20185737 0.32550314 -0.0042343647 -0.008428186 -0.68006986 -0.19306499 -0.1426708 -0.24674155
39 -0.22655419 -0.023411706 -0.08630238 -0.3512749 -0.21649547 0.011386345 0.36879396 0.21310279 0.18286873 -0.041377272 -0.14950797 -0.28962794 -0.009322742 -0.17733772 -0.082860574 -0.22901319 0.32135534 -0.28455865 -0.05243374 -0.26112103 -0.1475407 0.03638612 0.20068593 0.26494575 0.078158386 -0.14700276 -0.17635006 0.050386213 0.091226846 -0.08032324 0.18290357 0.08103766 -0.061538283 -0.16352357 0.27963892 0.09246191 0.14991087 0.07233931 -0.15142442 -0.15166907 -0.003734822 -0.07722855 0.1324767 0.2979922 0.1726379 -0.041977633 0.20794347 -0.29336157 -0.1260144 0.11558715 -0.04264583 0.08584679 -0.03546621 0.06478916 -0.3187867 -0.05989353 0.21860328 0.2607096 0.059199937 -0.070493884 -0.12326639 -0.1893079 -0.051504966 0.03142357
38 -0.30666405 -0.22608599 -0.2371981 0.07427577 -0.2614066 -0.530675 0.124451555 -0.21297446 0.14535373 -0.26972824 -0.21192656 -0.1611009 -0.5468278 -0.33690178 -0.09546839 -0.7758829 -0.039543126 0.36749583 -0.12516212 -0.31204876 -0.3199248 0.24505994 0.13511741 0.19050065 -0.43874797 0.38961762 0.3041991 -0.1258578 0.082196206 -0.104694486 0.43604317 0.15344894 -0.24425301 -0.34566137 -0.15150517 0.37413293 -0.015113949 -0.20172141 -0.26301548 -0.10553737 0.13381378 0.36636752 0.5962689 -0.2883944 -0.13868944 0.33668405 0.10093735 -0.5714335 -0.52537894 -0.22930285 -0.36409453 0.029979754 0.48003265 0.3100306 -0.80045396 -0.8866572 -0.6710988 0.18790294 0.050144855 0.11639735 -0.3135465 0.07538309 0.2683291 0.255073
33 -0.12104855 -0.3470605 0.050672285 0.8258858 0.0004755957 -0.011107192 0.300837 0.09777454 0.7984811 -0.10514949 0.120622635 -0.06875582 -0.1791774 -0.10056148 0.81185704 0.033669576 -0.7386381 -0.16379549 -0.041111663 -0.049049415 -0.13074169 0.15603684 0.41469258 0.16581747 0.06497452 -0.012789336 -0.02726821 0.29182035 0.05829526 0.29333702 -0.120014526 0.12506916 -0.24448234 0.32102114 0.109917454 -0.34758022 0.12557693 -0.3414029 -0.037648976 -0.17051151 -0.7285286 0.12948558 0.44758222 0.3159435 -0.12877338 0.46072614 0.18600225 -0.6936111 0.30133238 0.08640175 -0.047818 0.05819959 -0.06029471 0.05593494 0.10434958 0.20348842 -0.0076992083 0.38886377 -0.5854769 -0.38223 0.22565715 -0.6024803 -0.49480775 0.019814137
32 -0.6120469 0.53500766 -0.80460876 -0.1561937 -0.08366082 -0.3704898 -0.034635656 -0.15555048 -0.46383643 -0.109608985 -0.169222 0.62338406 -0.65665394 -0.27190602 -0.0078777205 -0.10017691 0.14642935 -0.33340228 -0.29042506 -0.11684429 -0.32888335 0.26611793 0.22513847 0.25390992 0.31911862 -0.12385944 0.22148535 -0.030768953 0.2533403 0.18307358 0.43816403 -0.035362437 -0.72133183 -0.12417698 -0.08734032 -0.09547392 0.10562985 0.22896871 -0.16521397 0.0037152776 -0.13465884 -0.03641688 0.46064368 0.02965112 -0.24623428 0.10074625 -0.18450902 -0.2703302 0.102185115 -0.08791756 -0.2472271 -0.22117493 0.444143 0.3419358 -0.44551143 -0.38699937 -0.26809955 0.070063956 0.10950488 0.10282117 0.18030106 -0.17794791 -0.011575283 0.10288364
31 0.2476081 -0.20911045 0.24901733 -0.7172673 -0.024959665 -0.045492288 0.09309028 0.049052637 0.09878101 0.45297542 -0.08511 -0.12932855 -0.42403153 -0.031766534 -0.33776802 -0.1833133 -0.30697113 -0.10810667 -0.040666554 -0.24389027 -0.39009124 0.126947 0.30579874 0.36917028 0.3635363 -0.46497855 0.11990803 0.26000664 0.0814847 0.07580196 -0.17817827 0.08910476 -0.11010907 0.12574965 0.3990293 -0.11551781 -0.074524626 0.1296989 -0.2544188 -0.31754404 0.051429965 0.2719835 0.22686176 0.092867866 0.10005232 0.028705698 -0.24970393 -0.44673374 -0.75096023 0.24649215 -0.11863725 0.013742178 -0.17029737 0.0519362 0.07066522 -0.14431538 -0.11257818 -0.27249393 -0.17819425 0.18190926 -0.05649213 -0.3274798 -0.20345202 0.21975087
30 -0.4614875 -0.120189354 0.07143174 -0.40684235 0.124545045 -0.28555357 -0.011268534 0.1736667 -0.20744787 -0.4536104 -0.42863056 0.29665753 0.1334994 -0.040587254 0.1436339 -0.05659339 -0.4329098 -0.08207748 -0.071744755 -0.052665986 -0.22638328 -0.42472893 0.42795292 0.082826704 0.16786604 -0.3974143 0.16791396 -0.1054565 -0.3593558 -0.41926602 0.0073604845 0.26017675 -0.21072447 -0.77936876 0.34536088 -0.022383602 0.61604595 0.63260597 0.081713855 -0.21225882 0.100292824 -0.29746056 0.25150305 0.29731247 0.008282005 0.6908863 0.31530467 -0.1347172 -0.31743163 0.2583056 -0.33777797 0.16148828 -0.147827 0.16108887 -0.1835664 -0.34341803 -0.24283683 0.42295447 -0.6065487 0.012652356 0.05073154 0.009438001 -0.0030712513 0.4764485
37 -0.25663835 -0.6186982 0.06388847 -0.28816223 0.26303917 -0.005443022 0.07211528 0.11569203 0.2989533 0.018694824 -0.17241858 0.28593612 -0.050120056 -0.5215142 -0.24037012 0.17109045 -0.1842908 -0.08373376 0.34147987 0.073610276 -0.4491278 0.37952405 0.45977572 0.28395677 -0.03520033 0.13843052 0.22909978 0.19673535 -0.121061765 -0.3947181 -0.0674094 -0.25955072 0.29195577 -0.13770112 0.480663 -0.20893686 0.10740605 -0.19522586 -0.1370128 -0.3599077 0.08493611 -0.21247323 0.09845933 0.36184108 -0.077455714 0.24764475 0.14417791 0.01463716 0.23417582 0.079924315 0.19372779 0.2191827 -0.19022594 -0.06473055 -0.26475945 -0.043167256 0.3101913 0.17187405 0.08040523 0.39130113 -0.62887317 -0.4971041 -0.13928649 0.16507682
36 -0.10990849 -0.4854249 0.015248186 0.3168456 -0.06348023 -0.60836434 0.1955577 -0.5256333 0.25528422 0.14959128 -0.34157813 0.22041176 0.0660759 0.19271177 0.30391142 -0.20227095 -0.10364195 -0.14791587 -0.12028677 0.013592545 -0.06325228 0.6011766 0.14783332 0.36484107 0.35036975 0.15760544 0.29682952 -0.6146447 -0.1171755 -0.2502178 -0.25815508 -0.39404368 -0.6061822 -0.0894722 0.08194327 -0.38158387 0.26966766 0.12061284 0.35409027 0.099957116 -0.08836333 -0.0033361053 0.32557175 0.6158312 -0.07935761 -0.0683392 -0.25947848 -0.17567104 0.10400193 0.22282204 -0.030417642 0.15888257 0.18285087 0.35598502 0.31093055 -0.37486804 -0.080954276 0.13698013 -0.43166244 0.15305291 -0.1695368 -0.3402804 -0.38445982 0.013710436
35 -0.18469866 -0.009427516 -0.4518082 0.2584305 -0.38273838 0.059966594 0.18157928 0.25365135 -0.17621657 -0.43623292 -0.05830179 -0.15933052 -0.13987906 -0.54370326 -0.2032275 0.09199461 0.32073376 -0.13732786 -0.44155362 -0.10214209 -0.03695459 0.10754719 0.1955081 0.50363874 0.30351633 0.1408822 -0.01528335 0.022433234 -0.52646095 -0.5148479 -0.012516378 -0.49830085 -0.48294526 -0.027254742 -0.031949632 -0.32327545 -0.115136616 -0.12822069 0.21579705 -0.29121223 -0.46714818 0.3705261 0.40433484 -0.14265928 0.17484982 -0.19485825 0.0066478546 -0.40207297 0.1328092 0.2704626 -0.28339523 -0.11716107 -0.1083025 0.13163166 0.089228876 0.0035236513 -0.0074135847 0.04969516 -0.08603406 0.16032577 -0.3199063 -0.37180972 -0.12951447 0.14122397
34 -0.2994363 -0.1849636 0.2893144 0.015641907 -0.09662351 0.08685495 0.2006507 -0.1667363 0.21980156 0.1783243 -0.6074162 -0.038898375 -0.2276311 -0.0035108626 0.043236405 0.47597137 0.13840643 0.050834544 -0.103366524 0.039014954 -0.46034294 -0.088720664 0.09495265 0.26854697 0.30393988 -0.09269695 0.21659547 -0.17219676 -0.081696786 0.0041389 0.62226343 -0.45502728 -0.53558016 -0.15270121 0.27135745 -0.07881646 0.08342486 -0.2631377 0.04129499 0.32601497 -0.14585514 0.6700988 0.20754173 0.5825506 -0.08495668 -0.21748403 -0.0033121007 -0.26114786 0.12161407 -0.013771852 -0.087777175 0.19643404 -0.20310804 0.2811618 0.34462014 -0.19645457 0.007546726 -0.2832698 -0.48256817 -0.013658014 -0.2599673 -0.28431422 -0.11312108 -0.1279423
438 0.003001175 -0.11899152 -0.07595148 -0.22410086 -0.20615879 -0.31016573 -0.052767683 -0.014537644 0.29341465 -0.040792864 0.042171087 0.0056734174 -0.17354962 -0.013635048 0.06647375 -0.039043415 0.43573922 -0.39672637 -0.12209726 0.16661175 -0.24196617 0.20723306 0.114505626 0.24610859 0.09990868 -0.19546448 0.18259425 -0.18796107 -0.19177677 -0.2167494 0.3164946 -0.0702468 -0.11509635 0.15757501 0.12744683 -0.4707682 0.09579463 0.07472649 -0.03720402 -0.04809577 0.26864427 -0.23081553 0.13646355 0.120515235 -0.011843418 0.39259487 0.2091754 -0.4441654 -0.18122905 -0.2359625 -0.15153381 -0.03516357 0.19462074 -0.018217977 -0.0498797 -0.12552059 -0.41832826 0.41954994 0.1416694 0.018155701 0.068425216 -0.5650967 -0.037074216 -0.002622441
439 -0.34394652 -0.24684058 -0.38102338 -0.2363537 -0.00012600624 0.13955818 0.146207 -0.053072542 0.116994694 0.0049380227 -0.19427416 -0.19746335 -0.04518746 -0.22954936 -0.06081808 -0.24128254 0.11353277 -0.07451284 0.02243515 -0.07210044 0.040074077 -0.010889593 0.09130973 0.36362654 -0.11017389 -0.24731135 -0.10776505 0.12930267 -0.006289138 -0.32946774 0.10903603 -0.118277915 -0.19445997 0.023640208 0.36139122 0.21906179 -0.040795118 -0.071220025 0.057134945 -0.21126953 0.020951608 0.02743971 0.081169076 0.2404162 0.031744555 0.22013283 -0.052877944 -0.085485 0.06570552 0.05481552 -0.06334452 -0.12632722 -0.062142923 0.12522675 -0.22539745 -0.06400482 -0.18596411 0.26667246 -0.037847817 0.19712655 0.00522887 -0.44888237 -0.30647835 0.02131975
436 -0.22747399 -0.04061609 -0.2250084 0.3742466 -0.048797376 -0.16528395 0.21844108 0.18030651 0.2755127 0.042827625 -0.16209532 -0.091650516 0.32958916 -0.034327682 0.254137 -0.2912876 -0.09936022 -0.03297635 -0.2954074 0.43463102 -0.08206514 -0.1338062 0.47084978 0.39008558 0.0521439 -0.43564284 -0.2709428 -0.26915398 0.056426834 -0.1873618 0.3928489 -0.2047971 -0.5055047 -0.78959924 -0.25977817 -0.6762719 0.13910085 -0.2913714 -0.079795696 -0.07429353 0.17778178 0.40348795 0.2577573 -0.09886413 0.44903204 0.3666995 -0.36841142 -0.24762979 0.01231737 0.0921828 0.22244027 0.5635957 0.082053445 -0.29797918 -0.25690755 -0.093313284 -0.51205397 0.16580896 0.065447815 0.29019248 0.18883827 -0.6503652 0.07387247 0.103438474
437 -0.46451712 0.011917737 0.11410256 -0.20243885 -0.27853608 0.19944991 0.14449224 0.16334198 0.17154 -0.30204898 -0.30263454 0.026315797 -0.5217372 -0.14021306 0.0018074549 0.07406491 -0.2855966 -0.23573801 -0.33701426 -0.54290456 -0.70219165 0.23137593 0.34026146 0.4970301 0.2747644 -0.51372623 -0.019369494 0.007519081 0.37890828 0.02040236 0.055178914 0.46405768 0.30543184 0.096536055 0.6284959 -0.26151282 0.056272984 0.09465378 -0.3584487 0.061717596 0.0036423954 -0.044740494 -0.06433059 -0.12657674 0.26523685 0.31405246 0.15189956 -0.47497356 -0.59445983 -0.2308113 -0.67615265 0.54342014 -0.5817835 0.29172894 -0.32762378 -0.5422534 -0.07154619 -0.20281433 -0.5853777 -0.12135767 0.027731722 0.011883396 -0.0672361 -0.09584981
434 -0.53748846 -0.49371183 -0.11493754 -0.081787124 -0.20635144 -0.63294226 0.08117772 0.41924846 0.06312144 0.11462359 -0.086828195 -0.2153729 -0.174786 -0.5241606 0.15586291 0.10669377 -0.23819792 -0.54814965 -0.27274808 -0.12734884 -0.09067978 0.29884264 0.25838584 0.061424542 0.53245145 0.18626298 -0.0867476 -0.38444844 0.18621702 0.11247223 0.03232292 0.4270643 -0.07443902 0.2866143 0.39406005 -0.5756766 0.20112367 -0.10355273 -0.059399944 0.16117366 -0.032193612 -0.38205844 0.30337912 0.113711126 -0.30782223 1.1098595 0.67416537 -0.14737263 -0.099273436 -0.3267796 -0.43411502 -0.3137469 -0.05837763 -0.04298565 0.21755911 0.26845124 -0.0036529014 -0.021102324 0.050814584 -0.4123409 -0.3092077 -0.4008932 -0.029753488 0.47419158
435 -0.019927124 -0.26357883 0.4419495 -0.08775087 -0.84092325 0.38267678 0.04385679 0.08592678 0.20768881 -0.38007098 -0.40551162 0.31838796 -0.48380303 -0.42012376 0.10353848 0.1780565 -0.16983972 -0.21479648 0.44235593 0.13257705 -0.07038984 -0.18043257 0.43388218 -0.11969952 -0.354221 0.11227785 -0.31062436 0.09320236 -0.14465015 0.019473962 -0.24984609 -0.41135964 -0.61592746 -0.801587 -0.35400596 -0.52264845 0.08467709 -0.06700108 -0.17709215 -0.21868879 0.70515865 -0.10213977 0.36626202 0.20882964 0.35659647 0.0324102 0.28715816 -0.3120296 -0.17006691 0.47571665 0.25457534 -0.11438701 -0.17643514 0.30054402 -0.09274073 0.30858484 -0.60693294 0.20397742 0.23340736 -0.070567705 -0.2710947 -0.15307721 0.24121863 0.52859163
432 -0.32669336 -0.14423706 -0.07253233 0.018588645 -0.039685845 0.12824036 0.16897562 -0.09073596 -0.01465993 -0.08134886 -0.62084824 -0.24459936 -0.11292977 -0.16097692 0.035241872 0.11087576 0.35296425 -0.62139755 -0.030333813 -0.1848903 -0.21678823 0.06785003 0.07640542 0.07782501 -0.09994815 -0.30142844 0.11101245 0.25443015 0.13109232 0.16130637 0.00070340163 -0.090150945 -0.13101509 0.016911592 0.26222816 0.21357997 -0.05748171 0.16719939 -0.1579104 -0.65568304 0.04696576 0.13310817 0.18815306 -0.001083994 0.12325819 0.08350815 -0.021393185 -0.062334273 0.16017808 -0.032171853 -0.07195821 -0.2160267 0.031894937 0.35759434 -0.282211 -0.21321483 0.015236569 0.12036784 0.17190382 0.367222 0.18157646 -0.55451006 0.06207278 -0.23760575
433 -0.04952965 -0.11110107 0.19568704 -0.11761098 -0.16673541 -0.15237477 0.009608604 0.019964557 0.17018867 0.14702508 -0.20833448 -0.2154741 -0.04763834 -0.039260868 -0.061946787 -0.22251779 0.25677755 -0.2093649 0.08218697 -0.06330118 -0.102193 0.17073888 0.12893043 0.31795567 0.1530364 -0.35625023 -0.07207588 0.08213976 -0.096461505 0.06318509 0.121531144 -0.24375083 -0.15333927 0.34133846 0.3069043 -0.12558408 -0.113369636 -0.13901147 -0.16133842 -0.11526517 -0.09046537 0.24885544 0.05508583 0.32480118 0.0765165 0.2739751 0.113239884 -0.2518499 -0.08034208 0.12481878 0.037040334 -0.04503858 0.010556689 0.19929847 -0.1560089 -0.2637936 0.19328098 0.17958905 -0.02810034 0.019672364 -0.09686137 -0.27134523 -0.25496116 0.16534342
430 0.1626391 -0.3986445 -0.16222705 -0.1769869 0.068335064 -0.42445612 0.22636189 -0.083029464 0.3167243 0.241138 -0.38432372 0.05215318 0.038476244 0.4650432 0.383891 -0.049816944 -0.07501682 0.15465146 -0.10854026 0.09410093 -0.34977248 0.5090444 0.29407728 0.64509314 0.17835625 -0.65224695 -0.14882752 0.019229477 0.18876702 0.25645694 -0.12588468 -0.24973413 -0.35264838 0.045297645 0.00128342 -0.23855688 0.18256468 0.11540138 -0.1911254 0.07519151 0.020972 0.2568247 0.59781164 0.42860794 0.20640738 -0.016344847 -0.18449351 -0.6175243 0.24123219 0.11753433 -0.19210659 0.1433521 -0.014345137 0.25674427 0.29402173 0.13643125 0.2981125 -0.13069345 -0.2644682 0.445447 -0.20839137 0.073844835 -0.15503141 0.41446397
431 0.10141545 0.43899965 -0.066686355 -0.4581849 0.035820436 0.022275867 -0.31368878 0.12256903 0.22379984 0.0014036805 -0.44904166 -0.13466857 -0.07521851 0.09017729 -0.06154375 -0.25364092 0.034171626 -0.21706755 0.17117721 -0.08543923 -0.44252902 0.08559434 0.6099539 0.06628466 -0.5666813 -0.08294815 0.2420369 0.003217345 0.01940434 -0.47854304 -0.10109682 -0.1991123 0.29706478 0.039757565 0.2759376 0.09351576 0.21106538 -0.31360543 0.08550222 -0.8986059 -0.08170175 0.19815297 0.24604112 0.49482462 -0.030306851 0.4657547 -0.016631894 -0.69242877 0.06820373 0.034065783 0.28898287 0.12187822 0.1362842 0.28656873 -0.22399238 0.069738925 -0.5313469 0.36995137 -0.063116215 -0.22495444 -0.3746675 -0.06573344 0.2561057 -0.20090482
339 -0.19102769 -0.007895664 -0.19933975 -0.097225204 0.25131628 -0.23188326 0.2954984 -0.1668395 -0.04172986 0.056071732 -0.25379792 0.13033932 -0.24100502 -0.16251524 -0.4990639 0.31723136 0.28476894 -0.39508566 0.45436054 -0.18846531 0.041253187 -0.04445696 0.43288136 0.05181193 -0.5159045 0.14482147 -0.41170523 0.1230402 0.30442 0.24954695 0.21911007 -0.04034143 -0.2674965 0.25964093 0.81893724 -0.23464392 -0.3487398 -0.2458193 -0.34757486 -0.43754128 -0.27833366 -0.095309794 0.13262555 0.3334215 -0.030535994 0.53461695 0.42249098 -0.2723588 -0.031594638 -0.17455374 -0.32593653 -0.07959688 -0.07250615 0.0724953 -0.25513792 0.19795394 0.0567311 0.532975 -0.15251793 0.24723944 0.04856918 -0.33547017 -0.25136924 0.27210623
338 0.008319203 -0.24842206 -0.06402132 -0.26896173 -0.31988186 0.16332284 0.24308807 0.076573044 0.029202104 0.20929164 -0.38356158 0.053814564 0.10000409 -0.12901616 0.042970777 0.02373121 0.22512825 -0.10240752 0.123733856 0.076903515 -0.11253035 -0.11894119 0.26070595 0.18160354 -0.053150617 -0.17638342 0.014194098 -0.06775532 -0.029698368 -0.21370701 0.16583145 0.019079411 -0.10362486 -0.23932843 0.41966543 0.29496267 0.0062294295 0.06964079 -0.0176507 -0.08131592 -0.097906105 -0.10209589 0.3061377 0.33550674 -0.10255139 0.14833249 0.19124497 -0.20792316 0.17944226 0.21343933 -0.016409013 0.08379417 -0.087483294 -0.05786499 0.010339858 0.05940774 -0.019868413 0.45879552 0.12194639 0.061766982 -0.13558805 -0.57993466 -0.10430819 0.07528998
335 -0.014904394 -0.07772758 -0.1521845 -0.31756204 -0.3104409 0.23658535 0.27973437 0.095288776 -0.0860213 0.1599433 -0.40805203 0.09386932 0.08979844 -0.3534811 -0.068035975 -0.29520288 -0.2059084 -0.121770546 0.009642979 -0.33288282 0.10862509 0.026696455 0.17044586 0.61506265 0.21593389 -0.076707885 -0.17883876 -0.11176255 0.1499327 -0.07027573 0.06673359 -0.4231546 -0.23191737 0.13062967 0.5097074 0.32177895 0.18091018 -0.23426437 0.1661233 -0.38432693 0.2516042 -0.010482497 -0.057742566 0.65599805 -0.12655468 0.19070978 0.17208833 -0.1253851 -0.040981572 0.014319932 -0.053214148 -0.14082763 0.58831483 -0.07517581 0.012473378 0.11038055 -0.036471 -0.0026442728 -0.21898568 -0.61064255 -0.09347462 -0.2366228 -0.13723215 -0.15515056
334 0.23164828 -0.22056703 0.33394092 -0.556267 -0.0013076615 -0.09470955 -0.15292433 0.32325143 0.27119535 0.39167923 -0.29007164 0.00048225047 -0.25603756 -0.031718086 0.08364583 -0.15290816 0.063010775 -0.3428376 -0.03532966 -0.06371026 -0.022418836 0.031083893 0.48397854 0.13180499 0.17795604 -0.49677408 0.045655888 -0.14517641 -0.18668325 -0.083053194 -0.054328747 -0.10271684 -0.3705671 0.032034352 0.0044908826 -0.005849414 -0.2107917 0.19083253 0.06626687 -0.05129924 -0.09150126 -0.047555774 0.26040986 0.46023852 -0.235498 0.25181982 -0.11817871 -0.39152253 -0.08486415 0.52713495 -0.26796526 0.031186558 0.17874327 -0.016419174 -0.04290955 0.07760489 0.10631446 0.019697662 -0.04556928 0.17211978 -0.046034668 -0.2355332 -0.050528996 0.30332866
337 -0.3436445 -0.25094184 -0.21386017 -0.08458547 -0.31139767 0.026505105 -0.062484995 -0.2501793 0.10553017 0.31917244 -0.4072403 -0.54235965 -0.019824466 0.022566093 -0.08003619 0.18715693 0.21950167 -0.15331307 -0.50330484 -0.23898593 -0.31397146 0.36647084 0.25760219 0.7669392 0.111256026 0.5545398 -0.11307187 0.13256006 0.035797972 0.6437121 0.24673848 -0.55999076 0.08779287 -0.1652791 -0.19629437 -0.34792113 0.32868955 0.0899103 0.6698659 0.0023700148 -0.28125623 0.12661892 0.2928088 -0.019973272 0.03910072 0.5955717 0.32925212 -0.48504397 0.23805198 0.22591741 0.39620155 0.15154956 0.11100633 0.13807563 0.05867693 -0.09001633 -0.12070925 0.1722752 -0.1718994 0.43105066 0.29561767 0.033444762 -0.46668902 0.22463639
336 -0.23356792 -0.7952367 0.1236649 0.102219224 -0.029032536 -0.7707194 0.09764563 -0.670181 0.32517233 0.26245952 -0.47461304 0.33528653 0.37740928 0.25462672 0.39299342 -0.14395402 0.11038706 -0.33979586 -0.08639116 -0.018732019 -0.075580336 0.53834057 -0.049166232 0.5088528 0.2944115 -0.012017997 0.29958794 -0.65335137 -0.049879342 -0.554973 -0.1162954 -0.71916604 -0.7725748 -0.1648347 0.34087795 -0.24175756 0.3048135 -0.028460205 0.41881418 0.1596977 0.51886266 0.0831051 0.3437244 0.43471658 -0.058610473 -0.21538544 -0.26438275 -0.42498899 0.10324499 -0.09698701 -0.119703755 0.42963666 0.43200532 0.48265848 0.7233914 -0.2661219 -0.08340808 0.2271391 -0.112489335 0.0854516 -0.037824262 -0.42343017 -0.34984055 -0.19498295
331 -0.12941766 -0.4896842 -0.04286833 0.6365124 -0.09873271 0.060594875 0.22647323 0.24111459 0.39715576 -0.02807235 0.20771515 0.08913939 -0.09804679 -0.32443124 0.39826602 -0.17049232 -0.41669303 -0.17289418 0.19416128 -0.04380578 -0.26902556 0.32499498 0.14051032 -0.026977208 0.15077037 0.14936073 0.005379337 0.28124347 0.4379559 -0.11809199 -0.07373708 0.076800376 -0.3646138 0.1444954 0.030612372 -0.12226618 0.1210829 0.14148925 -0.36919925 -0.23818348 -0.41256428 0.0632914 0.29667673 0.29126412 -0.02542836 0.3561872 0.30463254 -0.397667 0.18176107 0.33301947 -0.1935847 -0.35819468 -0.019922595 -0.14000188 0.086151175 -0.08154629 -0.11551237 0.23403779 -0.4356525 -0.012895307 -0.07754271 -0.44145948 -0.4394335 -0.20040503
330 -0.32958812 -0.40047997 -0.032893613 -0.24876954 -0.30011523 0.36062336 -0.18479902 0.00038401352 0.3490875 0.01822323 0.030700779 0.14043987 -0.31819454 -0.027133683 -0.08816989 0.08615281 0.3646143 -0.0074404413 -0.20029584 -0.20423764 -0.014425775 0.16366775 -0.33163896 0.0043162387 -0.05721285 0.10652354 0.106353916 -0.552403 -0.028820522 0.40552872 0.17025505 -0.15124235 0.023030065 -0.0052984403 0.10830504 -0.2609074 0.43744063 -0.047145635 0.23217726 -0.3211378 -0.36141095 0.3937122 -0.05561079 0.43099013 0.2816735 0.204085 0.4994095 -0.6300768 -0.32652208 -0.00776836 -0.20289224 0.1465456 0.07692152 -0.14694723 0.13264304 0.19930445 -0.32377103 0.20724997 -0.32704863 0.05712763 -0.25310826 -0.3438265 -0.07975487 0.19942623
333 -0.52096164 -0.30394426 -0.16077432 -0.32552505 0.02303375 0.048234403 0.092243396 0.2172856 -0.12221654 0.045157976 -0.1307647 -0.18786539 -0.025531594 -0.35078365 0.056639876 -0.10845315 0.055325065 -0.26783076 0.08091751 0.19874886 -0.14880054 0.47984457 0.18125044 -0.03556945 0.07045686 -0.19430068 -0.053941965 -0.069441445 0.30056536 -0.014469028 -0.0031237793 -0.22688065 -0.32928026 -0.42852333 0.08942302 -0.10080476 -0.27603805 -0.07784018 -0.0069818893 -0.013241561 -0.21563295 -0.1142023 0.26527554 0.14337756 -0.24671194 0.3861757 0.23472317 -0.16660881 0.013027062 0.17743762 -0.3638603 -0.09263723 0.23244068 0.57000613 -0.39537174 -0.19253998 -0.011881707 0.09675581 -0.3176548 0.020500265 -0.19601418 -0.11821397 0.032467496 0.21252976
332 -0.1234851 -0.12592645 -0.14886932 0.40447825 -0.60007703 -0.11881464 -0.074121565 -0.2363342 0.55265296 0.24097589 -0.0743906 -0.34150887 -0.16565591 -0.26815188 0.35525364 0.10320761 -0.6514134 -0.04358354 -0.24033275 -0.32771653 -0.24312544 0.11657357 0.2720397 0.29802716 0.16909459 0.5782354 -0.13609849 0.224353 0.15684202 0.06997907 -0.26181814 -0.3453325 -0.047750093 0.20618224 0.09441636 -0.019647982 0.050568085 -0.51497597 0.07583387 -0.14152701 -0.63600206 0.32868496 0.3465869 0.025840078 -0.21435855 0.49645296 0.31730124 -0.49726033 0.06565953 -0.04454951 -0.15349866 0.16841711 0.15032293 -0.02231275 -0.063826576 0.14167091 -0.26512602 -0.062872864 -0.506815 -0.068417184 0.096841365 -0.5291797 -0.24017417 0.26810378
345 -0.24496944 -0.13503443 0.4108923 0.2548388 -0.30020332 -0.34811872 0.16870625 -0.09878698 0.45678058 -0.0946104 -0.7818545 -0.2084351 -0.12089648 -0.09548572 0.53753436 0.38472793 -0.28790456 -0.6287159 0.6909421 -0.3652864 -0.61526865 -0.03068451 0.27274373 0.269125 0.31520408 0.08678802 -0.27438435 0.19171643 0.25722507 -0.4350192 0.13542734 -0.008335932 -0.013931873 0.3579003 0.00378246 -0.4651211 -0.027588464 -0.02755801 -0.5365202 0.14271145 -0.37392974 0.06656141 0.12833671 -0.18692748 0.3095547 0.53265166 0.5468262 -0.6652982 -0.0630543 0.021857597 -0.44470462 -0.10004394 0.4387357 -0.45117232 0.22762953 -0.05188251 0.2876843 -0.18042175 -0.24493149 -0.15162233 0.41110948 -0.28734532 -1.0030525 0.30837277
6 -0.09855307 -0.030957937 -0.22603428 0.27884033 0.18135332 0.124191724 -0.04128362 -0.34106252 0.27404284 0.098353215 0.17504033 0.065640286 -0.45999026 -0.28899336 0.2899344 0.10956789 -0.25996906 -0.16877805 -0.25218675 -0.11298434 -0.36691135 0.13082123 -0.061210137 -0.030161109 0.16055436 -0.021708634 -0.08018104 0.008130002 -0.22327363 -0.06489691 -0.045899563 -0.04143139 -0.45170793 -0.20744033 0.083864875 -0.027963463 0.001225037 -0.053532716 0.0022772127 -0.71462256 -0.08159764 0.08853282 0.3637762 0.03233955 0.12971446 0.120419264 0.33892125 -0.518059 0.013204825 0.37755656 0.14938857 0.0671133 -0.3114089 -0.017328039 -0.12154353 -0.3858851 -0.15687892 0.23743106 -0.19063069 0.002062234 0.15670536 -0.09338086 -0.38289967 0.49286428
99 -0.20436244 -0.0748818 -0.010838312 -0.007900371 -0.1846825 0.10501071 0.2823992 0.00767138 0.057241406 0.032818824 -0.19955413 0.026396947 -0.1567034 -0.23392761 0.16702776 -0.2208973 0.20314227 -0.123093225 -0.19174804 -0.060679786 -0.15641807 -0.02115514 0.32089496 0.17552167 -0.15724736 -0.111960664 -0.14345358 -0.12074286 0.08268897 0.18790399 0.16256396 -0.04247036 -0.061968237 -0.031897962 0.36039138 0.06822641 0.1339224 0.10238884 -0.21806154 -0.17278351 0.05143484 0.23582114 0.20360214 0.253874 -0.0024184869 -0.020664455 0.3955605 -0.19174026 -0.08213661 0.24546774 -0.2425513 -0.04141616 -0.02363427 0.29809925 -0.09391896 -0.014014937 0.06788726 0.40607727 -0.054996274 -0.012164897 -0.19226974 -0.15467754 -0.1409222 -0.028245913
98 -0.22448319 0.024179814 0.24545088 -0.21153162 -0.0023392849 0.2593231 -0.07437576 0.07838612 0.018914929 -0.05856383 -0.14125434 -0.3204731 -0.5314678 -0.37845916 -0.04440618 -0.021733794 -0.029984646 0.06677696 -0.14274995 -0.040143915 -0.3516428 -0.04904117 0.23374994 0.69821054 0.21873966 -0.50255173 0.053932313 0.07993857 0.04757253 -0.24712087 0.012277564 -0.582427 -0.6306836 -0.13771269 -0.13292994 0.17709823 0.11951516 -0.37855062 -0.1848673 -0.018596992 -0.016345143 0.11208879 0.13737467 -0.03002406 0.29018047 -0.15085468 -0.1719829 -0.04908056 0.12445709 -0.31334254 0.03756859 0.24588704 0.023253556 -0.14391258 0.035248876 -0.335682 -0.52728456 -0.11245283 -0.07275534 0.21555984 -0.01715527 -0.5202263 0.17781167 0.19456816
91 0.0353073 -0.32285586 0.3203983 -0.13639534 0.25063163 -0.087886706 0.52244097 -0.07427011 0.27243167 -0.38572803 -0.6146743 -0.27600953 -0.23260818 -0.25316903 0.068912424 -0.47719863 0.18363652 -0.14963105 -0.037588086 -0.66301346 -0.16032553 -0.33527976 0.3559931 -0.07785504 -0.16230468 -0.53823817 -0.2846746 -0.099630184 -0.27045688 0.101809785 0.09737796 -0.48097402 0.16535532 -0.02733114 0.17970142 0.055324454 -0.3823569 -0.27061477 0.024206026 -0.23187755 -0.07593641 0.5053362 0.11611659 0.15975471 -0.010415542 -0.08095896 0.14974502 -0.31918123 0.25722668 -0.20983839 -0.2992865 -0.08697772 -0.049998406 0.015130809 0.02235717 -0.07310137 -0.24371277 0.18856539 0.22098641 0.13808563 -0.168478 0.080463804 -0.19264896 0.029818203
90 -0.1326151 -0.054801714 0.33225358 -0.13428174 -0.089192934 0.17507039 0.21133639 0.12444499 -0.09123524 -0.3383647 -0.24385302 -0.079811096 0.008696451 -0.3037757 -0.20206335 0.12148292 0.32963273 -0.38891378 0.25068504 0.08480406 0.124338515 -0.017309511 0.03430301 0.4294578 -0.49295357 -0.1635183 -0.21139441 0.11046583 0.53126085 0.19970103 0.2616809 0.60431767 -0.07030937 0.090099365 0.032601513 0.17848769 0.36671567 0.1426646 0.18568347 -0.43362984 -0.36467475 -0.21635911 -0.1094223 0.7219994 0.38732266 -0.15022357 0.23477983 -0.421902 -0.10701514 -0.25538063 0.1756395 0.039804135 0.4365312 0.38582498 0.20077705 -0.04000685 -0.08560259 0.13039257 -0.16416056 0.19298697 0.33564126 -0.67685187 -0.5222281 0.38835976
93 -0.3901756 0.40061024 0.016883839 -0.20652457 -0.3395039 0.13702883 -0.25720736 0.045049746 -0.13015375 -0.3265462 0.36956307 0.3426985 0.5534265 0.085795455 -0.09847612 0.19872385 -0.052249953 -0.51143104 0.014446476 -0.5005209 0.4094832 -0.12562883 0.6122756 -0.34522194 -0.17621759 -0.5222455 -0.029513333 0.015584933 0.4949521 -0.10194934 0.19101186 -0.67276716 -0.34375256 -0.06964695 0.31438434 -0.102142796 -0.045573212 -0.071064495 -0.054709986 -0.24916422 0.101178475 0.16859365 -0.040042035 0.6209034 0.29414883 0.1339772 -0.52027225 -0.3079916 0.24187756 0.040696356 -0.21262062 0.50887305 -0.21754514 0.8216943 -0.008199811 -0.26915437 -0.15375651 0.6981857 -0.5880926 0.6211213 -0.28187764 -0.82521254 -0.2519166 0.3749035
92 -0.4561845 0.18969917 0.28935206 0.030894188 -0.032330867 0.12672858 0.0038706278 -0.21198978 -0.015800657 0.25007355 -0.1339048 -0.20833436 -0.4699644 -0.36810935 0.31040135 0.2615768 -0.16924542 0.10515649 -0.38610312 -0.22732872 -0.21719024 -0.09166533 0.2360763 0.26090655 0.04202656 -0.016485108 0.08836119 -0.09497932 0.04285005 0.25595558 0.14865312 -0.4641002 -0.5186262 0.0038872429 0.058529302 0.19054623 0.03370442 -0.33014983 -0.17581302 -0.21752253 -0.009126521 -0.10038593 0.14860189 0.44705003 0.027391084 0.22242446 0.025955876 -0.12338821 0.036650635 0.098555304 0.074690744 -0.20118421 -0.078423075 -0.10666449 0.07437945 -0.0011436847 -0.59597594 -0.034819625 0.050923795 0.36566225 0.03127354 -0.21778165 0.16167217 0.2639308
95 -0.06282181 -0.32323304 -0.08760045 0.67899734 0.057700798 -0.038312785 -0.05098263 -0.008235004 0.22742006 -0.09437901 0.17907567 -0.05926625 -0.089612074 -0.41067758 0.4165434 -0.083553515 -0.44600743 -0.25637743 0.09429431 -0.35090333 -0.26179373 0.007727302 0.21167259 0.053202305 -0.009278585 0.15645096 0.15079823 0.15114693 0.18269211 0.13037927 -0.1523039 0.05288793 -0.1250454 0.26131478 0.24797666 -0.10426488 -0.01395725 -0.025544023 0.030578429 -0.15057507 -0.673892 0.07106821 0.38643432 0.29675153 0.15067688 0.30457506 0.50866413 -0.51356626 0.01957723 0.2249272 -0.32418054 0.09847737 -0.076584324 0.06987464 -0.097659856 -0.059366833 -0.10863713 0.14190947 -0.36919838 -0.080447316 0.219983 -0.47852826 -0.61743355 0.19878316
94 -0.25039205 0.29142293 -0.13819762 -0.28409043 -0.17361729 0.3165583 -0.18997715 -0.3957829 0.47795174 0.13565281 -0.072586335 -0.21334477 -0.0929904 -0.44302303 -0.0911054 0.24879101 -0.27807415 0.17158 -0.4842238 -0.2212898 -0.2777058 0.5469606 -0.2315597 0.3492008 0.1984052 0.60480434 -0.15569615 0.21864758 0.1746744 0.2586425 0.21951988 -0.35163385 -0.31805387 -0.21271 0.14558962 -0.084388465 0.13169815 -0.3028116 -0.054465327 -0.17660701 -0.16231465 -0.045953803 0.31182805 0.1438287 0.38194165 0.65404755 0.28408462 -0.30800372 0.32564038 -0.019994967 -0.1392882 -0.08167109 -0.023613324 -0.5171402 -0.17003977 0.009139886 -0.4808376 0.22805771 -0.21618773 -0.01373154 0.15204147 -0.47467893 -0.22147374 0.0665257
97 -0.11390975 0.27936324 -0.05953073 -0.437574 -0.018044734 -0.029773187 -0.043092318 -0.06210466 0.37790573 0.21815902 -0.29854983 0.40781698 -0.34697297 -0.8125777 0.2882092 0.060960263 -0.6004255 -0.060889285 0.12940596 -0.32806996 -0.4359487 0.60416025 0.025393972 0.098331325 0.08940157 -0.25964883 0.09160274 0.022630233 0.27705473 0.4108536 0.08583765 -0.09950327 0.091022514 0.27117226 0.10617248 -0.11025873 -0.007917518 0.06151556 0.1737902 0.13200007 -0.20541342 0.23791054 0.096853584 0.23170647 0.42364523 -0.2623403 0.40116936 -0.5951156 -0.123149164 0.7923658 0.26181582 -0.2325288 0.34725478 0.3034196 -0.017556524 0.5839258 -0.33910882 0.26805234 0.07174946 0.0436491 -0.018006051 -0.32371527 -0.22634618 -0.11519865
96 0.09299319 -0.071059056 -0.024888702 0.09779155 0.10861763 -0.07209911 -0.14864497 0.1669785 0.12498094 0.009403289 -0.058093254 0.124832734 -0.064520724 -0.14966913 0.0433499 -0.20231067 0.34392157 -0.40792662 0.038696405 0.041049436 -0.27433228 -0.15140852 0.2762473 0.11931263 0.34552118 -0.342537 0.07088057 -0.15793577 -0.23080091 -0.3596758 0.14894865 0.12974767 -0.3025049 0.051124837 0.3366158 -0.13897188 0.041943118 -0.25577468 -0.034486298 -0.042915687 0.28614244 -0.28954878 0.23070599 0.22617675 -0.041760135 0.23651145 -0.110964276 -0.504731 -0.053120174 0.01373598 -0.3532247 -0.018314771 0.05701792 -0.39147902 -0.20969905 0.0696113 -0.40831405 0.6086557 0.14666557 0.30286282 0.16790387 -0.608912 -0.01674601 -0.18059024
153 -0.071741074 -0.10237879 -0.095339015 -0.22327273 -0.11931713 0.15698405 0.1900629 0.23888317 -0.09786814 -0.0066599464 -0.39273703 0.033030096 -0.121340215 -0.2762659 0.034258045 -0.30651423 0.08946593 -0.1679117 -0.08717208 -0.22096734 -0.12356201 0.021344254 -0.07652189 -0.028000817 -0.053269085 -0.08212284 -0.20700207 0.0892699 -0.026631804 -0.11613784 0.063120015 -0.09777345 -0.15590978 0.045980312 0.21157582 0.12908474 -0.020632682 0.03703664 -0.0012706355 -0.06559902 -0.10758384 0.035152543 0.15207632 0.29082808 0.22087114 0.06206207 0.23610312 -0.22130187 -0.058333136 0.1643561 -0.037979767 0.14022447 -0.2562638 0.4221444 -0.00027641607 0.17571566 -0.106167324 0.38186172 0.052356154 0.1911491 -0.147152 -0.38637924 -0.20980608 -0.067307465
559 -0.2336664 -0.5076568 0.4322461 0.056978226 -0.53277564 0.1391189 0.09855875 -0.26473063 0.19839647 0.12812641 -0.09495188 -0.034610167 -0.52503103 -0.34849715 0.10197534 0.21896398 0.1129627 0.023941422 0.2743785 0.38497448 0.061794274 -0.14645463 0.6363113 -0.008897635 0.18335459 0.064969115 -0.026591819 -0.07182201 -0.20308101 -0.14352973 0.016460376 -0.29173213 -0.62203085 -0.20366542 -0.18554325 -0.16732845 -0.08129241 0.072617605 -0.33790463 -0.24978316 0.5296966 0.021782117 0.26818582 0.5422028 0.32897276 0.1653236 0.028758438 -0.25504386 -0.10482521 -0.03027412 0.4571581 0.21254675 -0.008769626 0.1995808 -0.09831176 0.10457342 -0.48553258 0.2459187 -0.08407995 0.022476606 -0.0007249657 -0.14152741 0.21551155 0.01654513
558 0.035186928 -0.17650694 -0.16072144 0.030526543 0.12404161 -0.34450027 0.4849985 0.32655045 0.2590037 0.027896287 -0.6287381 -0.10186139 -0.04761337 -0.08200585 0.15281281 0.05490583 -0.1706973 -0.29110456 -0.060971558 0.18831044 -0.0779399 0.53379434 0.23903836 0.52139276 0.18504694 -0.18574855 -0.016939817 0.19133891 0.15768777 0.573551 0.24409595 -0.19136377 0.40253663 -0.10700701 0.0734478 -0.34533292 0.2992149 0.02923968 -0.040016886 0.012451331 -0.06354562 0.24120304 0.54951054 0.5349859 0.05287657 0.29076445 -0.18805507 -0.371091 0.1148193 0.24964285 -0.026052825 0.3413879 -0.018880833 0.22244 0.07490949 0.24827707 0.016700577 0.14664228 0.08004486 0.6543195 0.15447858 0.11889676 -0.17750001 0.0346255
555 -0.6199076 -0.13789783 -0.33058634 0.03183892 -0.16802461 -0.17021602 0.21743676 0.061024174 0.07225525 -0.075157225 -0.112974934 0.08321098 -0.31456536 0.34890732 0.43651715 0.34296787 0.132212 -0.06631674 -0.1805812 0.22350585 -0.07129435 -0.15528654 0.21196762 -0.39545554 0.40102407 -0.1209432 -0.13552117 -0.114599 0.34128228 -0.024934055 0.37310123 0.048521996 -0.15925908 -0.15286575 0.08942085 -0.24905534 0.033228822 -0.27813902 -0.30696446 -0.58728325 -0.17212991 0.25285164 0.52346486 0.25565574 0.39021498 0.18422882 0.12162418 -0.19130187 -0.38995138 0.19250734 0.34738362 0.2261513 0.1181676 -0.27179766 -0.16416389 -0.32921532 -0.18806776 0.27691627 0.48592478 0.5447938 -0.43647182 -0.2912272 -0.09344574 -0.30602783
554 0.26035112 -0.12183232 0.42180738 0.4878999 -0.3433137 0.3682424 0.25624472 -0.18546832 0.52259177 -0.20192981 -0.3409493 -0.05758558 -0.057709176 -0.12739658 -0.24091095 -0.18661787 0.052502897 -0.004115717 -0.086411655 0.15445146 -0.6042218 -0.5246668 0.26873764 0.370749 0.32933798 -0.31852278 -0.13737604 0.22734514 0.3940415 0.14953575 0.33450392 -0.21294534 -0.11745471 -0.61889523 -0.2763735 0.47506827 -0.21817322 0.01441549 -0.22416075 -0.19089848 -0.083625354 0.11630321 0.48266265 0.48164055 0.4883597 0.124105334 -0.34209397 -0.17713374 -0.061098255 -0.27435067 0.30695447 0.2009212 -0.14421044 -0.063022844 -0.21981877 -0.86926985 -0.1905481 0.35341817 -0.4618802 -0.39716277 -0.30134836 -0.20504546 -0.09951538 0.26264274
557 -0.08962337 0.005688003 0.22754104 -0.49872983 -0.20791651 -0.2078127 0.116688415 0.41479355 0.2628713 0.18102741 0.12399376 -0.043476295 -0.26574212 -0.36931795 -0.042619616 -0.40423447 0.19932242 -0.4735787 0.20692022 -0.106114365 -0.19140399 0.017309599 -0.11797106 0.25299513 -0.123189144 -0.09450573 0.06738077 -0.008329018 0.049983475 -0.25898236 -0.26707858 0.37740996 -0.20264398 -0.009009677 0.16244818 0.109027885 -0.15572675 -0.29762638 0.0265362 -0.30549327 -0.21741435 0.14452296 0.02840659 0.30027813 0.1897644 0.027402839 0.06159571 -0.124681436 -0.09057239 0.12687917 -0.3347301 0.1580096 0.10783809 -0.021457454 -0.13238165 -0.005082224 0.25214687 0.38325667 0.22213352 -0.12430326 -0.06573505 -0.6871281 -0.046643034 0.101581104
556 -0.08632365 -0.2292873 0.08838419 -0.109623656 -0.21713072 -0.025066538 0.3043751 0.19881791 0.21521619 0.036228504 -0.33883554 -0.052393045 -0.008166256 -0.110743314 0.2471564 -0.05202981 0.05818021 -0.07893208 0.03929189 -0.2654139 -0.06467301 -0.1285548 0.12435857 0.21634674 0.041426767 -0.22726552 -0.19831108 0.09690561 -0.13286783 -0.10251205 0.13094956 -0.16313517 -0.12749194 0.018311014 0.11255095 -0.17937006 -0.12799323 -0.08630209 -0.18566026 -0.24878316 0.05655518 0.009555506 -0.018423598 0.19962662 0.1833097 0.0899236 0.06436641 -0.2670852 -0.13683425 0.17944135 -0.019171838 0.16901504 -0.00053961057 0.20852323 -0.09404016 -0.06889658 -0.031977896 0.33364162 0.060438346 -0.005780184 -0.2954703 -0.3655205 0.053953823 -0.05702274
551 -0.5589788 -0.2618735 -0.2514867 -0.08751346 -0.3220067 0.6658198 0.20089194 -0.036958657 0.3293609 -0.47430965 0.019125657 0.026234351 -0.71383107 -0.49335843 -0.09827908 0.012804077 -0.05242317 -0.17998421 -0.48331985 -0.5595856 -0.16746926 -0.017580343 0.15387061 0.6075475 0.09359983 -0.8830095 -0.108613186 -0.5048588 0.19763453 0.027451862 0.2601541 0.37805992 0.0069213775 0.022894295 0.6462528 -0.066030614 0.38790497 0.18420744 -0.27564162 0.15417604 0.28025606 -0.16800217 0.21655138 -0.005222017 0.24167736 0.07560106 -0.22562137 -0.40446544 -0.44521272 -0.17116244 -0.39160672 0.26284286 -0.59020245 0.102912605 -0.38643706 -0.23497659 -0.26775256 -0.00603076 -0.23510942 -0.18852216 -0.019400205 0.031238202 -0.058215592 -0.31331196
550 -0.6820027 0.15221217 0.54560566 -0.15045609 0.38261193 -0.022153735 -0.033135127 0.40374187 -0.022029668 0.2885364 -0.17585063 -0.0770225 0.0068523437 -0.78768563 0.082215585 -0.36012635 0.2529291 -0.19462639 0.37004244 -0.2808071 -0.10155182 0.58212256 0.1677368 0.4170138 -0.16424978 -0.37365103 0.060469683 -0.13078585 0.48716897 -0.050076738 0.09794543 -0.51500034 -0.25321764 0.28728038 0.11475035 -0.27269492 0.25409034 0.10324417 -0.21179026 0.38346836 -0.25586453 0.23531123 0.45663556 0.30374408 0.32341003 -0.13163552 0.17954792 -0.12455927 -0.1752527 0.45540527 -0.13924633 -0.28550616 0.21063794 0.4493733 -0.0908632 -0.42903435 -0.12135893 0.18266636 -0.029362686 -0.63423896 -0.21768932 0.14898427 0.16276963 0.55281126
553 -0.1099315 -0.02831859 0.039856337 -0.034344863 -0.2654837 0.1434551 0.1898246 -0.014783734 -0.01667443 0.01930282 -0.2916013 -0.01790937 -0.042824797 -0.10296053 0.08706336 -0.16633298 0.05822886 -0.19821094 -0.0819819 -0.13013387 -0.044788852 0.0680444 0.0577063 0.04859881 0.03999286 -0.23312113 -0.21177055 -0.031556338 -0.0125979865 -0.18697968 0.2052156 -0.16008331 -0.0047606104 0.042465832 0.25042987 -0.008862409 -0.07745767 -0.09748412 -0.1890173 -0.24415183 -0.01474276 -0.15158695 0.13172244 0.24392366 0.40034887 0.10254166 0.19105873 -0.22903429 0.046882816 0.01864095 -0.10395882 -0.06232978 -0.12935805 0.25462908 -0.008323224 -0.096590035 -0.075497195 0.57141995 0.23210731 0.07455776 -0.23327011 -0.38236126 -0.21913011 -0.06378955
552 -0.19210644 -0.08581779 -0.24594352 0.17487042 -0.30500454 -0.014073186 0.51814145 -0.4030253 0.1754045 -0.16443357 -0.19513972 0.14506681 0.076537706 -0.4059467 -0.13334058 -0.6108018 -0.0026714795 0.08241153 -0.14206935 0.14023906 -0.32375383 0.128256 0.038332373 0.20462643 -0.10218484 0.045969363 0.089821324 0.01537022 0.050493397 0.2680259 0.25264016 0.26960343 -0.26181495 -0.16338328 -0.3090363 0.32525435 0.0656098 0.00809029 -0.029696759 0.064019375 0.023639414 0.27580655 0.5764933 -0.16255017 -0.17854151 0.5907704 0.069493204 -0.16831866 -0.40936166 0.16602078 0.23595493 0.21060045 0.11534186 0.3477838 -0.5370906 -0.17540427 -0.37364697 0.25250185 -0.26393113 -0.06851902 -0.43105713 -0.54398996 -0.22223085 0.042206667
238 -0.102143094 -0.33212048 -0.22065307 -0.20060626 -0.25020662 -0.024017131 -0.2910759 -0.44594985 0.3287401 0.069180086 0.017310483 0.37135345 -0.3011774 0.02035619 0.04236429 -0.1851528 0.4456013 -0.14840506 -0.40250236 -0.3888255 -0.18150637 0.5935405 0.17011848 0.06748802 0.1708218 -0.09304523 -0.09234546 -0.21739155 0.21449934 -0.057154994 0.28988203 0.0069250623 -0.06801322 0.05515636 0.011409908 -0.5307635 0.068487205 -0.19243959 0.34370255 -0.08817872 0.1675278 -0.060415953 0.21701144 0.3850195 -0.073567346 0.5861251 0.3458894 -0.26960522 -0.054818314 -0.42065972 -0.038600355 -0.6159753 -0.14826266 0.010270491 0.37713474 -0.1651875 -0.5190577 0.0124258045 -0.20476618 0.225607 -0.20414819 -0.2954813 -0.15086783 0.15997387
239 -0.379687 0.10206421 0.06601488 0.12653905 -0.47158545 0.08117744 -0.007581013 -0.008092098 -0.35301188 0.27637017 -0.5162451 -0.30634722 0.14072621 -0.30935952 -0.011582371 -0.57038647 0.040616255 0.089889415 -0.34940687 -0.13941272 0.30284035 0.22746335 0.3407445 0.16698171 -0.09743963 0.10534504 -0.25066745 -0.0176368 0.0149046425 0.012195468 0.07042577 -0.113944665 -0.20303108 0.1757595 0.5761125 0.15799673 0.49448234 -0.047190446 0.0526597 -0.59640795 0.118699856 0.29411426 0.0563766 0.42459184 0.18803677 0.27955568 0.040107656 -0.1947963 0.0040216604 -0.13079493 -0.17620088 0.10897559 0.29718637 0.16104273 0.21684667 0.27764055 -0.002896547 0.15149644 -0.07304583 -0.1043 -0.3139001 -0.22063616 -0.5079418 0.103588834
234 -0.07677868 -0.21532084 -0.09790375 -0.08701376 -0.18739004 -0.32901525 0.3085414 0.17426404 -0.31758153 0.053576708 0.04822226 -0.06371401 -0.4790528 -0.5390675 0.20189719 0.094984025 0.27614024 -0.1701209 0.011424235 -0.25535044 -0.02736843 -0.30415326 0.27403024 0.23940393 0.121623345 -0.21461257 -0.30233073 0.0690034 0.20864767 0.268943 -0.07295426 -0.37954366 -0.12502141 -0.47080684 -0.03832048 0.0529261 0.2834503 -0.16845563 0.17720522 -0.47335947 -0.09403123 0.27825043 0.60442114 -0.13301869 -0.036538277 -0.14328852 0.41619828 -0.15565416 -0.060019936 -0.113553524 0.28325638 -0.2503299 -0.10381234 0.3465362 0.51975363 -0.10721314 -0.19808258 0.0016510681 0.37479603 0.030692337 -0.56991935 -0.73532575 0.29983845 -0.25099763
